{"learner":{"attributes":{"best_iteration":"197","best_score":"0.5536113003466465","scikit_learn":"{\"_estimator_type\": \"classifier\"}"},"feature_names":[],"feature_types":[],"gradient_booster":{"model":{"gbtree_model_param":{"num_parallel_tree":"1","num_trees":"200"},"iteration_indptr":[0,1,2,3,4,5,6,7,8,9,10,11,12,13,14,15,16,17,18,19,20,21,22,23,24,25,26,27,28,29,30,31,32,33,34,35,36,37,38,39,40,41,42,43,44,45,46,47,48,49,50,51,52,53,54,55,56,57,58,59,60,61,62,63,64,65,66,67,68,69,70,71,72,73,74,75,76,77,78,79,80,81,82,83,84,85,86,87,88,89,90,91,92,93,94,95,96,97,98,99,100,101,102,103,104,105,106,107,108,109,110,111,112,113,114,115,116,117,118,119,120,121,122,123,124,125,126,127,128,129,130,131,132,133,134,135,136,137,138,139,140,141,142,143,144,145,146,147,148,149,150,151,152,153,154,155,156,157,158,159,160,161,162,163,164,165,166,167,168,169,170,171,172,173,174,175,176,177,178,179,180,181,182,183,184,185,186,187,188,189,190,191,192,193,194,195,196,197,198,199,200],"tree_info":[0,0,0,0,0,0,0,0,0,0,0,0,0,0,0,0,0,0,0,0,0,0,0,0,0,0,0,0,0,0,0,0,0,0,0,0,0,0,0,0,0,0,0,0,0,0,0,0,0,0,0,0,0,0,0,0,0,0,0,0,0,0,0,0,0,0,0,0,0,0,0,0,0,0,0,0,0,0,0,0,0,0,0,0,0,0,0,0,0,0,0,0,0,0,0,0,0,0,0,0,0,0,0,0,0,0,0,0,0,0,0,0,0,0,0,0,0,0,0,0,0,0,0,0,0,0,0,0,0,0,0,0,0,0,0,0,0,0,0,0,0,0,0,0,0,0,0,0,0,0,0,0,0,0,0,0,0,0,0,0,0,0,0,0,0,0,0,0,0,0,0,0,0,0,0,0,0,0,0,0,0,0,0,0,0,0,0,0,0,0,0,0,0,0,0,0,0,0,0,0],"trees":[{"base_weights":[-7.159197E-1,-8.6559993E-1,2.5425668E0,-9.399348E-1,1.2175989E-1,4.212158E0,1.5684564E0,-1.0674889E0,-6.441666E-1,1.8531177E0,-5.172859E-2,3.5172138E0,5.35864E0,1.0521364E0,3.489921E0,-1.102186E0,-8.553118E-1,7.13398E-1,-7.0273185E-1,2.6903267E0,1.1969743E0,9.316634E-1,-3.3341956E-1,2.7046757E0,4.8365684E0,2.8666472E-1,4.06926E0,2.9323537E0,6.182805E-1,4.246621E0,2.1111372E0,-1.118205E0,-9.9317694E-1,-1.2001092E-1,-9.0466785E-1,1.8325177E0,3.0521771E-2,-9.5183915E-1,-4.9029872E-1,1.1397538E0,3.3026931E0,4.7340003E-1,1.9904736E0,2.5460672E0,6.885661E-1,-7.0088834E-1,-3.52834E-2,3.0163279E0,6.193912E-1,4.9066534E0,6.380918E-2,1.8958586E0,4.3894134E0,3.5092707E0,1.4617614E0,2.808244E0,3.264744E-1,1.0047209E0,4.515702E0,2.9960668E0,9.288604E-1,-5.5959273E-2,-1.237304E-2,-5.3027242E-2,-3.7980244E-2,-2.6491439E-2,3.476323E-2,1.9406931E-2,-4.6026774E-2,1.0331035E-1,-3.4170188E-2,-5.4088797E-2,1.3841363E-2,-5.17483E-2,-2.8997121E-2,-3.115866E-2,-7.803152E-3,1.1841337E-1,1.2668545E-2,1.9691573E-1,2.8209275E-2,-1.5104766E-2,7.700555E-2,-1.7264038E-2,1.2345332E-1,1.4393479E-1,-1.8769544E-2,1.5903683E-3,6.2774085E-2,-2.5752601E-3,-4.1717373E-2,4.5512248E-2,-1.3106248E-2,2.2190693E-1,1.2581213E-1,7.4417375E-2,-1.4101902E-2,2.524602E-1,1.1997985E-1,1.7824514E-2,1.4642675E-1,2.322294E-1,6.566139E-2,1.8415688E-1,4.0916424E-2,1.7458666E-2,1.4048743E-1,7.519349E-2,1.7549942E-1,4.788805E-2,-4.7788224E-3,1.14514545E-1,-2.0489201E-2,2.3766564E-1,7.79474E-2,2.8265987E-2,1.6906929E-1,1.0452282E-1,2.188033E-3],"categories":[],"categories_nodes":[],"categories_segments":[],"categories_sizes":[],"default_left":[0,0,0,0,0,0,0,0,0,0,0,0,0,0,0,0,0,0,0,0,0,0,0,0,0,0,0,0,0,0,0,0,0,0,0,0,0,0,0,0,0,0,0,0,0,0,0,0,0,0,0,0,0,0,0,0,0,0,0,0,0,0,0,0,0,0,0,0,0,0,0,0,0,0,0,0,0,0,0,0,0,0,0,0,0,0,0,0,0,0,0,0,0,0,0,0,0,0,0,0,0,0,0,0,0,0,0,0,0,0,0,0,0,0,0,0,0,0,0],"id":0,"left_children":[1,3,5,7,9,11,13,15,17,19,21,23,25,27,29,31,33,35,37,39,41,43,45,47,49,-1,51,53,55,57,59,61,63,65,67,69,71,73,75,77,79,81,83,85,87,89,91,93,95,97,-1,99,101,103,105,107,109,111,113,115,117,-1,-1,-1,-1,-1,-1,-1,-1,-1,-1,-1,-1,-1,-1,-1,-1,-1,-1,-1,-1,-1,-1,-1,-1,-1,-1,-1,-1,-1,-1,-1,-1,-1,-1,-1,-1,-1,-1,-1,-1,-1,-1,-1,-1,-1,-1,-1,-1,-1,-1,-1,-1,-1,-1,-1,-1,-1,-1],"loss_changes":[5.053334E3,7.268965E2,7.3353174E2,3.4673877E2,2.086124E2,1.1428027E2,2.8303906E2,4.641455E1,2.2132007E2,3.1526398E1,1.7536726E2,1.015625E2,6.2088623E0,1.8517111E2,5.444568E1,8.537598E0,3.286432E1,8.8102356E1,1.4045679E2,2.1863495E1,2.045224E1,5.357395E1,5.387323E1,4.2616913E1,3.5922241E0,0E0,3.655426E0,3.110431E1,1.18911125E2,2.8832031E1,2.1829567E1,3.828125E0,1.0474121E1,1.9848026E1,1.7819641E1,2.7104172E1,2.0205452E1,3.7259277E1,6.3827454E1,9.383694E0,3.0540482E1,1.7673374E1,2.0371178E1,1.8649391E1,4.609018E1,1.9050293E1,5.8720146E1,3.0991028E1,8.37693E0,1.598938E0,0E0,5.267496E0,5.080597E0,1.10035095E1,1.963695E1,1.4781921E1,4.447831E1,8.6084385E0,1.7203796E1,1.0269119E1,1.1752422E1,0E0,0E0,0E0,0E0,0E0,0E0,0E0,0E0,0E0,0E0,0E0,0E0,0E0,0E0,0E0,0E0,0E0,0E0,0E0,0E0,0E0,0E0,0E0,0E0,0E0,0E0,0E0,0E0,0E0,0E0,0E0,0E0,0E0,0E0,0E0,0E0,0E0,0E0,0E0,0E0,0E0,0E0,0E0,0E0,0E0,0E0,0E0,0E0,0E0,0E0,0E0,0E0,0E0,0E0,0E0,0E0,0E0,0E0],"parents":[2147483647,0,0,1,1,2,2,3,3,4,4,5,5,6,6,7,7,8,8,9,9,10,10,11,11,12,12,13,13,14,14,15,15,16,16,17,17,18,18,19,19,20,20,21,21,22,22,23,23,24,24,26,26,27,27,28,28,29,29,30,30,31,31,32,32,33,33,34,34,35,35,36,36,37,37,38,38,39,39,40,40,41,41,42,42,43,43,44,44,45,45,46,46,47,47,48,48,49,49,51,51,52,52,53,53,54,54,55,55,56,56,57,57,58,58,59,59,60,60],"right_children":[2,4,6,8,10,12,14,16,18,20,22,24,26,28,30,32,34,36,38,40,42,44,46,48,50,-1,52,54,56,58,60,62,64,66,68,70,72,74,76,78,80,82,84,86,88,90,92,94,96,98,-1,100,102,104,106,108,110,112,114,116,118,-1,-1,-1,-1,-1,-1,-1,-1,-1,-1,-1,-1,-1,-1,-1,-1,-1,-1,-1,-1,-1,-1,-1,-1,-1,-1,-1,-1,-1,-1,-1,-1,-1,-1,-1,-1,-1,-1,-1,-1,-1,-1,-1,-1,-1,-1,-1,-1,-1,-1,-1,-1,-1,-1,-1,-1,-1,-1],"split_conditions":[1.426284E0,5.2151346E-1,-8.242782E-1,1.4079688E0,-1.4151689E0,2.0831158E0,4.0759687E0,3.6211926E-1,-1.4151689E0,-1.025994E0,-5.3752935E-1,4.0759687E0,3.8808897E-1,-1.441179E0,-1.697985E0,2.6758328E-2,-1.300808E0,-9.451852E-1,5.5027705E-1,1.9752195E-1,1.4762954E-1,-1.5531276E0,6.817525E-3,1.18274145E-1,1.9639306E0,2.8666472E-1,-5.953931E-1,-4.1465133E-1,-1.5531276E0,-1.7889725E-1,6.057008E-1,2.7967904E0,7.6635695E-1,9.0336454E-1,-9.408958E-1,1.5672733E0,-1.4931993E0,1.9157216E-1,6.250889E-1,-4.2184448E-1,1.1684599E0,1.0204805E-1,-4.4790205E-1,1.7369684E0,1.4079688E0,-1.21692E0,7.8704536E-1,-8.0723256E-1,-6.8199086E-1,6.84695E-1,6.380918E-2,-6.310364E-1,-2.681475E-1,1.977067E0,3.5017928E-1,6.2937814E-1,-1.1642138E0,-7.7536786E-1,1.0557971E0,-6.6336757E-1,-9.451852E-1,-5.5959273E-2,-1.237304E-2,-5.3027242E-2,-3.7980244E-2,-2.6491439E-2,3.476323E-2,1.9406931E-2,-4.6026774E-2,1.0331035E-1,-3.4170188E-2,-5.4088797E-2,1.3841363E-2,-5.17483E-2,-2.8997121E-2,-3.115866E-2,-7.803152E-3,1.1841337E-1,1.2668545E-2,1.9691573E-1,2.8209275E-2,-1.5104766E-2,7.700555E-2,-1.7264038E-2,1.2345332E-1,1.4393479E-1,-1.8769544E-2,1.5903683E-3,6.2774085E-2,-2.5752601E-3,-4.1717373E-2,4.5512248E-2,-1.3106248E-2,2.2190693E-1,1.2581213E-1,7.4417375E-2,-1.4101902E-2,2.524602E-1,1.1997985E-1,1.7824514E-2,1.4642675E-1,2.322294E-1,6.566139E-2,1.8415688E-1,4.0916424E-2,1.7458666E-2,1.4048743E-1,7.519349E-2,1.7549942E-1,4.788805E-2,-4.7788224E-3,1.14514545E-1,-2.0489201E-2,2.3766564E-1,7.79474E-2,2.8265987E-2,1.6906929E-1,1.0452282E-1,2.188033E-3],"split_indices":[17,17,5,55,53,28,17,16,53,7,5,17,2,53,24,17,24,7,64,12,16,6,57,24,7,0,45,7,6,16,38,49,0,16,26,57,53,16,0,47,1,6,12,45,55,6,57,26,14,18,0,21,24,35,4,16,24,8,53,26,7,0,0,0,0,0,0,0,0,0,0,0,0,0,0,0,0,0,0,0,0,0,0,0,0,0,0,0,0,0,0,0,0,0,0,0,0,0,0,0,0,0,0,0,0,0,0,0,0,0,0,0,0,0,0,0,0,0,0],"split_type":[0,0,0,0,0,0,0,0,0,0,0,0,0,0,0,0,0,0,0,0,0,0,0,0,0,0,0,0,0,0,0,0,0,0,0,0,0,0,0,0,0,0,0,0,0,0,0,0,0,0,0,0,0,0,0,0,0,0,0,0,0,0,0,0,0,0,0,0,0,0,0,0,0,0,0,0,0,0,0,0,0,0,0,0,0,0,0,0,0,0,0,0,0,0,0,0,0,0,0,0,0,0,0,0,0,0,0,0,0,0,0,0,0,0,0,0,0,0,0],"sum_hessian":[1.0355388E4,9.9013E3,4.5408704E2,9.208103E3,6.9319745E2,1.6609016E2,2.8799686E2,6.4317236E3,2.776379E3,6.225287E1,6.309446E2,1.0594126E2,6.0148895E1,2.2821927E2,5.9777607E1,5.5241685E3,9.0755524E2,1.1435716E2,2.6620217E3,2.5990263E1,3.6262604E1,1.3997614E2,4.9096844E2,6.745092E1,3.849034E1,4.393592E1,1.6212975E1,4.1708183E1,1.8651108E2,3.7252712E1,2.2524895E1,4.8083223E3,7.158461E2,5.730234E1,8.502529E2,4.2698288E1,7.165887E1,1.2236464E3,1.4383755E3,8.168368E0,1.7821896E1,1.9802105E1,1.64605E1,1.7079315E1,1.2289682E2,2.1930832E2,2.7166013E2,5.8292446E1,9.158474E0,3.7376472E1,1.1138685E0,2.970316E0,1.3242658E1,2.8960579E1,1.2747605E1,2.0915974E1,1.6559511E2,3.217842E0,3.403487E1,1.2005027E1,1.0519869E1,4.8026294E3,5.693105E0,5.5285004E2,1.6299608E2,3.836658E1,1.8935762E1,1.0024816E1,8.402281E2,3.923292E1,3.4653685E0,1.2376316E1,5.9282555E1,9.9864496E2,2.2500142E2,1.0285956E3,4.0977982E2,2.7227895E0,5.445579E0,1.4109E1,3.7128947E0,1.1881264E1,7.920842E0,2.8465526E0,1.3613948E1,1.5346632E1,1.7326843E0,5.7426105E1,6.547071E1,3.7624E1,1.8168431E2,5.1980526E1,2.1967961E2,1.3118895E1,4.5173553E1,4.3317103E0,4.826763E0,3.440616E1,2.970316E0,1.7326843E0,1.2376316E0,1.17575E1,1.485158E0,2.6856606E1,2.1039736E0,7.673316E0,5.0742893E0,8.4158945E0,1.2500079E1,6.5842E1,9.9753105E1,1.3613948E0,1.8564473E0,3.094079E1,3.094079E0,1.9802105E0,1.0024816E1,3.960421E0,6.5594473E0],"tree_param":{"num_deleted":"0","num_feature":"66","num_nodes":"119","size_leaf_vector":"1"}},{"base_weights":[-7.009452E-1,-8.476813E-1,2.1915832E0,-9.3622494E-1,-4.3825187E-2,3.222494E0,1.1608628E0,-1.0619797E0,-6.407473E-1,1.6871823E0,-2.0054758E-1,4.0392127E0,2.399278E0,2.8660667E0,7.4293184E-1,-1.0932403E0,-8.9709425E-1,8.268597E-1,-6.9505095E-1,3.686539E0,1.4977851E0,6.663842E-1,-4.1352662E-1,2.814545E0,4.2125545E0,1.8908666E0,3.6603215E0,5.7072806E-1,3.176033E0,2.8749666E0,5.088039E-1,-9.0127337E-1,-1.106204E0,-4.8920652E-1,-9.677687E-1,1.6766094E0,1.8366334E-1,-9.428275E-1,-4.9122423E-1,2.0482288E-1,4.2891886E-2,2.180698E0,9.3875796E-1,2.410139E0,4.2122856E-1,-7.2457397E-1,-1.0211262E-1,3.059607E0,1.6840762E-2,4.266777E0,2.0190191E0,1.3862762E0,3.066105E0,3.8171206E0,9.9569654E-1,9.9729285E-2,-3.554907E-1,3.3642256E0,4.2153633E-1,-2.494398E-1,3.5664768E0,-3.0423927E-1,9.527094E-1,-4.598966E-2,2.672416E-2,-4.1204225E-2,-5.556748E-2,-3.639938E-2,-2.2082848E-3,-5.1196855E-2,-3.598019E-2,3.6378853E-2,1.2974787E-1,8.078071E-2,-6.4470614E-3,-5.2669834E-2,-3.400869E-2,-2.9014712E-2,-1.2325913E-3,7.428431E-2,1.6049325E-1,-1.9931309E-2,6.053857E-2,8.398446E-2,1.7638005E-1,-1.3337244E-2,4.4725318E-2,4.6152705E-3,-4.2490162E-2,-2.9384194E-2,1.564918E-2,1.7026256E-1,6.762547E-2,2.1530405E-1,8.49007E-2,-5.242421E-3,1.337045E-1,1.2536596E-1,4.3791007E-2,4.090584E-2,1.6122882E-1,2.0593627E-1,8.719935E-2,9.2725E-2,-1.1073922E-2,4.4219654E-2,-4.4554982E-2,1.744627E-1,2.9758135E-2,8.756416E-2,-3.771909E-2,3.0109612E-2,-4.0366482E-2,4.8034124E-2,1.9225031E-1,7.28044E-2,-2.2840587E-2,8.536139E-2,1.4256966E-2],"categories":[],"categories_nodes":[],"categories_segments":[],"categories_sizes":[],"default_left":[0,0,0,0,0,0,0,0,0,0,0,0,0,0,0,0,0,0,0,0,0,0,0,0,0,0,0,0,0,0,0,0,0,0,0,0,0,0,0,0,0,0,0,0,0,0,0,0,0,0,0,0,0,0,0,0,0,0,0,0,0,0,0,0,0,0,0,0,0,0,0,0,0,0,0,0,0,0,0,0,0,0,0,0,0,0,0,0,0,0,0,0,0,0,0,0,0,0,0,0,0,0,0,0,0,0,0,0,0,0,0,0,0,0,0,0,0,0,0],"id":1,"left_children":[1,3,5,7,9,11,13,15,17,19,21,23,25,27,29,31,33,35,37,39,41,43,45,47,49,51,53,55,57,59,61,63,65,67,69,71,73,75,77,-1,-1,79,81,83,85,87,89,91,-1,93,95,97,99,101,103,-1,105,107,109,111,113,115,117,-1,-1,-1,-1,-1,-1,-1,-1,-1,-1,-1,-1,-1,-1,-1,-1,-1,-1,-1,-1,-1,-1,-1,-1,-1,-1,-1,-1,-1,-1,-1,-1,-1,-1,-1,-1,-1,-1,-1,-1,-1,-1,-1,-1,-1,-1,-1,-1,-1,-1,-1,-1,-1,-1,-1,-1],"loss_changes":[4.2933975E3,6.8493555E2,5.152705E2,3.2143066E2,2.5966367E2,1.5411426E2,1.7304745E2,3.0354004E1,2.0702759E2,2.4570374E1,1.6228432E2,1.3795654E1,7.244977E1,3.2364136E1,9.775768E1,1.1709473E1,2.7617249E1,5.0460857E1,1.2572473E2,3.6659088E0,2.6308563E1,7.3124855E1,6.821624E1,9.896698E0,3.736206E0,4.929669E1,1.06145935E1,9.853896E0,2.0406677E1,4.291913E1,6.536931E1,9.223419E0,6.0200195E0,1.5475468E1,1.0825989E1,3.288263E1,2.4377441E1,3.2002502E1,5.704306E1,0E0,0E0,1.8604477E1,1.5979176E1,1.1351051E1,5.01421E1,3.6143066E1,7.142698E1,4.984253E0,0E0,2.8286133E0,6.4064884E0,3.4998947E1,6.7304993E0,1.2970459E1,3.8292625E0,0E0,4.1417513E0,1.1517792E1,7.319068E0,2.6051242E0,7.9138794E0,1.7972118E1,5.838439E1,0E0,0E0,0E0,0E0,0E0,0E0,0E0,0E0,0E0,0E0,0E0,0E0,0E0,0E0,0E0,0E0,0E0,0E0,0E0,0E0,0E0,0E0,0E0,0E0,0E0,0E0,0E0,0E0,0E0,0E0,0E0,0E0,0E0,0E0,0E0,0E0,0E0,0E0,0E0,0E0,0E0,0E0,0E0,0E0,0E0,0E0,0E0,0E0,0E0,0E0,0E0,0E0,0E0,0E0,0E0,0E0],"parents":[2147483647,0,0,1,1,2,2,3,3,4,4,5,5,6,6,7,7,8,8,9,9,10,10,11,11,12,12,13,13,14,14,15,15,16,16,17,17,18,18,19,19,20,20,21,21,22,22,23,23,24,24,25,25,26,26,27,27,28,28,29,29,30,30,31,31,32,32,33,33,34,34,35,35,36,36,37,37,38,38,41,41,42,42,43,43,44,44,45,45,46,46,47,47,49,49,50,50,51,51,52,52,53,53,54,54,56,56,57,57,58,58,59,59,60,60,61,61,62,62],"right_children":[2,4,6,8,10,12,14,16,18,20,22,24,26,28,30,32,34,36,38,40,42,44,46,48,50,52,54,56,58,60,62,64,66,68,70,72,74,76,78,-1,-1,80,82,84,86,88,90,92,-1,94,96,98,100,102,104,-1,106,108,110,112,114,116,118,-1,-1,-1,-1,-1,-1,-1,-1,-1,-1,-1,-1,-1,-1,-1,-1,-1,-1,-1,-1,-1,-1,-1,-1,-1,-1,-1,-1,-1,-1,-1,-1,-1,-1,-1,-1,-1,-1,-1,-1,-1,-1,-1,-1,-1,-1,-1,-1,-1,-1,-1,-1,-1,-1,-1,-1],"split_conditions":[1.426284E0,3.806693E-1,-2.507805E-1,1.4079688E0,-1.1491234E0,-2.0157268E0,-1.8340816E0,1.10149585E-1,-1.1491234E0,-1.0352386E0,-6.3311225E-1,2.1694882E0,2.0831158E0,6.817525E-3,-1.6565762E0,-6.3311225E-1,-1.1393337E0,-9.451852E-1,5.5027705E-1,8.006319E-1,-1.2280159E0,-1.5531276E0,5.5027705E-1,1.5035002E0,2.13335E0,3.3327644E0,3.385288E0,7.5749254E-1,3.7785053E0,-6.218698E-1,1.4079688E0,3.4560354E0,-7.981928E-1,6.817525E-3,3.798436E-2,-2.0665243E-1,-1.0089123E0,-1.1318725E-1,9.60412E-1,2.0482288E-1,4.2891886E-2,1.2368515E-1,1.4079688E0,1.0889325E0,3.0963522E-1,-1.2945064E0,1.4079688E0,1.8526781E0,1.6840762E-2,3.7782881E0,-1.0860594E-1,-9.859279E-1,-7.4460906E-1,7.068054E-1,-2.3118867E-2,9.9729285E-2,-1.3977988E0,4.3358445E0,4.1830012E-1,-2.07037E0,-2.4568105E-1,-1.6399385E0,-1.1642138E0,-4.598966E-2,2.672416E-2,-4.1204225E-2,-5.556748E-2,-3.639938E-2,-2.2082848E-3,-5.1196855E-2,-3.598019E-2,3.6378853E-2,1.2974787E-1,8.078071E-2,-6.4470614E-3,-5.2669834E-2,-3.400869E-2,-2.9014712E-2,-1.2325913E-3,7.428431E-2,1.6049325E-1,-1.9931309E-2,6.053857E-2,8.398446E-2,1.7638005E-1,-1.3337244E-2,4.4725318E-2,4.6152705E-3,-4.2490162E-2,-2.9384194E-2,1.564918E-2,1.7026256E-1,6.762547E-2,2.1530405E-1,8.49007E-2,-5.242421E-3,1.337045E-1,1.2536596E-1,4.3791007E-2,4.090584E-2,1.6122882E-1,2.0593627E-1,8.719935E-2,9.2725E-2,-1.1073922E-2,4.4219654E-2,-4.4554982E-2,1.744627E-1,2.9758135E-2,8.756416E-2,-3.771909E-2,3.0109612E-2,-4.0366482E-2,4.8034124E-2,1.9225031E-1,7.28044E-2,-2.2840587E-2,8.536139E-2,1.4256966E-2],"split_indices":[17,17,5,55,54,24,7,11,54,35,5,17,28,57,6,5,6,7,64,5,7,6,64,26,15,17,44,33,36,0,55,28,26,57,17,11,3,11,33,0,0,11,55,28,64,6,55,47,0,11,49,1,4,1,18,0,18,38,5,6,9,1,24,0,0,0,0,0,0,0,0,0,0,0,0,0,0,0,0,0,0,0,0,0,0,0,0,0,0,0,0,0,0,0,0,0,0,0,0,0,0,0,0,0,0,0,0,0,0,0,0,0,0,0,0,0,0,0,0],"split_type":[0,0,0,0,0,0,0,0,0,0,0,0,0,0,0,0,0,0,0,0,0,0,0,0,0,0,0,0,0,0,0,0,0,0,0,0,0,0,0,0,0,0,0,0,0,0,0,0,0,0,0,0,0,0,0,0,0,0,0,0,0,0,0,0,0,0,0,0,0,0,0,0,0,0,0,0,0,0,0,0,0,0,0,0,0,0,0,0,0,0,0,0,0,0,0,0,0,0,0,0,0,0,0,0,0,0,0,0,0,0,0,0,0,0,0,0,0,0,0],"sum_hessian":[1.0110101E4,9.622656E3,4.8744427E2,8.667751E3,9.5490546E2,2.426365E2,2.4480775E2,6.0782617E3,2.5894893E3,7.846706E1,8.764384E2,1.19837814E2,1.227987E2,4.7036392E1,1.9777136E2,5.104809E3,9.7345276E2,9.1888565E1,2.4976006E3,5.192134E0,7.327492E1,1.7243054E2,7.040079E2,1.6996143E1,1.02841675E2,8.929666E1,3.3502033E1,5.934193E0,4.11022E1,1.845307E1,1.793183E2,3.2738812E2,4.777421E3,1.4493025E2,8.285225E2,3.8895565E1,5.2993E1,1.1256312E3,1.3719695E3,4.1435056E0,1.0486283E0,3.167705E1,4.159787E1,2.0165483E1,1.5226506E2,3.5154755E2,3.5246033E2,1.5252717E1,1.7434261E0,9.943846E1,3.4032109E0,6.399841E1,2.5298254E1,3.1231695E1,2.2703383E0,1.8841918E0,4.050001E0,3.8266403E1,2.835796E0,3.4598646E0,1.4993205E1,6.3439377E1,1.1587892E2,3.2357373E2,3.8143847E0,8.846065E1,4.6889604E3,9.390885E1,5.1021397E1,6.730595E2,1.55463E2,2.0009628E1,1.8885935E1,8.748844E0,4.4244156E1,7.900386E2,3.3559265E2,1.1518367E3,2.2013274E2,2.0366697E1,1.1310351E1,6.952022E0,3.4645847E1,1.3708072E1,6.457412E0,6.223477E1,9.003028E1,4.6764194E1,3.0478336E2,1.6224896E2,1.9021135E2,1.1857178E1,3.3955393E0,9.7273796E1,2.1646628E0,1.0002261E0,2.4029849E0,1.8799591E1,4.519882E1,2.0717762E0,2.3226477E1,2.6403702E1,4.827993E0,1.0241311E0,1.2462072E0,1.0253112E0,3.0246902E0,3.63644E1,1.9020058E0,1.1012242E0,1.7345719E0,1.3379862E0,2.1218784E0,1.8774807E0,1.3115724E1,4.378476E0,5.9060898E1,5.3665882E1,6.2213036E1],"tree_param":{"num_deleted":"0","num_feature":"66","num_nodes":"119","size_leaf_vector":"1"}},{"base_weights":[-6.823735E-1,-8.6120147E-1,1.5646867E0,-1.0198487E0,-5.254691E-1,8.187755E-1,2.637061E0,-1.0706512E0,-7.384535E-1,9.960237E-1,-6.043723E-1,2.0384192E0,4.224333E-1,3.2351286E0,1.8283769E0,-1.0833331E0,-7.2982025E-1,-9.1362685E-2,-8.226841E-1,2.8116903E-1,1.5582405E0,-4.3863156E-1,-1.0169183E0,1.1925519E0,2.4012604E0,2.0866451E0,1.06284015E-1,2.8907197E0,3.907833E0,2.4123082E0,8.938075E-1,-1.1036565E0,-9.7226936E-1,-3.9404612E-2,-8.411559E-1,7.527765E-1,-4.4423592E-1,-9.325074E-1,-5.9643E-1,1.5613098E0,-2.047395E-2,1.7864647E0,-8.082623E-3,-5.675129E-1,2.5913882E-1,-1.0312232E0,-1.19632706E-1,-2.2145058E-1,1.6755627E0,2.999064E0,1.482047E0,2.6492033E0,1.3405209E0,-1.2204842E-1,9.257081E-1,2.9858198E0,9.014971E-1,5.685764E-2,3.9481308E0,1.0522802E0,2.6827555E0,4.1087925E-1,1.8580654E0,-5.551755E-2,-4.9016412E-2,-4.9528737E-2,-2.2867573E-2,1.9362178E-2,-3.5221647E-2,4.2428248E-2,-4.287189E-2,1.8597158E-2,1.22872286E-1,-2.6051193E-2,5.6187876E-2,-4.832047E-2,-2.0879848E-2,-3.2952525E-2,1.6199505E-2,2.8946882E-2,1.2633012E-1,-2.5967581E-2,1.935553E-2,6.24257E-2,1.18853785E-1,-3.614449E-2,4.7157943E-2,-3.8301066E-2,-1.9347927E-2,6.9470587E-3,7.868039E-2,-5.3780504E-2,-4.070812E-2,-3.6275614E-2,5.319962E-2,-3.796274E-2,5.432382E-2,1.1934694E-1,3.5868637E-2,1.8160409E-1,1.0299796E-1,-1.6059816E-2,8.7366454E-2,4.458262E-2,1.5057704E-1,9.77883E-2,3.2653145E-2,-3.347623E-2,1.0947422E-2,1.0068337E-1,2.84337E-2,1.9303876E-1,1.3506204E-1,-2.5684236E-2,8.414256E-2,5.9242535E-2,1.9931518E-1,-2.6265774E-2,8.189957E-2,1.0072529E-1,1.6908327E-1,7.978626E-3,9.845931E-2,1.0739144E-1,-1.9806495E-2],"categories":[],"categories_nodes":[],"categories_segments":[],"categories_sizes":[],"default_left":[0,0,0,0,0,0,0,0,0,0,0,0,0,0,0,0,0,0,0,0,0,0,0,0,0,0,0,0,0,0,0,0,0,0,0,0,0,0,0,0,0,0,0,0,0,0,0,0,0,0,0,0,0,0,0,0,0,0,0,0,0,0,0,0,0,0,0,0,0,0,0,0,0,0,0,0,0,0,0,0,0,0,0,0,0,0,0,0,0,0,0,0,0,0,0,0,0,0,0,0,0,0,0,0,0,0,0,0,0,0,0,0,0,0,0,0,0,0,0,0,0,0,0,0,0],"id":2,"left_children":[1,3,5,7,9,11,13,15,17,19,21,23,25,27,29,31,33,35,37,39,41,43,45,47,49,51,53,55,57,59,61,63,65,67,69,71,73,75,77,79,81,83,85,87,89,91,93,95,97,99,101,103,105,107,109,111,113,-1,115,117,119,121,123,-1,-1,-1,-1,-1,-1,-1,-1,-1,-1,-1,-1,-1,-1,-1,-1,-1,-1,-1,-1,-1,-1,-1,-1,-1,-1,-1,-1,-1,-1,-1,-1,-1,-1,-1,-1,-1,-1,-1,-1,-1,-1,-1,-1,-1,-1,-1,-1,-1,-1,-1,-1,-1,-1,-1,-1,-1,-1,-1,-1,-1,-1],"loss_changes":[3.9520269E3,4.845537E2,5.7784705E2,8.760986E1,3.517088E2,2.0656195E2,1.3773145E2,2.184082E1,5.164453E1,5.7664963E1,1.8971252E2,2.9356323E1,1.7083417E2,2.7959717E1,6.800726E1,1.0316895E1,1.4640648E1,3.322429E1,2.0303284E1,2.5079477E1,2.8864075E1,1.7872629E2,1.0097778E1,2.3251144E1,3.538336E1,1.8211472E1,5.1428604E1,1.9234741E1,1.59906E0,2.6065247E1,2.2999203E1,2.427246E0,6.9832764E0,8.091918E0,5.2488174E0,2.0458117E1,1.003646E1,9.431122E0,1.6184853E1,1.0279448E1,1.1075964E1,1.9414001E1,8.337535E0,5.979138E1,4.880482E1,6.6748657E0,1.0544561E1,7.446121E0,1.5388107E1,1.8045166E1,1.5169922E1,1.5487396E1,9.005737E0,4.035551E1,2.2116955E1,1.700647E1,8.296106E0,0E0,9.038086E-1,1.4418385E1,2.3483582E1,1.3503685E1,1.1788124E1,0E0,0E0,0E0,0E0,0E0,0E0,0E0,0E0,0E0,0E0,0E0,0E0,0E0,0E0,0E0,0E0,0E0,0E0,0E0,0E0,0E0,0E0,0E0,0E0,0E0,0E0,0E0,0E0,0E0,0E0,0E0,0E0,0E0,0E0,0E0,0E0,0E0,0E0,0E0,0E0,0E0,0E0,0E0,0E0,0E0,0E0,0E0,0E0,0E0,0E0,0E0,0E0,0E0,0E0,0E0,0E0,0E0,0E0,0E0,0E0,0E0,0E0],"parents":[2147483647,0,0,1,1,2,2,3,3,4,4,5,5,6,6,7,7,8,8,9,9,10,10,11,11,12,12,13,13,14,14,15,15,16,16,17,17,18,18,19,19,20,20,21,21,22,22,23,23,24,24,25,25,26,26,27,27,28,28,29,29,30,30,31,31,32,32,33,33,34,34,35,35,36,36,37,37,38,38,39,39,40,40,41,41,42,42,43,43,44,44,45,45,46,46,47,47,48,48,49,49,50,50,51,51,52,52,53,53,54,54,55,55,56,56,58,58,59,59,60,60,61,61,62,62],"right_children":[2,4,6,8,10,12,14,16,18,20,22,24,26,28,30,32,34,36,38,40,42,44,46,48,50,52,54,56,58,60,62,64,66,68,70,72,74,76,78,80,82,84,86,88,90,92,94,96,98,100,102,104,106,108,110,112,114,-1,116,118,120,122,124,-1,-1,-1,-1,-1,-1,-1,-1,-1,-1,-1,-1,-1,-1,-1,-1,-1,-1,-1,-1,-1,-1,-1,-1,-1,-1,-1,-1,-1,-1,-1,-1,-1,-1,-1,-1,-1,-1,-1,-1,-1,-1,-1,-1,-1,-1,-1,-1,-1,-1,-1,-1,-1,-1,-1,-1,-1,-1,-1,-1,-1,-1],"split_conditions":[1.0062119E0,1.4079688E0,2.427994E0,3.6211926E-1,-1.1491234E0,-9.1986114E-1,-3.4636346E-1,3.9949772E-1,-9.1986114E-1,-1.5193902E-1,2.0730298E0,1.4079688E0,-1.1491234E0,2.4618523E0,-1.2751957E0,2.2231376E-1,-7.286952E-1,-3.9524418E-1,6.817525E-3,-4.1936975E0,1.5672733E0,3.0501482E-1,1.7457563E0,-1.2267796E-1,1.3480263E0,1.1515238E0,8.665339E-1,2.178775E-1,-1.7884655E0,-9.8401594E-1,1.4879036E0,1.2987179E-1,1.586545E0,1.5604259E-1,-1.466962E0,1.7043793E0,8.305496E-1,5.796773E-1,3.6256425E-2,1.1794913E-1,-2.0215945E-1,-5.085699E-2,2.193892E-1,-2.424653E-1,2.225142E0,-6.088537E-1,4.147003E-1,1.420368E-3,-3.1555942E-1,-2.6940235E-1,-8.030381E-1,-6.218698E-1,-2.580869E-1,1.4079688E0,-2.507805E-1,8.330448E-3,1.4923258E-1,5.685764E-2,-1.4671892E0,2.6592782E-1,4.7348577E-1,1.6795652E0,9.1387874E-1,-5.551755E-2,-4.9016412E-2,-4.9528737E-2,-2.2867573E-2,1.9362178E-2,-3.5221647E-2,4.2428248E-2,-4.287189E-2,1.8597158E-2,1.22872286E-1,-2.6051193E-2,5.6187876E-2,-4.832047E-2,-2.0879848E-2,-3.2952525E-2,1.6199505E-2,2.8946882E-2,1.2633012E-1,-2.5967581E-2,1.935553E-2,6.24257E-2,1.18853785E-1,-3.614449E-2,4.7157943E-2,-3.8301066E-2,-1.9347927E-2,6.9470587E-3,7.868039E-2,-5.3780504E-2,-4.070812E-2,-3.6275614E-2,5.319962E-2,-3.796274E-2,5.432382E-2,1.1934694E-1,3.5868637E-2,1.8160409E-1,1.0299796E-1,-1.6059816E-2,8.7366454E-2,4.458262E-2,1.5057704E-1,9.77883E-2,3.2653145E-2,-3.347623E-2,1.0947422E-2,1.0068337E-1,2.84337E-2,1.9303876E-1,1.3506204E-1,-2.5684236E-2,8.414256E-2,5.9242535E-2,1.9931518E-1,-2.6265774E-2,8.189957E-2,1.0072529E-1,1.6908327E-1,7.978626E-3,9.845931E-2,1.0739144E-1,-1.9806495E-2],"split_indices":[17,55,17,16,54,5,5,17,5,10,65,55,54,28,24,10,5,24,57,7,57,17,10,10,43,45,16,24,32,0,33,52,31,19,22,28,17,17,51,12,41,42,22,10,28,53,33,37,47,47,50,0,2,55,5,50,42,0,53,25,28,4,21,0,0,0,0,0,0,0,0,0,0,0,0,0,0,0,0,0,0,0,0,0,0,0,0,0,0,0,0,0,0,0,0,0,0,0,0,0,0,0,0,0,0,0,0,0,0,0,0,0,0,0,0,0,0,0,0,0,0,0,0,0,0],"split_type":[0,0,0,0,0,0,0,0,0,0,0,0,0,0,0,0,0,0,0,0,0,0,0,0,0,0,0,0,0,0,0,0,0,0,0,0,0,0,0,0,0,0,0,0,0,0,0,0,0,0,0,0,0,0,0,0,0,0,0,0,0,0,0,0,0,0,0,0,0,0,0,0,0,0,0,0,0,0,0,0,0,0,0,0,0,0,0,0,0,0,0,0,0,0,0,0,0,0,0,0,0,0,0,0,0,0,0,0,0,0,0,0,0,0,0,0,0,0,0,0,0,0,0,0,0],"sum_hessian":[9.830542E3,9.106439E3,7.2410175E2,6.1827847E3,2.923655E3,4.280952E2,2.9600653E2,5.2348843E3,9.479006E2,1.4356985E2,2.7800852E3,1.0397993E2,3.2411526E2,1.6843726E2,1.27569275E2,5.0449883E3,1.8989616E2,1.0941536E2,8.3848517E2,6.3865475E1,7.9704384E1,1.9847665E3,7.953187E2,3.2500458E1,7.147947E1,5.084846E1,2.732668E2,1.149055E2,5.3531754E1,7.754004E1,5.0029232E1,4.257055E3,7.879328E2,2.6558052E1,1.633381E2,3.1921011E1,7.749435E1,5.623837E2,2.7610144E2,1.1382659E1,5.2482815E1,6.944519E1,1.02591915E1,1.6754836E3,3.0928284E2,7.826914E2,1.2627326E1,8.413034E0,2.4087425E1,4.1940887E1,2.9538584E1,2.7536242E1,2.3312218E1,2.143807E2,5.8886105E1,1.0918464E2,5.7208657E0,1.1862997E0,5.234545E1,1.3672834E1,6.3867207E1,3.4284615E1,1.57446165E1,4.030283E3,2.2677245E2,7.599914E2,2.7941422E1,1.6433111E1,1.012494E1,1.0710157E0,1.6226709E2,2.7087656E1,4.833355E0,7.4513E1,2.9813461E0,5.2682074E2,3.5563026E1,2.5877945E2,1.7321999E1,6.4342837E0,4.948375E0,2.347524E1,2.9007576E1,3.7972416E1,3.1472778E1,5.9946146E0,4.2645764E0,7.965185E2,8.7896515E2,2.843839E2,2.489893E1,6.465276E2,1.3616383E2,8.608043E0,4.0192833E0,6.2589326E0,2.154102E0,1.2968389E1,1.1119036E1,2.3340363E1,1.8600525E1,3.7612026E0,2.577738E1,5.2981105E0,2.2238132E1,1.1328649E1,1.1983569E1,8.1909775E1,1.3247093E2,1.3403325E1,4.548278E1,2.3712513E1,8.547212E1,2.1568923E0,3.5639734E0,1.1498303E0,5.119562E1,3.7298121E0,9.943023E0,3.463447E1,2.9232735E1,3.047271E1,3.8119054E0,1.3993076E1,1.7515409E0],"tree_param":{"num_deleted":"0","num_feature":"66","num_nodes":"125","size_leaf_vector":"1"}},{"base_weights":[-6.718739E-1,-8.4934E-1,1.3873137E0,-1.0097736E0,-5.1428443E-1,6.079042E-1,2.231149E0,-1.062976E0,-7.206176E-1,8.857024E-1,-5.897254E-1,1.5871875E0,2.6718274E-1,2.7740061E0,1.5420529E0,-1.0835855E0,-8.630373E-1,-2.5979483E-1,-8.465346E-1,1.5280619E0,3.5702807E-1,-4.266549E-1,-1.0027983E0,2.0473387E0,7.767607E-1,1.705416E0,-9.1553405E-3,3.1085806E0,2.2841554E0,2.0884795E0,6.164925E-1,-9.7269624E-1,-1.0933939E0,-1.013807E0,-6.491496E-1,8.912132E-1,-4.5222586E-1,-4.2152438E-1,-9.082954E-1,6.516637E-1,2.1035438E0,9.653736E-2,1.8016167E0,-5.694874E-1,1.9685787E-1,4.3323743E-1,-1.0099707E0,3.405397E0,1.6824416E0,-1.3636988E-1,1.3021281E0,2.0606515E0,4.6777067E-1,9.710846E-1,-2.3228008E-1,2.633006E-2,3.1465626E0,3.1922276E0,1.8321097E0,7.525696E-1,2.4242377E0,2.0527925E0,2.461182E-1,-5.1217057E-2,-3.4690663E-2,-5.4703142E-2,-1.1698277E-2,-5.102384E-2,1.598356E-2,4.7717135E-2,-3.4462538E-2,4.3310862E-4,7.8680634E-2,8.756238E-3,-3.0246144E-2,-3.8519662E-2,1.0572208E-2,-3.0711297E-2,-4.838795E-2,6.8575315E-2,2.6287816E-3,1.2534648E-1,3.6530953E-2,-1.9857867E-2,3.5899058E-2,1.1245815E-1,6.3423667E-4,-9.831558E-3,-3.314757E-2,6.2790774E-2,2.4615836E-4,-3.9212517E-2,9.341355E-2,4.141863E-2,-5.074587E-2,1.8966565E-1,6.066024E-3,-1.3790163E-2,9.120266E-2,-3.128075E-2,4.314011E-2,1.4845389E-2,8.2122795E-2,1.0986709E-1,-8.345098E-3,7.306457E-2,-2.332836E-2,2.3654621E-2,9.015048E-2,-3.5319682E-2,4.0414482E-3,1.6071002E-1,9.720339E-2,2.8316623E-2,1.680722E-1,1.856854E-2,1.0219099E-1,-2.2542005E-2,6.9151536E-2,9.02358E-2,1.4457752E-1,1.5504335E-2,1.2940411E-1,5.60798E-2,-9.512543E-3],"categories":[],"categories_nodes":[],"categories_segments":[],"categories_sizes":[],"default_left":[0,0,0,0,0,0,0,0,0,0,0,0,0,0,0,0,0,0,0,0,0,0,0,0,0,0,0,0,0,0,0,0,0,0,0,0,0,0,0,0,0,0,0,0,0,0,0,0,0,0,0,0,0,0,0,0,0,0,0,0,0,0,0,0,0,0,0,0,0,0,0,0,0,0,0,0,0,0,0,0,0,0,0,0,0,0,0,0,0,0,0,0,0,0,0,0,0,0,0,0,0,0,0,0,0,0,0,0,0,0,0,0,0,0,0,0,0,0,0,0,0,0,0,0,0],"id":3,"left_children":[1,3,5,7,9,11,13,15,17,19,21,23,25,27,29,31,33,35,37,39,41,43,45,47,49,51,53,55,57,59,61,63,65,67,69,71,73,75,77,79,81,83,85,87,89,91,93,95,97,99,101,103,105,107,109,-1,111,113,115,117,119,121,123,-1,-1,-1,-1,-1,-1,-1,-1,-1,-1,-1,-1,-1,-1,-1,-1,-1,-1,-1,-1,-1,-1,-1,-1,-1,-1,-1,-1,-1,-1,-1,-1,-1,-1,-1,-1,-1,-1,-1,-1,-1,-1,-1,-1,-1,-1,-1,-1,-1,-1,-1,-1,-1,-1,-1,-1,-1,-1,-1,-1,-1,-1],"loss_changes":[3.5056484E3,4.7410547E2,4.993324E2,9.1069336E1,3.026845E2,1.320807E2,1.323208E2,1.9831543E1,5.378897E1,4.9268227E1,1.8247186E2,3.6560547E1,1.1758536E2,2.6169678E1,8.1229614E1,3.9018555E0,1.4687622E1,4.496508E1,1.8794312E1,3.1874573E1,3.0595194E1,1.736394E2,8.34552E0,2.6303986E1,1.8724556E1,1.999997E1,5.4715553E1,9.899902E0,2.9516754E1,4.400409E1,3.246923E1,4.762787E0,2.150879E0,2.7928772E0,1.3487984E1,1.7545006E1,1.6681988E1,2.104433E1,1.0544861E1,1.18201885E1,1.9955978E1,2.1863222E1,9.927471E0,5.5124756E1,7.395738E1,9.354383E0,7.7907104E0,1.5736389E1,1.51805725E1,7.884643E0,7.9405212E0,1.155809E1,1.1753954E1,1.8364857E1,3.0303469E1,0E0,3.1810303E0,1.0221069E1,1.7755005E1,1.7293484E1,1.8289856E1,1.0924404E1,1.9473372E1,0E0,0E0,0E0,0E0,0E0,0E0,0E0,0E0,0E0,0E0,0E0,0E0,0E0,0E0,0E0,0E0,0E0,0E0,0E0,0E0,0E0,0E0,0E0,0E0,0E0,0E0,0E0,0E0,0E0,0E0,0E0,0E0,0E0,0E0,0E0,0E0,0E0,0E0,0E0,0E0,0E0,0E0,0E0,0E0,0E0,0E0,0E0,0E0,0E0,0E0,0E0,0E0,0E0,0E0,0E0,0E0,0E0,0E0,0E0,0E0,0E0,0E0],"parents":[2147483647,0,0,1,1,2,2,3,3,4,4,5,5,6,6,7,7,8,8,9,9,10,10,11,11,12,12,13,13,14,14,15,15,16,16,17,17,18,18,19,19,20,20,21,21,22,22,23,23,24,24,25,25,26,26,27,27,28,28,29,29,30,30,31,31,32,32,33,33,34,34,35,35,36,36,37,37,38,38,39,39,40,40,41,41,42,42,43,43,44,44,45,45,46,46,47,47,48,48,49,49,50,50,51,51,52,52,53,53,54,54,56,56,57,57,58,58,59,59,60,60,61,61,62,62],"right_children":[2,4,6,8,10,12,14,16,18,20,22,24,26,28,30,32,34,36,38,40,42,44,46,48,50,52,54,56,58,60,62,64,66,68,70,72,74,76,78,80,82,84,86,88,90,92,94,96,98,100,102,104,106,108,110,-1,112,114,116,118,120,122,124,-1,-1,-1,-1,-1,-1,-1,-1,-1,-1,-1,-1,-1,-1,-1,-1,-1,-1,-1,-1,-1,-1,-1,-1,-1,-1,-1,-1,-1,-1,-1,-1,-1,-1,-1,-1,-1,-1,-1,-1,-1,-1,-1,-1,-1,-1,-1,-1,-1,-1,-1,-1,-1,-1,-1,-1,-1,-1,-1,-1,-1,-1],"split_conditions":[1.0062119E0,1.4079688E0,2.1694882E0,3.6211926E-1,-1.1491234E0,-8.242782E-1,-3.4636346E-1,1.5587546E-1,-3.9524418E-1,-1.025994E0,2.0730298E0,-2.9709294E-1,-1.1491234E0,-2.0951622E0,-1.1419371E0,-1.0628649E0,-9.045194E-2,-1.111027E0,-1.3203685E0,-2.4854292E-1,1.4879036E0,2.4184966E-1,-2.2257E0,-8.397383E-1,6.2973356E-1,3.2157466E-1,-1.2427822E0,-6.632406E-1,-1.1783931E0,1.4079688E0,-1.1491234E0,1.2986095E0,3.5269291E0,2.9336357E0,-2.4083335E0,-1.7649819E-1,-1.3720928E0,8.354298E-2,-5.3752935E-1,2.3740592E0,7.8704536E-1,-1.843829E-2,1.0628438E0,-8.844023E-1,-1.015444E0,2.7059931E-2,-8.006125E-1,1.2660401E0,-1.1421154E0,9.0483594E-1,-1.7381789E-1,1.5672733E0,-6.4795345E-1,8.665339E-1,6.817525E-3,2.633006E-2,4.5572705E0,-2.079085E-1,-2.6884627E-1,-2.4836612E-1,6.536923E-1,-5.252271E-1,-8.394315E-1,-5.1217057E-2,-3.4690663E-2,-5.4703142E-2,-1.1698277E-2,-5.102384E-2,1.598356E-2,4.7717135E-2,-3.4462538E-2,4.3310862E-4,7.8680634E-2,8.756238E-3,-3.0246144E-2,-3.8519662E-2,1.0572208E-2,-3.0711297E-2,-4.838795E-2,6.8575315E-2,2.6287816E-3,1.2534648E-1,3.6530953E-2,-1.9857867E-2,3.5899058E-2,1.1245815E-1,6.3423667E-4,-9.831558E-3,-3.314757E-2,6.2790774E-2,2.4615836E-4,-3.9212517E-2,9.341355E-2,4.141863E-2,-5.074587E-2,1.8966565E-1,6.066024E-3,-1.3790163E-2,9.120266E-2,-3.128075E-2,4.314011E-2,1.4845389E-2,8.2122795E-2,1.0986709E-1,-8.345098E-3,7.306457E-2,-2.332836E-2,2.3654621E-2,9.015048E-2,-3.5319682E-2,4.0414482E-3,1.6071002E-1,9.720339E-2,2.8316623E-2,1.680722E-1,1.856854E-2,1.0219099E-1,-2.2542005E-2,6.9151536E-2,9.02358E-2,1.4457752E-1,1.5504335E-2,1.2940411E-1,5.60798E-2,-9.512543E-3],"split_indices":[17,55,17,16,54,5,5,17,24,7,65,3,54,24,24,8,31,5,6,11,33,17,21,35,32,58,6,16,3,55,54,2,49,7,8,9,6,17,5,33,57,11,32,8,5,36,42,27,19,12,12,57,6,16,57,0,44,16,11,0,16,32,3,0,0,0,0,0,0,0,0,0,0,0,0,0,0,0,0,0,0,0,0,0,0,0,0,0,0,0,0,0,0,0,0,0,0,0,0,0,0,0,0,0,0,0,0,0,0,0,0,0,0,0,0,0,0,0,0,0,0,0,0,0,0],"split_type":[0,0,0,0,0,0,0,0,0,0,0,0,0,0,0,0,0,0,0,0,0,0,0,0,0,0,0,0,0,0,0,0,0,0,0,0,0,0,0,0,0,0,0,0,0,0,0,0,0,0,0,0,0,0,0,0,0,0,0,0,0,0,0,0,0,0,0,0,0,0,0,0,0,0,0,0,0,0,0,0,0,0,0,0,0,0,0,0,0,0,0,0,0,0,0,0,0,0,0,0,0,0,0,0,0,0,0,0,0,0,0,0,0,0,0,0,0,0,0,0,0,0,0,0,0],"sum_hessian":[9.588831E3,8.828551E3,7.6027985E2,5.9686084E3,2.8599426E3,3.9612183E2,3.6415802E2,5.038828E3,9.297804E2,1.4568417E2,2.7142585E3,1.0130322E2,2.948186E2,2.0200037E2,1.6215767E2,4.563959E3,4.7486935E2,2.0019246E2,7.2958795E2,6.4917076E1,8.07671E1,1.9474777E3,7.6678076E2,6.3641846E1,3.7661373E1,4.6682533E1,2.4813608E2,1.1684659E2,8.515378E1,1.0117194E2,6.098572E1,3.790265E2,4.1849326E3,2.7633817E2,1.9853116E2,2.815495E1,1.720375E2,9.356188E1,6.3602606E2,2.65764E1,3.834067E1,6.933188E1,1.1435217E1,1.5845746E3,3.6290308E2,3.5155005E0,7.6326526E2,1.1713728E1,5.1928116E1,1.4025085E1,2.363629E1,3.5754974E1,1.0927559E1,4.5387184E1,2.0274889E2,1.909434E0,1.1493716E2,2.628685E1,5.8866924E1,2.0971653E1,8.020029E1,1.15710535E1,4.941467E1,3.1754837E2,6.147814E1,4.181405E3,3.527717E0,2.7519644E2,1.1417289E0,4.287599E0,1.9424356E2,1.2718604E1,1.5436346E1,3.364819E1,1.3838933E2,6.017728E1,3.33846E1,1.0888391E2,5.2714215E2,1.1485963E1,1.5090438E1,2.899541E1,9.345262E0,3.8838364E1,3.0493517E1,8.941109E0,2.4941087E0,3.182165E2,1.2663582E3,5.483271E1,3.0807037E2,2.1472569E0,1.3682438E0,1.6015942E0,7.616637E2,1.0337587E1,1.3761404E0,3.4380567E0,4.849006E1,9.665994E0,4.3590918E0,6.4518833E0,1.7184406E1,3.3700554E1,2.0544198E0,5.0227118E0,5.904847E0,2.9373072E1,1.6014112E1,8.0141525E1,1.2260736E2,1.07232605E2,7.7045555E0,1.8545618E0,2.443229E1,7.800415E0,5.106651E1,7.307729E0,1.3663924E1,3.6574688E1,4.3625603E1,3.0901027E0,8.480951E0,1.591482E1,3.3499847E1],"tree_param":{"num_deleted":"0","num_feature":"66","num_nodes":"125","size_leaf_vector":"1"}},{"base_weights":[-6.564627E-1,-8.306458E-1,1.2646731E0,-9.9542207E-1,-4.9328792E-1,6.756898E-1,2.0164318E0,-1.0339859E0,-6.536353E-1,8.186715E-1,-5.674434E-1,1.553269E0,3.3529064E-1,2.4909022E0,1.4937998E0,-1.2958482E-1,-1.0381469E0,1.2386957E-2,-7.7955353E-1,1.3310959E0,3.193844E-1,-4.0847096E-1,-9.7938746E-1,2.6327572E0,1.1163653E0,1.4166576E0,2.709288E-2,1.7195153E0,2.6485775E0,2.6213624E0,1.2196685E0,-5.89744E-1,7.045445E-1,-9.009079E-1,-1.0620252E0,-3.670248E-1,7.7442855E-1,-3.351855E-1,-8.7865865E-1,5.617227E-1,1.8904692E0,1.5242577E0,4.5270193E-2,-5.560126E-1,1.8257746E-1,-1.052315E0,-7.767667E-1,1.243499E0,2.948341E0,7.5814146E-1,2.5043285E0,-5.65702E-3,1.6816696E0,9.1430026E-1,-2.1100718E-1,2.625202E0,1.1508151E0,2.8842447E0,2.1075795E0,2.9886549E0,1.0516113E0,2.1020482E0,9.3147826E-1,-4.735163E-2,5.1283045E-3,7.070773E-2,-4.103776E-2,-1.671561E-2,-4.6522506E-2,-5.440074E-2,-4.9486414E-2,4.579292E-2,-2.6823774E-2,6.827449E-2,5.5137104E-3,-2.1098439E-2,8.9455314E-2,-4.953999E-2,-3.3475637E-2,5.4136813E-2,4.8417393E-3,1.008982E-1,-2.73665E-3,-1.4390429E-2,9.6563645E-2,2.281394E-2,-1.947547E-2,-3.4914363E-2,-1.5092889E-2,5.5709656E-2,2.1212136E-3,1.914889E-3,-5.295974E-2,-4.0357634E-2,5.2095454E-2,-3.7782468E-2,9.1546975E-2,1.5722948E-1,4.5789592E-2,7.804862E-2,2.1199273E-2,1.3365598E-1,-7.2873295E-3,5.803565E-2,-2.1453496E-2,9.555381E-2,8.3457865E-3,1.3900016E-1,3.4433812E-2,-1.4433744E-2,6.5304056E-2,1.4317767E-1,1.0459456E-2,7.902751E-3,9.419169E-2,1.4581698E-1,3.261521E-2,5.075252E-2,1.1820852E-1,6.2334277E-2,1.6076018E-1,8.5286E-2,-3.8568843E-2,7.760961E-2,1.3783382E-1,6.014366E-2,3.0272148E-4],"categories":[],"categories_nodes":[],"categories_segments":[],"categories_sizes":[],"default_left":[0,0,0,0,0,0,0,0,0,0,0,0,0,0,0,0,0,0,0,0,0,0,0,0,0,0,0,0,0,0,0,0,0,0,0,0,0,0,0,0,0,0,0,0,0,0,0,0,0,0,0,0,0,0,0,0,0,0,0,0,0,0,0,0,0,0,0,0,0,0,0,0,0,0,0,0,0,0,0,0,0,0,0,0,0,0,0,0,0,0,0,0,0,0,0,0,0,0,0,0,0,0,0,0,0,0,0,0,0,0,0,0,0,0,0,0,0,0,0,0,0,0,0,0,0,0,0],"id":4,"left_children":[1,3,5,7,9,11,13,15,17,19,21,23,25,27,29,31,33,35,37,39,41,43,45,47,49,51,53,55,57,59,61,63,65,67,69,71,73,75,77,79,81,83,85,87,89,91,93,95,97,99,101,103,105,107,109,111,113,115,117,119,121,123,125,-1,-1,-1,-1,-1,-1,-1,-1,-1,-1,-1,-1,-1,-1,-1,-1,-1,-1,-1,-1,-1,-1,-1,-1,-1,-1,-1,-1,-1,-1,-1,-1,-1,-1,-1,-1,-1,-1,-1,-1,-1,-1,-1,-1,-1,-1,-1,-1,-1,-1,-1,-1,-1,-1,-1,-1,-1,-1,-1,-1,-1,-1,-1,-1],"loss_changes":[3.1238215E3,4.7517285E2,3.4230237E2,7.508545E1,2.738401E2,1.2993407E2,8.070471E1,1.9297363E1,4.911235E1,3.814058E1,1.7381018E2,5.4493317E1,1.0525264E2,1.6968628E1,4.7651947E1,9.930783E0,1.5885254E1,2.7485027E1,2.1391357E1,3.081723E1,2.5581001E1,1.6763623E2,1.0117554E1,1.1393433E1,4.20661E1,2.6414139E1,5.23442E1,1.3915596E1,1.2417419E1,1.49049225E1,3.216922E1,4.183647E0,1.1193503E1,1.2549316E1,7.138672E0,1.4292291E1,1.2251343E1,1.7607126E1,8.76532E0,7.7928524E0,1.0642609E1,1.1149395E1,1.1667959E1,5.5390198E1,5.0160282E1,4.102478E0,1.1875465E1,1.0881706E1,7.9944153E0,1.8578182E1,8.309555E0,6.4237995E0,2.0201477E1,2.0152946E1,2.3407076E1,6.2554245E0,1.5697172E1,5.142029E0,1.0981583E1,5.7883606E0,1.02331915E1,7.3276825E0,2.5851501E1,0E0,0E0,0E0,0E0,0E0,0E0,0E0,0E0,0E0,0E0,0E0,0E0,0E0,0E0,0E0,0E0,0E0,0E0,0E0,0E0,0E0,0E0,0E0,0E0,0E0,0E0,0E0,0E0,0E0,0E0,0E0,0E0,0E0,0E0,0E0,0E0,0E0,0E0,0E0,0E0,0E0,0E0,0E0,0E0,0E0,0E0,0E0,0E0,0E0,0E0,0E0,0E0,0E0,0E0,0E0,0E0,0E0,0E0,0E0,0E0,0E0,0E0,0E0,0E0],"parents":[2147483647,0,0,1,1,2,2,3,3,4,4,5,5,6,6,7,7,8,8,9,9,10,10,11,11,12,12,13,13,14,14,15,15,16,16,17,17,18,18,19,19,20,20,21,21,22,22,23,23,24,24,25,25,26,26,27,27,28,28,29,29,30,30,31,31,32,32,33,33,34,34,35,35,36,36,37,37,38,38,39,39,40,40,41,41,42,42,43,43,44,44,45,45,46,46,47,47,48,48,49,49,50,50,51,51,52,52,53,53,54,54,55,55,56,56,57,57,58,58,59,59,60,60,61,61,62,62],"right_children":[2,4,6,8,10,12,14,16,18,20,22,24,26,28,30,32,34,36,38,40,42,44,46,48,50,52,54,56,58,60,62,64,66,68,70,72,74,76,78,80,82,84,86,88,90,92,94,96,98,100,102,104,106,108,110,112,114,116,118,120,122,124,126,-1,-1,-1,-1,-1,-1,-1,-1,-1,-1,-1,-1,-1,-1,-1,-1,-1,-1,-1,-1,-1,-1,-1,-1,-1,-1,-1,-1,-1,-1,-1,-1,-1,-1,-1,-1,-1,-1,-1,-1,-1,-1,-1,-1,-1,-1,-1,-1,-1,-1,-1,-1,-1,-1,-1,-1,-1,-1,-1,-1,-1,-1,-1,-1],"split_conditions":[1.0062119E0,1.4079688E0,2.427994E0,2.2785535E-1,-1.1491234E0,-8.242782E-1,-6.3311225E-1,-9.148592E-1,-1.21692E0,-9.0927017E-1,2.0730298E0,-7.094801E-1,-1.1119576E0,1.4079688E0,-1.4091111E0,9.167783E-1,-2.507805E-1,5.065776E-1,-5.3752935E-1,1.1794913E-1,-9.750162E-1,2.2785535E-1,-7.649147E-1,-3.786713E-1,2.8879309E0,6.817525E-3,-1.1398127E0,-1.1783931E0,2.0969822E0,9.8965186E-1,-1.441179E0,6.817525E-3,3.605645E-1,-1.423817E0,6.817525E-3,-1.9241086E0,3.596834E-2,6.957789E-1,6.817525E-3,3.7468308E-1,2.3460994E0,-3.2146785E-1,-3.289087E-2,7.0947506E-2,-1.2686443E0,-1.666885E0,3.389273E0,-4.343167E-1,1.8201524E0,-1.025994E0,1.8546354E0,-1.1013415E0,1.5672733E0,-8.384251E-1,3.5269291E0,2.0769165E0,3.893406E-1,5.6324773E0,1.6053078E-1,-5.622045E-1,-7.7726406E-1,2.719801E-1,2.977631E0,-4.735163E-2,5.1283045E-3,7.070773E-2,-4.103776E-2,-1.671561E-2,-4.6522506E-2,-5.440074E-2,-4.9486414E-2,4.579292E-2,-2.6823774E-2,6.827449E-2,5.5137104E-3,-2.1098439E-2,8.9455314E-2,-4.953999E-2,-3.3475637E-2,5.4136813E-2,4.8417393E-3,1.008982E-1,-2.73665E-3,-1.4390429E-2,9.6563645E-2,2.281394E-2,-1.947547E-2,-3.4914363E-2,-1.5092889E-2,5.5709656E-2,2.1212136E-3,1.914889E-3,-5.295974E-2,-4.0357634E-2,5.2095454E-2,-3.7782468E-2,9.1546975E-2,1.5722948E-1,4.5789592E-2,7.804862E-2,2.1199273E-2,1.3365598E-1,-7.2873295E-3,5.803565E-2,-2.1453496E-2,9.555381E-2,8.3457865E-3,1.3900016E-1,3.4433812E-2,-1.4433744E-2,6.5304056E-2,1.4317767E-1,1.0459456E-2,7.902751E-3,9.419169E-2,1.4581698E-1,3.261521E-2,5.075252E-2,1.1820852E-1,6.2334277E-2,1.6076018E-1,8.5286E-2,-3.8568843E-2,7.760961E-2,1.3783382E-1,6.014366E-2,3.0272148E-4],"split_indices":[17,55,17,17,54,5,5,26,6,7,65,26,54,55,1,2,5,4,5,12,3,17,53,28,28,57,1,3,39,36,53,57,1,6,57,3,5,49,57,52,27,17,13,22,6,18,46,2,22,7,18,1,57,22,49,22,30,48,32,25,6,4,39,0,0,0,0,0,0,0,0,0,0,0,0,0,0,0,0,0,0,0,0,0,0,0,0,0,0,0,0,0,0,0,0,0,0,0,0,0,0,0,0,0,0,0,0,0,0,0,0,0,0,0,0,0,0,0,0,0,0,0,0,0,0,0,0],"split_type":[0,0,0,0,0,0,0,0,0,0,0,0,0,0,0,0,0,0,0,0,0,0,0,0,0,0,0,0,0,0,0,0,0,0,0,0,0,0,0,0,0,0,0,0,0,0,0,0,0,0,0,0,0,0,0,0,0,0,0,0,0,0,0,0,0,0,0,0,0,0,0,0,0,0,0,0,0,0,0,0,0,0,0,0,0,0,0,0,0,0,0,0,0,0,0,0,0,0,0,0,0,0,0,0,0,0,0,0,0,0,0,0,0,0,0,0,0,0,0,0,0,0,0,0,0,0,0],"sum_hessian":[9.331029E3,8.555864E3,7.751646E2,5.746931E3,2.808933E3,4.357022E2,3.3946243E2,5.1624297E3,5.845016E2,1.4973743E2,2.6591958E3,1.2077373E2,3.1492847E2,1.759555E2,1.6350693E2,2.379021E1,5.138639E3,9.3078865E1,4.9142276E2,7.307435E1,7.666307E1,1.9201763E3,7.390194E2,3.3349323E1,8.742441E1,6.905169E1,2.4587679E2,3.1882729E1,1.4407277E2,3.030272E1,1.3320421E2,1.5520882E1,8.26933E0,7.673085E2,4.371331E3,6.2486115E1,3.0592752E1,9.04126E1,4.0101016E2,3.1606432E1,4.146792E1,1.3363395E1,6.329968E1,1.5366471E3,3.8352917E2,5.4034436E2,1.9867505E2,7.0878024E0,2.626152E1,7.0718636E1,1.6705774E1,1.0998985E1,5.80527E1,5.142335E1,1.9445343E2,1.0902982E1,2.0979748E1,9.733903E1,4.673374E1,2.382436E1,6.478359E0,3.1244864E1,1.0195934E2,9.994811E0,5.526071E0,5.6934514E0,2.5758781E0,3.863506E1,7.286734E2,3.205101E3,1.16623E3,6.7766147E0,5.57095E1,1.562837E1,1.4964381E1,8.7633865E1,2.778727E0,2.586098E2,1.4240036E2,1.4276883E1,1.732955E1,3.888206E1,2.585857E0,2.5047803E0,1.0858615E1,3.2513943E1,3.0785736E1,9.840391E2,5.52608E2,4.924457E1,3.342846E2,3.3586333E0,5.369857E2,1.9595723E2,2.717816E0,1.5446806E0,5.543122E0,2.3450214E1,2.811306E0,1.9704922E1,5.101371E1,1.5697274E1,1.0085012E0,2.4656274E0,8.533359E0,5.01899E1,7.862799E0,4.3264217E0,4.7096928E1,1.8575346E2,8.699978E0,9.755331E0,1.1476508E0,9.427408E0,1.155234E1,9.565686E1,1.6821718E0,9.830918E0,3.6902824E1,3.4902444E0,2.0334116E1,4.8150077E0,1.6633518E0,1.8813522E1,1.2431341E1,7.860686E1,2.3352486E1],"tree_param":{"num_deleted":"0","num_feature":"66","num_nodes":"127","size_leaf_vector":"1"}},{"base_weights":[-6.3784504E-1,-8.4617174E-1,9.0076655E-1,-9.8824245E-1,-6.268403E-1,3.7194183E-1,1.7807679E0,-6.5785104E-1,-1.030298E0,2.1521062E-1,-7.250023E-1,-2.4023257E-1,7.1442795E-1,2.0861902E0,1.1391814E0,-8.950542E-1,-4.2894727E-1,-1.0793442E0,-8.979633E-1,1.3928303E0,-8.491536E-2,-8.708538E-1,-4.4165474E-1,5.1264423E-1,-4.4634262E-1,1.5213318E0,3.2881197E-1,1.7990866E0,2.5961194E0,1.9296273E0,7.1729785E-1,-9.26414E-1,2.4435793E-1,-5.6366736E-1,9.277533E-2,-1.0831648E0,-7.5515383E-1,-9.3182856E-1,-5.226688E-1,3.182993E-1,1.8677127E0,-7.388141E-1,4.0205032E-1,-6.546451E-1,-9.7593486E-1,-8.17912E-2,-6.251687E-1,-5.940032E-1,8.626432E-1,3.2541072E-1,-6.3966846E-1,1.7615503E0,4.2852876E-1,9.852164E-1,-4.4993177E-2,1.4269085E0,2.2526305E0,2.6412272E0,1.0110195E0,1.266833E0,2.559129E0,1.4469503E0,2.7888173E-1,-5.2750606E-2,-3.499369E-2,5.9994876E-2,-3.4352437E-2,-2.9274866E-2,6.5599516E-2,-1.1167771E-2,6.689258E-2,-5.420195E-2,-1.999723E-2,-4.790652E-2,2.7336717E-2,-3.95067E-2,-5.029217E-2,-2.9936722E-2,4.463182E-2,-4.117647E-3,6.328905E-2,9.986487E-2,1.5095566E-2,-4.289412E-2,7.056226E-2,1.279369E-2,1.0851711E-1,-4.366178E-2,-2.0208111E-2,-5.0508596E-2,-3.1421352E-2,-1.2611381E-2,2.5295526E-2,-1.0506431E-2,-3.7427343E-2,-5.2985918E-2,6.383341E-3,1.6933858E-2,8.4816985E-2,-5.245474E-3,7.1021274E-2,4.2039435E-2,-3.4535095E-2,7.426005E-2,1.3667326E-1,-6.248005E-3,8.019926E-2,2.98326E-2,1.0018965E-1,3.106246E-2,-1.6130997E-2,4.61615E-2,9.033746E-2,4.6159785E-2,1.1986976E-1,4.426441E-2,1.3373117E-1,8.530864E-2,-4.5676767E-3,1.0277005E-1,1.5359036E-2,1.3268566E-1,1.5612076E-2,1.4449678E-2,1.0059424E-1,-3.614058E-4,9.0177625E-2],"categories":[],"categories_nodes":[],"categories_segments":[],"categories_sizes":[],"default_left":[0,0,0,0,0,0,0,0,0,0,0,0,0,0,0,0,0,0,0,0,0,0,0,0,0,0,0,0,0,0,0,0,0,0,0,0,0,0,0,0,0,0,0,0,0,0,0,0,0,0,0,0,0,0,0,0,0,0,0,0,0,0,0,0,0,0,0,0,0,0,0,0,0,0,0,0,0,0,0,0,0,0,0,0,0,0,0,0,0,0,0,0,0,0,0,0,0,0,0,0,0,0,0,0,0,0,0,0,0,0,0,0,0,0,0,0,0,0,0,0,0,0,0,0,0,0,0],"id":5,"left_children":[1,3,5,7,9,11,13,15,17,19,21,23,25,27,29,31,33,35,37,39,41,43,45,47,49,51,53,55,57,59,61,63,65,67,69,71,73,75,77,79,81,83,85,87,89,91,93,95,97,99,101,103,105,107,109,111,113,115,117,119,121,123,125,-1,-1,-1,-1,-1,-1,-1,-1,-1,-1,-1,-1,-1,-1,-1,-1,-1,-1,-1,-1,-1,-1,-1,-1,-1,-1,-1,-1,-1,-1,-1,-1,-1,-1,-1,-1,-1,-1,-1,-1,-1,-1,-1,-1,-1,-1,-1,-1,-1,-1,-1,-1,-1,-1,-1,-1,-1,-1,-1,-1,-1,-1,-1,-1],"loss_changes":[2.9162544E3,2.4902539E2,5.0434106E2,6.685693E1,2.607052E2,1.4255273E2,7.7391235E1,2.9565445E1,2.7003418E1,1.1670534E2,1.162926E2,3.815013E1,1.3507745E2,3.5529297E1,4.3131317E1,9.872635E0,1.9917011E1,3.0703125E0,1.44001465E1,3.3621002E1,8.430305E1,4.168396E1,6.344278E1,2.1036053E1,2.8912548E1,3.615976E1,7.269832E1,2.6989136E1,4.2403564E0,1.5892914E1,2.7947586E1,6.9217834E0,7.9642916E0,9.971245E0,2.3466946E1,1.418457E0,1.1059502E1,1.0459534E1,1.1216854E1,8.363282E0,8.79071E0,3.0128742E1,3.8697E1,3.3172394E1,1.4255615E1,3.2767433E1,3.2440353E1,4.613404E0,1.7188707E1,1.8621452E1,1.2229954E1,2.6816772E1,1.7546919E1,4.1344254E1,3.527384E1,1.7656921E1,1.29756775E1,3.1067505E0,3.4468617E0,1.7773125E1,3.9618683E0,2.1023254E1,2.4703804E1,0E0,0E0,0E0,0E0,0E0,0E0,0E0,0E0,0E0,0E0,0E0,0E0,0E0,0E0,0E0,0E0,0E0,0E0,0E0,0E0,0E0,0E0,0E0,0E0,0E0,0E0,0E0,0E0,0E0,0E0,0E0,0E0,0E0,0E0,0E0,0E0,0E0,0E0,0E0,0E0,0E0,0E0,0E0,0E0,0E0,0E0,0E0,0E0,0E0,0E0,0E0,0E0,0E0,0E0,0E0,0E0,0E0,0E0,0E0,0E0,0E0,0E0,0E0,0E0],"parents":[2147483647,0,0,1,1,2,2,3,3,4,4,5,5,6,6,7,7,8,8,9,9,10,10,11,11,12,12,13,13,14,14,15,15,16,16,17,17,18,18,19,19,20,20,21,21,22,22,23,23,24,24,25,25,26,26,27,27,28,28,29,29,30,30,31,31,32,32,33,33,34,34,35,35,36,36,37,37,38,38,39,39,40,40,41,41,42,42,43,43,44,44,45,45,46,46,47,47,48,48,49,49,50,50,51,51,52,52,53,53,54,54,55,55,56,56,57,57,58,58,59,59,60,60,61,61,62,62],"right_children":[2,4,6,8,10,12,14,16,18,20,22,24,26,28,30,32,34,36,38,40,42,44,46,48,50,52,54,56,58,60,62,64,66,68,70,72,74,76,78,80,82,84,86,88,90,92,94,96,98,100,102,104,106,108,110,112,114,116,118,120,122,124,126,-1,-1,-1,-1,-1,-1,-1,-1,-1,-1,-1,-1,-1,-1,-1,-1,-1,-1,-1,-1,-1,-1,-1,-1,-1,-1,-1,-1,-1,-1,-1,-1,-1,-1,-1,-1,-1,-1,-1,-1,-1,-1,-1,-1,-1,-1,-1,-1,-1,-1,-1,-1,-1,-1,-1,-1,-1,-1,-1,-1,-1,-1,-1,-1],"split_conditions":[6.783196E-1,6.817525E-3,2.1694882E0,-4.419464E-1,7.8704536E-1,6.817525E-3,3.596834E-2,-2.109461E-1,-1.0075768E-2,-1.1491234E0,5.539514E-2,-8.242782E-1,7.8704536E-1,5.206932E0,-1.2684202E0,2.8879309E0,7.5753814E-1,2.2385015E0,1.3573527E0,-3.1992847E-1,5.5027705E-1,1.5672733E0,1.5672733E0,-2.6828635E-1,-1.21692E0,1.3835585E0,-9.065746E-1,1.0889325E0,1.7866793E0,-8.9926034E-1,-9.84161E-1,1.0315607E0,-2.4402831E-1,3.6152008E0,-3.3410363E-2,4.9276037E0,4.2577812E-1,-4.669186E-1,1.3490192E0,2.644699E-1,7.5786406E-1,1.6166509E0,2.1456196E0,-2.533907E-1,3.497319E-1,6.62854E-1,-9.065746E-1,7.909188E-1,7.699202E-1,9.803656E-1,-7.265112E-1,1.8464055E0,5.246546E-1,1.0889325E0,-3.4636346E-1,2.719801E-1,-1.772725E0,-2.076364E0,5.229844E-1,4.6206194E-1,9.256626E-1,6.6158995E-2,2.1552553E0,-5.2750606E-2,-3.499369E-2,5.9994876E-2,-3.4352437E-2,-2.9274866E-2,6.5599516E-2,-1.1167771E-2,6.689258E-2,-5.420195E-2,-1.999723E-2,-4.790652E-2,2.7336717E-2,-3.95067E-2,-5.029217E-2,-2.9936722E-2,4.463182E-2,-4.117647E-3,6.328905E-2,9.986487E-2,1.5095566E-2,-4.289412E-2,7.056226E-2,1.279369E-2,1.0851711E-1,-4.366178E-2,-2.0208111E-2,-5.0508596E-2,-3.1421352E-2,-1.2611381E-2,2.5295526E-2,-1.0506431E-2,-3.7427343E-2,-5.2985918E-2,6.383341E-3,1.6933858E-2,8.4816985E-2,-5.245474E-3,7.1021274E-2,4.2039435E-2,-3.4535095E-2,7.426005E-2,1.3667326E-1,-6.248005E-3,8.019926E-2,2.98326E-2,1.0018965E-1,3.106246E-2,-1.6130997E-2,4.61615E-2,9.033746E-2,4.6159785E-2,1.1986976E-1,4.426441E-2,1.3373117E-1,8.530864E-2,-4.5676767E-3,1.0277005E-1,1.5359036E-2,1.3268566E-1,1.5612076E-2,1.4449678E-2,1.0059424E-1,-3.614058E-4,9.0177625E-2],"split_indices":[17,57,17,5,57,57,5,10,10,54,10,5,57,17,7,28,28,2,2,10,64,57,57,10,6,58,6,28,21,23,6,64,20,50,25,49,16,6,25,37,21,10,32,12,16,28,6,64,2,16,42,28,12,28,5,4,23,18,11,36,13,11,33,0,0,0,0,0,0,0,0,0,0,0,0,0,0,0,0,0,0,0,0,0,0,0,0,0,0,0,0,0,0,0,0,0,0,0,0,0,0,0,0,0,0,0,0,0,0,0,0,0,0,0,0,0,0,0,0,0,0,0,0,0,0,0,0],"split_type":[0,0,0,0,0,0,0,0,0,0,0,0,0,0,0,0,0,0,0,0,0,0,0,0,0,0,0,0,0,0,0,0,0,0,0,0,0,0,0,0,0,0,0,0,0,0,0,0,0,0,0,0,0,0,0,0,0,0,0,0,0,0,0,0,0,0,0,0,0,0,0,0,0,0,0,0,0,0,0,0,0,0,0,0,0,0,0,0,0,0,0,0,0,0,0,0,0,0,0,0,0,0,0,0,0,0,0,0,0,0,0,0,0,0,0,0,0,0,0,0,0,0,0,0,0,0,0],"sum_hessian":[9.094737E3,8.010564E3,1.0841736E3,4.8594053E3,3.1511587E3,6.781008E2,4.0607275E2,5.505879E2,4.3088174E3,3.2886914E2,2.8222896E3,2.4337695E2,4.3472388E2,2.735837E2,1.3248906E2,2.6896298E2,2.8162494E2,3.138473E3,1.1703446E3,6.6052956E1,2.628162E2,1.8618433E3,9.604462E2,5.1988102E1,1.9138885E2,1.3962094E2,2.9510294E2,1.7793158E2,9.565212E1,4.4861748E1,8.762731E1,2.6194058E2,7.0224E0,2.2376385E2,5.7861088E1,3.0996033E3,3.886961E1,1.0721174E3,9.822715E1,2.0756613E1,4.5296345E1,1.119595E2,1.5085667E2,6.112992E2,1.2505441E3,3.2485806E2,6.3558813E2,1.2324045E1,3.9664055E1,3.8202385E1,1.5318648E2,1.1395874E2,2.5662207E1,1.0648279E2,1.8862015E2,1.0000974E2,7.792184E1,9.235757E1,3.294555E0,2.332042E1,2.154133E1,3.2026108E1,5.5601208E1,1.6475723E2,9.7183334E1,3.3240054E0,3.6983945E0,2.2186945E2,1.8943982E0,4.6799168E1,1.1061921E1,3.0950562E3,4.547182E0,3.3855293E1,5.014313E0,3.7187427E2,7.002432E2,9.3764725E1,4.46243E0,1.5229673E1,5.52694E0,4.1579662E1,3.7166831E0,1.066541E2,5.3054085E0,1.4039554E2,1.046115E1,3.2510318E2,2.8619604E2,1.1366523E3,1.1389165E2,2.5226949E2,7.2588585E1,1.4626404E2,4.8932413E2,7.2056193E0,5.1184254E0,2.5219934E1,1.4444123E1,2.8074017E1,1.0128368E1,4.588912E0,1.4859756E2,9.069818E1,2.3260555E1,1.8054533E1,7.607673E0,7.8226776E1,2.8256012E1,5.511609E1,1.3350406E2,4.4470833E1,5.5538906E1,8.376266E0,6.954557E1,2.2371657E0,9.01204E1,1.6845533E0,1.6100018E0,1.217452E1,1.1145899E1,2.0497417E1,1.0439143E0,1.0996967E1,2.102914E1,4.7654022E1,7.9471865E0],"tree_param":{"num_deleted":"0","num_feature":"66","num_nodes":"127","size_leaf_vector":"1"}},{"base_weights":[-6.237352E-1,-8.022445E-1,1.07533E0,-9.7206694E-1,-4.6682638E-1,7.1162504E-1,1.8873131E0,-1.0274265E0,-6.800472E-1,6.5755045E-1,-5.360498E-1,1.621871E0,4.5197567E-1,2.1353161E0,1.2718961E0,-1.0537466E0,-8.265497E-1,-2.1557768E-1,-7.809322E-1,1.9142583E-2,1.0318103E0,-7.35651E-1,-2.4516924E-1,2.0221488E0,1.0411731E0,-2.5320336E-1,7.633711E-1,1.8176727E0,2.3659384E0,2.0822225E0,8.764122E-1,-1.0739573E0,-9.3620646E-1,-3.3375695E-1,-8.936778E-1,-3.418051E-1,2.179298E0,-2.7401596E-1,-8.3054835E-1,-1.3377671E-1,1.8705521E0,1.8803663E0,7.002422E-1,-7.7269953E-1,5.287774E-1,9.557728E-1,-3.0869928E-1,1.5526243E0,2.6587148E0,4.408858E-1,1.5767365E0,-5.410313E-1,4.7097084E-1,1.3696465E0,3.8976747E-1,1.3222502E0,2.2893994E0,2.4675927E0,1.4212258E0,6.645338E-1,2.700637E0,1.980112E0,5.475311E-1,-3.3963896E-2,-5.3830024E-2,-4.7724362E-2,-6.500445E-3,-2.5312698E-2,8.122382E-2,-2.003467E-2,-4.68938E-2,7.613021E-2,-2.1177419E-2,1.4181873E-1,-1.5438321E-2,-2.9353341E-2,1.5960462E-2,-4.2309903E-2,2.5329089E-2,-2.8892512E-2,1.5453853E-2,1.1958223E-1,1.1407218E-2,6.835477E-4,1.0250574E-1,5.5540152E-2,7.5567067E-3,-5.0409317E-2,-3.1006722E-2,-1.091457E-2,6.8275504E-2,9.232748E-2,1.7530197E-2,-2.4805384E-2,1.0526144E-3,3.4594532E-2,9.580356E-2,1.4078279E-1,2.8236879E-2,-9.817675E-3,5.7521164E-2,4.513544E-2,1.0309519E-1,5.380547E-2,-3.0488614E-2,7.664568E-2,-3.5339624E-3,7.999714E-2,3.2841276E-2,6.36627E-2,5.829795E-3,7.2421096E-2,-2.1081647E-2,7.760229E-3,1.1751946E-1,1.2521492E-1,4.9845766E-2,9.19808E-2,-8.309835E-3,8.0122635E-2,-1.3989158E-2,3.4737736E-2,1.4030372E-1,1.2600313E-1,3.667104E-2,6.619887E-2,7.046044E-3],"categories":[],"categories_nodes":[],"categories_segments":[],"categories_sizes":[],"default_left":[0,0,0,0,0,0,0,0,0,0,0,0,0,0,0,0,0,0,0,0,0,0,0,0,0,0,0,0,0,0,0,0,0,0,0,0,0,0,0,0,0,0,0,0,0,0,0,0,0,0,0,0,0,0,0,0,0,0,0,0,0,0,0,0,0,0,0,0,0,0,0,0,0,0,0,0,0,0,0,0,0,0,0,0,0,0,0,0,0,0,0,0,0,0,0,0,0,0,0,0,0,0,0,0,0,0,0,0,0,0,0,0,0,0,0,0,0,0,0,0,0,0,0,0,0,0,0],"id":6,"left_children":[1,3,5,7,9,11,13,15,17,19,21,23,25,27,29,31,33,35,37,39,41,43,45,47,49,51,53,55,57,59,61,63,65,67,69,71,73,75,77,79,81,83,85,87,89,91,93,95,97,99,101,103,105,107,109,111,113,115,117,119,121,123,125,-1,-1,-1,-1,-1,-1,-1,-1,-1,-1,-1,-1,-1,-1,-1,-1,-1,-1,-1,-1,-1,-1,-1,-1,-1,-1,-1,-1,-1,-1,-1,-1,-1,-1,-1,-1,-1,-1,-1,-1,-1,-1,-1,-1,-1,-1,-1,-1,-1,-1,-1,-1,-1,-1,-1,-1,-1,-1,-1,-1,-1,-1,-1,-1],"loss_changes":[2.6860947E3,4.55937E2,2.4736578E2,8.527588E1,2.1011444E2,1.3711252E2,3.695465E1,2.275586E1,3.96839E1,3.7432114E1,1.4725E2,2.789325E1,1.001461E2,9.163147E0,2.2893402E1,8.37207E0,1.69805E1,4.7041218E1,1.7336609E1,1.6939808E1,2.6480637E1,7.093024E1,7.925025E1,1.8388794E1,1.6897758E1,2.9473795E1,7.10421E1,1.6048859E1,6.4003906E0,1.9747032E1,1.835749E1,2.7756348E0,8.526428E0,2.2514322E1,9.627777E0,2.2948164E1,1.3633186E1,1.2026625E1,1.3728851E1,1.1070646E1,3.3606749E0,8.579742E0,1.6206757E1,5.1934998E1,2.74571E1,2.7512379E1,6.079624E1,1.2989624E1,8.458084E0,1.25199E1,7.469246E0,1.1858929E1,2.3348835E1,1.8662262E1,4.737552E1,9.891411E0,4.8997345E0,2.458191E0,8.528564E0,8.232807E0,1.5996933E0,6.1715126E0,1.3277414E1,0E0,0E0,0E0,0E0,0E0,0E0,0E0,0E0,0E0,0E0,0E0,0E0,0E0,0E0,0E0,0E0,0E0,0E0,0E0,0E0,0E0,0E0,0E0,0E0,0E0,0E0,0E0,0E0,0E0,0E0,0E0,0E0,0E0,0E0,0E0,0E0,0E0,0E0,0E0,0E0,0E0,0E0,0E0,0E0,0E0,0E0,0E0,0E0,0E0,0E0,0E0,0E0,0E0,0E0,0E0,0E0,0E0,0E0,0E0,0E0,0E0,0E0,0E0,0E0],"parents":[2147483647,0,0,1,1,2,2,3,3,4,4,5,5,6,6,7,7,8,8,9,9,10,10,11,11,12,12,13,13,14,14,15,15,16,16,17,17,18,18,19,19,20,20,21,21,22,22,23,23,24,24,25,25,26,26,27,27,28,28,29,29,30,30,31,31,32,32,33,33,34,34,35,35,36,36,37,37,38,38,39,39,40,40,41,41,42,42,43,43,44,44,45,45,46,46,47,47,48,48,49,49,50,50,51,51,52,52,53,53,54,54,55,55,56,56,57,57,58,58,59,59,60,60,61,61,62,62],"right_children":[2,4,6,8,10,12,14,16,18,20,22,24,26,28,30,32,34,36,38,40,42,44,46,48,50,52,54,56,58,60,62,64,66,68,70,72,74,76,78,80,82,84,86,88,90,92,94,96,98,100,102,104,106,108,110,112,114,116,118,120,122,124,126,-1,-1,-1,-1,-1,-1,-1,-1,-1,-1,-1,-1,-1,-1,-1,-1,-1,-1,-1,-1,-1,-1,-1,-1,-1,-1,-1,-1,-1,-1,-1,-1,-1,-1,-1,-1,-1,-1,-1,-1,-1,-1,-1,-1,-1,-1,-1,-1,-1,-1,-1,-1,-1,-1,-1,-1,-1,-1,-1,-1,-1,-1,-1,-1],"split_conditions":[1.0062119E0,1.4079688E0,3.3327644E0,3.6211926E-1,-1.1491234E0,-1.3977759E0,3.596834E-2,1.0144146E-1,-6.3311225E-1,-2.4608053E-1,-1.045603E-1,-4.6657375E-1,6.817525E-3,5.206932E0,-3.0483873E0,2.4813482E-1,-7.286952E-1,2.8879309E0,-1.3544321E0,1.6289167E0,-3.2886395E0,2.3198261E0,-1.8756906E0,1.6769327E-1,1.4485058E-1,8.264737E-1,7.8704536E-1,8.9956427E-1,3.3188257E0,-1.4963121E0,-1.3478739E0,-1.7955785E0,1.2411256E0,3.124641E0,-1.2686443E0,-9.408958E-1,1.2104946E0,9.0336454E-1,1.0492235E0,5.2649885E-2,2.4647372E0,-1.0234178E0,-1.7127719E-2,-5.568333E-1,3.7953272E-1,-4.5612222E-1,4.468322E-1,1.4079688E0,8.601861E-1,-1.6732952E-1,-2.1994518E-1,-4.519488E-1,-2.507805E-1,2.8217568E0,-1.1783931E0,2.2744398E0,-1.4113903E0,1.6867195E0,-5.148619E-1,-3.178508E0,4.0759687E0,1.2362791E0,-1.2280159E0,-3.3963896E-2,-5.3830024E-2,-4.7724362E-2,-6.500445E-3,-2.5312698E-2,8.122382E-2,-2.003467E-2,-4.68938E-2,7.613021E-2,-2.1177419E-2,1.4181873E-1,-1.5438321E-2,-2.9353341E-2,1.5960462E-2,-4.2309903E-2,2.5329089E-2,-2.8892512E-2,1.5453853E-2,1.1958223E-1,1.1407218E-2,6.835477E-4,1.0250574E-1,5.5540152E-2,7.5567067E-3,-5.0409317E-2,-3.1006722E-2,-1.091457E-2,6.8275504E-2,9.232748E-2,1.7530197E-2,-2.4805384E-2,1.0526144E-3,3.4594532E-2,9.580356E-2,1.4078279E-1,2.8236879E-2,-9.817675E-3,5.7521164E-2,4.513544E-2,1.0309519E-1,5.380547E-2,-3.0488614E-2,7.664568E-2,-3.5339624E-3,7.999714E-2,3.2841276E-2,6.36627E-2,5.829795E-3,7.2421096E-2,-2.1081647E-2,7.760229E-3,1.1751946E-1,1.2521492E-1,4.9845766E-2,9.19808E-2,-8.309835E-3,8.0122635E-2,-1.3989158E-2,3.4737736E-2,1.4030372E-1,1.2600313E-1,3.667104E-2,6.619887E-2,7.046044E-3],"split_indices":[17,55,17,16,54,5,5,17,5,10,10,3,57,17,24,10,5,28,13,22,7,28,5,23,10,16,57,28,48,23,3,18,24,28,6,26,2,16,50,48,22,18,13,53,53,26,2,55,18,11,42,47,5,43,3,26,19,21,14,13,17,33,7,0,0,0,0,0,0,0,0,0,0,0,0,0,0,0,0,0,0,0,0,0,0,0,0,0,0,0,0,0,0,0,0,0,0,0,0,0,0,0,0,0,0,0,0,0,0,0,0,0,0,0,0,0,0,0,0,0,0,0,0,0,0,0,0],"split_type":[0,0,0,0,0,0,0,0,0,0,0,0,0,0,0,0,0,0,0,0,0,0,0,0,0,0,0,0,0,0,0,0,0,0,0,0,0,0,0,0,0,0,0,0,0,0,0,0,0,0,0,0,0,0,0,0,0,0,0,0,0,0,0,0,0,0,0,0,0,0,0,0,0,0,0,0,0,0,0,0,0,0,0,0,0,0,0,0,0,0,0,0,0,0,0,0,0,0,0,0,0,0,0,0,0,0,0,0,0,0,0,0,0,0,0,0,0,0,0,0,0,0,0,0,0,0,0],"sum_hessian":[8.852419E3,8.0112583E3,8.411608E2,5.3172383E3,2.69402E3,5.822395E2,2.5892133E2,4.467748E3,8.494905E2,1.5574802E2,2.538272E3,1.2805925E2,4.5418027E2,1.8279018E2,7.613115E1,3.9464187E3,5.21329E2,1.5214749E2,6.97343E2,5.7949535E1,9.779848E1,1.504417E3,1.0338551E3,7.433649E1,5.372276E1,1.39181E2,3.1499927E2,8.0624725E1,1.0216545E2,2.3570793E1,5.2560356E1,3.3604602E3,5.859587E2,6.3217297E1,4.581117E2,1.4534407E2,6.8034167E0,6.2751278E1,6.3459174E2,5.4385265E1,3.5642703E0,2.6165089E1,7.163339E1,1.4619692E3,4.24477E1,5.1237682E1,9.8261743E2,4.47606E1,2.9575884E1,2.6190409E1,2.753235E1,9.977689E1,3.94041E1,1.1908492E2,1.9591435E2,4.1179596E1,3.944513E1,9.078469E1,1.1380757E1,7.789129E0,1.5781664E1,1.0913784E1,4.1646572E1,2.4071856E1,3.3363882E3,5.727866E2,1.3172084E1,5.8780876E1,4.4364204E0,3.852063E1,4.1959106E2,5.364451E0,1.3997961E2,5.271315E0,1.5321016E0,4.1082184E1,2.1669094E1,6.2761334E2,6.9783974E0,2.7003029E1,2.7382236E1,2.359486E0,1.2047843E0,2.2710705E0,2.3894018E1,4.040225E1,3.1231146E1,5.725779E2,8.8939136E2,2.2815878E1,1.9631824E1,1.9897827E1,3.1339855E1,6.2621497E2,3.564025E2,1.4151046E1,3.0609556E1,2.7193148E1,2.3827353E0,1.4179232E1,1.2011176E1,1.27206135E1,1.4811736E1,3.4708214E0,9.6306076E1,1.2691483E1,2.6712616E1,8.906541E1,3.001951E1,4.5405075E1,1.5050928E2,3.8559227E1,2.6203682E0,1.1944095E0,3.825072E1,8.788833E1,2.896362E0,8.881127E0,2.4996305E0,3.5581467E0,4.2309823E0,1.1671207E0,1.4614543E1,6.9027534E0,4.011031E0,1.3538286E1,2.8108288E1],"tree_param":{"num_deleted":"0","num_feature":"66","num_nodes":"127","size_leaf_vector":"1"}},{"base_weights":[-6.024927E-1,-8.167894E-1,8.244665E-1,-9.750056E-1,-4.9619588E-1,3.4713668E-1,1.5626134E0,-1.0391859E0,-7.9929316E-1,-3.3242005E-1,-9.687415E-1,9.4259405E-1,3.890854E-2,1.992531E0,1.1995405E0,-2.879606E-1,-1.0428171E0,-2.2874367E-1,-8.528403E-1,6.0768855E-1,-4.0206727E-1,-9.879649E-1,7.0736036E-2,2.3256228E0,7.722287E-1,1.0594907E0,-1.3710628E-1,1.3229569E0,2.1122832E0,1.8949656E0,9.46446E-1,4.861177E-1,-7.850856E-1,-8.564739E-1,-1.0553138E0,-4.4172242E-1,4.1686538E-1,-9.1762525E-1,-5.380255E-1,-1.01208225E-1,9.365861E-1,-6.096183E-1,-1.6209808E-1,-9.9660873E-1,1.7123245E-1,-3.7636286E-1,8.64437E-2,2.0269571E-1,2.557866E0,1.2689893E0,4.8181105E-1,1.2733322E0,2.0534439E-2,7.4661016E-1,-3.0590445E-1,2.0323324E0,6.407316E-1,2.17105E0,9.953458E-1,1.9823837E0,-1.1195874E-1,1.7442524E0,7.127643E-1,-2.0124003E-2,8.8166535E-2,-4.646485E-2,9.318547E-3,4.9648028E-2,-4.4352673E-2,-5.2845884E-2,-1.5253173E-2,1.3513707E-2,-2.8567297E-2,5.511601E-2,-1.2395828E-2,1.902605E-2,-4.626246E-2,-2.8723333E-2,1.0525104E-1,-2.6574602E-2,4.245145E-2,2.2299675E-2,7.0855156E-2,-3.9534763E-2,-1.9678336E-2,7.2579674E-2,-1.051905E-2,1.9860432E-2,-5.012877E-2,-4.218215E-2,8.572613E-2,3.9416656E-2,-3.839335E-2,6.0724147E-2,-3.7783504E-2,1.6839312E-1,8.8016264E-2,4.9941234E-2,9.663908E-2,5.433016E-2,7.4904533E-3,-2.9183691E-2,7.168925E-2,4.483659E-2,-2.6398221E-2,9.213036E-2,1.464337E-2,-3.3252638E-2,-6.9350534E-4,3.9460838E-2,1.1976141E-1,-1.4367334E-2,6.722464E-2,1.5116334E-2,1.0974971E-1,-3.148638E-2,7.786267E-2,1.0229977E-1,4.5558563E-3,3.7847415E-2,-3.9052434E-2,1.2772816E-1,6.4071454E-2,1.993267E-2,6.7736164E-2],"categories":[],"categories_nodes":[],"categories_segments":[],"categories_sizes":[],"default_left":[0,0,0,0,0,0,0,0,0,0,0,0,0,0,0,0,0,0,0,0,0,0,0,0,0,0,0,0,0,0,0,0,0,0,0,0,0,0,0,0,0,0,0,0,0,0,0,0,0,0,0,0,0,0,0,0,0,0,0,0,0,0,0,0,0,0,0,0,0,0,0,0,0,0,0,0,0,0,0,0,0,0,0,0,0,0,0,0,0,0,0,0,0,0,0,0,0,0,0,0,0,0,0,0,0,0,0,0,0,0,0,0,0,0,0,0,0,0,0,0,0,0,0,0,0],"id":7,"left_children":[1,3,5,7,9,11,13,15,17,19,21,23,25,27,29,31,33,35,37,39,41,43,45,47,49,51,53,55,57,59,61,63,65,67,69,71,73,75,77,79,81,83,85,87,89,91,-1,93,95,97,99,101,103,105,107,109,111,113,115,117,119,121,123,-1,-1,-1,-1,-1,-1,-1,-1,-1,-1,-1,-1,-1,-1,-1,-1,-1,-1,-1,-1,-1,-1,-1,-1,-1,-1,-1,-1,-1,-1,-1,-1,-1,-1,-1,-1,-1,-1,-1,-1,-1,-1,-1,-1,-1,-1,-1,-1,-1,-1,-1,-1,-1,-1,-1,-1,-1,-1,-1,-1,-1,-1],"loss_changes":[2.6382283E3,3.7991992E2,3.964359E2,5.5786133E1,1.9162305E2,1.2578048E2,6.663013E1,9.721436E0,4.097229E1,1.2093988E2,1.28151245E1,5.3285416E1,8.147495E1,1.3317505E1,4.084247E1,7.714286E0,7.609619E0,1.626899E1,2.4623047E1,2.9831879E1,8.540857E1,6.446167E0,9.92835E0,1.187709E1,2.9631554E1,1.4795258E1,5.7961815E1,1.4746483E1,8.917419E0,1.1386841E1,3.223996E1,9.867878E0,1.8523264E0,1.41753235E1,3.7949219E0,8.317392E0,1.3730436E1,1.0446228E1,2.1685379E1,1.7347143E1,1.9928886E1,3.568994E1,6.2448368E1,5.569641E0,1.0043589E1,5.474318E0,0E0,4.374835E0,8.655716E0,1.1829346E1,2.6723783E1,1.7316513E1,6.43445E0,3.0472672E1,3.414829E1,5.235939E0,1.2381146E1,6.4730225E0,1.0370365E1,7.156616E0,2.6858182E0,1.172657E1,2.7811897E1,0E0,0E0,0E0,0E0,0E0,0E0,0E0,0E0,0E0,0E0,0E0,0E0,0E0,0E0,0E0,0E0,0E0,0E0,0E0,0E0,0E0,0E0,0E0,0E0,0E0,0E0,0E0,0E0,0E0,0E0,0E0,0E0,0E0,0E0,0E0,0E0,0E0,0E0,0E0,0E0,0E0,0E0,0E0,0E0,0E0,0E0,0E0,0E0,0E0,0E0,0E0,0E0,0E0,0E0,0E0,0E0,0E0,0E0,0E0,0E0,0E0,0E0],"parents":[2147483647,0,0,1,1,2,2,3,3,4,4,5,5,6,6,7,7,8,8,9,9,10,10,11,11,12,12,13,13,14,14,15,15,16,16,17,17,18,18,19,19,20,20,21,21,22,22,23,23,24,24,25,25,26,26,27,27,28,28,29,29,30,30,31,31,32,32,33,33,34,34,35,35,36,36,37,37,38,38,39,39,40,40,41,41,42,42,43,43,44,44,45,45,47,47,48,48,49,49,50,50,51,51,52,52,53,53,54,54,55,55,56,56,57,57,58,58,59,59,60,60,61,61,62,62],"right_children":[2,4,6,8,10,12,14,16,18,20,22,24,26,28,30,32,34,36,38,40,42,44,46,48,50,52,54,56,58,60,62,64,66,68,70,72,74,76,78,80,82,84,86,88,90,92,-1,94,96,98,100,102,104,106,108,110,112,114,116,118,120,122,124,-1,-1,-1,-1,-1,-1,-1,-1,-1,-1,-1,-1,-1,-1,-1,-1,-1,-1,-1,-1,-1,-1,-1,-1,-1,-1,-1,-1,-1,-1,-1,-1,-1,-1,-1,-1,-1,-1,-1,-1,-1,-1,-1,-1,-1,-1,-1,-1,-1,-1,-1,-1,-1,-1,-1,-1,-1,-1,-1,-1,-1,-1],"split_conditions":[6.783196E-1,1.4079688E0,2.1694882E0,6.738741E-2,2.0730298E0,-3.4636346E-1,-1.015444E0,-9.148592E-1,-1.3720928E0,-1.1491234E0,1.7457563E0,-9.148592E-1,-1.1491234E0,1.4079688E0,-1.8340816E0,-4.9104147E-2,-6.3311225E-1,-3.3400808E-2,1.6606791E-1,-3.1992847E-1,-1.045603E-1,2.2780085E0,3.2757184E-1,-8.9169806E-1,-5.168987E-1,2.7485461E0,-1.3203685E0,-7.166294E-1,6.348397E-2,7.125678E0,-1.2936976E0,1.0557457E-1,1.802313E0,-1.7955785E0,2.185858E0,-6.8520033E-1,-2.870482E-1,-9.73268E-1,1.7388343E0,4.855144E-1,2.0636337E-1,-1.0200315E-1,-2.5447712E0,-7.7218187E-1,-1.6527112E-1,-9.84161E-1,8.64437E-2,2.5817126E-1,-2.1444063E-1,9.49795E-1,-1.0100231E0,1.4079688E0,-4.0885973E-1,-1.562996E0,3.0963522E-1,-2.8223494E-1,1.1796353E0,-4.515764E-1,4.4385245E-1,8.9231753E-1,-5.612914E-1,-4.003457E-2,1.0191816E0,-2.0124003E-2,8.8166535E-2,-4.646485E-2,9.318547E-3,4.9648028E-2,-4.4352673E-2,-5.2845884E-2,-1.5253173E-2,1.3513707E-2,-2.8567297E-2,5.511601E-2,-1.2395828E-2,1.902605E-2,-4.626246E-2,-2.8723333E-2,1.0525104E-1,-2.6574602E-2,4.245145E-2,2.2299675E-2,7.0855156E-2,-3.9534763E-2,-1.9678336E-2,7.2579674E-2,-1.051905E-2,1.9860432E-2,-5.012877E-2,-4.218215E-2,8.572613E-2,3.9416656E-2,-3.839335E-2,6.0724147E-2,-3.7783504E-2,1.6839312E-1,8.8016264E-2,4.9941234E-2,9.663908E-2,5.433016E-2,7.4904533E-3,-2.9183691E-2,7.168925E-2,4.483659E-2,-2.6398221E-2,9.213036E-2,1.464337E-2,-3.3252638E-2,-6.9350534E-4,3.9460838E-2,1.1976141E-1,-1.4367334E-2,6.722464E-2,1.5116334E-2,1.0974971E-1,-3.148638E-2,7.786267E-2,1.0229977E-1,4.5558563E-3,3.7847415E-2,-3.9052434E-2,1.2772816E-1,6.4071454E-2,1.993267E-2,6.7736164E-2],"split_indices":[17,55,17,10,65,5,5,26,6,54,10,26,54,55,7,35,5,52,17,10,10,20,14,30,7,50,6,1,24,37,1,18,7,18,49,26,24,26,49,22,12,0,5,52,15,6,0,22,45,30,6,55,1,1,64,52,27,11,24,24,18,43,29,0,0,0,0,0,0,0,0,0,0,0,0,0,0,0,0,0,0,0,0,0,0,0,0,0,0,0,0,0,0,0,0,0,0,0,0,0,0,0,0,0,0,0,0,0,0,0,0,0,0,0,0,0,0,0,0,0,0,0,0,0,0],"split_type":[0,0,0,0,0,0,0,0,0,0,0,0,0,0,0,0,0,0,0,0,0,0,0,0,0,0,0,0,0,0,0,0,0,0,0,0,0,0,0,0,0,0,0,0,0,0,0,0,0,0,0,0,0,0,0,0,0,0,0,0,0,0,0,0,0,0,0,0,0,0,0,0,0,0,0,0,0,0,0,0,0,0,0,0,0,0,0,0,0,0,0,0,0,0,0,0,0,0,0,0,0,0,0,0,0,0,0,0,0,0,0,0,0,0,0,0,0,0,0,0,0,0,0,0,0],"sum_hessian":[8.624304E3,7.4986113E3,1.1256929E3,5.0194297E3,2.4791814E3,6.845149E2,4.4117798E2,3.6729453E3,1.3464844E3,1.842357E3,6.368244E2,2.3277167E2,4.517432E2,1.9993971E2,2.4123825E2,1.8055044E1,3.6548904E3,1.1597987E2,1.2305045E3,1.2654248E2,1.7158146E3,6.253099E2,1.1514528E1,2.4141312E1,2.0863036E2,6.571137E1,3.8603183E2,3.2161533E1,1.6777818E2,6.2638878E1,1.7859937E2,7.069382E0,1.0985663E1,2.3407341E2,3.420817E3,8.7447716E1,2.8532156E1,1.01891064E3,2.1159392E2,4.032321E1,8.621927E1,9.192277E2,7.9658685E2,6.2082086E2,4.4890084E0,9.677985E0,1.836543E0,2.565248E0,2.1576063E1,7.5727905E1,1.3290245E2,5.4307934E1,1.1403437E1,6.136129E1,3.2467056E2,1.4796845E1,1.7364687E1,1.584953E2,9.282882E0,6.0036045E1,2.602834E0,3.8996895E1,1.3960248E2,4.572809E0,2.4965727E0,9.603444E0,1.3822191E0,3.2954326E0,2.3077797E2,3.413112E3,7.70484E0,1.3301287E1,7.414643E1,1.3723611E1,1.4808545E1,5.663528E0,1.0132471E3,2.0948824E2,2.1056802E0,2.8058508E1,1.2264704E1,4.3616432E1,4.2602837E1,4.986445E2,4.205832E2,2.2297718E1,7.742892E2,2.366814E0,6.1845404E2,2.9816246E0,1.507384E0,2.1797595E0,7.4982257E0,1.1178466E0,1.4474015E0,9.105527E0,1.2470536E1,5.5602364E1,2.0125544E1,4.6295418E1,8.660703E1,4.1094437E0,5.019849E1,4.1458235E0,7.257613E0,1.706956E1,4.429173E1,1.450314E2,1.7963914E2,4.0608835E0,1.0735962E1,7.744025E0,9.620661E0,2.1775026E0,1.563178E2,2.3540678E0,6.928814E0,5.8003323E1,2.0327222E0,1.0752112E0,1.5276228E0,1.2533584E1,2.6463312E1,9.4825356E1,4.477712E1],"tree_param":{"num_deleted":"0","num_feature":"66","num_nodes":"125","size_leaf_vector":"1"}},{"base_weights":[-5.9433085E-1,-8.0526567E-1,7.37586E-1,-9.671129E-1,-4.8381275E-1,2.6964003E-1,1.3537701E0,-1.0179985E0,-6.896719E-1,-3.2651588E-1,-9.477329E-1,-2.8735754E-1,6.171182E-1,1.7467401E0,9.5463747E-1,-1.0414901E0,-8.718329E-1,-4.170108E-2,-7.647475E-1,-5.3130525E-1,2.068108E-3,-9.7433245E-1,1.93517E-2,4.4150707E-1,-4.8328084E-1,7.9880804E-1,-3.2165882E-1,1.4885033E0,2.0893524E0,1.8434488E0,6.746402E-1,-1.0520275E0,-7.963926E-1,-5.281281E-1,-9.220239E-1,-1.7930333E-1,1.9897773E0,8.2880676E-1,-7.771421E-1,-6.9368E-1,-2.097434E-1,5.953353E-1,-1.499253E-1,-1.0393115E0,-7.8951794E-1,9.495804E-2,-2.5539303E-1,-5.889565E-1,7.657022E-1,1.3499997E0,-5.5556583E-1,1.9422508E0,6.801123E-1,7.5912213E-1,-5.847358E-1,1.6550012E0,4.457881E-1,2.138479E0,8.0952305E-1,1.8953592E0,-1.723097E-2,1.2999759E0,4.6184573E-1,-5.318587E-2,-4.6240598E-2,4.605777E-2,-4.1303843E-2,-3.161074E-2,5.0747287E-2,-3.520688E-2,-4.904911E-2,3.4807097E-2,-2.1359293E-2,1.2952188E-1,-6.3380823E-3,-3.354642E-2,7.575726E-2,-1.6159E-2,-4.1006837E-2,2.3776224E-2,-3.6651775E-2,-1.3659413E-2,6.343438E-2,8.312675E-2,2.3257159E-2,-1.4111648E-2,2.0873863E-2,-5.2182715E-2,1.4436783E-2,4.1070502E-2,-4.0300637E-2,5.707231E-2,-2.4927294E-2,3.1297605E-2,-4.170548E-2,9.330692E-4,6.7712605E-2,-1.9376671E-2,1.2082007E-1,-3.4365308E-2,8.946052E-3,1.17221914E-1,2.829199E-2,2.6557717E-2,8.220229E-2,-2.9296158E-2,9.802049E-2,3.1914514E-2,-4.0452436E-2,8.742026E-2,9.088293E-3,6.317531E-2,-1.735055E-2,9.298175E-2,1.1994852E-1,6.7132674E-2,-3.699006E-2,-3.1420153E-3,9.740283E-2,7.984935E-2,2.7125383E-2,4.166653E-3,4.6786476E-2],"categories":[],"categories_nodes":[],"categories_segments":[],"categories_sizes":[],"default_left":[0,0,0,0,0,0,0,0,0,0,0,0,0,0,0,0,0,0,0,0,0,0,0,0,0,0,0,0,0,0,0,0,0,0,0,0,0,0,0,0,0,0,0,0,0,0,0,0,0,0,0,0,0,0,0,0,0,0,0,0,0,0,0,0,0,0,0,0,0,0,0,0,0,0,0,0,0,0,0,0,0,0,0,0,0,0,0,0,0,0,0,0,0,0,0,0,0,0,0,0,0,0,0,0,0,0,0,0,0,0,0,0,0,0,0,0,0,0,0,0,0,0,0],"id":8,"left_children":[1,3,5,7,9,11,13,15,17,19,21,23,25,27,29,31,33,35,37,39,41,43,45,47,49,51,53,55,57,59,61,63,65,67,69,71,73,75,77,79,81,83,85,87,89,-1,91,93,95,97,99,101,103,105,107,109,111,113,115,117,-1,119,121,-1,-1,-1,-1,-1,-1,-1,-1,-1,-1,-1,-1,-1,-1,-1,-1,-1,-1,-1,-1,-1,-1,-1,-1,-1,-1,-1,-1,-1,-1,-1,-1,-1,-1,-1,-1,-1,-1,-1,-1,-1,-1,-1,-1,-1,-1,-1,-1,-1,-1,-1,-1,-1,-1,-1,-1,-1,-1,-1,-1],"loss_changes":[2.3624417E3,3.7713086E2,3.3118878E2,6.743506E1,1.7719818E2,1.26909424E2,7.613989E1,1.3088867E1,3.6507202E1,1.2234212E2,1.5849487E1,3.6233543E1,6.909006E1,1.8899109E1,6.055226E1,8.218506E0,9.355682E0,2.2453295E1,1.3938049E1,5.8335938E1,6.312527E1,6.3723145E0,9.499473E0,1.8477915E1,2.7158058E1,4.4607925E1,1.9252739E1,2.4491852E1,4.835144E0,7.344116E0,2.4736221E1,4.0117188E0,8.340355E0,1.2694466E1,5.687561E0,1.6562073E1,6.8086205E0,6.8616495E0,1.2780426E1,3.45744E1,3.57313E1,1.9063553E1,4.1954304E1,2.8389282E0,4.9126663E0,0E0,6.040678E0,4.5367417E0,1.821323E1,1.5483403E1,1.8742504E1,1.5992477E1,4.336818E1,2.277621E1,1.5266775E1,1.6875458E1,1.4297817E1,2.8000183E0,5.5112906E0,6.076233E0,0E0,9.885445E0,2.5681973E1,0E0,0E0,0E0,0E0,0E0,0E0,0E0,0E0,0E0,0E0,0E0,0E0,0E0,0E0,0E0,0E0,0E0,0E0,0E0,0E0,0E0,0E0,0E0,0E0,0E0,0E0,0E0,0E0,0E0,0E0,0E0,0E0,0E0,0E0,0E0,0E0,0E0,0E0,0E0,0E0,0E0,0E0,0E0,0E0,0E0,0E0,0E0,0E0,0E0,0E0,0E0,0E0,0E0,0E0,0E0,0E0,0E0,0E0,0E0,0E0],"parents":[2147483647,0,0,1,1,2,2,3,3,4,4,5,5,6,6,7,7,8,8,9,9,10,10,11,11,12,12,13,13,14,14,15,15,16,16,17,17,18,18,19,19,20,20,21,21,22,22,23,23,24,24,25,25,26,26,27,27,28,28,29,29,30,30,31,31,32,32,33,33,34,34,35,35,36,36,37,37,38,38,39,39,40,40,41,41,42,42,43,43,44,44,46,46,47,47,48,48,49,49,50,50,51,51,52,52,53,53,54,54,55,55,56,56,57,57,58,58,59,59,61,61,62,62],"right_children":[2,4,6,8,10,12,14,16,18,20,22,24,26,28,30,32,34,36,38,40,42,44,46,48,50,52,54,56,58,60,62,64,66,68,70,72,74,76,78,80,82,84,86,88,90,-1,92,94,96,98,100,102,104,106,108,110,112,114,116,118,-1,120,122,-1,-1,-1,-1,-1,-1,-1,-1,-1,-1,-1,-1,-1,-1,-1,-1,-1,-1,-1,-1,-1,-1,-1,-1,-1,-1,-1,-1,-1,-1,-1,-1,-1,-1,-1,-1,-1,-1,-1,-1,-1,-1,-1,-1,-1,-1,-1,-1,-1,-1,-1,-1,-1,-1,-1,-1,-1,-1,-1,-1],"split_conditions":[6.783196E-1,1.4079688E0,1.9432956E0,3.6211926E-1,2.0730298E0,1.4079688E0,-2.0157268E0,3.427373E-2,-1.015444E0,-6.0124695E-2,1.3842614E0,-9.1986114E-1,2.0730298E0,1.2783008E0,-1.8756906E0,1.6594924E-1,-5.3752935E-1,2.8879309E0,-2.4093628E0,7.362213E-2,-6.219501E-1,-7.649147E-1,-1.7112924E0,-2.3213688E-1,-2.0596933E0,-1.4834585E0,-9.0927017E-1,1.0037768E0,2.0184188E0,4.1037393E0,-1.2684202E0,7.129139E-1,-1.7955785E0,3.124641E0,-4.3698624E-1,-6.7452466E-1,1.4388496E0,-6.688624E-1,-1.3544321E0,-1.4913939E0,2.3198261E0,-6.3304514E-1,8.161981E-1,5.054488E0,-1.0032843E0,9.495804E-2,-6.3311225E-1,-1.5871443E0,2.8411755E-1,1.9121768E-1,1.2103702E0,1.0096861E0,2.225142E0,-7.649147E-1,-5.378047E-1,2.4292173E0,-9.4111997E-1,4.8052436E-1,1.3012751E0,-2.2924073E0,-1.723097E-2,1.5682551E0,7.036191E-1,-5.318587E-2,-4.6240598E-2,4.605777E-2,-4.1303843E-2,-3.161074E-2,5.0747287E-2,-3.520688E-2,-4.904911E-2,3.4807097E-2,-2.1359293E-2,1.2952188E-1,-6.3380823E-3,-3.354642E-2,7.575726E-2,-1.6159E-2,-4.1006837E-2,2.3776224E-2,-3.6651775E-2,-1.3659413E-2,6.343438E-2,8.312675E-2,2.3257159E-2,-1.4111648E-2,2.0873863E-2,-5.2182715E-2,1.4436783E-2,4.1070502E-2,-4.0300637E-2,5.707231E-2,-2.4927294E-2,3.1297605E-2,-4.170548E-2,9.330692E-4,6.7712605E-2,-1.9376671E-2,1.2082007E-1,-3.4365308E-2,8.946052E-3,1.17221914E-1,2.829199E-2,2.6557717E-2,8.220229E-2,-2.9296158E-2,9.802049E-2,3.1914514E-2,-4.0452436E-2,8.742026E-2,9.088293E-3,6.317531E-2,-1.735055E-2,9.298175E-2,1.1994852E-1,6.7132674E-2,-3.699006E-2,-3.1420153E-3,9.740283E-2,7.984935E-2,2.7125383E-2,4.166653E-3,4.6786476E-2],"split_indices":[17,55,17,16,65,55,24,17,5,17,10,5,65,28,5,52,5,28,1,22,7,53,21,10,3,3,7,53,15,4,7,10,18,28,50,25,27,38,13,18,28,25,10,45,52,0,5,8,28,9,4,26,28,53,26,26,3,10,22,20,0,41,16,0,0,0,0,0,0,0,0,0,0,0,0,0,0,0,0,0,0,0,0,0,0,0,0,0,0,0,0,0,0,0,0,0,0,0,0,0,0,0,0,0,0,0,0,0,0,0,0,0,0,0,0,0,0,0,0,0,0,0,0],"split_type":[0,0,0,0,0,0,0,0,0,0,0,0,0,0,0,0,0,0,0,0,0,0,0,0,0,0,0,0,0,0,0,0,0,0,0,0,0,0,0,0,0,0,0,0,0,0,0,0,0,0,0,0,0,0,0,0,0,0,0,0,0,0,0,0,0,0,0,0,0,0,0,0,0,0,0,0,0,0,0,0,0,0,0,0,0,0,0,0,0,0,0,0,0,0,0,0,0,0,0,0,0,0,0,0,0,0,0,0,0,0,0,0,0,0,0,0,0,0,0,0,0,0,0],"sum_hessian":[8.405718E3,7.2568506E3,1.1488674E3,4.825345E3,2.4315054E3,6.537957E2,4.9507166E2,4.075236E3,7.501094E2,1.8171022E3,6.144031E2,2.5123932E2,4.0255643E2,2.477604E2,2.4731123E2,3.505679E3,5.6955695E2,7.8047134E1,6.720622E2,1.1190435E3,6.980587E2,5.979491E2,1.6454027E1,5.2961388E1,1.9827792E2,3.374046E2,6.515181E1,1.443239E2,1.03436516E2,5.7907703E1,1.8940353E2,3.3580168E3,1.4766223E2,7.404232E1,4.9551465E2,7.3949875E1,4.09726E0,4.678568E0,6.6738367E2,7.4280304E2,3.762404E2,1.4177187E2,5.5628687E2,4.389831E2,1.5896597E2,1.3442416E0,1.5109785E1,1.2479204E1,4.048218E1,6.850883E0,1.9142705E2,3.0285835E1,3.0711877E2,1.2385161E1,5.2766647E1,1.2394543E2,2.0378471E1,9.8966736E1,4.469781E0,5.6696396E1,1.2113073E0,4.679087E1,1.4261266E2,3.0686738E3,2.8934293E2,1.998459E0,1.4566377E2,6.991646E1,4.125864E0,1.0828381E2,3.8723083E2,1.5919328E1,5.8030552E1,3.0171185E0,1.0801413E0,1.4759296E0,3.2026381E0,5.8476063E1,6.089076E2,2.382772E1,7.1897534E2,3.6154056E2,1.4699805E1,1.4135087E1,1.2763678E2,4.5150653E2,1.047803E2,4.3776572E2,1.2173826E0,1.1166086E0,1.5784937E2,1.6925043E0,1.341728E1,1.8345232E0,1.0644681E1,1.8293776E1,2.2188408E1,2.847663E0,4.00322E0,1.623683E2,2.9058743E1,2.2893154E1,7.392681E0,2.6735504E2,3.9763718E1,6.084635E0,6.3005266E0,7.891904E0,4.4874744E1,1.1638008E2,7.5653462E0,9.73931E0,1.0639161E1,5.1730522E1,4.7236217E1,3.4247136E0,1.0450674E0,1.4807408E0,5.5215656E1,3.2815323E1,1.3975546E1,7.99382E1,6.2674458E1],"tree_param":{"num_deleted":"0","num_feature":"66","num_nodes":"123","size_leaf_vector":"1"}},{"base_weights":[-5.7358205E-1,-8.0018747E-1,6.6330147E-1,-9.5397687E-1,-5.690301E-1,2.8428084E-1,1.3426737E0,-6.2380695E-1,-9.966056E-1,2.5345683E-1,-6.6841733E-1,-2.569367E-1,5.795694E-1,1.6372465E0,9.567917E-1,1.0371472E-1,-7.116367E-1,-1.0410104E0,-8.544281E-1,5.31286E-1,-8.3394736E-1,-7.8412837E-1,-2.726558E-1,-4.1444424E-1,6.974817E-1,1.23371E0,2.6038033E-1,1.4539804E0,1.923999E0,1.2434044E0,4.5195425E-1,8.0189455E-1,-3.569714E-1,-9.299128E-1,-5.426964E-1,-9.0756506E-1,-1.0575448E0,6.360097E-2,-8.730344E-1,-3.8269812E-1,9.213493E-1,-1.0135816E0,2.3370202E-1,-5.38179E-1,-9.1244495E-1,1.1404655E0,-3.2582557E-1,3.778286E-1,-5.5430615E-1,1.1253945E0,-5.316734E-1,1.0557536E0,2.4920123E0,-2.1295495E-2,8.1483686E-1,8.3971846E-1,1.5999196E0,1.2182872E0,2.0057871E0,7.361028E-1,1.5638703E0,2.1872383E-1,1.3006043E0,-2.5907775E-2,6.654204E-2,-3.3767715E-2,4.7407992E-2,-1.7290218E-2,-4.863798E-2,-7.490793E-3,-3.4138653E-2,-4.6862658E-2,6.621877E-3,-5.2932765E-2,-1.8143509E-2,7.648816E-2,-1.9423034E-2,-4.5241922E-2,-2.3719981E-2,-2.3405995E-2,1.2858143E-1,6.3038215E-2,6.2108706E-3,-5.3369172E-2,-1.3623779E-2,8.4409595E-2,-3.2924835E-2,-3.6101665E-2,-8.512838E-3,-2.7448684E-2,-4.783084E-2,8.39875E-2,-1.6781682E-2,-3.6718316E-2,-7.947132E-3,1.1947995E-1,3.9787004E-3,-3.7084114E-2,3.1881113E-4,-4.451347E-3,7.560859E-2,-3.742556E-2,3.580897E-2,9.8998085E-2,4.2317815E-2,7.341867E-2,1.6250381E-1,4.1664816E-2,-9.172107E-3,8.1163175E-2,2.7359048E-2,9.096094E-2,2.2382911E-2,8.383019E-2,1.983806E-2,8.1032544E-2,-2.2419386E-2,1.01441815E-1,1.7306756E-2,7.876973E-2,1.2612331E-2,3.5347104E-2,8.5825436E-2,6.3679226E-2,-2.1115597E-3,3.450358E-3,9.965189E-2],"categories":[],"categories_nodes":[],"categories_segments":[],"categories_sizes":[],"default_left":[0,0,0,0,0,0,0,0,0,0,0,0,0,0,0,0,0,0,0,0,0,0,0,0,0,0,0,0,0,0,0,0,0,0,0,0,0,0,0,0,0,0,0,0,0,0,0,0,0,0,0,0,0,0,0,0,0,0,0,0,0,0,0,0,0,0,0,0,0,0,0,0,0,0,0,0,0,0,0,0,0,0,0,0,0,0,0,0,0,0,0,0,0,0,0,0,0,0,0,0,0,0,0,0,0,0,0,0,0,0,0,0,0,0,0,0,0,0,0,0,0,0,0,0,0,0,0],"id":9,"left_children":[1,3,5,7,9,11,13,15,17,19,21,23,25,27,29,31,33,35,37,39,41,43,45,47,49,51,53,55,57,59,61,63,65,67,69,71,73,75,77,79,81,83,85,87,89,91,93,95,97,99,101,103,105,107,109,111,113,115,117,119,121,123,125,-1,-1,-1,-1,-1,-1,-1,-1,-1,-1,-1,-1,-1,-1,-1,-1,-1,-1,-1,-1,-1,-1,-1,-1,-1,-1,-1,-1,-1,-1,-1,-1,-1,-1,-1,-1,-1,-1,-1,-1,-1,-1,-1,-1,-1,-1,-1,-1,-1,-1,-1,-1,-1,-1,-1,-1,-1,-1,-1,-1,-1,-1,-1,-1],"loss_changes":[2.2991472E3,2.4587354E2,3.267373E2,5.794165E1,2.2674286E2,1.306727E2,5.0115784E1,3.0646713E1,2.2365723E1,9.093913E1,1.1304285E2,4.3733215E1,1.10072784E2,1.067865E1,2.826587E1,1.7144463E1,1.5243103E1,5.2231445E0,1.5124573E1,8.562906E1,1.20024605E1,5.988623E1,4.2525723E1,2.7766006E1,2.2326101E1,3.6134308E1,5.571041E1,1.3048157E1,3.1488953E0,1.9416504E1,1.4307224E1,1.5452984E1,1.4049181E1,4.2915955E0,1.327813E1,9.88031E0,1.5339355E0,1.2827563E1,1.053418E1,1.9438244E1,4.528163E1,1.8104401E0,1.3631687E1,4.4410767E1,1.9636597E1,1.6935402E1,3.6800297E1,2.2555788E1,2.22537E1,1.467828E1,3.6062984E0,2.8011978E1,1.1302017E1,3.3055386E1,2.511145E1,1.18292885E1,1.1201324E1,9.183178E0,2.5601501E0,2.0260061E1,8.811737E0,1.6303202E1,1.3243334E1,0E0,0E0,0E0,0E0,0E0,0E0,0E0,0E0,0E0,0E0,0E0,0E0,0E0,0E0,0E0,0E0,0E0,0E0,0E0,0E0,0E0,0E0,0E0,0E0,0E0,0E0,0E0,0E0,0E0,0E0,0E0,0E0,0E0,0E0,0E0,0E0,0E0,0E0,0E0,0E0,0E0,0E0,0E0,0E0,0E0,0E0,0E0,0E0,0E0,0E0,0E0,0E0,0E0,0E0,0E0,0E0,0E0,0E0,0E0,0E0,0E0,0E0,0E0,0E0],"parents":[2147483647,0,0,1,1,2,2,3,3,4,4,5,5,6,6,7,7,8,8,9,9,10,10,11,11,12,12,13,13,14,14,15,15,16,16,17,17,18,18,19,19,20,20,21,21,22,22,23,23,24,24,25,25,26,26,27,27,28,28,29,29,30,30,31,31,32,32,33,33,34,34,35,35,36,36,37,37,38,38,39,39,40,40,41,41,42,42,43,43,44,44,45,45,46,46,47,47,48,48,49,49,50,50,51,51,52,52,53,53,54,54,55,55,56,56,57,57,58,58,59,59,60,60,61,61,62,62],"right_children":[2,4,6,8,10,12,14,16,18,20,22,24,26,28,30,32,34,36,38,40,42,44,46,48,50,52,54,56,58,60,62,64,66,68,70,72,74,76,78,80,82,84,86,88,90,92,94,96,98,100,102,104,106,108,110,112,114,116,118,120,122,124,126,-1,-1,-1,-1,-1,-1,-1,-1,-1,-1,-1,-1,-1,-1,-1,-1,-1,-1,-1,-1,-1,-1,-1,-1,-1,-1,-1,-1,-1,-1,-1,-1,-1,-1,-1,-1,-1,-1,-1,-1,-1,-1,-1,-1,-1,-1,-1,-1,-1,-1,-1,-1,-1,-1,-1,-1,-1,-1,-1,-1,-1,-1,-1,-1],"split_conditions":[5.796773E-1,6.817525E-3,2.1694882E0,-4.419464E-1,7.8704536E-1,6.817525E-3,-4.419464E-1,-7.7542377E-1,9.320847E-2,2.0730298E0,2.6151174E-1,1.2103702E0,7.8704536E-1,5.206932E0,-1.1642138E0,-5.6767505E-1,-7.514372E-2,-8.608113E-1,-9.148592E-1,-5.5231804E-1,-4.7880283E-1,1.5672733E0,-9.408958E-1,-1.3977759E0,4.375069E-1,1.3702064E0,5.014293E-1,-5.138069E-1,-3.436201E-1,1.3418189E-1,2.2201426E0,-3.610313E-1,1.358499E-1,-1.1642138E0,-4.129516E-1,1.9165647E0,5.6775537E0,-3.2797134E-1,4.906463E-1,2.4905858E0,7.956954E-1,4.6550736E0,-7.2866607E-1,-8.753894E-2,-1.0567595E0,2.4011534E-1,-2.8484806E-1,-8.774217E-1,6.7708105E-1,-1.2267796E-1,3.1115477E0,-7.239779E-1,-4.0077233E-1,-1.2800816E0,-1.5608376E0,-1.2122893E0,2.0590544E0,-2.2400749E0,1.9639306E0,-1.1106008E0,-1.7889725E-1,-1.2936976E0,3.6551678E-1,-2.5907775E-2,6.654204E-2,-3.3767715E-2,4.7407992E-2,-1.7290218E-2,-4.863798E-2,-7.490793E-3,-3.4138653E-2,-4.6862658E-2,6.621877E-3,-5.2932765E-2,-1.8143509E-2,7.648816E-2,-1.9423034E-2,-4.5241922E-2,-2.3719981E-2,-2.3405995E-2,1.2858143E-1,6.3038215E-2,6.2108706E-3,-5.3369172E-2,-1.3623779E-2,8.4409595E-2,-3.2924835E-2,-3.6101665E-2,-8.512838E-3,-2.7448684E-2,-4.783084E-2,8.39875E-2,-1.6781682E-2,-3.6718316E-2,-7.947132E-3,1.1947995E-1,3.9787004E-3,-3.7084114E-2,3.1881113E-4,-4.451347E-3,7.560859E-2,-3.742556E-2,3.580897E-2,9.8998085E-2,4.2317815E-2,7.341867E-2,1.6250381E-1,4.1664816E-2,-9.172107E-3,8.1163175E-2,2.7359048E-2,9.096094E-2,2.2382911E-2,8.383019E-2,1.983806E-2,8.1032544E-2,-2.2419386E-2,1.01441815E-1,1.7306756E-2,7.876973E-2,1.2612331E-2,3.5347104E-2,8.5825436E-2,6.3679226E-2,-2.1115597E-3,3.450358E-3,9.965189E-2],"split_indices":[17,57,17,5,57,57,5,26,10,65,16,4,57,17,24,8,16,8,26,10,53,57,26,5,1,21,31,19,9,51,33,10,9,24,23,52,25,24,52,20,53,51,23,10,8,40,52,26,16,10,30,26,53,3,8,3,26,24,7,3,16,1,26,0,0,0,0,0,0,0,0,0,0,0,0,0,0,0,0,0,0,0,0,0,0,0,0,0,0,0,0,0,0,0,0,0,0,0,0,0,0,0,0,0,0,0,0,0,0,0,0,0,0,0,0,0,0,0,0,0,0,0,0,0,0,0,0],"split_type":[0,0,0,0,0,0,0,0,0,0,0,0,0,0,0,0,0,0,0,0,0,0,0,0,0,0,0,0,0,0,0,0,0,0,0,0,0,0,0,0,0,0,0,0,0,0,0,0,0,0,0,0,0,0,0,0,0,0,0,0,0,0,0,0,0,0,0,0,0,0,0,0,0,0,0,0,0,0,0,0,0,0,0,0,0,0,0,0,0,0,0,0,0,0,0,0,0,0,0,0,0,0,0,0,0,0,0,0,0,0,0,0,0,0,0,0,0,0,0,0,0,0,0,0,0,0,0],"sum_hessian":[8.200012E3,6.930627E3,1.2693846E3,4.1599062E3,2.7707205E3,8.157163E2,4.536683E2,4.77464E2,3.6824424E3,2.9854416E2,2.4721763E3,2.8799554E2,5.2772076E2,2.5543364E2,1.9823465E2,5.1413002E1,4.2605096E2,2.8012383E3,8.8120404E2,2.3819687E2,6.034731E1,1.9121335E3,5.600427E2,2.4768576E2,4.0309788E1,1.7211862E2,3.556021E2,1.5954045E2,9.5893196E1,1.2551354E2,7.2721115E1,2.0143873E1,3.1269129E1,1.8391835E2,2.4213263E2,3.1498273E2,2.4862556E3,1.7457138E1,8.637469E2,7.125448E1,1.6694238E2,5.1699413E1,8.647898E0,6.573532E2,1.2547804E3,1.9566402E1,5.404763E2,3.6908653E1,2.1077711E2,2.9963009E1,1.0346777E1,1.5240381E2,1.971481E1,2.3644473E2,1.191574E2,3.192426E1,1.2761619E2,1.1610172E1,8.428303E1,4.9868324E1,7.564521E1,5.803058E1,1.4690533E1,5.7684355E0,1.4375438E1,2.5524935E1,5.7441926E0,1.3189064E1,1.7072928E2,6.4183426E1,1.779492E2,3.063368E2,8.645954E0,2.481765E3,4.490851E0,3.552245E0,1.3904893E1,7.9875085E2,6.499605E1,7.0070015E1,1.1844654E0,1.1667928E2,5.02631E1,4.7789783E1,3.9096282E0,2.9486868E0,5.69921E0,4.3767853E2,2.196747E2,1.3742186E2,1.1173585E3,1.4229698E1,5.3367043E0,1.5576141E2,3.8471494E2,3.8600585E0,3.3048595E1,1.5773903E2,5.3038082E1,7.423664E0,2.2539345E1,9.155924E0,1.1908532E0,2.658984E1,1.2581397E2,9.637704E0,1.0077106E1,3.704745E1,1.9939728E2,2.8378471E1,9.077893E1,8.085005E0,2.3839252E1,1.195999E2,8.01629E0,9.374599E0,2.2355728E0,8.290915E1,1.3738782E0,1.7411175E1,3.245715E1,1.2288393E1,6.335682E1,1.0739149E1,4.7291428E1,5.682683E0,9.007851E0],"tree_param":{"num_deleted":"0","num_feature":"66","num_nodes":"127","size_leaf_vector":"1"}},{"base_weights":[-5.6884813E-1,-7.896682E-1,5.7956517E-1,-9.491462E-1,-4.7833648E-1,2.1661392E-1,1.2047526E0,-9.984456E-1,-6.821149E-1,-3.2870486E-1,-9.356866E-1,-2.462475E-1,4.881724E-1,1.4833915E0,8.361469E-1,-1.0262381E0,-8.563317E-1,-1.8493778E-5,-7.4383885E-1,3.8295782E-1,-4.1375276E-1,-9.59645E-1,-5.165517E-2,4.7152102E-1,-4.3322644E-1,6.575936E-1,-4.0722412E-1,1.3141681E0,1.7579507E0,1.4012529E0,5.3601366E-1,-1.0323718E0,-6.913667E-1,-9.2102903E-1,-6.0697365E-1,6.9597065E-1,-3.2094625E-1,-7.6676446E-1,4.1415077E-1,-1.1987289E-1,7.153874E-1,-6.0831213E-1,-1.8963996E-1,-9.7212243E-1,-1.2681223E-1,9.7223304E-2,-3.636431E-1,1.3186424E0,1.8271168E-1,-8.7755525E-1,-2.3816267E-1,1.9383615E0,5.588721E-1,6.220496E-1,-5.8237773E-1,1.5184565E0,8.662518E-1,8.808947E-3,1.790521E0,1.8560516E0,1.0276043E0,-2.5151934E-2,8.889317E-1,-2.9446725E-2,-5.180042E-2,7.0152156E-2,-3.7605237E-2,3.8806938E-2,-4.6611737E-2,1.4128414E-4,-3.757276E-2,-7.9552485E-3,7.591572E-2,5.8782686E-2,-2.2479957E-2,2.5090734E-2,-3.9091915E-2,-5.0503004E-4,1.2077047E-1,1.8511625E-2,-2.5148803E-2,-2.1922463E-3,4.7612358E-2,-3.5809416E-2,-9.392495E-3,1.8285042E-2,-1.5495451E-2,-5.0983697E-2,-4.0399686E-2,-3.8463276E-2,4.4313904E-2,7.021141E-2,-3.2989103E-2,1.1387968E-2,1.2064115E-1,5.8376756E-2,-4.205856E-3,-4.8228454E-2,-1.0073832E-2,1.7580353E-2,-2.074627E-2,1.03422426E-1,-1.9589474E-2,4.8947096E-2,1.3685646E-2,-1.4305239E-2,1.1087253E-1,1.0150418E-2,-3.9220124E-2,7.924256E-2,4.903206E-3,5.0111152E-2,-3.154357E-2,4.8148066E-2,9.300737E-2,9.911793E-2,1.645537E-3,2.8267864E-4,6.363296E-2,-1.2060635E-2,5.66957E-2,6.647619E-2,2.0439392E-2],"categories":[],"categories_nodes":[],"categories_segments":[],"categories_sizes":[],"default_left":[0,0,0,0,0,0,0,0,0,0,0,0,0,0,0,0,0,0,0,0,0,0,0,0,0,0,0,0,0,0,0,0,0,0,0,0,0,0,0,0,0,0,0,0,0,0,0,0,0,0,0,0,0,0,0,0,0,0,0,0,0,0,0,0,0,0,0,0,0,0,0,0,0,0,0,0,0,0,0,0,0,0,0,0,0,0,0,0,0,0,0,0,0,0,0,0,0,0,0,0,0,0,0,0,0,0,0,0,0,0,0,0,0,0,0,0,0,0,0,0,0,0,0],"id":10,"left_children":[1,3,5,7,9,11,13,15,17,19,21,23,25,27,29,31,33,35,37,39,41,43,45,47,49,51,53,55,57,59,61,63,65,67,69,71,73,75,77,79,81,83,85,87,89,-1,91,93,95,97,99,101,103,105,107,109,111,-1,113,115,117,119,121,-1,-1,-1,-1,-1,-1,-1,-1,-1,-1,-1,-1,-1,-1,-1,-1,-1,-1,-1,-1,-1,-1,-1,-1,-1,-1,-1,-1,-1,-1,-1,-1,-1,-1,-1,-1,-1,-1,-1,-1,-1,-1,-1,-1,-1,-1,-1,-1,-1,-1,-1,-1,-1,-1,-1,-1,-1,-1,-1,-1],"loss_changes":[2.0351458E3,3.3368945E2,2.9348642E2,5.7891113E1,1.5583478E2,1.0322249E2,4.757434E1,1.3947266E1,2.9326447E1,1.0430586E2,1.1851959E1,4.0998695E1,7.874169E1,1.0205505E1,3.43403E1,5.7246094E0,9.444153E0,1.33576145E1,1.7275146E1,3.0876575E1,6.6925385E1,5.5614014E0,1.05990505E1,1.5245226E1,2.0736908E1,5.3965286E1,1.5311912E1,1.4296997E1,4.8239746E0,1.0183426E1,2.7104904E1,4.350586E0,8.612934E0,1.0049683E1,1.151453E1,1.351243E1,8.409203E0,1.2376556E1,1.1104186E1,1.4112244E1,2.000943E1,3.71756E1,4.7931625E1,3.3812866E0,6.685862E0,0E0,8.559282E0,1.846785E1,1.2807537E1,4.120987E0,1.7796638E1,1.0132011E1,4.8320374E1,1.8807255E1,1.1485144E1,1.0769867E1,1.1985325E1,0E0,3.8345337E0,7.038643E0,1.033564E1,1.373903E1,1.7222107E1,0E0,0E0,0E0,0E0,0E0,0E0,0E0,0E0,0E0,0E0,0E0,0E0,0E0,0E0,0E0,0E0,0E0,0E0,0E0,0E0,0E0,0E0,0E0,0E0,0E0,0E0,0E0,0E0,0E0,0E0,0E0,0E0,0E0,0E0,0E0,0E0,0E0,0E0,0E0,0E0,0E0,0E0,0E0,0E0,0E0,0E0,0E0,0E0,0E0,0E0,0E0,0E0,0E0,0E0,0E0,0E0,0E0,0E0,0E0,0E0],"parents":[2147483647,0,0,1,1,2,2,3,3,4,4,5,5,6,6,7,7,8,8,9,9,10,10,11,11,12,12,13,13,14,14,15,15,16,16,17,17,18,18,19,19,20,20,21,21,22,22,23,23,24,24,25,25,26,26,27,27,28,28,29,29,30,30,31,31,32,32,33,33,34,34,35,35,36,36,37,37,38,38,39,39,40,40,41,41,42,42,43,43,44,44,46,46,47,47,48,48,49,49,50,50,51,51,52,52,53,53,54,54,55,55,56,56,58,58,59,59,60,60,61,61,62,62],"right_children":[2,4,6,8,10,12,14,16,18,20,22,24,26,28,30,32,34,36,38,40,42,44,46,48,50,52,54,56,58,60,62,64,66,68,70,72,74,76,78,80,82,84,86,88,90,-1,92,94,96,98,100,102,104,106,108,110,112,-1,114,116,118,120,122,-1,-1,-1,-1,-1,-1,-1,-1,-1,-1,-1,-1,-1,-1,-1,-1,-1,-1,-1,-1,-1,-1,-1,-1,-1,-1,-1,-1,-1,-1,-1,-1,-1,-1,-1,-1,-1,-1,-1,-1,-1,-1,-1,-1,-1,-1,-1,-1,-1,-1,-1,-1,-1,-1,-1,-1,-1,-1,-1,-1],"split_conditions":[5.796773E-1,1.4079688E0,2.1694882E0,3.6211926E-1,2.0730298E0,1.4079688E0,-4.419464E-1,2.2231376E-1,-1.20661E0,-9.451852E-1,1.3842614E0,-1.3203685E0,2.0730298E0,5.206932E0,-1.2684202E0,3.806693E-1,1.9425012E-2,-4.799445E-1,5.46771E-1,-1.7657092E-1,-1.045603E-1,1.9591421E0,-1.7112924E0,-7.835676E-1,-2.3213688E-1,-1.6868355E0,-5.378047E-1,9.251921E-2,-2.076364E0,2.644699E-1,6.6158995E-2,-1.7955785E0,-2.722978E0,-2.0596933E0,-6.6709226E-1,5.27574E-1,-1.1398466E0,-9.73268E-1,1.0697589E0,-9.87124E-2,-4.5674348E-1,8.424322E-1,-9.750162E-1,-1.1336E-1,-8.5101746E-2,9.7223304E-2,-6.3311225E-1,6.908094E-2,-1.9241086E0,1.3823864E0,-8.242782E-1,3.1097283E0,-3.2310092E-1,2.1287924E-1,-7.835676E-1,2.4292173E0,1.1877694E0,8.808947E-3,-2.0793621E-1,4.7877336E0,-1.5515947E0,2.2733857E-1,-1.4684368E0,-2.9446725E-2,-5.180042E-2,7.0152156E-2,-3.7605237E-2,3.8806938E-2,-4.6611737E-2,1.4128414E-4,-3.757276E-2,-7.9552485E-3,7.591572E-2,5.8782686E-2,-2.2479957E-2,2.5090734E-2,-3.9091915E-2,-5.0503004E-4,1.2077047E-1,1.8511625E-2,-2.5148803E-2,-2.1922463E-3,4.7612358E-2,-3.5809416E-2,-9.392495E-3,1.8285042E-2,-1.5495451E-2,-5.0983697E-2,-4.0399686E-2,-3.8463276E-2,4.4313904E-2,7.021141E-2,-3.2989103E-2,1.1387968E-2,1.2064115E-1,5.8376756E-2,-4.205856E-3,-4.8228454E-2,-1.0073832E-2,1.7580353E-2,-2.074627E-2,1.03422426E-1,-1.9589474E-2,4.8947096E-2,1.3685646E-2,-1.4305239E-2,1.1087253E-1,1.0150418E-2,-3.9220124E-2,7.924256E-2,4.903206E-3,5.0111152E-2,-3.154357E-2,4.8148066E-2,9.300737E-2,9.911793E-2,1.645537E-3,2.8267864E-4,6.363296E-2,-1.2060635E-2,5.66957E-2,6.647619E-2,2.0439392E-2],"split_indices":[17,55,17,16,65,55,5,10,5,7,10,6,65,17,7,17,17,24,49,46,10,20,21,7,10,3,26,14,18,37,11,18,7,3,50,0,35,26,25,24,12,33,3,10,14,0,5,30,3,21,5,39,7,16,7,26,18,0,11,50,23,23,13,0,0,0,0,0,0,0,0,0,0,0,0,0,0,0,0,0,0,0,0,0,0,0,0,0,0,0,0,0,0,0,0,0,0,0,0,0,0,0,0,0,0,0,0,0,0,0,0,0,0,0,0,0,0,0,0,0,0,0,0],"split_type":[0,0,0,0,0,0,0,0,0,0,0,0,0,0,0,0,0,0,0,0,0,0,0,0,0,0,0,0,0,0,0,0,0,0,0,0,0,0,0,0,0,0,0,0,0,0,0,0,0,0,0,0,0,0,0,0,0,0,0,0,0,0,0,0,0,0,0,0,0,0,0,0,0,0,0,0,0,0,0,0,0,0,0,0,0,0,0,0,0,0,0,0,0,0,0,0,0,0,0,0,0,0,0,0,0,0,0,0,0,0,0,0,0,0,0,0,0,0,0,0,0,0,0],"sum_hessian":[8.022448E3,6.7289077E3,1.2935403E3,4.448261E3,2.2806465E3,8.1926447E2,4.7427585E2,3.7526982E3,6.95563E2,1.7197223E3,5.609242E2,3.0296503E2,5.1629944E2,2.6837762E2,2.0589822E2,3.1336458E3,6.190524E2,5.780244E1,6.3776056E2,1.8320433E2,1.536518E3,5.460403E2,1.4883915E1,6.2297535E1,2.4066748E2,4.343753E2,8.192414E1,1.6961964E2,9.875797E1,7.014913E1,1.3574908E2,3.0752346E3,5.8411076E1,4.8938513E2,1.2966731E2,1.7873009E1,3.9929432E1,6.257107E2,1.2049836E1,7.316892E1,1.10035416E2,8.215716E2,7.149464E2,5.378155E2,8.224794E0,1.3045845E0,1.357933E1,1.4932493E1,4.7365044E1,7.235464E1,1.6831285E2,2.9751995E1,4.0462332E2,1.1542756E1,7.0381386E1,1.1484871E2,5.4770947E1,2.1218135E0,9.663616E1,2.9849478E1,4.0299652E1,5.2769863E1,8.2979225E1,2.6340017E1,3.0488948E3,1.0233488E0,5.7387726E1,2.762259E0,4.8662286E2,2.5025414E1,1.0464191E2,9.1575165E0,8.715492E0,2.5165532E0,3.741288E1,6.9684906E0,6.187422E2,1.0763096E1,1.2867405E0,3.211617E1,4.105275E1,2.6358986E1,8.367642E1,6.5326324E2,1.6830833E2,1.2690831E2,5.880381E2,4.1295987E2,1.2485563E2,5.1803436E0,3.044451E0,1.4114654E0,1.2167865E1,8.082503E0,6.84999E0,9.377726E0,3.7987316E1,6.3726128E1,8.628507E0,3.8584923E1,1.2972792E2,2.8285208E1,1.4667863E0,1.6262556E2,2.4199776E2,7.8786435E0,3.664112E0,1.4399074E1,5.5982315E1,1.0960935E2,5.239353E0,5.0513767E1,4.257177E0,8.6503935E0,8.798577E1,2.7833822E1,2.0156543E0,7.992334E0,3.2307316E1,4.51461E1,7.6237655E0,4.2349365E1,4.062986E1],"tree_param":{"num_deleted":"0","num_feature":"66","num_nodes":"123","size_leaf_vector":"1"}},{"base_weights":[-5.523423E-1,-7.71556E-1,5.516167E-1,-9.290568E-1,-5.4165214E-1,2.1485567E-1,1.1256486E0,-6.53406E-1,-9.8529387E-1,-2.1963969E-1,-7.7295357E-1,-2.523375E-1,4.5941865E-1,8.78682E-1,1.5189528E0,-3.5322034E-1,-8.112334E-1,-1.0306698E0,-8.4029824E-1,-5.7973E-1,9.030382E-2,-8.690542E-1,-3.9581478E-1,-5.134577E-1,2.6758692E-1,1.0104173E0,1.7966911E-1,1.3700861E0,5.794817E-1,1.6887344E0,1.021949E0,1.2589461E0,-4.1885635E-1,-8.970335E-1,-5.455249E-1,-1.0489074E0,-9.360573E-1,1.453073E-1,-8.6072236E-1,-7.366218E-1,-2.0420513E-1,1.0800842E0,-5.260583E-2,-5.110995E-1,-9.153271E-1,1.4391296E0,-4.645617E-1,-6.246223E-1,6.4769167E-1,9.045152E-4,9.765478E-1,1.1436576E0,-1.5029235E-1,4.0317923E-2,1.3054509E0,1.4612345E0,1.6671503E-1,4.9022954E-2,1.0015162E0,1.5411988E0,2.0797563E0,2.5320312E-1,1.5749341E0,1.352216E-1,1.7286433E-2,-2.4463577E-2,3.3132903E-2,-4.527511E-2,3.7254553E-2,3.4350466E-2,-3.2098636E-2,-5.260242E-2,-1.6057162E-2,-5.170528E-2,-4.091717E-2,3.7399445E-2,-2.6118621E-2,-4.368716E-2,1.1278684E-2,-3.956146E-2,5.932969E-3,-1.5340817E-2,9.391656E-2,1.142004E-3,6.2388457E-2,5.361407E-2,-6.9542974E-3,-3.1072363E-2,2.1735622E-2,-4.931689E-2,-3.9258253E-2,1.9165525E-2,1.1795642E-1,-6.3841376E-3,-3.0742127E-2,2.1621501E-2,-3.6887128E-2,-4.221272E-2,7.5130895E-2,-8.132395E-3,5.0926056E-2,-3.0924961E-2,6.720669E-2,8.1983134E-2,4.6362743E-2,-3.2090586E-2,6.852521E-2,-2.0947982E-2,1.477817E-2,8.308401E-2,-9.892569E-3,7.602253E-2,-8.416454E-3,-2.3902206E-2,7.246437E-2,4.6242636E-2,-8.833579E-3,3.475975E-2,8.0297455E-2,8.876597E-2,5.682696E-2,8.843626E-3,1.067572E-1,-1.3804962E-3,8.9715146E-2,8.530996E-2,5.3436565E-3],"categories":[],"categories_nodes":[],"categories_segments":[],"categories_sizes":[],"default_left":[0,0,0,0,0,0,0,0,0,0,0,0,0,0,0,0,0,0,0,0,0,0,0,0,0,0,0,0,0,0,0,0,0,0,0,0,0,0,0,0,0,0,0,0,0,0,0,0,0,0,0,0,0,0,0,0,0,0,0,0,0,0,0,0,0,0,0,0,0,0,0,0,0,0,0,0,0,0,0,0,0,0,0,0,0,0,0,0,0,0,0,0,0,0,0,0,0,0,0,0,0,0,0,0,0,0,0,0,0,0,0,0,0,0,0,0,0,0,0,0,0,0,0,0,0,0,0],"id":11,"left_children":[1,3,5,7,9,11,13,15,17,19,21,23,25,27,29,31,33,35,37,39,41,43,45,47,49,51,53,55,57,59,61,63,65,67,69,71,73,75,77,79,81,83,85,87,89,91,93,95,97,99,101,103,105,107,109,111,113,115,117,119,121,123,125,-1,-1,-1,-1,-1,-1,-1,-1,-1,-1,-1,-1,-1,-1,-1,-1,-1,-1,-1,-1,-1,-1,-1,-1,-1,-1,-1,-1,-1,-1,-1,-1,-1,-1,-1,-1,-1,-1,-1,-1,-1,-1,-1,-1,-1,-1,-1,-1,-1,-1,-1,-1,-1,-1,-1,-1,-1,-1,-1,-1,-1,-1,-1,-1],"loss_changes":[1.8892561E3,2.3530908E2,2.4983716E2,5.9244385E1,1.9720819E2,9.3415726E1,4.5103394E1,3.0868591E1,2.0231934E1,1.23845245E2,5.553705E1,3.8317024E1,8.2491844E1,4.2733932E1,1.3719177E1,2.4692783E1,9.318756E0,3.2248535E0,1.56203E1,3.0086685E1,8.449654E1,1.9870544E1,4.0396687E1,2.4612839E1,1.7899336E1,2.8070633E1,5.59456E1,1.1964996E1,4.1533978E1,4.576935E0,2.0490337E1,1.1187769E1,1.709269E1,5.175659E0,1.3227863E1,4.315674E0,3.8084412E0,7.0233936E0,1.0865845E1,1.6982315E1,3.318945E1,1.3332344E1,5.0987614E1,1.5176502E1,9.263977E0,1.0380041E1,1.5328064E1,2.0846222E1,2.2795593E1,1.17824745E1,1.6004015E1,1.5861328E1,1.5425581E1,3.7480595E1,2.136692E1,1.022789E1,8.107211E0,1.6639595E1,1.8026794E1,7.627182E0,3.2156067E0,9.462172E0,5.2882614E0,0E0,0E0,0E0,0E0,0E0,0E0,0E0,0E0,0E0,0E0,0E0,0E0,0E0,0E0,0E0,0E0,0E0,0E0,0E0,0E0,0E0,0E0,0E0,0E0,0E0,0E0,0E0,0E0,0E0,0E0,0E0,0E0,0E0,0E0,0E0,0E0,0E0,0E0,0E0,0E0,0E0,0E0,0E0,0E0,0E0,0E0,0E0,0E0,0E0,0E0,0E0,0E0,0E0,0E0,0E0,0E0,0E0,0E0,0E0,0E0,0E0,0E0,0E0,0E0],"parents":[2147483647,0,0,1,1,2,2,3,3,4,4,5,5,6,6,7,7,8,8,9,9,10,10,11,11,12,12,13,13,14,14,15,15,16,16,17,17,18,18,19,19,20,20,21,21,22,22,23,23,24,24,25,25,26,26,27,27,28,28,29,29,30,30,31,31,32,32,33,33,34,34,35,35,36,36,37,37,38,38,39,39,40,40,41,41,42,42,43,43,44,44,45,45,46,46,47,47,48,48,49,49,50,50,51,51,52,52,53,53,54,54,55,55,56,56,57,57,58,58,59,59,60,60,61,61,62,62],"right_children":[2,4,6,8,10,12,14,16,18,20,22,24,26,28,30,32,34,36,38,40,42,44,46,48,50,52,54,56,58,60,62,64,66,68,70,72,74,76,78,80,82,84,86,88,90,92,94,96,98,100,102,104,106,108,110,112,114,116,118,120,122,124,126,-1,-1,-1,-1,-1,-1,-1,-1,-1,-1,-1,-1,-1,-1,-1,-1,-1,-1,-1,-1,-1,-1,-1,-1,-1,-1,-1,-1,-1,-1,-1,-1,-1,-1,-1,-1,-1,-1,-1,-1,-1,-1,-1,-1,-1,-1,-1,-1,-1,-1,-1,-1,-1,-1,-1,-1,-1,-1,-1,-1,-1,-1,-1,-1],"split_conditions":[5.796773E-1,6.817525E-3,2.1694882E0,-2.507805E-1,1.5672733E0,6.817525E-3,1.1362746E0,-4.5789647E-1,9.320847E-2,-2.941074E-1,3.497319E-1,6.0838187E-1,7.8704536E-1,-1.1068027E0,1.093008E0,-9.73268E-1,3.2662475E-1,5.065776E-1,-9.148592E-1,8.424322E-1,-1.4151689E0,-1.0628649E0,-9.408958E-1,2.03685E0,6.295353E-1,2.0730298E0,2.3198261E0,1.0818073E0,2.719801E-1,1.1088322E0,1.5752406E-1,-6.373375E-1,2.3198261E0,4.734271E0,-5.877867E-1,3.1544094E0,1.024224E-1,2.2475855E-1,3.5075264E0,2.842409E-1,3.7854779E0,-1.3742088E0,-1.9362913E0,1.7098123E0,-1.6500212E-1,-2.2173484E-1,-3.2310092E-1,-7.820929E-1,3.293457E-1,1.1321709E0,-5.4730016E-1,-5.5000836E-1,6.658261E-1,-7.60065E-2,1.873227E0,8.9231753E-1,4.4427916E-1,-1.8012189E0,1.6193666E0,-1.9934365E-1,-8.271371E-1,3.1923027E0,5.6195774E0,1.352216E-1,1.7286433E-2,-2.4463577E-2,3.3132903E-2,-4.527511E-2,3.7254553E-2,3.4350466E-2,-3.2098636E-2,-5.260242E-2,-1.6057162E-2,-5.170528E-2,-4.091717E-2,3.7399445E-2,-2.6118621E-2,-4.368716E-2,1.1278684E-2,-3.956146E-2,5.932969E-3,-1.5340817E-2,9.391656E-2,1.142004E-3,6.2388457E-2,5.361407E-2,-6.9542974E-3,-3.1072363E-2,2.1735622E-2,-4.931689E-2,-3.9258253E-2,1.9165525E-2,1.1795642E-1,-6.3841376E-3,-3.0742127E-2,2.1621501E-2,-3.6887128E-2,-4.221272E-2,7.5130895E-2,-8.132395E-3,5.0926056E-2,-3.0924961E-2,6.720669E-2,8.1983134E-2,4.6362743E-2,-3.2090586E-2,6.852521E-2,-2.0947982E-2,1.477817E-2,8.308401E-2,-9.892569E-3,7.602253E-2,-8.416454E-3,-2.3902206E-2,7.246437E-2,4.6242636E-2,-8.833579E-3,3.475975E-2,8.0297455E-2,8.876597E-2,5.682696E-2,8.843626E-3,1.067572E-1,-1.3804962E-3,8.9715146E-2,8.530996E-2,5.3436565E-3],"split_indices":[17,57,17,5,57,57,28,8,10,10,16,16,57,7,2,26,16,4,26,33,53,8,26,49,30,65,28,53,4,20,11,18,28,28,47,49,0,13,58,16,46,2,24,2,10,43,7,26,2,4,0,26,32,0,61,24,51,8,16,2,43,32,39,0,0,0,0,0,0,0,0,0,0,0,0,0,0,0,0,0,0,0,0,0,0,0,0,0,0,0,0,0,0,0,0,0,0,0,0,0,0,0,0,0,0,0,0,0,0,0,0,0,0,0,0,0,0,0,0,0,0,0,0,0,0,0,0],"split_type":[0,0,0,0,0,0,0,0,0,0,0,0,0,0,0,0,0,0,0,0,0,0,0,0,0,0,0,0,0,0,0,0,0,0,0,0,0,0,0,0,0,0,0,0,0,0,0,0,0,0,0,0,0,0,0,0,0,0,0,0,0,0,0,0,0,0,0,0,0,0,0,0,0,0,0,0,0,0,0,0,0,0,0,0,0,0,0,0,0,0,0,0,0,0,0,0,0,0,0,0,0,0,0,0,0,0,0,0,0,0,0,0,0,0,0,0,0,0,0,0,0,0,0,0,0,0,0],"sum_hessian":[7.80399E3,6.5113325E3,1.2926576E3,3.8623215E3,2.649011E3,8.155702E2,4.7708743E2,6.565932E2,3.2057283E3,1.1081793E3,1.5408317E3,2.8022308E2,5.353471E2,2.950509E2,1.8203654E2,2.2737216E2,4.2922107E2,2.4369768E3,7.687516E2,5.122178E2,5.9596155E2,1.2268959E3,3.139357E2,1.8654668E2,9.36764E1,1.7939545E2,3.5595166E2,1.1030602E2,1.8474489E2,1.3389784E2,4.8138702E1,8.183616E0,2.1918854E2,3.22656E2,1.0656505E2,2.0346813E3,4.0229538E2,1.5482837E1,7.5326874E2,3.605999E2,1.5161786E2,7.4364105E1,5.215975E2,1.4182462E2,1.0850713E3,1.06171255E1,3.0331857E2,1.7066942E2,1.5877256E1,6.879847E1,2.4877928E1,1.6093596E2,1.8459476E1,3.176662E2,3.8285454E1,1.0234008E2,7.965944E0,8.235205E1,1.0239283E2,1.0080486E2,3.3092976E1,2.0750189E1,2.7388512E1,2.4090376E0,5.7745776E0,2.0630411E2,1.28844385E1,3.2144684E2,1.2091789E0,7.2893443E0,9.92757E1,2.0254938E3,9.187567E0,2.1523415E2,1.8706125E2,8.074291E0,7.4085455E0,7.4454004E2,8.728722E0,3.3902872E2,2.1571175E1,1.4531075E2,6.3071117E0,1.0335504E1,6.40286E1,3.6423313E1,4.8517413E2,1.2731387E2,1.4510745E1,6.9780304E2,3.8726828E2,5.6032763E0,5.0138497E0,9.413941E1,2.0917917E2,1.6225689E1,1.5444374E2,5.788365E0,1.0088891E1,5.9996014E1,8.802455E0,4.531598E0,2.0346329E1,4.6888474E1,1.14047485E2,1.4387449E1,4.072027E0,1.1324918E2,2.0441702E2,3.0865963E1,7.41949E0,9.881619E1,3.523881E0,5.7184906E0,2.247453E0,1.6238632E1,6.611342E1,6.93812E1,3.3011627E1,6.171293E1,3.9091934E1,1.0546042E0,3.2038372E1,1.8382658E1,2.3675306E0,2.4991693E1,2.3968177E0],"tree_param":{"num_deleted":"0","num_feature":"66","num_nodes":"127","size_leaf_vector":"1"}},{"base_weights":[-5.3184247E-1,-8.4874916E-1,-6.7227274E-2,-9.346502E-1,-2.4524173E-1,9.18896E-1,-2.6086906E-1,-9.93338E-1,-7.509849E-1,3.8682812E-1,-5.722456E-1,1.3039061E0,4.6887466E-1,7.2733337E-1,-3.6348134E-1,-4.168241E-1,-9.9995214E-1,-5.346808E-2,-7.96567E-1,9.409867E-1,-4.024544E-3,2.3963171E-1,-6.727392E-1,9.815204E-1,1.6890409E0,-1.1795829E-1,8.0912626E-1,-4.2181246E-2,9.314657E-1,4.6024418E-1,-4.644957E-1,-7.300735E-1,8.4486836E-1,-1.0184507E0,-8.2896143E-1,-2.9369792E-1,6.856763E-1,-9.063075E-1,-5.979514E-1,1.9042808E0,6.638972E-1,3.8289925E-1,-4.494094E-1,-1.9327056E-2,1.2812476E0,5.2287155E-1,-7.093997E-1,6.233626E-1,1.4417803E0,9.575835E-1,1.8530165E0,-2.815584E-1,9.5982444E-1,1.4629949E0,4.7427112E-1,-3.343363E-1,6.8212146E-1,2.002808E0,8.267287E-1,1.3556924E0,2.7946576E-1,-7.5745547E-1,-2.3463629E-1,2.8479075E-2,-4.0923547E-2,7.3785014E-3,1.2133906E-1,-5.1132914E-2,-2.140604E-2,-4.716106E-2,-2.6248787E-2,7.83767E-2,-2.139669E-2,8.983623E-2,-4.817991E-3,-3.2315284E-2,-4.761326E-2,-5.792082E-3,-3.6625523E-2,1.0899955E-1,3.9696265E-2,6.3460715E-2,1.1146712E-2,-1.8923787E-2,3.424131E-2,-3.6421645E-2,4.481871E-2,-1.3602331E-2,4.6615507E-2,8.275112E-2,-1.5163739E-2,7.2771125E-2,-7.644878E-3,4.0738072E-2,-3.6689803E-2,6.261187E-2,1.0415706E-2,7.990278E-2,2.8754497E-2,7.4406564E-2,-2.8350784E-3,1.0011461E-1,6.068457E-2,2.2586992E-2,-2.365632E-2,-1.0983837E-2,7.2255395E-2,7.967188E-2,3.6740992E-3,-6.6626193E-3,4.535101E-2,-4.0533505E-2,1.49500845E-2,-1.34354E-2,5.74823E-2,1.3770848E-2,1.1639481E-1,5.0565638E-2,1.7477373E-2,9.0287015E-2,3.145261E-2,6.243993E-2,4.840282E-3,-4.269017E-2,-4.152335E-3,-1.4168836E-2,5.4113783E-2],"categories":[],"categories_nodes":[],"categories_segments":[],"categories_sizes":[],"default_left":[0,0,0,0,0,0,0,0,0,0,0,0,0,0,0,0,0,0,0,0,0,0,0,0,0,0,0,0,0,0,0,0,0,0,0,0,0,0,0,0,0,0,0,0,0,0,0,0,0,0,0,0,0,0,0,0,0,0,0,0,0,0,0,0,0,0,0,0,0,0,0,0,0,0,0,0,0,0,0,0,0,0,0,0,0,0,0,0,0,0,0,0,0,0,0,0,0,0,0,0,0,0,0,0,0,0,0,0,0,0,0,0,0,0,0,0,0,0,0,0,0,0,0,0,0,0,0],"id":12,"left_children":[1,3,5,7,9,11,13,15,17,19,21,23,25,27,29,31,33,35,37,39,41,43,45,47,49,51,53,55,57,59,61,63,65,67,69,71,73,75,77,79,81,83,85,87,89,91,93,95,97,99,101,103,105,107,109,111,113,115,117,119,121,123,125,-1,-1,-1,-1,-1,-1,-1,-1,-1,-1,-1,-1,-1,-1,-1,-1,-1,-1,-1,-1,-1,-1,-1,-1,-1,-1,-1,-1,-1,-1,-1,-1,-1,-1,-1,-1,-1,-1,-1,-1,-1,-1,-1,-1,-1,-1,-1,-1,-1,-1,-1,-1,-1,-1,-1,-1,-1,-1,-1,-1,-1,-1,-1,-1],"loss_changes":[1.1228198E3,2.3480542E2,5.909579E2,4.2029297E1,1.17260666E2,8.7401825E1,2.6254224E2,1.10390625E1,3.0641663E1,4.1950886E1,3.0641891E1,3.2263275E1,4.717284E1,3.831189E1,1.9524347E2,1.47625065E1,8.548828E0,1.09033575E1,1.9201355E1,2.011699E1,1.9914663E1,1.1323093E1,1.4953888E1,2.4009827E1,1.2990112E1,1.568199E1,3.201087E1,1.1239935E1,1.9956482E1,4.1148716E1,1.4045023E2,3.8219194E0,8.005701E0,6.2072754E0,9.760635E0,1.2210403E1,1.327904E1,6.333008E0,2.101867E1,3.5835342E0,1.673196E1,1.44760275E1,2.0824318E1,8.558422E0,5.4501915E0,6.8229647E0,1.2616867E1,2.2379002E1,7.934021E0,1.33285675E1,7.0643616E0,1.0982562E1,7.0406666E0,8.96508E0,2.6480227E1,1.1631632E1,7.104175E0,8.596352E0,1.5250504E1,1.2871109E1,3.7894432E1,5.9559143E1,7.551079E1,0E0,0E0,0E0,0E0,0E0,0E0,0E0,0E0,0E0,0E0,0E0,0E0,0E0,0E0,0E0,0E0,0E0,0E0,0E0,0E0,0E0,0E0,0E0,0E0,0E0,0E0,0E0,0E0,0E0,0E0,0E0,0E0,0E0,0E0,0E0,0E0,0E0,0E0,0E0,0E0,0E0,0E0,0E0,0E0,0E0,0E0,0E0,0E0,0E0,0E0,0E0,0E0,0E0,0E0,0E0,0E0,0E0,0E0,0E0,0E0,0E0,0E0,0E0,0E0],"parents":[2147483647,0,0,1,1,2,2,3,3,4,4,5,5,6,6,7,7,8,8,9,9,10,10,11,11,12,12,13,13,14,14,15,15,16,16,17,17,18,18,19,19,20,20,21,21,22,22,23,23,24,24,25,25,26,26,27,27,28,28,29,29,30,30,31,31,32,32,33,33,34,34,35,35,36,36,37,37,38,38,39,39,40,40,41,41,42,42,43,43,44,44,45,45,46,46,47,47,48,48,49,49,50,50,51,51,52,52,53,53,54,54,55,55,56,56,57,57,58,58,59,59,60,60,61,61,62,62],"right_children":[2,4,6,8,10,12,14,16,18,20,22,24,26,28,30,32,34,36,38,40,42,44,46,48,50,52,54,56,58,60,62,64,