{"learner":{"attributes":{"best_iteration":"139","best_score":"0.549052119546549","scikit_learn":"{\"_estimator_type\": \"classifier\"}"},"feature_names":[],"feature_types":[],"gradient_booster":{"model":{"gbtree_model_param":{"num_parallel_tree":"1","num_trees":"150"},"iteration_indptr":[0,1,2,3,4,5,6,7,8,9,10,11,12,13,14,15,16,17,18,19,20,21,22,23,24,25,26,27,28,29,30,31,32,33,34,35,36,37,38,39,40,41,42,43,44,45,46,47,48,49,50,51,52,53,54,55,56,57,58,59,60,61,62,63,64,65,66,67,68,69,70,71,72,73,74,75,76,77,78,79,80,81,82,83,84,85,86,87,88,89,90,91,92,93,94,95,96,97,98,99,100,101,102,103,104,105,106,107,108,109,110,111,112,113,114,115,116,117,118,119,120,121,122,123,124,125,126,127,128,129,130,131,132,133,134,135,136,137,138,139,140,141,142,143,144,145,146,147,148,149,150],"tree_info":[0,0,0,0,0,0,0,0,0,0,0,0,0,0,0,0,0,0,0,0,0,0,0,0,0,0,0,0,0,0,0,0,0,0,0,0,0,0,0,0,0,0,0,0,0,0,0,0,0,0,0,0,0,0,0,0,0,0,0,0,0,0,0,0,0,0,0,0,0,0,0,0,0,0,0,0,0,0,0,0,0,0,0,0,0,0,0,0,0,0,0,0,0,0,0,0,0,0,0,0,0,0,0,0,0,0,0,0,0,0,0,0,0,0,0,0,0,0,0,0,0,0,0,0,0,0,0,0,0,0,0,0,0,0,0,0,0,0,0,0,0,0,0,0,0,0,0,0,0,0],"trees":[{"base_weights":[-7.1659464E-1,-8.632476E-1,2.5218713E0,-9.3432105E-1,9.126105E-2,4.113638E0,1.581113E0,-1.0655239E0,-6.292335E-1,1.7555436E0,-7.973178E-2,4.5164466E0,2.2571995E0,1.024541E0,3.6178858E0,-1.10406E0,-8.2925606E-1,7.9417115E-1,-6.890087E-1,2.532959E0,1.0715914E0,1.0399532E0,-3.1681764E-1,4.0654793E0,5.640714E0,1.6604146E0,4.0922985E0,3.0496404E0,5.8274376E-1,4.0260324E0,1.8618696E0,-1.1059414E0,2.5617654E-4,-5.600912E-1,-9.283928E-1,1.7443849E0,1.3011356E-1,-5.3751004E-1,-1.0546038E0,3.10015E0,1.139721E0,6.2372583E-1,2.1775389E0,2.7728438E0,7.7697134E-1,-4.528853E-1,7.917004E-1,4.573912E0,2.9617145E0,5.7801666E0,9.101262E-2,2.7890542E0,7.971312E-1,2.2865145E-1,4.015586E-2,3.760371E0,1.6010122E0,2.4107978E0,2.5543857E-1,1.4519321E-2,4.1695538E0,-1.6886732E-2,2.1948175E0,-5.0349142E-2,-5.6096654E-2,6.7032106E-2,-2.2380164E-2,1.8734912E-3,-3.636129E-2,-4.8134547E-2,-2.2541199E-2,3.167563E-2,1.2929727E-1,-2.99195E-3,1.2936872E-1,1.1939086E-2,-2.948823E-2,-5.319478E-2,-3.2365844E-3,1.9001932E-1,8.663636E-2,-1.3034615E-2,9.799835E-2,7.16716E-2,-6.9953064E-3,1.3552283E-1,-3.370295E-2,1.6320921E-1,6.124542E-3,1.6098772E-4,6.55019E-2,-3.865566E-2,-7.2353594E-3,-1.2498814E-2,7.304659E-2,2.4764752E-1,1.6225767E-1,1.7264222E-1,7.365794E-2,2.9405054E-1,1.0590029E-1,1.7318748E-1,3.4730572E-2,8.8337315E-3,1.5292655E-1,1.9629915E-1,1.2356421E-2,3.697617E-2,1.9899811E-1,-5.2886913E-3,1.303266E-1,2.5996638E-3,7.502425E-2,1.32282E-1,2.2462903E-1,5.210812E-2,1.681959E-1],"categories":[],"categories_nodes":[],"categories_segments":[],"categories_sizes":[],"default_left":[0,0,0,0,0,0,0,0,0,0,0,0,0,0,0,0,0,0,0,0,0,0,0,0,0,0,0,0,0,0,0,0,0,0,0,0,0,0,0,0,0,0,0,0,0,0,0,0,0,0,0,0,0,0,0,0,0,0,0,0,0,0,0,0,0,0,0,0,0,0,0,0,0,0,0,0,0,0,0,0,0,0,0,0,0,0,0,0,0,0,0,0,0,0,0,0,0,0,0,0,0,0,0,0,0,0,0,0,0,0,0,0,0,0,0,0,0],"id":0,"left_children":[1,3,5,7,9,11,13,15,17,19,21,23,25,27,29,31,33,35,37,39,41,43,45,47,49,51,53,55,57,59,61,63,65,67,69,71,73,75,77,79,81,83,85,87,89,91,93,95,97,99,-1,101,103,-1,-1,105,107,109,111,-1,113,-1,115,-1,-1,-1,-1,-1,-1,-1,-1,-1,-1,-1,-1,-1,-1,-1,-1,-1,-1,-1,-1,-1,-1,-1,-1,-1,-1,-1,-1,-1,-1,-1,-1,-1,-1,-1,-1,-1,-1,-1,-1,-1,-1,-1,-1,-1,-1,-1,-1,-1,-1,-1,-1,-1,-1],"loss_changes":[4.912336E3,6.711294E2,6.6459546E2,3.6783545E2,1.9547606E2,1.13828125E2,3.1744952E2,5.7685547E1,2.3631116E2,3.131305E1,1.6581947E2,4.5657227E1,2.7778732E1,1.9854015E2,3.5797974E1,1.1490723E1,2.3671204E1,7.053256E1,1.4675208E2,1.955568E1,1.6362942E1,4.7595947E1,7.807336E1,4.2647827E1,8.737671E0,2.2627296E1,7.497612E0,3.502054E1,1.1009696E2,2.4606506E1,1.0446823E1,7.6083984E0,6.8468437E0,2.4650566E1,1.0393433E1,4.1412186E1,3.146973E1,7.65069E1,7.0891113E0,1.2740875E1,1.2037656E1,1.6812572E1,1.6888351E1,1.7824982E1,3.966376E1,4.5239098E1,3.9887466E1,1.7529663E1,2.0074127E1,2.5402832E-1,0E0,1.2648651E1,2.1700989E1,0E0,0E0,1.4157532E1,2.7514404E1,1.4058243E1,3.995725E1,0E0,1.0904846E1,0E0,1.2184856E1,0E0,0E0,0E0,0E0,0E0,0E0,0E0,0E0,0E0,0E0,0E0,0E0,0E0,0E0,0E0,0E0,0E0,0E0,0E0,0E0,0E0,0E0,0E0,0E0,0E0,0E0,0E0,0E0,0E0,0E0,0E0,0E0,0E0,0E0,0E0,0E0,0E0,0E0,0E0,0E0,0E0,0E0,0E0,0E0,0E0,0E0,0E0,0E0,0E0,0E0,0E0,0E0,0E0,0E0],"parents":[2147483647,0,0,1,1,2,2,3,3,4,4,5,5,6,6,7,7,8,8,9,9,10,10,11,11,12,12,13,13,14,14,15,15,16,16,17,17,18,18,19,19,20,20,21,21,22,22,23,23,24,24,25,25,26,26,27,27,28,28,29,29,30,30,31,31,32,32,33,33,34,34,35,35,36,36,37,37,38,38,39,39,40,40,41,41,42,42,43,43,44,44,45,45,46,46,47,47,48,48,49,49,51,51,52,52,55,55,56,56,57,57,58,58,60,60,62,62],"right_children":[2,4,6,8,10,12,14,16,18,20,22,24,26,28,30,32,34,36,38,40,42,44,46,48,50,52,54,56,58,60,62,64,66,68,70,72,74,76,78,80,82,84,86,88,90,92,94,96,98,100,-1,102,104,-1,-1,106,108,110,112,-1,114,-1,116,-1,-1,-1,-1,-1,-1,-1,-1,-1,-1,-1,-1,-1,-1,-1,-1,-1,-1,-1,-1,-1,-1,-1,-1,-1,-1,-1,-1,-1,-1,-1,-1,-1,-1,-1,-1,-1,-1,-1,-1,-1,-1,-1,-1,-1,-1,-1,-1,-1,-1,-1,-1,-1,-1],"split_conditions":[1.4424046E0,5.2321035E-1,-7.286952E-1,1.4079688E0,-1.441179E0,-5.143973E-1,4.108282E0,3.6239052E-1,-1.4151689E0,-9.451852E-1,-8.242782E-1,2.7932467E0,2.6038785E0,-1.441179E0,-1.1578243E0,2.7818897E0,-2.507805E-1,-9.451852E-1,2.0730298E0,1.0774934E0,1.1354648E0,-1.5531276E0,1.6570373E0,2.4685399E-1,4.23073E0,-2.2580223E0,6.709902E-1,-7.0275885E-1,-1.4496791E0,-4.9445E-1,-3.0268517E-1,-7.642743E-1,-5.753164E-1,-3.885E-1,1.4617527E0,-2.7223015E-1,1.8489299E0,-1.20661E0,2.1797583E0,6.5504074E-1,1.7099768E-1,-7.503323E-2,1.2707622E0,5.044693E-1,5.5027705E-1,1.4079688E0,5.5027705E-1,-2.6319677E-1,2.4520079E-2,1.0072223E0,9.101262E-2,1.2228377E0,1.5231668E0,2.2865145E-1,4.015586E-2,2.070561E0,9.757726E-1,-4.606907E-1,1.4558403E0,1.4519321E-2,1.4079688E0,-1.6886732E-2,1.6053078E-1,-5.0349142E-2,-5.6096654E-2,6.7032106E-2,-2.2380164E-2,1.8734912E-3,-3.636129E-2,-4.8134547E-2,-2.2541199E-2,3.167563E-2,1.2929727E-1,-2.99195E-3,1.2936872E-1,1.1939086E-2,-2.948823E-2,-5.319478E-2,-3.2365844E-3,1.9001932E-1,8.663636E-2,-1.3034615E-2,9.799835E-2,7.16716E-2,-6.9953064E-3,1.3552283E-1,-3.370295E-2,1.6320921E-1,6.124542E-3,1.6098772E-4,6.55019E-2,-3.865566E-2,-7.2353594E-3,-1.2498814E-2,7.304659E-2,2.4764752E-1,1.6225767E-1,1.7264222E-1,7.365794E-2,2.9405054E-1,1.0590029E-1,1.7318748E-1,3.4730572E-2,8.8337315E-3,1.5292655E-1,1.9629915E-1,1.2356421E-2,3.697617E-2,1.9899811E-1,-5.2886913E-3,1.303266E-1,2.5996638E-3,7.502425E-2,1.32282E-1,2.2462903E-1,5.210812E-2,1.681959E-1],"split_indices":[17,17,5,55,53,24,17,16,53,7,5,28,28,53,24,49,5,7,65,26,17,6,28,26,51,5,7,7,6,9,11,8,38,24,22,11,33,5,2,14,12,50,36,34,64,55,64,3,7,6,0,27,4,0,0,4,4,9,16,0,55,0,32,0,0,0,0,0,0,0,0,0,0,0,0,0,0,0,0,0,0,0,0,0,0,0,0,0,0,0,0,0,0,0,0,0,0,0,0,0,0,0,0,0,0,0,0,0,0,0,0,0,0,0,0,0,0],"split_type":[0,0,0,0,0,0,0,0,0,0,0,0,0,0,0,0,0,0,0,0,0,0,0,0,0,0,0,0,0,0,0,0,0,0,0,0,0,0,0,0,0,0,0,0,0,0,0,0,0,0,0,0,0,0,0,0,0,0,0,0,0,0,0,0,0,0,0,0,0,0,0,0,0,0,0,0,0,0,0,0,0,0,0,0,0,0,0,0,0,0,0,0,0,0,0,0,0,0,0,0,0,0,0,0,0,0,0,0,0,0,0,0,0,0,0,0,0],"sum_hessian":[1.0337689E4,9.890533E3,4.4715628E2,9.205133E3,6.854004E2,1.6485252E2,2.8230377E2,6.4351895E3,2.7699434E3,6.299545E1,6.224049E2,1.3428302E2,3.05695E1,2.2289745E2,5.9406315E1,5.5296143E3,9.05575E2,1.1113932E2,2.658804E3,2.8218E1,3.4777447E1,1.08169E2,5.142359E2,9.913429E1,3.514874E1,2.4505106E1,6.064395E0,3.8861633E1,1.8403581E2,4.7153763E1,1.2252553E1,5.520208E3,9.406E0,2.4554611E2,6.6002893E2,4.504979E1,6.608952E1,1.8815713E3,7.7723267E2,1.918329E1,9.034711E0,2.58665E1,8.910948E0,1.29951315E1,9.517387E1,4.585425E2,5.569342E1,6.571824E1,3.3416054E1,3.3416054E1,1.7326843E0,9.653526E0,1.4851579E1,4.950526E0,1.1138685E0,2.5000158E1,1.3861474E1,2.698037E1,1.5705545E2,1.8564473E0,4.5297318E1,1.608921E0,1.0643632E1,7.768613E2,4.7433467E3,1.8564473E0,7.549553E0,5.3836975E1,1.9170914E2,6.1485535E2,4.5173553E1,2.0173395E1,2.4876394E1,6.225287E1,3.836658E0,1.18441345E2,1.76313E3,7.699306E2,7.3020263E0,1.1509974E1,7.673316E0,3.5891316E0,5.445579E0,1.212879E1,1.3737711E1,7.549553E0,1.3613948E0,1.0767395E1,2.227737E0,3.923292E1,5.594095E1,2.2413509E2,2.3440742E2,2.2029842E1,3.3663578E1,4.9010212E1,1.6708027E1,2.4133816E1,9.282237E0,3.1930895E1,1.485158E0,6.806974E0,2.8465526E0,1.2500079E1,2.3515E0,2.3762527E1,1.2376316E0,1.1138684E1,2.7227895E0,1.9802105E0,2.5000158E1,1.3589195E2,2.11635E1,9.529763E0,3.576755E1,6.311921E0,4.3317103E0],"tree_param":{"num_deleted":"0","num_feature":"66","num_nodes":"117","size_leaf_vector":"1"}},{"base_weights":[-7.003068E-1,-8.5268766E-1,2.0464232E0,-1.0261219E0,-4.8375896E-1,1.4529516E0,3.7059472E0,-1.0605974E0,-6.044609E-1,1.2524332E0,-5.765742E-1,2.8052866E0,8.73674E-1,4.307551E0,2.6679206E0,-1.0893575E0,-9.051052E-1,1.3519235E-1,-7.46176E-1,5.059273E-1,1.7739109E0,-6.808701E-1,2.754898E-1,2.265336E0,3.8660278E0,2.4923625E0,5.174799E-1,4.342804E0,4.04278E-2,1.9388602E0,3.3872015E0,-9.058096E-1,-1.1018718E0,-6.0729235E-1,-9.8752654E-1,2.0545614E0,-1.0509504E-1,-1.14623E-1,-8.4886974E-1,-4.1059226E-1,8.8676363E-1,2.4661636E0,1.158157E0,-5.3184396E-1,-1.0437396E0,6.3367605E-1,-7.0918113E-1,2.8524258E0,1.5141675E0,4.003675E0,1.6465166E0,2.8643408E0,1.0474235E0,1.9427135E0,1.6854939E-1,3.4542127E0,4.639942E0,2.9039454E0,1.0414752E0,3.6736646E0,1.2543268E0,-4.585743E-2,6.654574E-2,-5.5181947E-2,-1.0612081E-2,-3.3718407E-2,3.0736377E-2,-1.6977556E-2,-5.0644618E-2,-1.6499778E-2,1.299355E-1,3.861999E-2,-1.843302E-2,-1.5563733E-2,6.672093E-2,-9.167407E-3,-4.4775397E-2,4.0406432E-2,-3.4284495E-2,-1.0829505E-2,5.90235E-2,1.3507293E-1,3.609502E-2,4.4002816E-2,1.1096247E-1,-3.4052875E-2,-1.1298909E-2,-5.3776693E-2,-3.6286857E-2,2.0845972E-2,1.2668523E-1,2.6997192E-2,-3.9639503E-2,1.2442122E-1,2.2534132E-1,1.0287869E-2,1.0113467E-1,2.0402694E-1,6.5714724E-2,1.2088859E-1,-8.0180075E-3,3.1135162E-2,1.49771E-1,3.6833466E-3,1.0841557E-1,4.74849E-2,1.24189295E-1,-1.1059956E-2,4.085899E-2,1.8329003E-1,2.8935269E-2,2.3488605E-1,5.400027E-2,1.5955995E-1,-7.8018457E-3,1.0207749E-2,9.3945056E-2,1.9614598E-1,5.067655E-2,1.3369682E-1,-2.2464532E-2],"categories":[],"categories_nodes":[],"categories_segments":[],"categories_sizes":[],"default_left":[0,0,0,0,0,0,0,0,0,0,0,0,0,0,0,0,0,0,0,0,0,0,0,0,0,0,0,0,0,0,0,0,0,0,0,0,0,0,0,0,0,0,0,0,0,0,0,0,0,0,0,0,0,0,0,0,0,0,0,0,0,0,0,0,0,0,0,0,0,0,0,0,0,0,0,0,0,0,0,0,0,0,0,0,0,0,0,0,0,0,0,0,0,0,0,0,0,0,0,0,0,0,0,0,0,0,0,0,0,0,0,0,0,0,0,0,0,0,0,0,0],"id":1,"left_children":[1,3,5,7,9,11,13,15,17,19,21,23,25,27,29,31,33,35,37,39,41,43,45,47,49,51,53,55,-1,57,59,61,63,65,67,69,71,73,75,77,79,81,83,85,87,89,91,93,95,97,99,101,103,105,107,109,111,113,115,117,119,-1,-1,-1,-1,-1,-1,-1,-1,-1,-1,-1,-1,-1,-1,-1,-1,-1,-1,-1,-1,-1,-1,-1,-1,-1,-1,-1,-1,-1,-1,-1,-1,-1,-1,-1,-1,-1,-1,-1,-1,-1,-1,-1,-1,-1,-1,-1,-1,-1,-1,-1,-1,-1,-1,-1,-1,-1,-1,-1,-1],"loss_changes":[4.2350864E3,6.126963E2,5.184888E2,9.411133E1,4.948623E2,3.0576605E2,7.5603516E1,2.5952148E1,5.1983124E1,5.9801987E1,2.5892346E2,5.8562744E1,1.583656E2,7.1794434E0,2.1645569E1,1.0668457E1,2.2625854E1,3.731117E1,2.6852768E1,2.3235394E1,3.6103516E1,1.3973572E2,1.12686356E2,3.109613E1,5.088501E0,2.3702911E1,1.13170685E2,6.567505E0,0E0,2.2140732E1,1.112085E1,9.58493E0,7.23291E0,1.743937E1,1.1810974E1,1.2532528E1,1.7037159E1,1.7305801E1,1.0924683E1,7.232116E0,1.5359283E1,1.5345398E1,1.2877571E1,8.3870544E1,6.845093E0,9.526253E1,9.342232E0,1.5248688E1,2.4442642E1,1.9345703E0,5.866063E0,9.574707E0,1.2662647E1,2.170694E1,4.6806297E1,1.3306946E1,7.5181885E0,1.2312752E1,1.1267397E1,1.0728241E1,1.2245555E1,0E0,0E0,0E0,0E0,0E0,0E0,0E0,0E0,0E0,0E0,0E0,0E0,0E0,0E0,0E0,0E0,0E0,0E0,0E0,0E0,0E0,0E0,0E0,0E0,0E0,0E0,0E0,0E0,0E0,0E0,0E0,0E0,0E0,0E0,0E0,0E0,0E0,0E0,0E0,0E0,0E0,0E0,0E0,0E0,0E0,0E0,0E0,0E0,0E0,0E0,0E0,0E0,0E0,0E0,0E0,0E0,0E0,0E0,0E0,0E0],"parents":[2147483647,0,0,1,1,2,2,3,3,4,4,5,5,6,6,7,7,8,8,9,9,10,10,11,11,12,12,13,13,14,14,15,15,16,16,17,17,18,18,19,19,20,20,21,21,22,22,23,23,24,24,25,25,26,26,27,27,29,29,30,30,31,31,32,32,33,33,34,34,35,35,36,36,37,37,38,38,39,39,40,40,41,41,42,42,43,43,44,44,45,45,46,46,47,47,48,48,49,49,50,50,51,51,52,52,53,53,54,54,55,55,56,56,57,57,58,58,59,59,60,60],"right_children":[2,4,6,8,10,12,14,16,18,20,22,24,26,28,30,32,34,36,38,40,42,44,46,48,50,52,54,56,-1,58,60,62,64,66,68,70,72,74,76,78,80,82,84,86,88,90,92,94,96,98,100,102,104,106,108,110,112,114,116,118,120,-1,-1,-1,-1,-1,-1,-1,-1,-1,-1,-1,-1,-1,-1,-1,-1,-1,-1,-1,-1,-1,-1,-1,-1,-1,-1,-1,-1,-1,-1,-1,-1,-1,-1,-1,-1,-1,-1,-1,-1,-1,-1,-1,-1,-1,-1,-1,-1,-1,-1,-1,-1,-1,-1,-1,-1,-1,-1,-1,-1],"split_conditions":[1.3293443E0,1.4079688E0,4.108282E0,3.388672E-1,-1.1491234E0,-9.1986114E-1,-2.507805E-1,1.2368515E-1,-8.242782E-1,-2.2776902E-1,4.9621767E-1,2.0831158E0,-1.1491234E0,1.8606722E0,2.8411755E-1,-6.3311225E-1,-9.065746E-1,-1.5531276E0,-1.2427822E0,-3.3296353E-1,-9.451852E-1,2.0730298E0,2.0730298E0,-6.0215837E-1,3.33308E0,-8.3770156E-2,-1.3203685E0,5.3038716E0,4.04278E-2,-1.0358852E0,4.770492E-1,4.639587E0,2.543477E0,1.9164389E0,-1.3977759E0,-7.535057E-1,-1.0567595E0,3.974366E-1,-8.070858E-1,-5.864886E-1,-1.319045E-1,1.937451E0,1.2366517E0,-6.0124695E-2,1.7782742E-1,2.272484E0,-7.282445E-1,1.4370815E0,1.4079688E0,2.6229324E0,2.9354718E0,-1.4671892E0,8.286634E-1,1.4079688E0,4.6949354E-1,2.0137913E0,1.9639306E0,1.029787E0,3.5017928E-1,4.3835754E0,-1.2106082E0,-4.585743E-2,6.654574E-2,-5.5181947E-2,-1.0612081E-2,-3.3718407E-2,3.0736377E-2,-1.6977556E-2,-5.0644618E-2,-1.6499778E-2,1.299355E-1,3.861999E-2,-1.843302E-2,-1.5563733E-2,6.672093E-2,-9.167407E-3,-4.4775397E-2,4.0406432E-2,-3.4284495E-2,-1.0829505E-2,5.90235E-2,1.3507293E-1,3.609502E-2,4.4002816E-2,1.1096247E-1,-3.4052875E-2,-1.1298909E-2,-5.3776693E-2,-3.6286857E-2,2.0845972E-2,1.2668523E-1,2.6997192E-2,-3.9639503E-2,1.2442122E-1,2.2534132E-1,1.0287869E-2,1.0113467E-1,2.0402694E-1,6.5714724E-2,1.2088859E-1,-8.0180075E-3,3.1135162E-2,1.49771E-1,3.6833466E-3,1.0841557E-1,4.74849E-2,1.24189295E-1,-1.1059956E-2,4.085899E-2,1.8329003E-1,2.8935269E-2,2.3488605E-1,5.400027E-2,1.5955995E-1,-7.8018457E-3,1.0207749E-2,9.3945056E-2,1.9614598E-1,5.067655E-2,1.3369682E-1,-2.2464532E-2],"split_indices":[17,55,17,17,54,5,5,11,5,11,17,28,54,6,28,5,6,6,6,12,7,65,65,3,51,7,6,17,0,6,7,28,49,22,5,22,8,50,26,14,33,11,7,17,11,28,26,21,55,34,50,53,2,55,29,26,7,53,4,52,18,0,0,0,0,0,0,0,0,0,0,0,0,0,0,0,0,0,0,0,0,0,0,0,0,0,0,0,0,0,0,0,0,0,0,0,0,0,0,0,0,0,0,0,0,0,0,0,0,0,0,0,0,0,0,0,0,0,0,0,0],"split_type":[0,0,0,0,0,0,0,0,0,0,0,0,0,0,0,0,0,0,0,0,0,0,0,0,0,0,0,0,0,0,0,0,0,0,0,0,0,0,0,0,0,0,0,0,0,0,0,0,0,0,0,0,0,0,0,0,0,0,0,0,0,0,0,0,0,0,0,0,0,0,0,0,0,0,0,0,0,0,0,0,0,0,0,0,0,0,0,0,0,0,0,0,0,0,0,0,0,0,0,0,0,0,0,0,0,0,0,0,0,0,0,0,0,0,0,0,0,0,0,0,0],"sum_hessian":[1.0113326E4,9.58241E3,5.3091565E2,6.5169814E3,3.0654287E3,3.924463E2,1.3846933E2,6.023016E3,4.9396515E2,1.5492502E2,2.9105037E3,1.1653959E2,2.759067E2,8.56689E1,5.2800438E1,5.077812E3,9.452044E2,7.943199E1,4.1453317E2,6.452555E1,9.039946E1,2.5932776E3,3.1722617E2,7.930597E1,3.723362E1,4.868146E1,2.2722525E2,8.457562E1,1.0932734E0,2.805726E1,2.474318E1,3.287932E2,4.7490186E3,2.067008E2,7.385036E2,7.9976754E0,7.143432E1,5.8273727E1,3.5625943E2,1.8918413E1,4.560714E1,4.1141537E1,4.925792E1,1.8400546E3,7.5322296E2,2.3287242E2,8.435376E1,4.294454E1,3.636143E1,3.430244E1,2.9311812E0,3.7933674E1,1.0747787E1,4.3790787E1,1.8343446E2,2.4357979E1,6.0217644E1,1.244133E1,1.5615931E1,2.1176584E1,3.566595E0,3.277218E2,1.0714157E0,4.7393643E3,9.654564E0,1.9637033E2,1.0330473E1,2.836258E1,7.1014105E2,1.5590768E0,6.4385986E0,1.6054173E1,5.5380146E1,5.2001686E1,6.2720413E0,2.3653772E1,3.3260565E2,3.12714E0,1.5791274E1,9.643267E0,3.596387E1,3.5767815E1,5.373722E0,4.047837E1,8.779551E0,1.2359045E3,6.041501E2,6.8259406E2,7.0628914E1,2.1012108E2,2.2751333E1,4.949518E0,7.940424E1,3.7252388E1,5.6921496E0,1.0570001E1,2.5791431E1,3.2846394E1,1.4560469E0,1.8173578E0,1.1138233E0,2.4133098E0,3.5520363E1,6.3216553E0,4.426132E0,1.641676E1,2.7374025E1,1.1499521E2,6.8439255E1,2.2432497E1,1.9254816E0,5.89414E1,1.276247E0,1.1334436E1,1.1068928E0,8.430392E0,7.1855383E0,1.8928293E1,2.248291E0,1.6347818E0,1.9318131E0],"tree_param":{"num_deleted":"0","num_feature":"66","num_nodes":"121","size_leaf_vector":"1"}},{"base_weights":[-6.8058556E-1,-8.587366E-1,1.5628629E0,-1.0201305E0,-5.1463395E-1,8.315408E-1,2.6054943E0,-1.071005E0,-7.3827714E-1,9.8916364E-1,-5.9024864E-1,2.264799E0,5.5166036E-1,3.0385349E0,1.5420822E0,-1.0922682E0,-8.580798E-1,-7.7329445E-1,3.4953207E-1,1.4813548E0,1.5557031E-1,-7.354374E-1,-1.4668651E-1,2.1494357E-1,2.4134078E0,2.2332461E-1,1.9442703E0,3.1915524E0,1.1501213E0,8.0742186E-1,2.5484788E0,-9.706943E-1,-1.1030095E0,-1.0026205E0,-5.609779E-1,-4.5272505E-1,-8.575284E-1,9.0408415E-2,1.5062138E-1,6.5232915E-1,1.965832E0,-3.5314232E-1,7.9766256E-1,-9.321621E-1,-4.60618E-1,-3.6987913E-1,3.9376408E-1,6.0893126E-2,-4.405904E-1,2.839478E0,1.5888401E0,1.3264928E0,-8.209421E-2,1.2157055E0,2.582908E0,2.7955809E0,3.7452557E0,-4.559543E-1,2.0346406E0,2.516692E0,4.3666804E-1,1.9732738E0,3.912284E0,-3.5671737E-2,-5.1399767E-2,-5.531493E-2,-4.136099E-2,-5.0858688E-2,4.588588E-2,-4.1132458E-2,-6.1601074E-3,8.524933E-2,-2.4710594E-2,-4.6207856E-2,-3.077492E-2,2.9413534E-2,-3.2584894E-2,-6.45994E-3,5.856031E-2,1.5952725E-2,1.12845324E-1,5.96564E-2,-2.4034247E-2,9.186707E-3,1.00920275E-1,-1.5580851E-2,-4.772322E-2,7.6641375E-3,-3.1085992E-2,2.773817E-3,-2.7810497E-2,8.843179E-3,6.801523E-2,-4.1138392E-2,1.8573975E-2,7.320069E-2,1.6022708E-1,1.1210903E-1,2.853181E-2,1.43485805E-2,1.0155177E-1,-1.8613962E-2,2.326576E-2,1.1759215E-1,3.4083422E-2,1.6315073E-1,8.3007954E-2,1.674934E-1,1.0921299E-1,9.708712E-2,1.93794E-1,-4.977525E-2,6.90177E-2,1.3855107E-2,1.2498831E-1,1.59926E-1,1.7707786E-2,-9.235541E-3,7.1394764E-2,1.4616655E-1,6.2340062E-2,5.887143E-2,2.0693731E-1],"categories":[],"categories_nodes":[],"categories_segments":[],"categories_sizes":[],"default_left":[0,0,0,0,0,0,0,0,0,0,0,0,0,0,0,0,0,0,0,0,0,0,0,0,0,0,0,0,0,0,0,0,0,0,0,0,0,0,0,0,0,0,0,0,0,0,0,0,0,0,0,0,0,0,0,0,0,0,0,0,0,0,0,0,0,0,0,0,0,0,0,0,0,0,0,0,0,0,0,0,0,0,0,0,0,0,0,0,0,0,0,0,0,0,0,0,0,0,0,0,0,0,0,0,0,0,0,0,0,0,0,0,0,0,0,0,0,0,0,0,0,0,0],"id":2,"left_children":[1,3,5,7,9,11,13,15,17,19,21,23,25,27,29,31,33,35,37,39,41,43,45,47,49,51,53,55,57,59,61,63,65,67,69,71,73,75,-1,77,79,81,83,85,87,89,91,-1,93,95,97,99,101,103,105,107,109,111,113,115,117,119,121,-1,-1,-1,-1,-1,-1,-1,-1,-1,-1,-1,-1,-1,-1,-1,-1,-1,-1,-1,-1,-1,-1,-1,-1,-1,-1,-1,-1,-1,-1,-1,-1,-1,-1,-1,-1,-1,-1,-1,-1,-1,-1,-1,-1,-1,-1,-1,-1,-1,-1,-1,-1,-1,-1,-1,-1,-1,-1,-1,-1],"loss_changes":[3.9396245E3,5.064912E2,5.508528E2,8.830762E1,3.3225824E2,1.7033597E2,1.3278699E2,2.2882812E1,3.658313E1,5.7217667E1,1.7878625E2,2.067099E1,1.6380023E2,5.733203E1,6.331511E1,5.171875E0,2.015213E1,2.4558838E1,2.0717136E1,3.403032E1,1.7625914E1,1.1270264E2,8.292782E1,4.3496237E0,1.8240173E1,9.84197E1,2.8684875E1,3.22229E1,2.562832E1,3.221738E1,2.1183975E1,5.109558E0,3.0625E0,9.966949E0,1.824326E1,1.8241325E1,1.1211548E1,1.1006326E1,0E0,1.3908693E1,2.56409E1,6.5530205E0,1.745042E1,1.656726E1,8.663133E1,3.856662E1,4.191143E1,0E0,1.6220553E0,1.611029E1,1.4907635E1,4.579561E1,3.6623024E1,1.8928185E1,1.6898743E1,3.2489502E1,1.0907471E1,8.30165E0,8.622814E0,1.2374767E1,2.7618252E1,1.5634216E1,1.2661285E0,0E0,0E0,0E0,0E0,0E0,0E0,0E0,0E0,0E0,0E0,0E0,0E0,0E0,0E0,0E0,0E0,0E0,0E0,0E0,0E0,0E0,0E0,0E0,0E0,0E0,0E0,0E0,0E0,0E0,0E0,0E0,0E0,0E0,0E0,0E0,0E0,0E0,0E0,0E0,0E0,0E0,0E0,0E0,0E0,0E0,0E0,0E0,0E0,0E0,0E0,0E0,0E0,0E0,0E0,0E0,0E0,0E0,0E0,0E0,0E0],"parents":[2147483647,0,0,1,1,2,2,3,3,4,4,5,5,6,6,7,7,8,8,9,9,10,10,11,11,12,12,13,13,14,14,15,15,16,16,17,17,18,18,19,19,20,20,21,21,22,22,23,23,24,24,25,25,26,26,27,27,28,28,29,29,30,30,31,31,32,32,33,33,34,34,35,35,36,36,37,37,39,39,40,40,41,41,42,42,43,43,44,44,45,45,46,46,48,48,49,49,50,50,51,51,52,52,53,53,54,54,55,55,56,56,57,57,58,58,59,59,60,60,61,61,62,62],"right_children":[2,4,6,8,10,12,14,16,18,20,22,24,26,28,30,32,34,36,38,40,42,44,46,48,50,52,54,56,58,60,62,64,66,68,70,72,74,76,-1,78,80,82,84,86,88,90,92,-1,94,96,98,100,102,104,106,108,110,112,114,116,118,120,122,-1,-1,-1,-1,-1,-1,-1,-1,-1,-1,-1,-1,-1,-1,-1,-1,-1,-1,-1,-1,-1,-1,-1,-1,-1,-1,-1,-1,-1,-1,-1,-1,-1,-1,-1,-1,-1,-1,-1,-1,-1,-1,-1,-1,-1,-1,-1,-1,-1,-1,-1,-1,-1,-1,-1,-1,-1,-1,-1,-1],"split_conditions":[1.0062119E0,1.4079688E0,2.4603074E0,3.6239052E-1,-1.1491234E0,-1.441179E0,-1.2690338E0,1.565778E-1,2.5730138E0,7.8704536E-1,2.1304008E-1,-1.4671892E0,1.2906044E0,1.0557971E0,6.000762E-1,-1.0567595E0,6.817525E-3,-3.885E-1,4.8716787E-1,-2.7561405E-1,2.9048434E-1,3.015022E-1,2.0273079E-1,-1.3881869E0,5.542641E-1,-1.1444969E0,3.1941295E-1,1.1362746E0,-1.8909882E-1,-1.1491234E0,2.4145103E0,-6.337757E-1,6.063742E-1,4.639587E0,8.194935E-3,-1.0261912E0,2.1587688E-1,-6.261883E-2,1.5062138E-1,-3.5361323E-1,6.817525E-3,-1.2936976E0,3.0413556E-1,-1.8489124E0,-3.5934818E-1,-8.4623706E-1,1.1919575E0,6.0893126E-2,3.4484756E-1,-4.631714E-1,-1.349229E0,1.4079688E0,4.7468224E-1,-6.355613E-1,4.594487E-2,-8.6437637E-1,-1.6479504E0,4.4927096E-1,3.4975177E-1,6.237735E-1,5.065776E-1,-9.072238E-1,-2.8037868E0,-3.5671737E-2,-5.1399767E-2,-5.531493E-2,-4.136099E-2,-5.0858688E-2,4.588588E-2,-4.1132458E-2,-6.1601074E-3,8.524933E-2,-2.4710594E-2,-4.6207856E-2,-3.077492E-2,2.9413534E-2,-3.2584894E-2,-6.45994E-3,5.856031E-2,1.5952725E-2,1.12845324E-1,5.96564E-2,-2.4034247E-2,9.186707E-3,1.00920275E-1,-1.5580851E-2,-4.772322E-2,7.6641375E-3,-3.1085992E-2,2.773817E-3,-2.7810497E-2,8.843179E-3,6.801523E-2,-4.1138392E-2,1.8573975E-2,7.320069E-2,1.6022708E-1,1.1210903E-1,2.853181E-2,1.43485805E-2,1.0155177E-1,-1.8613962E-2,2.326576E-2,1.1759215E-1,3.4083422E-2,1.6315073E-1,8.3007954E-2,1.674934E-1,1.0921299E-1,9.708712E-2,1.93794E-1,-4.977525E-2,6.90177E-2,1.3855107E-2,1.2498831E-1,1.59926E-1,1.7707786E-2,-9.235541E-3,7.1394764E-2,1.4616655E-1,6.2340062E-2,5.887143E-2,2.0693731E-1],"split_indices":[17,55,17,16,54,53,24,17,31,57,16,53,31,53,31,8,57,24,49,11,0,53,17,24,36,3,0,28,31,54,28,50,49,28,31,26,17,1,0,4,57,1,31,24,54,8,31,0,24,0,7,55,16,26,20,7,0,32,16,35,4,3,7,0,0,0,0,0,0,0,0,0,0,0,0,0,0,0,0,0,0,0,0,0,0,0,0,0,0,0,0,0,0,0,0,0,0,0,0,0,0,0,0,0,0,0,0,0,0,0,0,0,0,0,0,0,0,0,0,0,0,0,0],"split_type":[0,0,0,0,0,0,0,0,0,0,0,0,0,0,0,0,0,0,0,0,0,0,0,0,0,0,0,0,0,0,0,0,0,0,0,0,0,0,0,0,0,0,0,0,0,0,0,0,0,0,0,0,0,0,0,0,0,0,0,0,0,0,0,0,0,0,0,0,0,0,0,0,0,0,0,0,0,0,0,0,0,0,0,0,0,0,0,0,0,0,0,0,0,0,0,0,0,0,0,0,0,0,0,0,0,0,0,0,0,0,0,0,0,0,0,0,0,0,0,0,0,0,0],"sum_hessian":[9.85277E3,9.128498E3,7.24272E2,6.212632E3,2.9158665E3,4.2674332E2,2.9752863E2,5.2603423E3,9.522893E2,1.3901924E2,2.7768472E3,6.855966E1,3.5818365E2,2.1011047E2,8.741815E1,4.7789717E3,4.8137085E2,9.228706E2,2.9418701E1,8.6920425E1,5.2098824E1,2.0915676E3,6.852794E2,4.7997713E0,6.375989E1,2.907855E2,6.739816E1,1.9372307E2,1.63874E1,5.157278E1,3.584537E1,3.9536884E2,4.3836025E3,3.2223047E2,1.591404E2,1.93363E2,7.2950757E2,2.7752121E1,1.6665795E0,3.2925518E1,5.3994907E1,2.9319653E1,2.277917E1,1.2175872E3,8.739805E2,4.8521378E2,2.000656E2,1.5581298E0,3.2416418E0,4.0426926E1,2.3332966E1,6.2325073E1,2.2846042E2,3.2838844E1,3.4559315E1,1.1647604E2,7.724703E1,5.9919553E0,1.0395444E1,8.160901E0,4.341188E1,2.6932907E1,8.912465E0,7.447141E1,3.208974E2,4.3289624E3,5.4640194E1,3.2027356E2,1.9568923E0,9.905388E1,6.008652E1,2.8912861E0,1.9047173E2,5.698222E2,1.5968535E2,1.6733376E1,1.1018745E1,1.3437332E1,1.9488184E1,8.425138E0,4.556977E1,1.5975019E0,2.772215E1,1.5922191E1,6.856979E0,4.2761204E1,1.1748259E3,1.8168677E2,6.9229376E2,1.4801889E2,3.371949E2,1.6436385E2,3.570176E1,2.1953087E0,1.046333E0,9.530142E0,3.0896784E1,1.3480792E1,9.852174E0,2.5745722E1,3.657935E1,1.4951927E2,7.8941154E1,9.411804E0,2.342704E1,1.8435411E1,1.6123903E1,5.8738186E1,5.7737858E1,6.2884307E0,7.09586E1,4.985094E0,1.0068612E0,2.5093384E0,7.8861055E0,5.8404126E0,2.320488E0,2.7184292E1,1.6227589E1,1.0360184E1,1.6572723E1,1.1556443E0,7.7568207E0],"tree_param":{"num_deleted":"0","num_feature":"66","num_nodes":"123","size_leaf_vector":"1"}},{"base_weights":[-6.7388463E-1,1.0317994E0,-7.826657E-1,3.6293355E-1,2.4266124E0,-9.8565227E-1,-3.7468186E-1,1.7166137E0,-6.696007E-2,3.120753E0,1.699109E0,-1.0486617E0,-5.774692E-1,1.4120771E0,-4.6665716E-1,1.2137418E0,2.6964097E0,1.9022512E0,-2.5128886E-1,3.2017226E0,6.71957E-1,2.2684982E0,8.5964364E-1,-7.3650694E-1,-1.0657892E0,1.289277E-1,-7.143301E-1,4.5140204E-1,1.7819487E0,-6.0505944E-1,3.1706524E-1,2.5499716E0,7.060895E-1,3.0161648E0,4.1415063E-1,2.840359E0,1.1375029E0,-8.259481E-1,1.6119066E-1,3.6250174E0,2.7330577E0,-2.2790913E-1,8.725468E-2,2.549032E0,9.7377634E-1,3.1332982E-1,1.8581613E0,-7.749933E-1,1.9061772E0,-1.0890679E0,-9.3577456E-1,1.2732093E0,-2.3525488E-1,-1.1164863E-1,-7.921979E-1,-3.5188144E-1,1.0385617E0,2.248089E0,1.1180228E0,-4.2750406E-1,-9.896885E-1,1.9210038E0,1.11178786E-1,1.4510515E-1,3.006543E-2,1.2483377E-2,8.545803E-2,1.578172E-1,5.667286E-2,-3.1796392E-2,1.02721654E-1,1.5689331E-1,1.1987836E-2,-1.4975748E-2,8.027079E-2,6.1915684E-2,-4.5255266E-2,6.345823E-2,-4.5959046E-3,6.5104514E-2,1.8682562E-1,1.4023155E-1,7.614836E-3,1.8735977E-2,-3.3738304E-2,1.6473688E-2,1.3514476E-1,7.968691E-2,-3.247921E-2,6.1994758E-2,-9.385938E-3,3.8310893E-2,1.2719546E-1,3.193386E-2,-4.0847465E-2,1.1997946E-1,1.4588016E-2,-5.4520037E-2,-4.381229E-3,-4.8418768E-2,-2.4055516E-2,-5.409777E-3,9.254652E-2,4.0622775E-2,-2.120245E-2,-1.3875698E-2,7.678503E-2,-4.190486E-2,-3.466477E-4,4.2454515E-2,-3.2054674E-2,-4.762026E-4,8.384378E-2,1.4831898E-1,8.435465E-2,1.2289915E-2,7.693336E-2,-2.5099168E-2,3.0531028E-2,-4.991121E-2,5.4579407E-2,7.0919596E-2,1.6440494E-1,6.107683E-2,-5.0960905E-3],"categories":[],"categories_nodes":[],"categories_segments":[],"categories_sizes":[],"default_left":[0,0,0,0,0,0,0,0,0,0,0,0,0,0,0,0,0,0,0,0,0,0,0,0,0,0,0,0,0,0,0,0,0,0,0,0,0,0,0,0,0,0,0,0,0,0,0,0,0,0,0,0,0,0,0,0,0,0,0,0,0,0,0,0,0,0,0,0,0,0,0,0,0,0,0,0,0,0,0,0,0,0,0,0,0,0,0,0,0,0,0,0,0,0,0,0,0,0,0,0,0,0,0,0,0,0,0,0,0,0,0,0,0,0,0,0,0,0,0,0,0,0,0,0,0],"id":3,"left_children":[1,3,5,7,9,11,13,15,17,19,21,23,25,27,29,31,33,35,37,39,41,43,45,47,49,51,53,55,57,59,61,63,65,67,69,71,73,75,77,79,81,83,-1,85,87,89,91,93,95,97,99,101,103,105,107,109,111,113,115,117,119,121,123,-1,-1,-1,-1,-1,-1,-1,-1,-1,-1,-1,-1,-1,-1,-1,-1,-1,-1,-1,-1,-1,-1,-1,-1,-1,-1,-1,-1,-1,-1,-1,-1,-1,-1,-1,-1,-1,-1,-1,-1,-1,-1,-1,-1,-1,-1,-1,-1,-1,-1,-1,-1,-1,-1,-1,-1,-1,-1,-1,-1,-1,-1],"loss_changes":[1.7814873E3,5.362981E2,7.468032E2,2.2727138E2,8.8850586E1,1.5432959E2,4.9352466E2,4.3102264E1,1.0836452E2,1.6529236E1,4.2612244E1,2.7109375E1,7.818704E1,5.1454376E1,3.0965723E2,4.162516E1,2.1449753E1,1.5104065E1,6.476444E1,8.132507E0,4.531932E0,1.7473083E1,2.0850178E1,2.9407288E1,1.3943359E1,5.528692E1,3.1675018E1,2.0280245E1,3.0245117E1,1.6519849E2,1.4141168E2,1.0086273E1,2.144597E1,3.5806122E0,9.886758E0,7.6110153E0,1.106938E1,1.9764488E1,4.4865543E1,6.7158203E0,8.294739E0,1.1180845E0,0E0,1.4319702E1,1.2510978E1,1.258088E1,8.302887E0,1.661792E1,2.670127E0,5.492676E0,1.0767029E1,2.5748173E1,2.0310263E1,2.1904528E1,2.1592163E1,6.996806E0,1.6504423E1,1.9655762E1,1.637101E1,1.2873154E2,1.4683044E1,2.8817383E1,9.0309685E1,0E0,0E0,0E0,0E0,0E0,0E0,0E0,0E0,0E0,0E0,0E0,0E0,0E0,0E0,0E0,0E0,0E0,0E0,0E0,0E0,0E0,0E0,0E0,0E0,0E0,0E0,0E0,0E0,0E0,0E0,0E0,0E0,0E0,0E0,0E0,0E0,0E0,0E0,0E0,0E0,0E0,0E0,0E0,0E0,0E0,0E0,0E0,0E0,0E0,0E0,0E0,0E0,0E0,0E0,0E0,0E0,0E0,0E0,0E0,0E0,0E0,0E0],"parents":[2147483647,0,0,1,1,2,2,3,3,4,4,5,5,6,6,7,7,8,8,9,9,10,10,11,11,12,12,13,13,14,14,15,15,16,16,17,17,18,18,19,19,20,20,21,21,22,22,23,23,24,24,25,25,26,26,27,27,28,28,29,29,30,30,31,31,32,32,33,33,34,34,35,35,36,36,37,37,38,38,39,39,40,40,41,41,43,43,44,44,45,45,46,46,47,47,48,48,49,49,50,50,51,51,52,52,53,53,54,54,55,55,56,56,57,57,58,58,59,59,60,60,61,61,62,62],"right_children":[2,4,6,8,10,12,14,16,18,20,22,24,26,28,30,32,34,36,38,40,42,44,46,48,50,52,54,56,58,60,62,64,66,68,70,72,74,76,78,80,82,84,-1,86,88,90,92,94,96,98,100,102,104,106,108,110,112,114,116,118,120,122,124,-1,-1,-1,-1,-1,-1,-1,-1,-1,-1,-1,-1,-1,-1,-1,-1,-1,-1,-1,-1,-1,-1,-1,-1,-1,-1,-1,-1,-1,-1,-1,-1,-1,-1,-1,-1,-1,-1,-1,-1,-1,-1,-1,-1,-1,-1,-1,-1,-1,-1,-1,-1,-1,-1,-1,-1,-1,-1,-1,-1,-1,-1],"split_conditions":[-1.8489124E0,8.017349E-1,1.4079688E0,-7.286952E-1,-3.056331E0,4.7468224E-1,-1.9148904E0,1.5150111E0,-2.399743E0,3.40606E0,-2.507805E-1,-8.242782E-1,-1.3462306E0,-1.9150074E-1,5.384502E-1,-6.8592143E-1,-2.0157268E0,-4.3391533E0,1.4079688E0,2.9997405E-1,2.412308E-1,7.459679E-1,4.7348577E-1,4.639587E0,2.9977694E-1,-6.3311225E-1,-9.1986114E-1,-2.4854292E-1,-1.9863392E-1,2.0730298E0,-1.8756906E0,2.7022648E0,2.7818897E0,1.2621305E0,1.2293351E0,1.1659237E0,4.6818636E-2,-1.6565762E0,-1.1651958E0,-1.6546749E0,4.501428E-1,-1.2076934E-1,8.725468E-2,-4.455622E-1,-6.220913E-1,-1.2686443E0,1.16381E0,-2.249594E0,2.567517E-1,2.7818897E0,9.341417E-2,-1.7244339E-1,-8.6437637E-1,2.4145103E0,1.8566705E0,-1.1578243E0,-8.138106E-1,3.3419454E-1,-2.2694439E-1,1.8489299E0,2.809452E0,2.272484E0,-1.2945064E0,1.4510515E-1,3.006543E-2,1.2483377E-2,8.545803E-2,1.578172E-1,5.667286E-2,-3.1796392E-2,1.02721654E-1,1.5689331E-1,1.1987836E-2,-1.4975748E-2,8.027079E-2,6.1915684E-2,-4.5255266E-2,6.345823E-2,-4.5959046E-3,6.5104514E-2,1.8682562E-1,1.4023155E-1,7.614836E-3,1.8735977E-2,-3.3738304E-2,1.6473688E-2,1.3514476E-1,7.968691E-2,-3.247921E-2,6.1994758E-2,-9.385938E-3,3.8310893E-2,1.2719546E-1,3.193386E-2,-4.0847465E-2,1.1997946E-1,1.4588016E-2,-5.4520037E-2,-4.381229E-3,-4.8418768E-2,-2.4055516E-2,-5.409777E-3,9.254652E-2,4.0622775E-2,-2.120245E-2,-1.3875698E-2,7.678503E-2,-4.190486E-2,-3.466477E-4,4.2454515E-2,-3.2054674E-2,-4.762026E-4,8.384378E-2,1.4831898E-1,8.435465E-2,1.2289915E-2,7.693336E-2,-2.5099168E-2,3.0531028E-2,-4.991121E-2,5.4579407E-2,7.0919596E-2,1.6440494E-1,6.107683E-2,-5.0960905E-3],"split_indices":[24,16,55,5,24,16,7,28,7,11,5,5,6,12,16,26,24,7,55,2,2,15,28,28,10,5,5,11,24,65,5,33,49,3,10,11,22,6,6,20,13,12,0,9,6,6,43,8,19,49,52,22,7,28,2,24,15,52,10,33,20,28,6,0,0,0,0,0,0,0,0,0,0,0,0,0,0,0,0,0,0,0,0,0,0,0,0,0,0,0,0,0,0,0,0,0,0,0,0,0,0,0,0,0,0,0,0,0,0,0,0,0,0,0,0,0,0,0,0,0,0,0,0,0,0],"split_type":[0,0,0,0,0,0,0,0,0,0,0,0,0,0,0,0,0,0,0,0,0,0,0,0,0,0,0,0,0,0,0,0,0,0,0,0,0,0,0,0,0,0,0,0,0,0,0,0,0,0,0,0,0,0,0,0,0,0,0,0,0,0,0,0,0,0,0,0,0,0,0,0,0,0,0,0,0,0,0,0,0,0,0,0,0,0,0,0,0,0,0,0,0,0,0,0,0,0,0,0,0,0,0,0,0,0,0,0,0,0,0,0,0,0,0,0,0,0,0,0,0,0,0,0,0],"sum_hessian":[9.595956E3,5.747897E2,9.021166E3,3.8934442E2,1.8544528E2,6.023062E3,2.998104E3,9.3122E1,2.962224E2,9.321518E1,9.2230095E1,5.2162783E3,8.0678375E2,1.4607248E2,2.8520315E3,6.301755E1,3.0104448E1,2.4556961E1,2.7166547E2,8.9934044E1,3.2811408E0,5.3940945E1,3.8289154E1,2.73612E2,4.942666E3,1.309505E2,6.7583325E2,4.122316E1,1.0484931E2,2.424162E3,4.278696E2,1.624219E1,4.677536E1,2.6122934E1,3.9815145E0,9.809569E0,1.4747393E1,1.1309755E2,1.5856792E2,4.3715633E1,4.6218407E1,2.213043E0,1.068098E0,4.3538456E1,1.0402489E1,2.559777E1,1.26913805E1,2.703811E2,3.2309153E0,4.1858315E3,7.568345E2,3.1012245E1,9.993825E1,7.760672E1,5.982265E2,1.7577026E1,2.3646133E1,6.0198242E1,4.465107E1,1.6599806E3,7.6418146E2,4.7726955E1,3.8014264E2,1.3341965E1,2.9002254E0,3.3005814E1,1.3769548E1,2.368309E1,2.4398437E0,2.8008E0,1.1807144E0,8.617177E0,1.1923918E0,3.7108402E0,1.1036552E1,3.6359336E0,1.0946161E2,2.8741E1,1.2982692E2,2.5828106E0,4.1132824E1,4.48868E1,1.3316094E0,1.0110201E0,1.2020229E0,3.0261352E0,4.051232E1,7.540874E0,2.8616145E0,8.466491E0,1.713128E1,5.7124953E0,6.9788857E0,7.3833485E0,2.6299774E2,2.1021018E0,1.1288134E0,4.1801797E3,5.6521235E0,7.051438E2,5.1690693E1,9.384773E0,2.1627472E1,1.475457E1,8.518368E1,7.1263054E1,6.3436666E0,5.651272E2,3.309933E1,3.0356047E0,1.4541423E1,9.323084E0,1.43230505E1,2.4518042E1,3.5680202E1,1.5043031E1,2.9608038E1,1.549341E3,1.10639595E2,7.615785E2,2.6029677E0,3.638686E1,1.1340093E1,6.0447826E1,3.1969482E2],"tree_param":{"num_deleted":"0","num_feature":"66","num_nodes":"125","size_leaf_vector":"1"}},{"base_weights":[-6.518702E-1,-8.309991E-1,1.3268297E0,-9.980411E-1,-4.915896E-1,6.583249E-1,2.0215516E0,-1.0497303E0,-7.1714985E-1,8.803032E-1,-5.660677E-1,1.7628998E0,4.1651154E-1,1.4418687E0,2.4168713E0,-1.0655457E0,-6.9582844E-1,-2.2663333E-1,-7.9830664E-1,2.3786145E-1,1.3540256E0,-8.626236E-1,-3.2201487E-1,3.0962813E0,1.2206998E0,1.6239499E0,1.5407808E-1,2.3308635E0,9.8370516E-1,2.0405936E0,2.7784407E0,-1.0838933E0,-9.287049E-1,-8.0186194E-1,1.0424983E-1,-3.958682E-1,1.3345287E0,-8.118613E-1,1.203156E0,6.7856383E-1,-3.439049E-1,1.6554261E0,5.742865E-1,-9.542249E-1,-3.7023878E-1,-5.166883E-1,2.0031644E-1,2.620109E-2,3.3500745E0,3.1502812E0,9.293567E-1,1.361031E-1,1.8530499E0,-1.8321654E-1,9.142834E-1,2.9836273E0,1.5426506E0,2.3145921E0,5.464963E-1,2.7491949E0,1.6520952E0,1.1679531E0,2.8338203E0,-5.463739E-2,-4.404132E-2,-4.7016367E-2,5.162223E-2,3.918685E-4,-4.249273E-2,7.357063E-2,-1.5615771E-2,-2.721127E-2,2.2303443E-2,2.393856E-3,1.0596021E-1,-1.2980227E-2,-4.269619E-2,1.4615658E-1,1.6317045E-3,7.553326E-2,8.228726E-3,-2.85548E-2,6.598201E-2,5.611315E-2,1.0279908E-1,6.1374266E-2,-1.52468225E-2,-4.7341106E-3,-4.9013536E-2,9.988444E-3,-2.8971339E-2,-3.3428203E-2,-9.898522E-3,3.3059434E-3,6.3429974E-2,1.8094847E-1,6.503155E-2,1.842854E-1,4.236005E-2,8.5353784E-2,1.95929E-2,1.0039025E-1,-3.1842347E-2,9.931797E-2,-1.5673364E-3,-1.5775397E-2,3.3063754E-2,-1.1469331E-2,6.9066465E-2,3.0777624E-2,1.5649436E-1,9.6764505E-2,2.132751E-2,1.3564986E-1,4.100109E-2,-1.3205368E-3,7.183375E-2,1.4624014E-1,3.9030258E-2,5.7928115E-2,1.1109517E-1,-3.594629E-2,9.947373E-2,1.42516E-1,3.549778E-2],"categories":[],"categories_nodes":[],"categories_segments":[],"categories_sizes":[],"default_left":[0,0,0,0,0,0,0,0,0,0,0,0,0,0,0,0,0,0,0,0,0,0,0,0,0,0,0,0,0,0,0,0,0,0,0,0,0,0,0,0,0,0,0,0,0,0,0,0,0,0,0,0,0,0,0,0,0,0,0,0,0,0,0,0,0,0,0,0,0,0,0,0,0,0,0,0,0,0,0,0,0,0,0,0,0,0,0,0,0,0,0,0,0,0,0,0,0,0,0,0,0,0,0,0,0,0,0,0,0,0,0,0,0,0,0,0,0,0,0,0,0,0,0,0,0],"id":4,"left_children":[1,3,5,7,9,11,13,15,17,19,21,23,25,27,29,31,33,35,37,39,41,43,45,47,49,51,53,55,57,59,61,63,65,67,69,71,73,75,77,79,81,83,85,87,89,91,93,-1,95,97,99,101,103,105,107,109,111,113,115,117,119,121,123,-1,-1,-1,-1,-1,-1,-1,-1,-1,-1,-1,-1,-1,-1,-1,-1,-1,-1,-1,-1,-1,-1,-1,-1,-1,-1,-1,-1,-1,-1,-1,-1,-1,-1,-1,-1,-1,-1,-1,-1,-1,-1,-1,-1,-1,-1,-1,-1,-1,-1,-1,-1,-1,-1,-1,-1,-1,-1,-1,-1,-1,-1],"loss_changes":[3.3061443E3,4.8432324E2,3.5834534E2,8.243848E1,2.8887866E2,1.0507971E2,8.343506E1,2.6332031E1,3.539499E1,4.4027702E1,1.9351886E2,4.7435623E1,1.03150314E2,6.1355408E1,2.4809814E1,1.0614258E1,1.788198E1,3.441636E1,2.1768646E1,1.6401478E1,1.8711319E1,5.414081E1,1.4962503E2,1.1188736E1,2.6312393E1,1.9571259E1,6.918367E1,2.2365997E1,5.974549E1,2.6716766E1,6.6331177E0,6.364258E0,1.3602417E1,7.2098236E0,1.4945541E1,1.4793468E1,1.2794477E1,1.7475586E1,1.1095088E1,1.5241205E1,1.1277211E1,1.0465408E1,1.464863E1,2.2699036E1,2.2908031E1,5.1733704E1,5.7255093E1,0E0,5.136566E0,4.775242E0,1.8814404E1,1.4066787E1,1.27022705E1,2.1130486E1,4.4591118E1,7.6329956E0,1.0487225E1,1.3029495E1,4.0955994E1,1.1096497E1,1.8754822E1,9.81206E0,1.7286987E0,0E0,0E0,0E0,0E0,0E0,0E0,0E0,0E0,0E0,0E0,0E0,0E0,0E0,0E0,0E0,0E0,0E0,0E0,0E0,0E0,0E0,0E0,0E0,0E0,0E0,0E0,0E0,0E0,0E0,0E0,0E0,0E0,0E0,0E0,0E0,0E0,0E0,0E0,0E0,0E0,0E0,0E0,0E0,0E0,0E0,0E0,0E0,0E0,0E0,0E0,0E0,0E0,0E0,0E0,0E0,0E0,0E0,0E0,0E0,0E0,0E0,0E0],"parents":[2147483647,0,0,1,1,2,2,3,3,4,4,5,5,6,6,7,7,8,8,9,9,10,10,11,11,12,12,13,13,14,14,15,15,16,16,17,17,18,18,19,19,20,20,21,21,22,22,23,23,24,24,25,25,26,26,27,27,28,28,29,29,30,30,31,31,32,32,33,33,34,34,35,35,36,36,37,37,38,38,39,39,40,40,41,41,42,42,43,43,44,44,45,45,46,46,48,48,49,49,50,50,51,51,52,52,53,53,54,54,55,55,56,56,57,57,58,58,59,59,60,60,61,61,62,62],"right_children":[2,4,6,8,10,12,14,16,18,20,22,24,26,28,30,32,34,36,38,40,42,44,46,48,50,52,54,56,58,60,62,64,66,68,70,72,74,76,78,80,82,84,86,88,90,92,94,-1,96,98,100,102,104,106,108,110,112,114,116,118,120,122,124,-1,-1,-1,-1,-1,-1,-1,-1,-1,-1,-1,-1,-1,-1,-1,-1,-1,-1,-1,-1,-1,-1,-1,-1,-1,-1,-1,-1,-1,-1,-1,-1,-1,-1,-1,-1,-1,-1,-1,-1,-1,-1,-1,-1,-1,-1,-1,-1,-1,-1,-1,-1,-1,-1,-1,-1,-1,-1,-1,-1,-1,-1],"split_conditions":[1.0062119E0,1.4079688E0,2.1694882E0,3.6239052E-1,-1.1491234E0,-1.3720928E0,3.0413556E-1,3.6174628E-1,-1.3462306E0,-1.4930327E-1,5.5027705E-1,-6.641216E-1,-1.441179E0,-9.4745666E-1,4.108282E0,4.547033E-1,9.946637E-1,6.7969704E-1,3.929456E0,-3.952309E-1,3.2157466E-1,3.4975177E-1,1.0144146E-1,-3.4329188E-1,-1.2273507E0,-3.8051468E-1,5.014293E-1,1.5524213E-1,-1.441179E0,-1.9934365E-1,-3.693234E-1,1.7818646E-1,3.4560354E0,-1.5014035E0,-1.1750305E0,8.9601684E-1,-6.94144E-1,-7.9769075E-1,-6.247643E-1,3.8475603E-1,1.6084645E0,-2.0834985E-1,2.5025167E-2,-1.9362913E0,-9.065746E-1,5.38255E-2,1.7990634E0,2.620109E-2,1.0932306E0,1.4414817E-1,-1.0307275E0,-5.8389074E-1,2.99557E0,1.7300318E0,-2.96299E-1,-5.0148165E-1,-6.639783E-3,3.2157466E-1,9.640589E-1,3.33308E0,9.2042106E-1,-2.7329598E-3,1.8606722E0,-5.463739E-2,-4.404132E-2,-4.7016367E-2,5.162223E-2,3.918685E-4,-4.249273E-2,7.357063E-2,-1.5615771E-2,-2.721127E-2,2.2303443E-2,2.393856E-3,1.0596021E-1,-1.2980227E-2,-4.269619E-2,1.4615658E-1,1.6317045E-3,7.553326E-2,8.228726E-3,-2.85548E-2,6.598201E-2,5.611315E-2,1.0279908E-1,6.1374266E-2,-1.52468225E-2,-4.7341106E-3,-4.9013536E-2,9.988444E-3,-2.8971339E-2,-3.3428203E-2,-9.898522E-3,3.3059434E-3,6.3429974E-2,1.8094847E-1,6.503155E-2,1.842854E-1,4.236005E-2,8.5353784E-2,1.95929E-2,1.0039025E-1,-3.1842347E-2,9.931797E-2,-1.5673364E-3,-1.5775397E-2,3.3063754E-2,-1.1469331E-2,6.9066465E-2,3.0777624E-2,1.5649436E-1,9.6764505E-2,2.132751E-2,1.3564986E-1,4.100109E-2,-1.3205368E-3,7.183375E-2,1.4624014E-1,3.9030258E-2,5.7928115E-2,1.1109517E-1,-3.594629E-2,9.947373E-2,1.42516E-1,3.549778E-2],"split_indices":[17,55,17,16,54,6,31,17,6,10,64,26,53,1,17,10,31,17,28,7,58,16,17,11,2,11,31,42,53,2,16,52,28,6,8,31,8,26,49,15,33,42,13,24,6,10,28,0,27,8,24,26,47,33,0,16,7,58,16,51,27,20,6,0,0,0,0,0,0,0,0,0,0,0,0,0,0,0,0,0,0,0,0,0,0,0,0,0,0,0,0,0,0,0,0,0,0,0,0,0,0,0,0,0,0,0,0,0,0,0,0,0,0,0,0,0,0,0,0,0,0,0,0,0,0],"split_type":[0,0,0,0,0,0,0,0,0,0,0,0,0,0,0,0,0,0,0,0,0,0,0,0,0,0,0,0,0,0,0,0,0,0,0,0,0,0,0,0,0,0,0,0,0,0,0,0,0,0,0,0,0,0,0,0,0,0,0,0,0,0,0,0,0,0,0,0,0,0,0,0,0,0,0,0,0,0,0,0,0,0,0,0,0,0,0,0,0,0,0,0,0,0,0,0,0,0,0,0,0,0,0,0,0,0,0,0,0,0,0,0,0,0,0,0,0,0,0,0,0,0,0,0,0],"sum_hessian":[9.323626E3,8.550171E3,7.734548E2,5.7287827E3,2.8213887E3,3.9515732E2,3.7829745E2,4.836112E3,8.9267084E2,1.447249E2,2.6766638E3,6.98411E1,3.2531622E2,1.5526688E2,2.2303056E2,4.627312E3,2.0879984E2,1.272652E2,7.6540564E2,6.2061665E1,8.266323E1,1.207211E3,1.4694526E3,1.8828165E1,5.1012936E1,5.715623E1,2.6815997E2,5.1415577E1,1.038513E2,1.1254796E2,1.10482605E2,4.0741328E3,5.53179E2,1.8436404E2,2.4435787E1,1.15491936E2,1.1773263E1,7.608473E2,4.558365E0,3.5217304E1,2.6844362E1,5.8808372E1,2.3854855E1,1.0170628E3,1.9014825E2,1.0704906E3,3.9896213E2,1.9660901E0,1.6862076E1,5.404655E0,4.560828E1,7.8393183E0,4.9316914E1,1.8627211E2,8.188787E1,2.6600716E1,2.481486E1,2.4618196E1,7.923311E1,3.7703045E1,7.484491E1,4.4072094E0,1.060754E2,3.8997075E3,1.7442545E2,5.5043744E2,2.741551E0,1.0363012E1,1.7400104E2,5.115271E0,1.9320517E1,9.849058E1,1.7001358E1,4.8619766E0,6.911286E0,5.4355957E1,7.0649133E2,1.2395986E0,3.318766E0,1.2706902E1,2.25104E1,2.4196531E1,2.6478312E0,2.6859089E1,3.1949284E1,1.3459398E1,1.0395457E1,3.0048916E1,9.8701385E2,5.106054E1,1.390877E2,7.242653E2,3.4622525E2,3.553811E2,4.358103E1,1.4229307E1,2.6327684E0,3.8980794E0,1.5065758E0,1.7749771E1,2.7858507E1,1.8242652E0,6.0150533E0,4.600802E1,3.308893E0,1.6158575E2,2.4686354E1,2.3891895E1,5.7995975E1,1.8503616E0,2.4750355E1,1.7813993E1,7.000866E0,1.879327E1,5.8249264E0,4.879782E1,3.0435287E1,3.4169247E1,3.5337987E0,4.173225E1,3.3112663E1,1.3746905E0,3.0325189E0,1.0491828E2,1.1571144E0],"tree_param":{"num_deleted":"0","num_feature":"66","num_nodes":"125","size_leaf_vector":"1"}},{"base_weights":[-6.362237E-1,8.4393334E-1,-7.522885E-1,4.3996316E-1,2.0072212E0,-9.605898E-1,-3.4959388E-1,1.6096587E0,5.967487E-2,2.6446166E0,1.5607271E0,-1.0420355E0,-7.775894E-1,9.974208E-1,-4.6361375E-1,1.8543442E0,-1.6433161E-1,1.340105E0,-1.8602811E-1,9.706362E-3,2.6829698E0,2.246362E0,1.0701852E0,-1.0671145E0,-8.517712E-1,-7.9783864E-2,-8.454579E-1,1.5556098E0,4.0370885E-1,-5.3228855E-1,8.7441677E-1,2.6915925E0,1.5164663E0,-5.9747726E-1,1.0655837E0,1.7151959E0,3.5714158E-1,1.23894855E-1,-9.378149E-1,8.0101806E-1,2.7410798E0,6.73069E-1,2.4541378E0,5.45252E-2,1.3540541E0,-9.080893E-1,-1.0876311E0,5.9959584E-1,-8.7409437E-1,-4.1488457E-1,6.827657E-1,-4.001479E-1,-8.879226E-1,9.318551E-1,1.9322855E0,1.3759851E-1,1.9736652E0,-7.74153E-1,-2.409589E-1,2.8882403E0,6.725809E-1,1.4235975E-1,-2.431419E-3,1.17204525E-1,5.0381284E-2,-5.2980073E-2,5.0423693E-2,1.0081764E-1,-5.765562E-3,1.0061448E-1,2.8538361E-2,6.744545E-2,-8.115965E-3,-2.5287468E-3,6.512147E-2,4.7627296E-2,-4.8900537E-2,-1.4657493E-2,7.7202275E-2,4.7937956E-2,1.4008023E-1,7.623499E-2,-2.846232E-2,3.424049E-2,1.3006766E-1,-2.345407E-2,1.15667E-1,7.742182E-2,5.9734588E-3,2.6683284E-2,-4.629919E-2,-2.6303222E-2,-5.4502703E-2,-2.6324663E-2,1.0489924E-1,-4.4748854E-2,3.396619E-2,-3.3044897E-2,2.34689E-3,1.4635451E-2,8.95753E-2,-5.008823E-3,-4.3131378E-2,2.9956955E-2,-4.502925E-2,9.661836E-3,6.964811E-2,1.0980423E-1,4.739874E-2,-4.9871217E-2,1.6534854E-2,1.2934098E-1,2.5443895E-2,-5.0703477E-2,-2.7108839E-2,-2.2313764E-2,5.8145495E-3,1.6619425E-1,2.6193801E-2,1.6620314E-2,7.642292E-2],"categories":[],"categories_nodes":[],"categories_segments":[],"categories_sizes":[],"default_left":[0,0,0,0,0,0,0,0,0,0,0,0,0,0,0,0,0,0,0,0,0,0,0,0,0,0,0,0,0,0,0,0,0,0,0,0,0,0,0,0,0,0,0,0,0,0,0,0,0,0,0,0,0,0,0,0,0,0,0,0,0,0,0,0,0,0,0,0,0,0,0,0,0,0,0,0,0,0,0,0,0,0,0,0,0,0,0,0,0,0,0,0,0,0,0,0,0,0,0,0,0,0,0,0,0,0,0,0,0,0,0,0,0,0,0,0,0,0,0,0,0],"id":5,"left_children":[1,3,5,7,9,11,13,15,17,19,21,23,25,27,29,31,33,35,37,-1,39,41,43,45,47,49,51,53,55,57,59,61,63,65,67,69,71,73,75,77,79,81,83,85,87,89,91,93,95,97,99,101,103,105,107,109,111,113,115,117,119,-1,-1,-1,-1,-1,-1,-1,-1,-1,-1,-1,-1,-1,-1,-1,-1,-1,-1,-1,-1,-1,-1,-1,-1,-1,-1,-1,-1,-1,-1,-1,-1,-1,-1,-1,-1,-1,-1,-1,-1,-1,-1,-1,-1,-1,-1,-1,-1,-1,-1,-1,-1,-1,-1,-1,-1,-1,-1,-1,-1],"loss_changes":[1.5641179E3,3.1031564E2,7.076001E2,2.1911572E2,4.4369995E1,8.20874E1,4.4261307E2,5.2771576E1,1.1757715E2,5.9414062E0,3.212114E1,1.7442383E1,8.1243774E1,7.393228E1,2.4441736E2,2.598993E1,8.931088E0,2.1569778E1,7.3224014E1,0E0,5.199341E0,1.2045807E1,1.7729362E1,1.0086182E1,1.5196259E1,3.945346E1,2.923169E1,2.5362396E1,4.584028E1,1.7779187E2,5.0892326E1,1.2620499E1,3.0497986E1,1.008956E1,5.1887875E0,1.3567963E1,9.430445E0,4.593177E1,7.900139E0,3.2479656E0,4.345398E0,7.4974976E0,7.7613373E0,1.8270754E1,1.1386627E1,1.0656738E1,3.5097656E0,1.3680007E1,1.5089081E1,1.2200705E1,1.987771E1,1.9063011E1,2.7420776E1,1.5213802E1,1.6393036E1,2.1249985E1,1.2983799E1,7.6234314E1,8.4199776E1,1.0142754E1,3.426945E1,0E0,0E0,0E0,0E0,0E0,0E0,0E0,0E0,0E0,0E0,0E0,0E0,0E0,0E0,0E0,0E0,0E0,0E0,0E0,0E0,0E0,0E0,0E0,0E0,0E0,0E0,0E0,0E0,0E0,0E0,0E0,0E0,0E0,0E0,0E0,0E0,0E0,0E0,0E0,0E0,0E0,0E0,0E0,0E0,0E0,0E0,0E0,0E0,0E0,0E0,0E0,0E0,0E0,0E0,0E0,0E0,0E0,0E0,0E0,0E0],"parents":[2147483647,0,0,1,1,2,2,3,3,4,4,5,5,6,6,7,7,8,8,9,9,10,10,11,11,12,12,13,13,14,14,15,15,16,16,17,17,18,18,20,20,21,21,22,22,23,23,24,24,25,25,26,26,27,27,28,28,29,29,30,30,31,31,32,32,33,33,34,34,35,35,36,36,37,37,38,38,39,39,40,40,41,41,42,42,43,43,44,44,45,45,46,46,47,47,48,48,49,49,50,50,51,51,52,52,53,53,54,54,55,55,56,56,57,57,58,58,59,59,60,60],"right_children":[2,4,6,8,10,12,14,16,18,20,22,24,26,28,30,32,34,36,38,-1,40,42,44,46,48,50,52,54,56,58,60,62,64,66,68,70,72,74,76,78,80,82,84,86,88,90,92,94,96,98,100,102,104,106,108,110,112,114,116,118,120,-1,-1,-1,-1,-1,-1,-1,-1,-1,-1,-1,-1,-1,-1,-1,-1,-1,-1,-1,-1,-1,-1,-1,-1,-1,-1,-1,-1,-1,-1,-1,-1,-1,-1,-1,-1,-1,-1,-1,-1,-1,-1,-1,-1,-1,-1,-1,-1,-1,-1,-1,-1,-1,-1,-1,-1,-1,-1,-1,-1],"split_conditions":[-1.697985E0,1.2309587E0,1.4079688E0,-1.025994E0,-1.0617473E0,-1.0075768E-2,-1.441179E0,1.1338276E0,-6.7069405E-1,-7.2852826E-1,-2.8141692E0,-1.7312536E-2,-1.3720928E0,-8.6437637E-1,2.0831158E0,-1.4755412E0,-4.4041502E-1,-3.783715E-1,1.0557971E0,9.706362E-3,-1.8893812E0,8.8345736E-2,-3.529289E-1,-7.9017985E-1,-2.6479137E0,-1.01783544E-1,-1.2088428E0,-1.3918106E-1,1.6084645E0,-2.0736061E-1,-1.6565762E0,1.5102494E0,-3.3763978E0,6.074165E-1,2.6186445E-1,-2.0157268E0,-1.3111283E0,2.8217568E0,-1.7312317E0,1.029787E0,-1.9735411E0,1.0216046E-1,-9.625986E-1,1.5128442E0,1.0037768E0,-1.7955785E0,-1.0278203E0,7.8704536E-1,3.929456E0,6.817525E-3,3.0152163E-1,1.0037768E0,-9.3924737E-1,2.0636337E-1,7.8704536E-1,-1.4931993E0,7.8704536E-1,5.5027705E-1,5.3559375E-1,-1.1444969E0,1.7486018E0,1.4235975E-1,-2.431419E-3,1.17204525E-1,5.0381284E-2,-5.2980073E-2,5.0423693E-2,1.0081764E-1,-5.765562E-3,1.0061448E-1,2.8538361E-2,6.744545E-2,-8.115965E-3,-2.5287468E-3,6.512147E-2,4.7627296E-2,-4.8900537E-2,-1.4657493E-2,7.7202275E-2,4.7937956E-2,1.4008023E-1,7.623499E-2,-2.846232E-2,3.424049E-2,1.3006766E-1,-2.345407E-2,1.15667E-1,7.742182E-2,5.9734588E-3,2.6683284E-2,-4.629919E-2,-2.6303222E-2,-5.4502703E-2,-2.6324663E-2,1.0489924E-1,-4.4748854E-2,3.396619E-2,-3.3044897E-2,2.34689E-3,1.4635451E-2,8.95753E-2,-5.008823E-3,-4.3131378E-2,2.9956955E-2,-4.502925E-2,9.661836E-3,6.964811E-2,1.0980423E-1,4.739874E-2,-4.9871217E-2,1.6534854E-2,1.2934098E-1,2.5443895E-2,-5.0703477E-2,-2.7108839E-2,-2.2313764E-2,5.8145495E-3,1.6619425E-1,2.6193801E-2,1.6620314E-2,7.642292E-2],"split_indices":[24,28,55,7,6,10,53,53,26,49,24,52,6,7,28,6,23,8,53,0,0,32,10,50,8,52,23,10,33,10,6,30,7,0,23,24,53,43,18,53,20,47,19,64,53,18,43,57,28,57,50,53,26,12,57,53,57,64,53,3,32,0,0,0,0,0,0,0,0,0,0,0,0,0,0,0,0,0,0,0,0,0,0,0,0,0,0,0,0,0,0,0,0,0,0,0,0,0,0,0,0,0,0,0,0,0,0,0,0,0,0,0,0,0,0,0,0,0,0,0,0],"split_type":[0,0,0,0,0,0,0,0,0,0,0,0,0,0,0,0,0,0,0,0,0,0,0,0,0,0,0,0,0,0,0,0,0,0,0,0,0,0,0,0,0,0,0,0,0,0,0,0,0,0,0,0,0,0,0,0,0,0,0,0,0,0,0,0,0,0,0,0,0,0,0,0,0,0,0,0,0,0,0,0,0,0,0,0,0,0,0,0,0,0,0,0,0,0,0,0,0,0,0,0,0,0,0,0,0,0,0,0,0,0,0,0,0,0,0,0,0,0,0,0,0],"sum_hessian":[9.099907E3,6.6121844E2,8.438688E3,4.9180838E2,1.6941008E2,5.56085E3,2.8778389E3,1.19871956E2,3.719364E2,6.775826E1,1.0165182E2,3.8449385E3,1.7159114E3,2.239834E2,2.6538555E3,1.0530236E2,1.4569591E1,5.9163567E1,3.1277286E2,1.1375706E0,6.662069E1,4.0902576E1,6.074924E1,3.393083E3,4.5185553E2,1.5228946E2,1.563622E3,1.146103E2,1.093731E2,2.5248682E3,1.2898735E2,2.8274097E1,7.702827E1,1.1155214E1,3.4143765E0,4.2283577E1,1.6879988E1,2.2206294E2,9.070991E1,2.4383025E0,6.418239E1,5.266167E0,3.563641E1,1.3530454E1,4.7218784E1,3.9290668E2,3.0001763E3,6.4529066E0,4.4540265E2,1.0611388E2,4.617558E1,1.370331E2,1.4265887E3,4.446031E1,7.014999E1,9.445112E1,1.4921983E1,1.3786462E3,1.1462219E3,1.0537661E1,1.18449684E2,2.6717892E1,1.556204E0,2.7954243E1,4.9074024E1,8.926696E0,2.2285185E0,1.4995618E0,1.9148148E0,3.2967007E1,9.316573E0,5.2533727E0,1.1626616E1,1.9426161E2,2.7801327E1,1.4160731E0,8.929384E1,1.2310085E0,1.2072941E0,2.6610494E0,6.1521343E1,2.989502E0,2.2766654E0,3.1714673E0,3.2464943E1,1.1627471E1,1.9029835E0,4.057598E1,6.6428027E0,4.4634576E0,3.8844324E2,1.382602E1,2.9863503E3,4.0544667E0,2.3984396E0,4.3991272E2,5.489913E0,6.8951996E1,3.716188E1,3.5093594E1,1.10819845E1,8.385806E1,5.317504E1,1.1653811E1,1.4149349E3,1.763346E1,2.6826853E1,5.4352283E1,1.5797702E1,1.3126847E1,8.132427E1,9.978867E0,4.943116E0,6.760669E2,7.0257935E2,7.27734E2,4.1848788E2,8.555454E0,1.9822067E0,8.575438E1,3.2695305E1],"tree_param":{"num_deleted":"0","num_feature":"66","num_nodes":"121","size_leaf_vector":"1"}},{"base_weights":[-6.1736184E-1,-8.270587E-1,8.975506E-1,-9.8188347E-1,-5.115889E-1,3.8853958E-1,1.7374511E0,-1.0312537E0,-7.1611804E-1,-3.463997E-1,-9.900546E-1,-1.6501741E-1,7.2348595E-1,1.158822E0,2.0790348E0,-1.0497113E0,-8.180011E-1,-8.29062E-1,-4.0929434E-1,6.923954E-1,-4.2139393E-1,-1.0006956E0,-2.0844808E-2,-4.7246054E-1,5.582667E-1,9.458053E-1,-4.0087903E-1,2.0661798E0,8.338291E-1,1.7388792E0,2.3935885E0,-1.0669377E0,-9.1829336E-1,-9.6631247E-1,-5.1359874E-1,-9.2685604E-1,-6.0953856E-1,1.2086335E-1,-5.962565E-1,4.4579223E-2,1.0227586E0,-6.205552E-1,-1.3250709E-1,-1.0147789E0,-3.8408524E-1,9.014212E-2,-6.7468125E-1,-6.8453413E-1,1.7570895E-1,-4.5743302E-1,8.323403E-1,7.6021266E-1,1.7036802E0,6.0572827E-1,-6.0824984E-1,2.2288542E0,3.2295865E-1,-6.4610235E-2,1.1996242E0,1.464672E0,2.323079E0,2.4655764E0,1.5270325E0,-4.0421214E-2,-5.3519793E-2,-4.6760473E-2,-6.2983944E-3,-4.9450185E-2,1.3669051E-2,6.5721914E-2,-3.0787379E-2,-5.0022572E-2,-3.3838026E-2,4.8432993E-3,-3.3805426E-2,-3.1385391E-3,6.1710525E-2,-3.293975E-2,1.836034E-2,-4.4925525E-3,1.0662197E-1,7.062804E-2,1.574778E-2,-1.0592415E-2,-3.570782E-2,-9.451752E-3,6.6889025E-2,-5.415499E-2,-4.5175515E-2,6.689746E-2,-2.9799242E-2,-4.6902873E-2,1.7651636E-2,-4.567999E-2,-1.5405372E-2,-1.641816E-2,3.9536085E-2,1.5439168E-2,-4.41343E-2,5.9518E-2,-1.8047769E-2,7.2746575E-2,2.6279649E-2,1.08433306E-1,4.8226196E-2,5.857248E-2,-2.5818733E-2,-4.3871265E-2,1.023495E-2,1.3659371E-1,7.551053E-2,-2.7878154E-2,6.919237E-2,-2.1653786E-2,6.1444737E-2,6.9974504E-2,-3.0220335E-2,7.7989385E-2,7.523952E-4,7.282957E-2,1.341004E-1,1.2474897E-1,4.439493E-2,8.084985E-3,9.882935E-2],"categories":[],"categories_nodes":[],"categories_segments":[],"categories_sizes":[],"default_left":[0,0,0,0,0,0,0,0,0,0,0,0,0,0,0,0,0,0,0,0,0,0,0,0,0,0,0,0,0,0,0,0,0,0,0,0,0,0,0,0,0,0,0,0,0,0,0,0,0,0,0,0,0,0,0,0,0,0,0,0,0,0,0,0,0,0,0,0,0,0,0,0,0,0,0,0,0,0,0,0,0,0,0,0,0,0,0,0,0,0,0,0,0,0,0,0,0,0,0,0,0,0,0,0,0,0,0,0,0,0,0,0,0,0,0,0,0,0,0,0,0,0,0,0,0],"id":6,"left_children":[1,3,5,7,9,11,13,15,17,19,21,23,25,27,29,31,33,35,37,39,41,43,45,47,49,51,53,55,57,59,61,63,65,67,69,71,73,75,77,79,81,83,85,87,89,-1,91,93,95,97,99,101,103,105,107,109,111,113,115,117,119,121,123,-1,-1,-1,-1,-1,-1,-1,-1,-1,-1,-1,-1,-1,-1,-1,-1,-1,-1,-1,-1,-1,-1,-1,-1,-1,-1,-1,-1,-1,-1,-1,-1,-1,-1,-1,-1,-1,-1,-1,-1,-1,-1,-1,-1,-1,-1,-1,-1,-1,-1,-1,-1,-1,-1,-1,-1,-1,-1,-1,-1,-1,-1],"loss_changes":[2.8122441E3,3.7923438E2,4.595907E2,6.767627E1,2.0211829E2,1.2464807E2,7.7829956E1,1.644043E1,2.8081543E1,1.4875385E2,6.753662E0,5.6746544E1,1.05022675E2,4.338098E1,2.3016357E1,8.169434E0,1.551387E1,1.2283569E1,2.214035E1,2.749699E1,1.0221628E2,5.2523804E0,1.0940062E1,2.4695675E1,2.1599287E1,4.790851E1,1.4941076E1,1.0526871E1,3.7639603E1,1.673285E1,4.301819E0,2.3232422E0,6.2557373E0,6.9460907E0,2.290208E1,6.908386E0,8.876656E0,1.2114868E1,1.0169651E1,1.2684307E1,2.3057861E1,4.010028E1,6.066231E1,3.845581E0,6.678501E0,0E0,2.152908E0,1.1351494E1,1.4170009E1,5.7604227E0,2.6225426E1,4.5331467E1,2.1282303E1,8.49308E0,1.2955921E1,8.926147E0,5.0261664E0,1.6745987E1,3.0150726E1,1.2144608E1,8.050262E0,3.2479248E0,7.3808765E0,0E0,0E0,0E0,0E0,0E0,0E0,0E0,0E0,0E0,0E0,0E0,0E0,0E0,0E0,0E0,0E0,0E0,0E0,0E0,0E0,0E0,0E0,0E0,0E0,0E0,0E0,0E0,0E0,0E0,0E0,0E0,0E0,0E0,0E0,0E0,0E0,0E0,0E0,0E0,0E0,0E0,0E0,0E0,0E0,0E0,0E0,0E0,0E0,0E0,0E0,0E0,0E0,0E0,0E0,0E0,0E0,0E0,0E0,0E0,0E0,0E0,0E0],"parents":[2147483647,0,0,1,1,2,2,3,3,4,4,5,5,6,6,7,7,8,8,9,9,10,10,11,11,12,12,13,13,14,14,15,15,16,16,17,17,18,18,19,19,20,20,21,21,22,22,23,23,24,24,25,25,26,26,27,27,28,28,29,29,30,30,31,31,32,32,33,33,34,34,35,35,36,36,37,37,38,38,39,39,40,40,41,41,42,42,43,43,44,44,46,46,47,47,48,48,49,49,50,50,51,51,52,52,53,53,54,54,55,55,56,56,57,57,58,58,59,59,60,60,61,61,62,62],"right_children":[2,4,6,8,10,12,14,16,18,20,22,24,26,28,30,32,34,36,38,40,42,44,46,48,50,52,54,56,58,60,62,64,66,68,70,72,74,76,78,80,82,84,86,88,90,-1,92,94,96,98,100,102,104,106,108,110,112,114,116,118,120,122,124,-1,-1,-1,-1,-1,-1,-1,-1,-1,-1,-1,-1,-1,-1,-1,-1,-1,-1,-1,-1,-1,-1,-1,-1,-1,-1,-1,-1,-1,-1,-1,-1,-1,-1,-1,-1,-1,-1,-1,-1,-1,-1,-1,-1,-1,-1,-1,-1,-1,-1,-1,-1,-1,-1,-1,-1,-1,-1,-1,-1,-1,-1],"split_conditions":[6.7969704E-1,1.4079688E0,2.1694882E0,3.4975177E-1,2.0730298E0,1.4079688E0,2.0548868E-1,1.565778E-1,3.0413556E-1,-1.1491234E0,2.1797583E0,4.0278244E-1,2.0730298E0,-1.2552264E0,4.108282E0,4.547033E-1,6.817525E-3,6.817525E-3,-3.885E-1,-2.941074E-1,-9.851466E-2,1.3842614E0,-3.7225616E-1,9.0465724E-1,-2.6828635E-1,1.7990634E0,-1.26787E0,2.351586E0,1.4079688E0,2.0831158E0,2.0137913E0,-1.6200874E0,1.1309153E0,3.4560354E0,7.8704536E-1,7.405485E-1,-1.3405257E0,1.6096952E0,1.7979273E0,1.9312073E0,7.8704536E-1,-9.6836203E-1,2.8689544E0,-9.72996E-1,-1.4913939E0,9.014212E-2,6.295353E-1,6.817525E-3,3.5017928E-1,2.412308E-1,1.873227E0,-6.7069405E-1,9.795937E-1,1.0052639E0,8.048802E-1,3.8352922E-1,1.9994267E0,8.9982104E-1,2.7577367E-1,4.738929E0,-9.324299E-1,5.7975373E0,-2.4240758E-1,-4.0421214E-2,-5.3519793E-2,-4.6760473E-2,-6.2983944E-3,-4.9450185E-2,1.3669051E-2,6.5721914E-2,-3.0787379E-2,-5.0022572E-2,-3.3838026E-2,4.8432993E-3,-3.3805426E-2,-3.1385391E-3,6.1710525E-2,-3.293975E-2,1.836034E-2,-4.4925525E-3,1.0662197E-1,7.062804E-2,1.574778E-2,-1.0592415E-2,-3.570782E-2,-9.451752E-3,6.6889025E-2,-5.415499E-2,-4.5175515E-2,6.689746E-2,-2.9799242E-2,-4.6902873E-2,1.7651636E-2,-4.567999E-2,-1.5405372E-2,-1.641816E-2,3.9536085E-2,1.5439168E-2,-4.41343E-2,5.9518E-2,-1.8047769E-2,7.2746575E-2,2.6279649E-2,1.08433306E-1,4.8226196E-2,5.857248E-2,-2.5818733E-2,-4.3871265E-2,1.023495E-2,1.3659371E-1,7.551053E-2,-2.7878154E-2,6.919237E-2,-2.1653786E-2,6.1444737E-2,6.9974504E-2,-3.0220335E-2,7.7989385E-2,7.523952E-4,7.282957E-2,1.341004E-1,1.2474897E-1,4.439493E-2,8.084985E-3,9.882935E-2],"split_indices":[17,55,17,16,65,55,31,17,31,54,2,31,65,1,17,10,57,57,24,10,17,10,26,16,10,28,8,26,55,28,26,18,9,28,57,2,24,28,2,23,57,8,31,53,18,0,30,57,4,2,61,26,43,26,28,38,19,0,24,39,23,51,0,0,0,0,0,0,0,0,0,0,0,0,0,0,0,0,0,0,0,0,0,0,0,0,0,0,0,0,0,0,0,0,0,0,0,0,0,0,0,0,0,0,0,0,0,0,0,0,0,0,0,0,0,0,0,0,0,0,0,0,0,0,0],"split_type":[0,0,0,0,0,0,0,0,0,0,0,0,0,0,0,0,0,0,0,0,0,0,0,0,0,0,0,0,0,0,0,0,0,0,0,0,0,0,0,0,0,0,0,0,0,0,0,0,0,0,0,0,0,0,0,0,0,0,0,0,0,0,0,0,0,0,0,0,0,0,0,0,0,0,0,0,0,0,0,0,0,0,0,0,0,0,0,0,0,0,0,0,0,0,0,0,0,0,0,0,0,0,0,0,0,0,0,0,0,0,0,0,0,0,0,0,0,0,0,0,0,0,0,0,0],"sum_hessian":[8.849319E3,7.773721E3,1.0755983E3,5.2131323E3,2.560589E3,6.7063257E2,4.0496567E2,4.3939956E3,8.191365E2,1.9047146E3,6.558744E2,2.5300508E2,4.1762747E2,1.5195401E2,2.5301166E2,4.0403677E3,3.5362817E2,5.974931E2,2.2164337E2,1.2769487E2,1.7770198E3,6.487196E2,7.154791E0,1.7778262E2,7.522247E1,3.488154E2,6.8812065E1,3.8660076E1,1.1329393E2,1.246954E2,1.2831627E2,3.5658372E3,4.7453052E2,2.3631563E2,1.1731254E2,4.1112262E2,1.863705E2,5.7877384E1,1.6376599E2,4.3510044E1,8.418483E1,1.0511791E3,7.258407E2,6.336025E2,1.5117103E1,1.4244293E0,5.730362E0,1.3391203E2,4.3870583E1,1.5842424E1,5.9380047E1,2.818078E2,6.700761E1,1.1426284E1,5.738578E1,3.5105507E1,3.5545688E0,3.3018837E1,8.027509E1,8.7249855E1,3.744554E1,1.1677049E2,1.1545776E1,5.0170242E1,3.515667E3,4.6443454E2,1.0095983E1,2.3226648E2,4.0491476E0,5.5803175E0,1.1173222E2,3.1533032E2,9.579231E1,1.6011374E1,1.7035912E2,5.0492786E1,7.3845987E0,1.540808E2,9.685183E0,4.177712E1,1.732923E0,5.3645447E1,3.053938E1,1.964871E2,8.5469196E2,6.9980676E2,2.6033941E1,3.8715082E2,2.4645169E2,1.0741102E0,1.4042993E1,4.630838E0,1.0995239E0,8.23642E1,5.154784E1,2.4365993E1,1.9504587E1,5.7521477E0,1.0090277E1,4.567794E1,1.3702106E1,6.9831764E1,2.1197604E2,3.99451E1,2.7062508E1,7.5672097E0,3.8590739E0,4.3051643E1,1.4334135E1,1.9002869E1,1.610264E1,2.2016609E0,1.3529079E0,2.6216145E1,6.8026915E0,7.247045E1,7.804647E0,8.180622E1,5.4436355E0,1.2449485E1,2.4996056E1,1.1406328E2,2.707215E0,3.196732E0,8.349044E0],"tree_param":{"num_deleted":"0","num_feature":"66","num_nodes":"125","size_leaf_vector":"1"}},{"base_weights":[-6.095516E-1,-8.234213E-1,8.528287E-1,-9.717561E-1,-5.973023E-1,3.8393736E-1,1.6083821E0,-1.0226011E0,-7.140116E-1,2.0672661E-1,-6.96344E-1,1.0898176E0,1.4329845E-1,1.94196E0,1.1189451E0,-8.1053925E-1,-1.0443842E0,-8.2802975E-1,-3.709009E-1,4.8354667E-1,-8.1021595E-1,-9.026659E-1,-4.9116674E-1,1.5197889E0,5.1469046E-1,-4.4834012E-1,4.8137107E-1,1.5231125E0,2.1158004E0,2.1694996E0,8.0748546E-1,7.998423E-1,-8.34443E-1,-1.0707445E0,-9.386429E-1,-8.6993694E-1,-1.6225795E-1,-6.131195E-1,5.389531E-2,-4.4972223E-1,8.747719E-1,-9.875981E-1,2.0694356E-1,-7.193425E-1,-9.9238694E-1,-1.4291236E-1,-6.680304E-1,1.1796966E0,2.5220437E0,1.6261637E0,2.929188E-1,-6.390683E-1,3.322568E-1,1.2840134E0,1.038441E-1,2.0433435E0,1.1297948E0,2.203688E0,1.3435278E0,2.3497336E0,9.456604E-3,1.0961708E-1,1.1821398E0,8.029092E-2,-3.578224E-2,-4.3314792E-2,1.3335824E-2,-5.3620256E-2,-1.4694765E-2,-4.9205676E-2,-3.191157E-2,-4.3836996E-2,4.6945523E-2,3.4879047E-2,-2.4181858E-2,-3.446262E-2,2.1570465E-2,-1.368277E-2,3.0939007E-2,-3.8550865E-2,2.000137E-2,8.389457E-2,3.1035889E-2,-5.169343E-2,7.051577E-3,6.9898784E-2,-3.4401458E-2,-4.2500433E-2,-2.0640502E-2,-5.1147487E-2,-2.8679669E-2,1.8816452E-2,-1.4916541E-2,-7.913879E-3,-3.7471965E-2,5.0932574E-3,7.198717E-2,1.4585035E-1,4.3321483E-2,1.1047194E-1,-1.5756654E-3,5.0613232E-2,1.1437166E-3,-3.8495477E-2,-1.8887926E-3,4.9061503E-2,-7.006897E-3,7.333269E-2,-1.8474682E-3,-6.3889795E-3,3.7315458E-2,1.0890181E-1,1.793955E-2,2.3015512E-2,6.793581E-2,1.2123016E-1,9.416001E-2,5.709137E-4,9.488631E-2,1.2443518E-1,2.7266694E-2,6.0861837E-2,-4.2865273E-2,-4.6084872E-3,8.502437E-2,8.721366E-2,3.3734854E-2],"categories":[],"categories_nodes":[],"categories_segments":[],"categories_sizes":[],"default_left":[0,0,0,0,0,0,0,0,0,0,0,0,0,0,0,0,0,0,0,0,0,0,0,0,0,0,0,0,0,0,0,0,0,0,0,0,0,0,0,0,0,0,0,0,0,0,0,0,0,0,0,0,0,0,0,0,0,0,0,0,0,0,0,0,0,0,0,0,0,0,0,0,0,0,0,0,0,0,0,0,0,0,0,0,0,0,0,0,0,0,0,0,0,0,0,0,0,0,0,0,0,0,0,0,0,0,0,0,0,0,0,0,0,0,0,0,0,0,0,0,0,0,0,0,0,0,0],"id":7,"left_children":[1,3,5,7,9,11,13,15,17,19,21,23,25,27,29,31,33,35,37,39,41,43,45,47,49,51,53,55,57,59,61,63,65,67,69,71,73,75,77,79,81,83,85,87,89,91,93,95,97,99,101,103,105,107,109,111,113,115,117,119,121,123,125,-1,-1,-1,-1,-1,-1,-1,-1,-1,-1,-1,-1,-1,-1,-1,-1,-1,-1,-1,-1,-1,-1,-1,-1,-1,-1,-1,-1,-1,-1,-1,-1,-1,-1,-1,-1,-1,-1,-1,-1,-1,-1,-1,-1,-1,-1,-1,-1,-1,-1,-1,-1,-1,-1,-1,-1,-1,-1,-1,-1,-1,-1,-1,-1],"loss_changes":[2.7053657E3,2.5248584E2,3.9044385E2,5.8956543E1,2.3835718E2,1.1576611E2,6.678931E1,1.6715088E1,2.917987E1,9.296518E1,1.1231213E2,4.2085526E1,1.0224387E2,1.4968384E1,5.5038315E1,1.447171E1,8.594971E0,1.5620697E1,1.9563385E1,9.499939E1,1.2966854E1,2.111084E1,8.229706E1,3.0661194E1,1.8175844E1,2.790517E1,9.837577E1,1.34157715E1,8.848328E0,1.5198502E1,3.5288933E1,8.179514E0,1.264241E1,3.2324219E0,8.8706665E0,7.3604736E0,9.921517E0,9.91679E0,1.3092991E1,2.1384438E1,3.6279648E1,3.300274E0,1.3039511E1,1.725827E1,1.0782227E1,3.657345E1,3.6684967E1,2.1031395E1,1.3246628E1,1.2027294E1,1.2468026E1,1.1758118E1,1.1536369E1,2.5122757E1,3.315883E1,6.445053E0,6.424301E0,6.3830566E0,1.4993694E1,7.6904907E0,5.2466836E0,1.5701269E1,2.393715E1,0E0,0E0,0E0,0E0,0E0,0E0,0E0,0E0,0E0,0E0,0E0,0E0,0E0,0E0,0E0,0E0,0E0,0E0,0E0,0E0,0E0,0E0,0E0,0E0,0E0,0E0,0E0,0E0,0E0,0E0,0E0,0E0,0E0,0E0,0E0,0E0,0E0,0E0,0E0,0E0,0E0,0E0,0E0,0E0,0E0,0E0,0E0,0E0,0E0,0E0,0E0,0E0,0E0,0E0,0E0,0E0,0E0,0E0,0E0,0E0,0E0,0E0,0E0,0E0],"parents":[2147483647,0,0,1,1,2,2,3,3,4,4,5,5,6,6,7,7,8,8,9,9,10,10,11,11,12,12,13,13,14,14,15,15,16,16,17,17,18,18,19,19,20,20,21,21,22,22,23,23,24,24,25,25,26,26,27,27,28,28,29,29,30,30,31,31,32,32,33,33,34,34,35,35,36,36,37,37,38,38,39,39,40,40,41,41,42,42,43,43,44,44,45,45,46,46,47,47,48,48,49,49,50,50,51,51,52,52,53,53,54,54,55,55,56,56,57,57,58,58,59,59,60,60,61,61,62,62],"right_children":[2,4,6,8,10,12,14,16,18,20,22,24,26,28,30,32,34,36,38,40,42,44,46,48,50,52,54,56,58,60,62,64,66,68,70,72,74,76,78,80,82,84,86,88,90,92,94,96,98,100,102,104,106,108,110,112,114,116,118,120,122,124,126,-1,-1,-1,-1,-1,-1,-1,-1,-1,-1,-1,-1,-1,-1,-1,-1,-1,-1,-1,-1,-1,-1,-1,-1,-1,-1,-1,-1,-1,-1,-1,-1,-1,-1,-1,-1,-1,-1,-1,-1,-1,-1,-1,-1,-1,-1,-1,-1,-1,-1,-1,-1,-1,-1,-1,-1,-1,-1,-1,-1,-1,-1,-1,-1],"split_conditions":[6.7969704E-1,6.817525E-3,2.1694882E0,3.2750854E-1,7.8704536E-1,-7.286952E-1,-2.507805E-1,-4.419464E-1,4.0278244E-1,2.0730298E0,-2.424653E-1,-3.9878142E-1,6.817525E-3,5.9312725E-1,-2.399743E0,-1.7955785E0,1.574529E-2,4.0045267E-1,7.362213E-2,-5.543545E-1,-5.568333E-1,1.5672733E0,1.5672733E0,2.0831158E0,-2.076508E0,9.0465724E-1,7.8704536E-1,2.1185918E-1,3.85828E0,2.1032617E0,1.8650586E-3,-4.1652235E-1,2.7932467E0,4.1229606E0,9.7552156E-1,5.513495E0,-7.056898E-1,4.9621767E-1,1.08657144E-1,2.953488E-2,-1.7532729E0,1.4959542E0,-6.615453E-1,2.6240674E-1,3.3742562E-1,-2.507805E-1,-6.3311225E-1,-3.6946416E-1,6.787795E-1,1.0573618E0,-5.05157E-1,1.5629542E0,-3.05309E-1,2.0730298E0,1.0227666E0,3.5774803E0,-1.06419474E-1,7.8704536E-1,4.108282E0,1.6703793E0,-1.2106082E0,1.2983128E0,-8.394315E-1,8.029092E-2,-3.578224E-2,-4.3314792E-2,1.3335824E-2,-5.3620256E-2,-1.4694765E-2,-4.9205676E-2,-3.191157E-2,-4.3836996E-2,4.6945523E-2,3.4879047E-2,-2.4181858E-2,-3.446262E-2,2.1570465E-2,-1.368277E-2,3.0939007E-2,-3.8550865E-2,2.000137E-2,8.389457E-2,3.1035889E-2,-5.169343E-2,7.051577E-3,6.9898784E-2,-3.4401458E-2,-4.2500433E-2,-2.0640502E-2,-5.1147487E-2,-2.8679669E-2,1.8816452E-2,-1.4916541E-2,-7.913879E-3,-3.7471965E-2,5.0932574E-3,7.198717E-2,1.4585035E-1,4.3321483E-2,1.1047194E-1,-1.5756654E-3,5.0613232E-2,1.1437166E-3,-3.8495477E-2,-1.8887926E-3,4.9061503E-2,-7.006897E-3,7.333269E-2,-1.8474682E-3,-6.3889795E-3,3.7315458E-2,1.0890181E-1,1.793955E-2,2.3015512E-2,6.793581E-2,1.2123016E-1,9.416001E-2,5.709137E-4,9.488631E-2,1.2443518E-1,2.7266694E-2,6.0861837E-2,-4.2865273E-2,-4.6084872E-3,8.502437E-2,8.721366E-2,3.3734854E-2],"split_indices":[17,57,17,16,57,5,5,5,31,65,10,3,57,16,7,18,10,52,22,10,53,57,57,28,7,16,57,2,39,11,11,44,28,49,2,30,32,17,17,12,7,32,23,0,16,5,5,0,40,48,38,2,7,65,10,33,11,57,17,30,18,21,3,0,0,0,0,0,0,0,0,0,0,0,0,0,0,0,0,0,0,0,0,0,0,0,0,0,0,0,0,0,0,0,0,0,0,0,0,0,0,0,0,0,0,0,0,0,0,0,0,0,0,0,0,0,0,0,0,0,0,0,0,0,0,0,0],"split_type":[0,0,0,0,0,0,0,0,0,0,0,0,0,0,0,0,0,0,0,0,0,0,0,0,0,0,0,0,0,0,0,0,0,0,0,0,0,0,0,0,0,0,0,0,0,0,0,0,0,0,0,0,0,0,0,0,0,0,0,0,0,0,0,0,0,0,0,0,0,0,0,0,0,0,0,0,0,0,0,0,0,0,0,0,0,0,0,0,0,0,0,0,0,0,0,0,0,0,0,0,0,0,0,0,0,0,0,0,0,0,0,0,0,0,0,0,0,0,0,0,0,0,0,0,0,0,0],"sum_hessian":[8.646761E3,7.5439175E3,1.1028433E3,4.5535054E3,2.9904119E3,6.8144885E2,4.2139435E2,3.800765E3,7.527405E2,3.278457E2,2.6625662E3,1.7235144E2,5.0909744E2,2.4883325E2,1.7256111E2,3.576075E2,3.4431575E3,5.639293E2,1.8881114E2,2.5811044E2,6.973526E1,1.3258851E3,1.336681E3,9.7681305E1,7.4670135E1,1.8500545E2,3.2409198E2,7.584802E1,1.7298523E2,3.809636E1,1.3446474E2,4.7557325E0,3.5285178E2,2.7487854E3,6.94372E2,5.302462E2,3.368313E1,1.1996425E2,6.884689E1,7.619575E1,1.819147E2,5.9404747E1,1.0330515E1,4.386422E2,8.8724286E2,4.5081305E2,8.85868E2,7.4558586E1,2.3122719E1,1.136725E1,6.3302887E1,1.4882372E2,3.6181736E1,1.029064E2,2.211856E2,3.084931E1,4.4998714E1,1.5364618E2,1.933905E1,3.5081356E1,3.0150046E0,4.7422832E1,8.7041916E1,3.0657046E0,1.6900281E0,3.4313922E2,9.712573E0,2.7425422E3,6.2431216E0,6.0111127E2,9.326074E1,5.287728E2,1.4733796E0,8.845831E0,2.48373E1,1.12131424E2,7.8328266E0,4.390434E1,2.494255E1,5.5357445E1,2.0838303E1,4.23699E1,1.395448E2,5.7145897E1,2.258848E0,4.191038E0,6.139477E0,3.0630154E2,1.3234065E2,8.25553E2,6.1689926E1,1.0352441E2,3.4728864E2,1.2239835E2,7.6346967E2,1.4762652E1,5.9795933E1,1.8053892E1,5.0688257E0,8.162365E0,3.2048852E0,1.6527729E1,4.6775154E1,1.21996796E2,2.6826921E1,1.478839E1,2.1393347E1,9.030963E1,1.2596775E1,1.6316272E2,5.8022865E1,2.829404E1,2.5552688E0,1.2233219E1,3.2765495E1,8.706562E1,6.658055E1,5.9816775E0,1.3357372E1,3.2220573E1,2.8607807E0,1.0907547E0,1.9242498E0,4.29208E1,4.502033E0,4.013922E1,4.690269E1],"tree_param":{"num_deleted":"0","num_feature":"66","num_nodes":"127","size_leaf_vector":"1"}},{"base_weights":[-5.905228E-1,-8.0570936E-1,8.068564E-1,-9.706383E-1,-4.793722E-1,3.8229936E-1,1.4696761E0,-1.0268893E0,-7.1922797E-1,-3.1762055E-1,-9.614624E-1,-1.9234571E-1,6.9218284E-1,1.2133373E0,1.8945318E0,-1.0497756E0,-8.459188E-1,-3.171246E-1,-7.9768187E-1,6.9105107E-1,-3.9691553E-1,2.1420097E-2,-9.7414386E-1,6.8884414E-1,-3.9129776E-1,1.3840501E0,3.4211648E-1,9.3320465E-1,1.9172715E0,2.3051221E0,1.5621251E0,-1.0516176E0,-2.4147898E-2,-1.5799974E-1,-8.82423E-1,2.6635987E-1,-5.579029E-1,-9.118207E-1,-5.544957E-1,1.2164205E-1,9.9508727E-1,4.8799032E-1,-4.659004E-1,-5.6766367E-1,9.236057E-2,-9.842342E-1,-1.5129516E-2,-5.361975E-1,9.709727E-1,-5.89346E-1,3.4856096E-1,1.5318664E0,-2.8431104E-2,1.6091987E0,1.655584E-1,1.670378E0,6.967543E-1,3.8582855E-1,2.0028434E0,5.76538E-1,2.3603606E0,2.0118854E0,1.179426E0,-5.315527E-2,-4.506902E-2,-2.3922158E-2,6.992027E-2,3.570403E-2,-2.3136629E-2,-4.464561E-2,3.9456103E-2,-7.269627E-3,4.6783086E-2,-3.247122E-2,1.8134564E-2,-4.814218E-2,-3.318207E-2,-1.3127141E-2,-3.5070818E-2,-1.6025487E-2,4.914461E-2,5.8128458E-2,-6.3580633E-3,9.697987E-2,1.0732419E-2,-3.2712445E-2,-1.2254085E-2,-3.9546337E-2,2.1683894E-2,3.7058804E-2,-4.9446665E-2,9.417462E-2,-3.820049E-2,3.9235726E-2,-4.0369105E-2,2.3647321E-2,8.980124E-2,1.5068612E-2,-3.516707E-2,1.2292721E-1,6.7382823E-3,1.06000304E-1,5.771265E-2,-1.6819943E-2,8.018892E-2,8.832287E-2,-6.2469314E-3,3.3256423E-2,-6.393475E-3,8.998849E-2,1.2604656E-2,5.5506893E-2,1.1957022E-2,-2.6807455E-2,9.801812E-2,1.1351355E-1,7.403231E-2,5.9942394E-2,-1.894691E-2,3.163429E-2,1.20169125E-1,6.9886036E-2,1.18776955E-1,8.145104E-3,6.87732E-2],"categories":[],"categories_nodes":[],"categories_segments":[],"categories_sizes":[],"default_left":[0,0,0,0,0,0,0,0,0,0,0,0,0,0,0,0,0,0,0,0,0,0,0,0,0,0,0,0,0,0,0,0,0,0,0,0,0,0,0,0,0,0,0,0,0,0,0,0,0,0,0,0,0,0,0,0,0,0,0,0,0,0,0,0,0,0,0,0,0,0,0,0,0,0,0,0,0,0,0,0,0,0,0,0,0,0,0,0,0,0,0,0,0,0,0,0,0,0,0,0,0,0,0,0,0,0,0,0,0,0,0,0,0,0,0,0,0,0,0,0,0,0,0,0,0],"id":8,"left_children":[1,3,5,7,9,11,13,15,17,19,21,23,25,27,29,31,33,35,37,39,41,43,45,47,49,51,53,55,57,59,61,63,65,67,69,71,73,75,77,79,81,83,85,87,-1,89,91,93,95,97,99,101,103,105,107,109,111,113,115,117,119,121,123,-1,-1,-1,-1,-1,-1,-1,-1,-1,-1,-1,-1,-1,-1,-1,-1,-1,-1,-1,-1,-1,-1,-1,-1,-1,-1,-1,-1,-1,-1,-1,-1,-1,-1,-1,-1,-1,-1,-1,-1,-1,-1,-1,-1,-1,-1,-1,-1,-1,-1,-1,-1,-1,-1,-1,-1,-1,-1,-1,-1,-1,-1],"loss_changes":[2.5369136E3,3.9295312E2,3.1631232E2,6.7916016E1,1.9120758E2,1.22601326E2,4.5544434E1,1.5532715E1,2.7852661E1,1.4747778E2,7.705261E0,4.264729E1,1.0779382E2,5.2788635E1,1.8718445E1,6.6157227E0,1.1167236E1,2.0815987E1,2.0168274E1,2.316426E1,1.04427734E2,1.0547387E1,5.875244E0,1.6033958E1,2.9194248E1,3.1332367E1,6.643554E1,3.368515E1,9.428009E0,5.424225E0,1.3715851E1,5.0981445E0,5.4033847E0,6.6836348E0,8.197327E0,1.2165215E1,9.036694E0,5.760193E0,1.0130348E1,1.8577692E1,1.6602448E1,4.875862E1,6.571991E1,2.0067968E0,0E0,5.616577E0,1.1894134E1,3.8740878E0,1.4287704E1,1.6095993E1,1.8797264E1,2.7686188E1,8.169432E0,1.01336975E1,3.860944E1,8.325439E0,2.8695015E1,8.828953E0,6.9002686E0,2.5494652E0,3.5735474E0,5.9605713E0,1.0321274E1,0E0,0E0,0E0,0E0,0E0,0E0,0E0,0E0,0E0,0E0,0E0,0E0,0E0,0E0,0E0,0E0,0E0,0E0,0E0,0E0,0E0,0E0,0E0,0E0,0E0,0E0,0E0,0E0,0E0,0E0,0E0,0E0,0E0,0E0,0E0,0E0,0E0,0E0,0E0,0E0,0E0,0E0,0E0,0E0,0E0,0E0,0E0,0E0,0E0,0E0,0E0,0E0,0E0,0E0,0E0,0E0,0E0,0E0,0E0,0E0,0E0,0E0],"parents":[2147483647,0,0,1,1,2,2,3,3,4,4,5,5,6,6,7,7,8,8,9,9,10,10,11,11,12,12,13,13,14,14,15,15,16,16,17,17,18,18,19,19,20,20,21,21,22,22,23,23,24,24,25,25,26,26,27,27,28,28,29,29,30,30,31,31,32,32,33,33,34,34,35,35,36,36,37,37,38,38,39,39,40,40,41,41,42,42,43,43,45,45,46,46,47,47,48,48,49,49,50,50,51,51,52,52,53,53,54,54,55,55,56,56,57,57,58,58,59,59,60,60,61,61,62,62],"right_children":[2,4,6,8,10,12,14,16,18,20,22,24,26,28,30,32,34,36,38,40,42,44,46,48,50,52,54,56,58,60,62,64,66,68,70,72,74,76,78,80,82,84,86,88,-1,90,92,94,96,98,100,102,104,106,108,110,112,114,116,118,120,122,124,-1,-1,-1,-1,-1,-1,-1,-1,-1,-1,-1,-1,-1,-1,-1,-1,-1,-1,-1,-1,-1,-1,-1,-1,-1,-1,-1,-1,-1,-1,-1,-1,-1,-1,-1,-1,-1,-1,-1,-1,-1,-1,-1,-1,-1,-1,-1,-1,-1,-1,-1,-1,-1,-1,-1,-1,-1,-1,-1,-1,-1,-1],"split_conditions":[6.7969704E-1,1.4079688E0,2.1694882E0,2.9666784E-1,2.0730298E0,6.817525E-3,1.1836166E0,4.8052436E-1,-6.3311225E-1,-1.4151689E0,-2.4711187E0,-1.1596417E0,7.8704536E-1,5.3038716E0,-2.580869E-1,2.7818897E0,-1.1596417E0,-1.0358852E0,6.817525E-3,-2.424653E-1,-1.20661E0,1.312769E-1,3.389273E0,-3.715706E-1,9.0465724E-1,2.0730298E0,-1.4834585E0,-1.4151689E0,-1.5977241E-1,-1.9499403E0,-2.65121E0,1.565778E-1,3.46338E-1,-5.629827E-1,2.7084477E0,7.111769E-1,6.711093E-1,4.5876816E-1,-9.065746E-1,4.3202192E-1,1.5672733E0,-1.7774205E0,-1.570644E-1,1.5339872E0,9.236057E-2,-2.2422392E0,-3.3287697E-2,-8.6511606E-1,9.7552156E-1,-7.619108E-1,-1.8224201E0,-2.0452742E-1,1.8528534E0,2.0730298E0,-2.507805E-1,8.006319E-1,-7.038469E-1,1.5682551E0,3.596834E-2,6.727382E-1,-1.9735411E0,1.5203805E-1,1.4079688E0,-5.315527E-2,-4.506902E-2,-2.3922158E-2,6.992027E-2,3.570403E-2,-2.3136629E-2,-4.464561E-2,3.9456103E-2,-7.269627E-3,4.6783086E-2,-3.247122E-2,1.8134564E-2,-4.814218E-2,-3.318207E-2,-1.3127141E-2,-3.5070818E-2,-1.6025487E-2,4.914461E-2,5.8128458E-2,-6.3580633E-3,9.697987E-2,1.0732419E-2,-3.2712445E-2,-1.2254085E-2,-3.9546337E-2,2.1683894E-2,3.7058804E-2,-4.9446665E-2,9.417462E-2,-3.820049E-2,3.9235726E-2,-4.0369105E-2,2.3647321E-2,8.980124E-2,1.5068612E-2,-3.516707E-2,1.2292721E-1,6.7382823E-3,1.06000304E-1,5.771265E-2,-1.6819943E-2,8.018892E-2,8.832287E-2,-6.2469314E-3,3.3256423E-2,-6.393475E-3,8.998849E-2,1.2604656E-2,5.5506893E-2,1.1957022E-2,-2.6807455E-2,9.801812E-2,1.1351355E-1,7.403231E-2,5.9942394E-2,-1.894691E-2,3.163429E-2,1.20169125E-1,6.9886036E-2,1.18776955E-1,8.145104E-3,6.87732E-2],"split_indices":[17,55,17,16,65,57,28,10,5,53,8,5,57,17,2,49,5,6,57,10,5,16,46,10,16,65,3,53,16,19,24,17,21,25,2,2,9,22,6,22,57,24,17,20,0,15,41,25,2,26,3,47,20,65,5,5,3,41,5,22,20,10,55,0,0,0,0,0,0,0,0,0,0,0,0,0,0,0,0,0,0,0,0,0,0,0,0,0,0,0,0,0,0,0,0,0,0,0,0,0,0,0,0,0,0,0,0,0,0,0,0,0,0,0,0,0,0,0,0,0,0,0,0,0,0],"split_type":[0,0,0,0,0,0,0,0,0,0,0,0,0,0,0,0,0,0,0,0,0,0,0,0,0,0,0,0,0,0,0,0,0,0,0,0,0,0,0,0,0,0,0,0,0,0,0,0,0,0,0,0,0,0,0,0,0,0,0,0,0,0,0,0,0,0,0,0,0,0,0,0,0,0,0,0,0,0,0,0,0,0,0,0,0,0,0,0,0,0,0,0,0,0,0,0,0,0,0,0,0,0,0,0,0,0,0,0,0,0,0,0,0,0,0,0,0,0,0,0,0,0,0,0,0],"sum_hessian":[8.433608E3,7.3085645E3,1.1250442E3,4.853606E3,2.4549587E3,6.8674133E2,4.383028E2,3.9636807E3,8.899251E2,1.8394442E3,6.1551434E2,2.407241E2,4.4601724E2,2.7577094E2,1.6253188E2,3.5144297E3,4.49251E2,1.461089E2,7.438162E2,1.3350314E2,1.7059412E3,7.8316164E0,6.0768274E2,4.3885586E1,1.9683852E2,1.4885944E2,2.971578E2,1.989313E2,7.6839615E1,7.005946E1,9.247241E1,3.508104E3,6.3257394E0,2.2906569E1,4.2634445E2,4.264934E1,1.0345956E2,5.0435092E2,2.3946529E2,4.6958263E1,8.654488E1,1.22933464E2,1.5830077E3,6.4421654E0,1.3894508E0,6.013295E2,6.353235E0,8.046411E0,3.5839176E1,1.5543462E2,4.14039E1,1.3468059E2,1.4178853E1,3.53502E1,2.6180762E2,4.6838894E1,1.5209242E2,4.357848E0,7.2481766E1,2.523659E0,6.7535805E1,4.0554436E1,5.1917976E1,3.2532698E3,2.5483421E2,5.29761E0,1.0281293E0,5.583754E0,1.7322815E1,4.2414868E2,2.195785E0,2.6889671E1,1.5759671E1,9.437205E1,9.087508E0,4.1595554E2,8.839538E1,8.109822E1,1.5836707E2,3.1443527E1,1.5514738E1,7.527507E1,1.12698145E1,1.8514528E1,1.0441894E2,8.532557E2,7.2975195E2,5.4394884E0,1.0026768E0,1.2075702E0,6.0012195E2,1.3685353E0,4.9846997E0,1.0480096E0,6.998401E0,2.3329823E1,1.2509355E1,1.7449207E1,1.3798541E2,2.8433046E0,3.8560593E1,5.0856464E1,8.382412E1,1.2596102E1,1.5827515E0,3.2393948E1,2.9562554E0,9.6406235E1,1.6540137E2,4.2676487E1,4.1624055E0,7.915875E1,7.293366E1,3.164401E0,1.1934469E0,4.5720062E1,2.6761702E1,1.3740294E0,1.1496296E0,2.022493E0,6.551331E1,1.6883648E1,2.3670786E1,8.68973E0,4.322825E1],"tree_param":{"num_deleted":"0","num_feature":"66","num_nodes":"125","size_leaf_vector":"1"}},{"base_weights":[-5.7886195E-1,-7.908842E-1,7.370204E-1,-9.5566034E-1,-4.715119E-1,3.2772833E-1,1.3574547E0,-1.0077084E0,-6.976951E-1,-3.0040306E-1,-8.241388E-1,-2.0087427E-1,6.042521E-1,1.7159022E0,1.0801762E0,-1.0279859E0,-7.776274E-1,-4.360208E-1,-8.044633E-1,-4.326793E-1,2.3871285E-1,-9.3346727E-1,-1.2425764E-1,7.5198036E-1,-4.1956735E-1,1.2773148E0,2.6448488E-1,1.1182474E0,1.831282E0,1.4782408E0,7.2721624E-1,-7.6055956E-1,-1.0362824E0,-2.5874913E-1,-8.6785173E-1,-5.952522E-1,1.8480548E-1,-3.904833E-1,-8.560386E-1,-6.1107445E-1,-1.4249483E-1,6.2236506E-1,4.957422E-3,8.914998E-2,-9.4726676E-1,-2.0120731E-1,1.5281053E0,1.0552758E0,-4.5866808E-1,-6.9685864E-1,1.6504893E-1,1.7224512E0,5.5785465E-1,1.1508974E0,3.0595789E-2,1.7256486E0,5.8710533E-1,2.0922947E0,1.5010285E0,1.8462976E0,1.0593818E0,1.4439298E0,4.3643868E-1,7.052531E-2,-3.9676942E-2,-5.1893152E-2,-3.3116967E-3,-3.5481002E-2,2.0807778E-2,-4.50022E-2,-2.3252869E-3,-3.7090786E-2,3.7103475E-3,2.0344365E-2,-4.924121E-2,-2.5095824E-2,7.181324E-2,-4.862672E-2,-3.357349E-2,-5.982609E-3,-3.6081854E-2,1.276121E-2,-1.74754E-2,5.8285743E-2,1.739083E-2,-6.727786E-3,5.241527E-2,-2.4097947E-2,4.3868124E-2,-4.9346264E-2,-3.278629E-2,-1.8405018E-2,2.3827149E-2,-2.8456792E-3,1.266394E-1,1.0724367E-1,3.2445293E-2,4.3334723E-2,-3.5759088E-2,-3.736098E-2,4.6055377E-2,5.5215012E-2,-5.275288E-3,4.231928E-2,1.00887954E-1,1.8285403E-3,4.7624826E-2,4.5087963E-2,1.11005E-1,3.656068E-2,-7.825948E-3,9.593781E-2,-3.7443284E-3,-1.399862E-2,6.1019253E-2,1.0809697E-1,5.677426E-2,3.9678704E-2,8.131681E-2,-1.9061936E-2,9.5418975E-2,7.698733E-2,2.3849458E-2,-2.2616487E-3,8.776608E-2,6.634367E-3,5.155874E-2],"categories":[],"categories_nodes":[],"categories_segments":[],"categories_sizes":[],"default_left":[0,0,0,0,0,0,0,0,0,0,0,0,0,0,0,0,0,0,0,0,0,0,0,0,0,0,0,0,0,0,0,0,0,0,0,0,0,0,0,0,0,0,0,0,0,0,0,0,0,0,0,0,0,0,0,0,0,0,0,0,0,0,0,0,0,0,0,0,0,0,0,0,0,0,0,0,0,0,0,0,0,0,0,0,0,0,0,0,0,0,0,0,0,0,0,0,0,0,0,0,0,0,0,0,0,0,0,0,0,0,0,0,0,0,0,0,0,0,0,0,0,0,0,0,0,0,0],"id":9,"left_children":[1,3,5,7,9,11,13,15,17,19,21,23,25,27,29,31,33,35,37,39,41,43,45,47,49,51,53,55,57,59,61,63,65,67,69,71,73,75,77,79,81,83,85,87,89,91,93,95,97,99,101,103,105,107,109,111,113,115,117,119,121,123,125,-1,-1,-1,-1,-1,-1,-1,-1,-1,-1,-1,-1,-1,-1,-1,-1,-1,-1,-1,-1,-1,-1,-1,-1,-1,-1,-1,-1,-1,-1,-1,-1,-1,-1,-1,-1,-1,-1,-1,-1,-1,-1,-1,-1,-1,-1,-1,-1,-1,-1,-1,-1,-1,-1,-1,-1,-1,-1,-1,-1,-1,-1,-1,-1],"loss_changes":[2.298264E3,3.7282715E2,2.898921E2,6.21084E1,1.4553314E2,1.0100926E2,4.328241E1,1.7351562E1,2.1683075E1,1.1622122E2,6.0239136E1,4.9869686E1,1.03347824E2,1.1493591E1,3.5280396E1,7.137207E0,1.4719299E1,2.2918068E1,1.1599579E1,6.761731E1,2.882474E1,9.709412E0,1.40041895E1,1.6915138E1,3.1573029E1,4.7666443E1,6.2692642E1,1.0066998E1,1.0912598E1,1.6642303E1,2.8362228E1,9.084648E0,5.239746E0,1.5116901E1,7.136841E0,1.8095314E1,1.2832493E1,1.369963E1,1.0015503E1,4.390326E1,4.119181E1,1.7748531E1,2.9362968E1,4.9223137E0,7.1348877E0,1.1917818E1,7.962535E0,1.4586853E1,3.9046047E0,1.1428871E1,1.6186838E1,2.24357E1,1.2208633E1,1.481707E1,3.1632866E1,5.53524E0,1.123487E1,3.4440002E0,5.4031067E0,9.421478E0,1.5707619E1,1.8497124E1,1.8000324E1,0E0,0E0,0E0,0E0,0E0,0E0,0E0,0E0,0E0,0E0,0E0,0E0,0E0,0E0,0E0,0E0,0E0,0E0,0E0,0E0,0E0,0E0,0E0,0E0,0E0,0E0,0E0,0E0,0E0,0E0,0E0,0E0,0E0,0E0,0E0,0E0,0E0,0E0,0E0,0E0,0E0,0E0,0E0,0E0,0E0,0E0,0E0,0E0,0E0,0E0,0E0,0E0,0E0,0E0,0E0,0E0,0E0,0E0,0E0,0E0,0E0,0E0,0E0,0E0],"parents":[2147483647,0,0,1,1,2,2,3,3,4,4,5,5,6,6,7,7,8,8,9,9,10,10,11,11,12,12,13,13,14,14,15,15,16,16,17,17,18,18,19,19,20,20,21,21,22,22,23,23,24,24,25,25,26,26,27,27,28,28,29,29,30,30,31,31,32,32,33,33,34,34,35,35,36,36,37,37,38,38,39,39,40,40,41,41,42,42,43,43,44,44,45,45,46,46,47,47,48,48,49,49,50,50,51,51,52,52,53,53,54,54,55,55,56,56,57,57,58,58,59,59,60,60,61,61,62,62],"right_children":[2,4,6,8,10,12,14,16,18,20,22,24,26,28,30,32,34,36,38,40,42,44,46,48,50,52,54,56,58,60,62,64,66,68,70,72,74,76,78,80,82,84,86,88,90,92,94,96,98,100,102,104,106,108,110,112,114,116,118,120,122,124,126,-1,-1,-1,-1,-1,-1,-1,-1,-1,-1,-1,-1,-1,-1,-1,-1,-1,-1,-1,-1,-1,-1,-1,-1,-1,-1,-1,-1,-1,-1,-1,-1,-1,-1,-1,-1,-1,-1,-1,-1,-1,-1,-1,-1,-1,-1,-1,-1,-1,-1,-1,-1,-1,-1,-1,-1,-1,-1,-1,-1,-1,-1,-1,-1],"split_conditions":[6.7969704E-1,1.4079688E0,2.1694882E0,3.2750854E-1,1.3835585E0,6.817525E-3,-1.015444E0,1.565778E-1,-1.8871208E-1,9.9559486E-1,2.4455423E0,-1.1596417E0,7.8704536E-1,1.4079688E0,-1.5824416E0,-1.015444E0,-5.3752935E-1,-8.43119E-2,-1.3462306E0,7.0947506E-2,3.596834E-2,-1.7174424E0,2.2538972E0,3.0789247E-1,6.130408E-1,3.3257157E-1,-1.2945064E0,-8.3204305E-1,5.532581E-1,-5.9053993E-1,-1.349229E0,-1.7217355E0,2.7818897E0,-1.2333893E-1,4.4246548E-1,1.1073648E0,5.3554136E-1,3.6949453E-1,2.719801E-1,-7.915671E-1,-5.9614606E-2,-6.9967765E-1,1.2399813E0,-2.7561405E-1,5.392221E-2,1.0770437E-1,-4.3627182E-1,-6.0763496E-1,-1.136799E0,2.2524152E0,-1.4496791E0,-3.1960464E-1,9.9559486E-1,1.2103702E0,-1.015444E0,1.8044535E0,3.092757E-1,8.367873E-1,-1.06419474E-1,-4.2450526E-1,-9.3243676E-1,-1.2088428E0,-1.7080943E-1,7.052531E-2,-3.9676942E-2,-5.1893152E-2,-3.3116967E-3,-3.5481002E-2,2.0807778E-2,-4.50022E-2,-2.3252869E-3,-3.7090786E-2,3.7103475E-3,2.0344365E-2,-4.924121E-2,-2.5095824E-2,7.181324E-2,-4.862672E-2,-3.357349E-2,-5.982609E-3,-3.6081854E-2,1.276121E-2,-1.74754E-2,5.8285743E-2,1.739083E-2,-6.727786E-3,5.241527E-2,-2.4097947E-2,4.3868124E-2,-4.9346264E-2,-3.278629E-2,-1.8405018E-2,2.3827149E-2,-2.8456792E-3,1.266394E-1,1.0724367E-1,3.2445293E-2,4.3334723E-2,-3.5759088E-2,-3.736098E-2,4.6055377E-2,5.5215012E-2,-5.275288E-3,4.231928E-2,1.00887954E-1,1.8285403E-3,4.7624826E-2,4.5087963E-2,1.11005E-1,3.656068E-2,-7.825948E-3,9.593781E-2,-3.7443284E-3,-1.399862E-2,6.1019253E-2,1.0809697E-1,5.677426E-2,3.9678704E-2,8.131681E-2,-1.9061936E-2,9.5418975E-2,7.698733E-2,2.3849458E-2,-2.2616487E-3,8.776608E-2,6.634367E-3,5.155874E-2],"split_indices":[17,55,17,16,58,57,5,17,24,33,58,5,57,55,13,5,5,23,6,22,5,23,32,8,16,36,6,1,51,18,7,35,49,11,49,22,38,50,4,8,5,6,6,11,16,9,19,49,35,18,6,11,33,4,5,46,30,18,11,11,6,23,23,0,0,0,0,0,0,0,0,0,0,0,0,0,0,0,0,0,0,0,0,0,0,0,0,0,0,0,0,0,0,0,0,0,0,0,0,0,0,0,0,0,0,0,0,0,0,0,0,0,0,0,0,0,0,0,0,0,0,0,0,0,0,0,0],"split_type":[0,0,0,0,0,0,0,0,0,0,0,0,0,0,0,0,0,0,0,0,0,0,0,0,0,0,0,0,0,0,0,0,0,0,0,0,0,0,0,0,0,0,0,0,0,0,0,0,0,0,0,0,0,0,0,0,0,0,0,0,0,0,0,0,0,0,0,0,0,0,0,0,0,0,0,0,0,0,0,0,0,0,0,0,0,0,0,0,0,0,0,0,0,0,0,0,0,0,0,0,0,0,0,0,0,0,0,0,0,0,0,0,0,0,0,0,0,0,0,0,0,0,0,0,0,0,0],"sum_hessian":[8.234522E3,7.0921885E3,1.1423339E3,4.6771035E3,2.4150852E3,6.8920374E2,4.5313013E2,3.8894468E3,7.876565E2,1.6273037E3,7.8778156E2,2.3680367E2,4.524001E2,1.9537444E2,2.5775568E2,3.571239E3,3.182077E2,2.2972234E2,5.579342E2,1.3068545E3,3.204493E2,6.810595E2,1.0672202E2,4.3748997E1,1.9305467E2,1.5083794E2,3.0156213E2,3.3344627E1,1.620298E2,1.19639435E2,1.3811626E2,1.10247734E2,3.4609915E3,4.770798E1,2.7049973E2,1.8286243E2,4.6859917E1,6.2758698E1,4.9517548E2,8.0863086E2,4.9822357E2,1.2069523E2,1.9975409E2,8.995355E0,6.7206415E2,1.0281234E2,3.9096854E0,3.5087185E1,8.661811E0,1.3081526E2,6.223941E1,9.232287E1,5.851507E1,6.2139595E1,2.3942255E2,1.4506454E1,1.8838171E1,8.752212E1,7.450768E1,6.1867622E1,5.7771812E1,3.8717915E1,9.939834E1,1.0246439E0,1.0922308E2,3.4552913E3,5.699991E0,2.8570194E1,1.9137789E1,2.602053E2,1.029443E1,1.4993036E2,3.293206E1,3.9930325E1,6.929592E0,5.983401E1,2.9246855E0,3.0095187E2,1.942236E2,1.4889833E2,6.5973254E2,1.7047319E2,3.277504E2,3.9424862E1,8.127036E1,1.769623E2,2.2791794E1,5.4413214E0,3.5540335E0,5.894903E2,8.257384E1,8.286425E1,1.9948086E1,1.8827505E0,2.0269349E0,8.3690815E0,2.6718105E1,1.0188484E0,7.642963E0,1.27388336E2,3.426927E0,1.3229739E1,4.900967E1,2.4249624E1,6.807324E1,2.5682991E1,3.283208E1,5.189158E1,1.0248016E1,4.9852165E1,1.8957037E2,1.3042036E1,1.4644189E0,8.186809E0,1.0651363E1,8.040969E1,7.1124296E0,1.231475E1,6.2192932E1,1.5381132E0,6.032951E1,3.0758217E1,2.7013596E1,6.8437805E0,3.1874136E1,6.6604385E1,3.2793957E1],"tree_param":{"num_deleted":"0","num_feature":"66","num_nodes":"127","size_leaf_vector":"1"}},{"base_weights":[-5.638189E-1,3.9958316E-1,-7.12949E-1,1.0557781E0,-1.2374474E-2,-9.138373E-1,-3.4228438E-1,1.4315656E0,5.152563E-1,1.3357295E0,-2.0480785E-1,-9.76934E-1,-6.094524E-1,-1.7252131E-1,-8.6772877E-1,1.5646302E0,5.355566E-1,5.80008E-2,1.0714146E0,1.9718527E0,1.0599272E0,-4.0147486E-1,7.9396546E-1,-6.267256E-1,-1.0070534E0,-3.002487E-1,-7.813568E-1,7.207468E-1,-2.7764425E-1,-8.973382E-1,1.7834957E-1,1.24759E0,1.934766E0,1.5640668E0,1.8999286E-3,-3.243344E-1,6.0413516E-1,1.8746684E0,7.4161536E-1,2.681376E-1,2.1276326E0,1.4289331E0,4.893545E-1,-2.0636442E-1,-9.580585E-1,1.4238517E0,3.3056566E-1,-6.9226575E-1,1.0130602E0,-1.0409064E0,-9.051925E-1,-3.6320874E-1,1.171309E0,-8.98621E-1,-4.8892385E-1,2.3966884E-2,9.7584593E-1,6.819411E-1,-3.7262243E-1,-9.223488E-1,5.2068062E-2,1.6702772E0,-1.8523486E-1,7.161388E-2,2.2021644E-2,6.320148E-2,1.0290857E-1,2.2384366E-2,1.0022052E-1,-2.339459E-2,5.6343287E-2,4.112919E-2,-2.698717E-2,-3.6365457E-3,5.9414934E-2,1.0077826E-1,-2.2919404E-3,5.305571E-2,-6.366301E-3,5.85058E-2,-3.7014447E-2,1.14393234E-1,8.405092E-3,2.2328924E-2,8.434757E-2,-2.3536658E-2,5.3904492E-2,2.2297062E-2,-1.8267859E-2,7.9395056E-2,-4.9739365E-2,-4.1266594E-2,7.9020776E-2,4.3539717E-3,8.618634E-2,8.777908E-2,-3.597383E-2,8.9093715E-2,-4.4489607E-2,1.3688345E-2,-5.21346E-2,-2.2863757E-2,-4.68889E-2,-2.3576532E-2,2.251593E-2,1.1244243E-1,-1.9205436E-3,5.228888E-2,-4.544985E-2,-4.5814686E-3,-3.636452E-2,-2.6543526E-2,2.9650945E-2,5.9894886E-2,2.5847344E-2,1.9071603E-2,1.0015549E-1,-2.3455026E-2,5.9438194E-3,-4.9841486E-2,-3.5344012E-2,1.0122653E-1,-2.2423264E-2,1.0302947E-1,1.7988393E-2,-4.960975E-2,2.8967103E-2],"categories":[],"categories_nodes":[],"categories_segments":[],"categories_sizes":[],"default_left":[0,0,0,0,0,0,0,0,0,0,0,0,0,0,0,0,0,0,0,0,0,0,0,0,0,0,0,0,0,0,0,0,0,0,0,0,0,0,0,0,0,0,0,0,0,0,0,0,0,0,0,0,0,0,0,0,0,0,0,0,0,0,0,0,0,0,0,0,0,0,0,0,0,0,0,0,0,0,0,0,0,0,0,0,0,0,0,0,0,0,0,0,0,0,0,0,0,0,0,0,0,0,0,0,0,0,0,0,0,0,0,0,0,0,0,0,0,0,0,0,0,0,0,0,0,0,0],"id":10,"left_children":[1,3,5,7,9,11,13,15,17,19,21,23,25,27,29,31,33,35,37,39,41,43,45,47,49,51,53,55,57,59,61,63,65,67,69,71,73,75,77,79,81,83,85,87,89,91,93,95,97,99,101,103,105,107,109,111,113,115,117,119,121,123,125,-1,-1,-1,-1,-1,-1,-1,-1,-1,-1,-1,-1,-1,-1,-1,-1,-1,-1,-1,-1,-1,-1,-1,-1,-1,-1,-1,-1,-1,-1,-1,-1,-1,-1,-1,-1,-1,-1,-1,-1,-1,-1,-1,-1,-1,-1,-1,-1,-1,-1,-1,-1,-1,-1,-1,-1,-1,-1,-1,-1,-1,-1,-1,-1],"loss_changes":[1.1510518E3,2.9042316E2,5.161841E2,8.342386E1,1.7174019E2,8.57876E1,2.1746341E2,2.82359E1,4.354825E1,1.2418472E1,1.141014E2,3.8648193E1,4.0955627E1,1.7346103E2,1.8604126E1,2.2440674E1,1.8138271E1,2.0067854E1,1.9092346E1,5.7589035E0,1.1901321E1,5.2431046E1,2.7443638E1,3.2679703E1,1.0876221E1,2.622953E1,1.6617981E1,3.455812E1,1.5077606E2,1.3802429E1,9.653097E0,1.6795517E1,5.3365173E0,4.652588E0,1.2557044E1,1.4434797E1,1.5720193E1,6.0050507E0,1.5812027E1,3.7242007E0,6.430664E0,8.326408E0,1.4652603E1,3.7511127E1,1.3316727E1,1.5471939E1,1.8981838E1,2.036023E1,1.8909077E1,6.3078613E0,1.2161255E1,2.381601E1,1.5290495E1,8.0896E0,1.3623875E1,1.7100557E1,1.3890076E1,5.8431587E1,7.1347824E1,8.353546E0,1.6521101E1,1.0362024E0,9.67543E0,0E0,0E0,0E0,0E0,0E0,0E0,0E0,0E0,0E0,0E0,0E0,0E0,0E0,0E0,0E0,0E0,0E0,0E0,0E0,0E0,0E0,0E0,0E0,0E0,0E0,0E0,0E0,0E0,0E0,0E0,0E0,0E0,0E0,0E0,0E0,0E0,0E0,0E0,0E0,0E0,0E0,0E0,0E0,0E0,0E0,0E0,0E0,0E0,0E0,0E0,0E0,0E0,0E0,0E0,0E0,0E0,0E0,0E0,0E0,0E0,0E0,0E0,0E0,0E0],"parents":[2147483647,0,0,1,1,2,2,3,3,4,4,5,5,6,6,7,7,8,8,9,9,10,10,11,11,12,12,13,13,14,14,15,15,16,16,17,17,18,18,19,19,20,20,21,21,22,22,23,23,24,24,25,25,26,26,27,27,28,28,29,29,30,30,31,31,32,32,33,33,34,34,35,35,36,36,37,37,38,38,39,39,40,40,41,41,42,42,43,43,44,44,45,45,46,46,47,47,48,48,49,49,50,50,51,51,52,52,53,53,54,54,55,55,56,56,57,57,58,58,59,59,60,60,61,61,62,62],"right_children":[2,4,6,8,10,12,14,16,18,20,22,24,26,28,30,32,34,36,38,40,42,44,46,48,50,52,54,56,58,60,62,64,66,68,70,72,74,76,78,80,82,84,86,88,90,92,94,96,98,100,102,104,106,108,110,112,114,116,118,120,122,124,126,-1,-1,-1,-1,-1,-1,-1,-1,-1,-1,-1,-1,-1,-1,-1,-1,-1,-1,-1,-1,-1,-1,-1,-1,-1,-1,-1,-1,-1,-1,-1,-1,-1,-1,-1,-1,-1,-1,-1,-1,-1,-1,-1,-1,-1,-1,-1,-1,-1,-1,-1,-1,-1,-1,-1,-1,-1,-1,-1,-1,-1,-1,-1,-1],"split_conditions":[-1.1578243E0,-3.4636346E-1,1.4079688E0,-2.0951622E0,-1.4151689E0,4.8052436E-1,2.0730298E0,1.0037768E0,-5.1442835E-2,-4.3391533E0,4.103906E-1,-6.3311225E-1,-6.4795345E-1,-1.441179E0,1.9591421E0,3.4756747E-1,-3.366129E0,4.82204E-1,-1.3720928E0,-6.1670727E-1,-2.6002163E-1,1.1338276E0,-1.0089123E0,3.4560354E0,2.719801E-1,2.4145103E0,4.2837846E-1,-3.529289E-1,-1.20661E0,1.4481927E0,-1.5531276E0,-4.6753892E-1,-7.091366E-2,1.3892512E0,1.420327E0,-1.2684202E0,-4.1935962E-1,-1.7803246E-1,4.879118E-1,-4.9137345E-1,9.813712E-1,-6.218698E-1,3.5629395E-2,-1.1651958E0,-8.9486957E-1,-3.0945295E-1,1.7802881E0,-2.6479137E0,6.2986296E-1,-3.3763978E0,-1.21692E0,1.287902E0,-6.3311225E-1,-3.3763978E0,4.1868668E-2,-7.8986794E-2,7.8704536E-1,2.272484E0,1.170638E0,-7.649147E-1,-8.242782E-1,-1.972149E-1,-6.5811527E-1,7.161388E-2,2.2021644E-2,6.320148E-2,1.0290857E-1,2.2384366E-2,1.0022052E-1,-2.339459E-2,5.6343287E-2,4.112919E-2,-2.698717E-2,-3.6365457E-3,5.9414934E-2,1.0077826E-1,-2.2919404E-3,5.305571E-2,-6.366301E-3,5.85058E-2,-3.7014447E-2,1.14393234E-1,8.405092E-3,2.2328924E-2,8.434757E-2,-2.3536658E-2,5.3904492E-2,2.2297062E-2,-1.8267859E-2,7.9395056E-2,-4.9739365E-2,-4.1266594E-2,7.9020776E-2,4.3539717E-3,8.618634E-2,8.777908E-2,-3.597383E-2,8.9093715E-2,-4.4489607E-2,1.3688345E-2,-5.21346E-2,-2.2863757E-2,-4.68889E-2,-2.3576532E-2,2.251593E-2,1.1244243E-1,-1.9205436E-3,5.228888E-2,-4.544985E-2,-4.5814686E-3,-3.636452E-2,-2.6543526E-2,2.9650945E-2,5.9894886E-2,2.5847344E-2,1.9071603E-2,1.0015549E-1,-2.3455026E-2,5.9438194E-3,-4.9841486E-2,-3.5344012E-2,1.0122653E-1,-2.2423264E-2,1.0302947E-1,1.7988393E-2,-4.960975E-2,2.8967103E-2],"split_indices":[24,5,55,24,53,10,65,53,9,7,9,5,6,53,20,0,24,0,6,10,6,53,3,28,4,28,4,10,5,37,6,13,10,31,28,7,14,1,14,30,35,0,2,6,26,11,29,8,1,7,6,22,5,7,3,6,57,28,33,53,5,4,14,0,0,0,0,0,0,0,0,0,0,0,0,0,0,0,0,0,0,0,0,0,0,0,0,0,0,0,0,0,0,0,0,0,0,0,0,0,0,0,0,0,0,0,0,0,0,0,0,0,0,0,0,0,0,0,0,0,0,0,0,0,0,0,0],"split_type":[0,0,0,0,0,0,0,0,0,0,0,0,0,0,0,0,0,0,0,0,0,0,0,0,0,0,0,0,0,0,0,0,0,0,0,0,0,0,0,0,0,0,0,0,0,0,0,0,0,0,0,0,0,0,0,0,0,0,0,0,0,0,0,0,0,0,0,0,0,0,0,0,0,0,0,0,0,0,0,0,0,0,0,0,0,0,0,0,0,0,0,0,0,0,0,0,0,0,0,0,0,0,0,0,0,0,0,0,0,0,0,0,0,0,0,0,0,0,0,0,0,0,0,0,0,0,0],"sum_hessian":[8.0086675E3,1.0733018E3,6.9353657E3,4.1334076E2,6.59961E2,4.4967856E3,2.43858E3,2.4285323E2,1.7048755E2,8.169567E1,5.782653E2,3.7228562E3,7.739296E2,1.8441058E3,5.944741E2,2.1080132E2,3.205191E1,9.416907E1,7.631848E1,2.2848135E1,5.8847534E1,4.8363208E2,9.463326E1,2.965513E2,3.426305E3,2.7751364E2,4.9641595E2,1.935536E2,1.6505522E3,5.7824884E2,1.6225267E1,1.1589875E2,9.4902565E1,1.028975E1,2.176216E1,5.563E1,3.8539066E1,2.085067E1,5.546781E1,2.142088E0,2.0706047E1,3.482246E1,2.4025076E1,3.5911502E2,1.24517044E2,3.923272E1,5.5400547E1,2.857097E2,1.0841624E1,2.5647134E3,8.6159143E2,2.6684976E2,1.0663883E1,3.5285138E2,1.4356458E2,5.216464E1,1.4138896E2,1.4809872E2,1.5024535E3,5.634346E2,1.4814277E1,2.4750915E0,1.3750176E1,9.3687416E1,2.221133E1,1.6494413E1,7.840815E1,3.4810662E0,6.8086834E0,1.5763374E1,5.9987855E0,8.350438E0,4.7279564E1,1.8258533E1,2.0280533E1,1.9379414E1,1.4712563E0,4.0394207E1,1.5073604E1,1.0460865E0,1.0960014E0,1.8985992E1,1.720054E0,7.8117027E0,2.7010756E1,9.2085495E0,1.4816526E1,7.002323E1,2.890918E2,1.1701725E0,1.2334687E2,2.27524E0,3.695748E1,4.8062965E1,7.3375783E0,2.4427798E0,2.832669E2,7.767058E0,3.0745664E0,3.2719002E0,2.5614417E3,5.9448627E1,8.0214276E2,2.3586458E2,3.0985184E1,5.1857624E0,5.4781213E0,1.343265E0,3.5150812E2,5.4354427E1,8.921015E1,2.6446173E1,2.5718464E1,9.41981E1,4.7190872E1,1.2170482E2,2.63939E1,1.2559618E3,2.4649173E2,4.160073E2,1.4742729E2,2.382148E0,1.2432129E1,1.4660859E0,1.0090055E0,6.544834E0,7.2053423E0],"tree_param":{"num_deleted":"0","num_feature":"66","num_nodes":"127","size_leaf_vector":"1"}},{"base_weights":[-5.461017E-1,-7.614176E-1,6.901569E-1,-9.3378E-1,-4.4108498E-1,3.003667E-1,1.1831881E0,-9.916612E-1,-6.580391E-1,-2.8900972E-1,-9.260484E-1,-1.5619332E-1,5.540839E-1,1.4523952E0,8.353701E-1,-7.721354E-1,-1.0143067E0,-7.127061E-1,-5.1238604E-2,-4.6210983E-1,9.220585E-2,-7.420279E-1,-1.0012486E0,9.705706E-1,-2.8928784E-1,7.1472424E-1,-3.3388653E-1,1.9960517E0,1.3534638E0,1.4292774E0,5.580202E-1,-8.49826E-1,-1.1335542E-1,-1.0165659E0,1.3886845E-1,3.9541018E-1,-7.3758197E-1,1.1260929E0,-2.9597574E-1,4.2975467E-1,-5.1305187E-1,8.00736E-1,-3.6678616E-2,-9.3346876E-1,-5.1054966E-1,-1.0134462E0,7.975346E-1,3.432361E-1,1.9630855E0,-6.1370283E-1,8.683603E-2,9.8291826E-1,3.4899378E-1,6.383119E-1,-5.3551215E-1,2.063106E0,8.2407725E-1,1.6998231E0,1.1578485E0,-6.010714E-1,1.4999971E0,6.2197506E-2,9.1987157E-1,7.008925E-2,-4.3409277E-2,-3.1887572E-2,3.662207E-2,-5.178523E-2,-4.353979E-2,-3.3107873E-2,5.6263894E-2,-3.2569584E-2,5.0791956E-2,-1.9291312E-2,-3.97135E-2,1.5390055E-2,1.0204814E-1,2.7508253E-2,-2.35766E-2,-7.3958486E-3,4.10736E-2,3.3431847E-2,-2.7351404E-2,7.363257E-3,5.7421595E-2,-1.4173892E-2,1.6957993E-2,2.186059E-2,-4.771086E-2,-2.9180173E-2,5.875661E-2,-5.1141363E-2,-3.1800575E-3,-2.9852733E-2,9.553848E-2,4.2066865E-2,-4.703127E-2,1.2635075E-1,-1.8970525E-2,5.7668E-3,-3.688259E-2,-6.2508807E-3,4.563212E-2,1.1758858E-2,5.8439713E-2,7.3587946E-3,5.71597E-2,1.5063791E-3,1.0468837E-1,5.0741877E-2,-3.2599438E-2,2.4120117E-2,1.0497438E-1,6.9968246E-2,-1.7817728E-2,1.7471274E-2,8.7118156E-2,6.302158E-2,2.2339141E-2,-8.352889E-3,-3.6491267E-2,8.132454E-2,1.7521871E-2,-6.5136277E-3,5.980606E-2,1.1897874E-1,3.659569E-2],"categories":[],"categories_nodes":[],"categories_segments":[],"categories_sizes":[],"default_left":[0,0,0,0,0,0,0,0,0,0,0,0,0,0,0,0,0,0,0,0,0,0,0,0,0,0,0,0,0,0,0,0,0,0,0,0,0,0,0,0,0,0,0,0,0,0,0,0,0,0,0,0,0,0,0,0,0,0,0,0,0,0,0,0,0,0,0,0,0,0,0,0,0,0,0,0,0,0,0,0,0,0,0,0,0,0,0,0,0,0,0,0,0,0,0,0,0,0,0,0,0,0,0,0,0,0,0,0,0,0,0,0,0,0,0,0,0,0,0,0,0,0,0,0,0,0,0],"id":11,"left_children":[1,3,5,7,9,11,13,15,17,19,21,23,25,27,29,31,33,35,37,39,41,43,45,47,49,51,53,55,57,59,61,63,65,67,69,71,73,75,77,79,81,83,85,87,89,91,93,95,97,99,101,103,105,107,109,111,113,115,117,119,121,123,125,-1,-1,-1,-1,-1,-1,-1,-1,-1,-1,-1,-1,-1,-1,-1,-1,-1,-1,-1,-1,-1,-1,-1,-1,-1,-1,-1,-1,-1,-1,-1,-1,-1,-1,-1,-1,-1,-1,-1,-1,-1,-1,-1,-1,-1,-1,-1,-1,-1,-1,-1,-1,-1,-1,-1,-1,-1,-1,-1,-1,-1,-1,-1,-1],"loss_changes":[2.0789902E3,3.667876E2,2.2233215E2,6.834424E1,1.7146124E2,7.520357E1,4.6660583E1,1.6969482E1,2.4941772E1,1.1711194E2,6.9430237E0,3.5135838E1,5.97285E1,1.2726868E1,3.6334488E1,1.7208954E1,8.566406E0,1.9330597E1,1.8574856E1,5.5660492E1,5.069661E1,6.834755E0,9.396393E0,1.4757053E1,2.5511177E1,3.4328705E1,1.2999077E1,1.60495E0,1.4685516E1,1.1113388E1,2.7806751E1,1.3713562E1,1.6798998E1,8.1032715E0,6.4366264E0,1.093342E1,1.3170624E1,7.6842213E0,8.1628E0,1.5164194E1,4.6728943E1,1.9243176E1,4.372912E1,2.9510345E0,1.0154633E1,3.4031677E0,6.102623E0,1.1277111E1,1.3357777E1,1.0218658E1,1.7170732E1,2.7992767E1,2.4050188E1,1.0158585E1,1.0417236E1,1.2367096E0,3.175082E0,4.3648224E0,1.1123749E1,5.1740527E-2,9.46521E0,1.4690065E1,2.2871338E1,0E0,0E0,0E0,0E0,0E0,0E0,0E0,0E0,0E0,0E0,0E0,0E0,0E0,0E0,0E0,0E0,0E0,0E0,0E0,0E0,0E0,0E0,0E0,0E0,0E0,0E0,0E0,0E0,0E0,0E0,0E0,0E0,0E0,0E0,0E0,0E0,0E0,0E0,0E0,0E0,0E0,0E0,0E0,0E0,0E0,0E0,0E0,0E0,0E0,0E0,0E0,0E0,0E0,0E0,0E0,0E0,0E0,0E0,0E0,0E0,0E0,0E0,0E0,0E0],"parents":[2147483647,0,0,1,1,2,2,3,3,4,4,5,5,6,6,7,7,8,8,9,9,10,10,11,11,12,12,13,13,14,14,15,15,16,16,17,17,18,18,19,19,20,20,21,21,22,22,23,23,24,24,25,25,26,26,27,27,28,28,29,29,30,30,31,31,32,32,33,33,34,34,35,35,36,36,37,37,38,38,39,39,40,40,41,41,42,42,43,43,44,44,45,45,46,46,47,47,48,48,49,49,50,50,51,51,52,52,53,53,54,54,55,55,56,56,57,57,58,58,59,59,60,60,61,61,62,62],"right_children":[2,4,6,8,10,12,14,16,18,20,22,24,26,28,30,32,34,36,38,40,42,44,46,48,50,52,54,56,58,60,62,64,66,68,70,72,74,76,78,80,82,84,86,88,90,92,94,96,98,100,102,104,106,108,110,112,114,116,118,120,122,124,126,-1,-1,-1,-1,-1,-1,-1,-1,-1,-1,-1,-1,-1,-1,-1,-1,-1,-1,-1,-1,-1,-1,-1,-1,-1,-1,-1,-1,-1,-1,-1,-1,-1,-1,-1,-1,-1,-1,-1,-1,-1,-1,-1,-1,-1,-1,-1,-1,-1,-1,-1,-1,-1,-1,-1,-1,-1,-1,-1,-1,-1,-1,-1,-1],"split_conditions":[6.7969704E-1,1.4079688E0,1.9432956E0,3.2750854E-1,2.0730298E0,1.4079688E0,-3.4636346E-1,-4.419464E-1,1.3413945E0,3.6814995E-2,-3.3371884E-1,-4.4167277E-1,2.0730298E0,-1.2567223E0,-1.4300377E0,2.58626E-1,2.7818897E0,-9.1397756E-1,-4.684134E-1,-1.1491234E0,-1.025994E0,-2.941074E-1,3.7854779E0,3.2673502E-1,4.0306118E-1,4.583833E-1,-1.26787E0,9.537813E-1,-2.927103E0,-5.4409206E-1,1.10149585E-1,-1.9652199E0,6.817525E-3,4.547033E-1,3.0963522E-1,2.719801E-1,-1.3462306E0,1.4541486E-1,-1.22952E0,-2.0736061E-1,-1.4913939E0,-1.6976877E-1,4.048615E-1,-6.857779E-1,2.1797583E0,2.0654309E0,-8.9357376E-1,5.01415E-1,1.1364329E0,-1.3021929E0,1.2103702E0,-3.3716422E-1,2.2646573E0,-1.5330371E0,-7.239727E-1,-1.3410218E0,3.6873996E-1,-1.6806654E0,2.166853E0,1.1318621E-1,4.738929E0,1.8489299E0,-1.7858868E0,7.008925E-2,-4.3409277E-2,-3.1887572E-2,3.662207E-2,-5.178523E-2,-4.353979E-2,-3.3107873E-2,5.6263894E-2,-3.2569584E-2,5.0791956E-2,-1.9291312E-2,-3.97135E-2,1.5390055E-2,1.0204814E-1,2.7508253E-2,-2.35766E-2,-7.3958486E-3,4.10736E-2,3.3431847E-2,-2.7351404E-2,7.363257E-3,5.7421595E-2,-1.4173892E-2,1.6957993E-2,2.186059E-2,-4.771086E-2,-2.9180173E-2,5.875661E-2,-5.1141363E-2,-3.1800575E-3,-2.9852733E-2,9.553848E-2,4.2066865E-2,-4.703127E-2,1.2635075E-1,-1.8970525E-2,5.7668E-3,-3.688259E-2,-6.2508807E-3,4.563212E-2,1.1758858E-2,5.8439713E-2,7.3587946E-3,5.71597E-2,1.5063791E-3,1.0468837E-1,5.0741877E-2,-3.2599438E-2,2.4120117E-2,1.0497438E-1,6.9968246E-2,-1.7817728E-2,1.7471274E-2,8.7118156E-2,6.302158E-2,2.2339141E-2,-8.352889E-3,-3.6491267E-2,8.132454E-2,1.7521871E-2,-6.5136277E-3,5.980606E-2,1.1897874E-1,3.659569E-2],"split_indices":[17,55,17,16,65,55,5,5,22,17,8,47,65,2,7,17,49,26,7,54,7,10,46,48,10,26,8,18,5,9,11,18,57,10,64,4,6,17,20,10,18,22,0,52,2,20,64,40,27,5,4,10,33,8,26,36,42,19,25,40,39,33,6,0,0,0,0,0,0,0,0,0,0,0,0,0,0,0,0,0,0,0,0,0,0,0,0,0,0,0,0,0,0,0,0,0,0,0,0,0,0,0,0,0,0,0,0,0,0,0,0,0,0,0,0,0,0,0,0,0,0,0,0,0,0,0,0],"split_type":[0,0,0,0,0,0,0,0,0,0,0,0,0,0,0,0,0,0,0,0,0,0,0,0,0,0,0,0,0,0,0,0,0,0,0,0,0,0,0,0,0,0,0,0,0,0,0,0,0,0,0,0,0,0,0,0,0,0,0,0,0,0,0,0,0,0,0,0,0,0,0,0,0,0,0,0,0,0,0,0,0,0,0,0,0,0,0,0,0,0,0,0,0,0,0,0,0,0,0,0,0,0,0,0,0,0,0,0,0,0,0,0,0,0,0,0,0,0,0,0,0,0,0,0,0,0,0],"sum_hessian":[7.8073105E3,6.649558E3,1.1577522E3,4.3220596E3,2.3274983E3,6.474711E2,5.102811E2,3.5700654E3,7.5199426E2,1.7730879E3,5.544105E2,2.314196E2,4.1605154E2,2.8585605E2,2.2442505E2,3.371194E2,3.232946E3,6.896856E2,6.2308685E1,1.2192472E3,5.538407E2,1.6398767E2,3.9042282E2,2.3782993E1,2.076366E2,3.5248035E2,6.3571194E1,4.105744E1,2.447986E2,7.0119774E1,1.5430528E2,3.012971E2,3.5822296E1,3.226743E3,6.2031784E0,1.4815623E1,6.7487E2,1.0103516E1,5.220517E1,6.5477005E1,1.1537701E3,8.4438E1,4.694027E2,8.809623E1,7.589144E1,3.8822684E2,2.1959877E0,1.5396941E1,8.386052E0,1.111423E2,9.64943E1,2.0238313E2,1.5009721E2,1.0547486E1,5.3023705E1,3.8116257E1,2.9411862E0,8.557992E1,1.5921867E2,2.107739E0,6.801203E1,6.559558E1,8.8709694E1,1.8274488E0,2.9946964E2,2.2264334E1,1.3557963E1,2.846862E3,3.7988077E2,3.6046762E0,2.5985024E0,5.4947877E0,9.320836E0,9.474881E1,5.8012115E2,6.038717E0,4.064799E0,8.603662E0,4.360151E1,2.6709898E1,3.876711E1,3.172424E1,1.1220459E3,2.9818916E1,5.4619083E1,2.8349066E2,1.8591206E2,1.0143467E0,8.708188E1,7.336572E1,2.5257204E0,3.8435397E2,3.87288E0,1.1806372E0,1.0153505E0,1.1341463E1,4.055478E0,6.695432E0,1.6906198E0,1.6160349E1,9.498196E1,7.746891E1,1.9025385E1,4.074393E1,1.616392E2,1.2062895E2,2.9468267E1,8.158875E0,2.3886113E0,3.1662939E0,4.985741E1,1.1783574E0,3.6937897E1,1.8527653E0,1.0884207E0,2.8949823E0,8.268494E1,1.3846954E2,2.0749125E1,1.0078608E0,1.0998782E0,6.0896324E1,7.1157084E0,5.683383E1,8.761753E0,8.789463E0,7.9920235E1],"tree_param":{"num_deleted":"0","num_feature":"66","num_nodes":"127","size_leaf_vector":"1"}},{"base_weights":[-5.372688E-1,-7.6605946E-1,5.3772163E-1,-9.2638856E-1,-5.28735E-1,1.9984208E-1,1.0628327E0,-9.836884E-1,-6.7461675E-1,-1.9043688E-1,-7.7097386E-1,9.8232883E-1,5.596088E-2,8.8005304E-1,1.4933128E0,-6.9150284E-2,-9.914253E-1,-7.955639E-1,-3.091703E-1,7.3828876E-1,-2.82708E-1,-8.7847E-1,-4.0682736E-1,5.9144044E-1,1.7073182E0,-4.2039144E-1,3.0729026E-1,1.4841771E0,7.3267204E-1,1.6764439E0,1.1840905E0,9.715887E-2,-2.7862445E-1,-8.404246E-1,-1.019592E0,-8.875996E-1,-5.9463346E-1,-5.564623E-1,1.86194E-1,3.897916E-1,1.1216427E0,-6.020676E-1,-4.2083833E-2,-2.8283262E-1,-9.037574E-1,-4.9967182E-1,6.1521906E-1,1.5689564E0,2.6247972E-1,2.1460252E0,6.3184774E-1,-4.667704E-1,1.4307703E0,9.24726E-1,-1.2152932E-2,1.5447531E0,-3.3323655E-1,1.2585708E0,5.3754425E-1,1.7471554E0,7.8414565E-1,3.0063462E-1,1.3761367E0,-2.2346403E-2,8.957397E-2,-4.5442652E-2,-2.2702657E-2,-5.1338363E-2,-4.063927E-2,1.8197404E-3,-4.518109E-2,-3.2438196E-2,3.583334E-2,-9.134092E-3,-3.7758853E-2,3.78637E-2,-1.9802306E-2,4.0609233E-2,-1.4761152E-2,3.8776204E-2,9.009686E-2,-2.2741307E-2,-5.1021844E-2,-1.2771762E-2,2.0669995E-2,-3.0857032E-2,4.6054132E-2,-4.7924366E-2,-3.633864E-2,2.9251E-2,-2.762853E-2,9.444614E-2,8.484239E-3,9.447721E-2,8.675573E-3,3.7650545E-3,6.2362116E-2,1.5199097E-1,7.425701E-2,-2.238013E-2,7.92843E-2,2.2159491E-3,-3.0815406E-2,-1.4959076E-2,1.02267265E-1,3.3459164E-2,7.7604964E-2,-7.9344595E-3,4.2300127E-2,5.172165E-2,8.9856766E-2,1.2408695E-2,-3.6249857E-2,-4.0067374E-3,6.8848155E-2,4.5426782E-2,8.251762E-3,8.906947E-2,1.2086933E-2,-2.820434E-2,6.0344227E-2,3.4369048E-2,-4.2562142E-2,3.7273895E-2,7.979302E-2],"categories":[],"categories_nodes":[],"categories_segments":[],"categories_sizes":[],"default_left":[0,0,0,0,0,0,0,0,0,0,0,0,0,0,0,0,0,0,0,0,0,0,0,0,0,0,0,0,0,0,0,0,0,0,0,0,0,0,0,0,0,0,0,0,0,0,0,0,0,0,0,0,0,0,0,0,0,0,0,0,0,0,0,0,0,0,0,0,0,0,0,0,0,0,0,0,0,0,0,0,0,0,0,0,0,0,0,0,0,0,0,0,0,0,0,0,0,0,0,0,0,0,0,0,0,0,0,0,0,0,0,0,0,0,0,0,0,0,0,0,0,0,0,0,0],"id":12,"left_children":[1,3,5,7,9,11,13,15,17,19,21,23,25,27,29,31,33,35,37,39,41,43,45,47,49,51,53,55,57,59,61,-1,63,65,67,69,71,73,75,77,79,81,83,85,87,89,91,93,95,97,99,101,103,105,107,109,111,113,115,117,119,121,123,-1,-1,-1,-1,-1,-1,-1,-1,-1,-1,-1,-1,-1,-1,-1,-1,-1,-1,-1,-1,-1,-1,-1,-1,-1,-1,-1,-1,-1,-1,-1,-1,-1,-1,-1,-1,-1,-1,-1,-1,-1,-1,-1,-1,-1,-1,-1,-1,-1,-1,-1,-1,-1,-1,-1,-1,-1,-1,-1,-1,-1,-1],"loss_changes":[1.8730715E3,2.3840088E2,2.3695413E2,5.337329E1,2.0748541E2,9.1656494E1,3.984674E1,2.1505371E1,3.058786E1,9.092052E1,5.7424744E1,3.482792E1,8.2633446E1,3.182431E1,6.7628784E0,1.1776584E1,1.2002441E1,9.153168E0,2.1553576E1,1.2380379E1,7.402361E1,1.6897583E1,3.240915E1,2.6500536E1,1.9294884E1,2.113898E1,8.9102036E1,8.388245E0,3.0018997E1,4.599823E0,9.912704E0,0E0,9.516021E0,1.2304291E1,2.9394531E0,5.318268E0,1.2353462E1,8.555786E0,1.9936169E1,1.5224454E1,9.234505E0,2.5037903E1,5.361394E1,1.9820904E1,9.880859E0,1.8149704E1,1.5921112E1,9.009533E0,1.1669781E1,1.3602188E1,1.5225908E1,1.7862713E1,7.069515E0,2.3654938E1,3.769242E1,7.0778503E0,8.927223E-1,1.28222885E1,3.0242558E1,4.0455627E0,5.674511E0,5.996706E0,5.6995163E0,0E0,0E0,0E0,0E0,0E0,0E0,0E0,0E0,0E0,0E0,0E0,0E0,0E0,0E0,0E0,0E0,0E0,0E0,0E0,0E0,0E0,0E0,0E0,0E0,0E0,0E0,0E0,0E0,0E0,0E0,0E0,0E0,0E0,0E0,0E0,0E0,0E0,0E0,0E0,0E0,0E0,0E0,0E0,0E0,0E0,0E0,0E0,0E0,0E0,0E0,0E0,0E0,0E0,0E0,0E0,0E0,0E0,0E0,0E0,0E0,0E0,0E0],"parents":[2147483647,0,0,1,1,2,2,3,3,4,4,5,5,6,6,7,7,8,8,9,9,10,10,11,11,12,12,13,13,14,14,15,15,16,16,17,17,18,18,19,19,20,20,21,21,22,22,23,23,24,24,25,25,26,26,27,27,28,28,29,29,30,30,32,32,33,33,34,34,35,35,36,36,37,37,38,38,39,39,40,40,41,41,42,42,43,43,44,44,45,45,46,46,47,47,48,48,49,49,50,50,51,51,52,52,53,53,54,54,55,55,56,56,57,57,58,58,59,59,60,60,61,61,62,62],"right_children":[2,4,6,8,10,12,14,16,18,20,22,24,26,28,30,32,34,36,38,40,42,44,46,48,50,52,54,56,58,60,62,-1,64,66,68,70,72,74,76,78,80,82,84,86,88,90,92,94,96,98,100,102,104,106,108,110,112,114,116,118,120,122,124,-1,-1,-1,-1,-1,-1,-1,-1,-1,-1,-1,-1,-1,-1,-1,-1,-1,-1,-1,-1,-1,-1,-1,-1,-1,-1,-1,-1,-1,-1,-1,-1,-1,-1,-1,-1,-1,-1,-1,-1,-1,-1,-1,-1,-1,-1,-1,-1,-1,-1,-1,-1,-1,-1,-1,-1,-1,-1,-1,-1,-1,-1],"split_conditions":[5.2321035E-1,6.817525E-3,1.9432956E0,2.9666784E-1,1.5672733E0,-1.3720928E0,5.3038716E0,-9.1397756E-1,4.0278244E-1,-1.1491234E0,2.9666784E-1,6.62854E-1,6.817525E-3,-1.4495624E0,9.134545E-1,-1.0055891E0,-6.94144E-1,7.362213E-2,5.847768E-1,1.5287702E-1,-1.3616295E-1,-7.9769075E-1,1.651069E0,-7.094363E-1,5.728363E-1,3.1562102E0,7.8704536E-1,4.515414E0,-1.1491234E0,