{"learner":{"attributes":{"best_iteration":"47","best_score":"0.6261580938963838","scikit_learn":"{\"_estimator_type\": \"classifier\"}"},"feature_names":[],"feature_types":[],"gradient_booster":{"model":{"gbtree_model_param":{"num_parallel_tree":"1","num_trees":"58"},"iteration_indptr":[0,1,2,3,4,5,6,7,8,9,10,11,12,13,14,15,16,17,18,19,20,21,22,23,24,25,26,27,28,29,30,31,32,33,34,35,36,37,38,39,40,41,42,43,44,45,46,47,48,49,50,51,52,53,54,55,56,57,58],"tree_info":[0,0,0,0,0,0,0,0,0,0,0,0,0,0,0,0,0,0,0,0,0,0,0,0,0,0,0,0,0,0,0,0,0,0,0,0,0,0,0,0,0,0,0,0,0,0,0,0,0,0,0,0,0,0,0,0,0,0],"trees":[{"base_weights":[-9.324537E-2,-4.5229727E-1,2.2377625E0,7.8693116E-1,-6.456561E-1,1.4615556E0,2.7859118E0,1.113101E0,6.0567502E-2,2.7109906E-1,-7.6143664E-1,1.6975453E0,-2.529177E-1,3.029643E0,1.7820885E0,2.7215442E-1,1.4519951E0,-7.519371E-1,7.1523124E-1,1.1781616E0,-4.9467243E-2,-8.787491E-1,-3.3410046E-1,2.3721058E0,8.002716E-1,-4.913548E-2,3.4661982E-2,3.101009E0,2.539886E-2,2.1460524E0,-3.8645912E-2,1.2937213E0,-3.6582226E-1,-2.7184134E-2,1.566406E0,4.6747115E-2,-1.0435443E0,1.106656E0,-4.1215092E-1,3.0633163E-1,1.985512E0,7.413698E-1,-4.690924E-1,-2.1834584E-2,-9.3538946E-1,-6.847913E-1,1.22400336E-1,2.7665954E0,1.1433151E0,1.3701979E0,-2.6040944E-1,3.155128E0,3.367654E-2,2.527615E0,6.4585626E-1,9.0922825E-2,-3.6078535E-2,-3.789802E-2,3.776797E-2,9.3286015E-2,3.1595867E-2,-6.0572784E-2,1.0424848E-2,8.215781E-2,9.723108E-3,2.539886E-2,-4.7008898E-2,8.944363E-2,-1.0468582E-2,-1.2826842E-2,1.20275214E-1,5.051552E-3,8.4470816E-2,-3.731632E-2,2.6099024E-2,2.9045388E-2,-3.8503524E-2,-7.95988E-3,-4.866358E-2,-3.778067E-2,5.783965E-2,7.584332E-2,-6.000267E-3,1.5054445E-1,3.0682033E-2,-2.4352284E-2,9.1298334E-2,1.0289623E-1,1.6008066E-2,2.7359331E-2,-5.004098E-2,4.6747115E-2,1.6046028E-1,4.1372355E-2,1.4389528E-1,8.017992E-2,-2.1091875E-2],"categories":[],"categories_nodes":[],"categories_segments":[],"categories_sizes":[],"default_left":[0,0,0,0,0,0,0,0,0,0,0,0,0,0,0,0,0,0,0,0,0,0,0,0,0,0,0,0,0,0,0,0,0,0,0,0,0,0,0,0,0,0,0,0,0,0,0,0,0,0,0,0,0,0,0,0,0,0,0,0,0,0,0,0,0,0,0,0,0,0,0,0,0,0,0,0,0,0,0,0,0,0,0,0,0,0,0,0,0,0,0,0,0,0,0,0,0],"id":0,"left_children":[1,3,5,7,9,11,13,15,17,19,21,23,25,27,29,31,33,35,37,39,41,43,45,47,49,-1,-1,51,-1,53,-1,55,57,-1,59,-1,61,63,65,67,69,71,73,75,77,79,81,83,85,87,89,91,-1,93,95,-1,-1,-1,-1,-1,-1,-1,-1,-1,-1,-1,-1,-1,-1,-1,-1,-1,-1,-1,-1,-1,-1,-1,-1,-1,-1,-1,-1,-1,-1,-1,-1,-1,-1,-1,-1,-1,-1,-1,-1,-1,-1],"loss_changes":[5.845126E2,1.4546367E2,3.5592163E1,1.9383995E1,5.5808975E1,1.6891693E1,7.698761E0,1.5735878E1,1.463368E1,1.7352837E1,2.3036285E1,1.9827614E1,4.6814847E0,5.919525E0,1.3642986E1,1.1871349E1,1.0010506E1,7.0320425E0,7.1583643E0,1.0352119E1,1.5250129E1,1.7671906E1,1.6389065E1,6.522751E0,1.0581258E1,0E0,0E0,3.1698914E0,0E0,4.9761963E0,0E0,8.6550045E0,5.6484547E0,0E0,9.50457E0,0E0,2.5588255E0,5.3305817E0,2.7333407E0,7.0025926E0,8.058235E0,9.515107E0,8.61895E0,1.1101684E1,9.898102E0,8.406395E0,1.5426333E1,5.737213E0,8.1905985E0,7.4014225E0,4.5849533E0,1.7005005E0,0E0,2.8958397E0,4.4438524E0,0E0,0E0,0E0,0E0,0E0,0E0,0E0,0E0,0E0,0E0,0E0,0E0,0E0,0E0,0E0,0E0,0E0,0E0,0E0,0E0,0E0,0E0,0E0,0E0,0E0,0E0,0E0,0E0,0E0,0E0,0E0,0E0,0E0,0E0,0E0,0E0,0E0,0E0,0E0,0E0,0E0,0E0],"parents":[2147483647,0,0,1,1,2,2,3,3,4,4,5,5,6,6,7,7,8,8,9,9,10,10,11,11,12,12,13,13,14,14,15,15,16,16,17,17,18,18,19,19,20,20,21,21,22,22,23,23,24,24,27,27,29,29,31,31,32,32,34,34,36,36,37,37,38,38,39,39,40,40,41,41,42,42,43,43,44,44,45,45,46,46,47,47,48,48,49,49,50,50,51,51,53,53,54,54],"right_children":[2,4,6,8,10,12,14,16,18,20,22,24,26,28,30,32,34,36,38,40,42,44,46,48,50,-1,-1,52,-1,54,-1,56,58,-1,60,-1,62,64,66,68,70,72,74,76,78,80,82,84,86,88,90,92,-1,94,96,-1,-1,-1,-1,-1,-1,-1,-1,-1,-1,-1,-1,-1,-1,-1,-1,-1,-1,-1,-1,-1,-1,-1,-1,-1,-1,-1,-1,-1,-1,-1,-1,-1,-1,-1,-1,-1,-1,-1,-1,-1,-1],"split_conditions":[7.8070945E-1,-9.5418984E-1,1.3186992E0,-4.248126E-1,-8.893612E-1,1.7313378E0,-2.0762217E-1,-5.304972E-1,-3.228336E-1,-9.221284E-1,-1.3512595E-1,-2.342386E-1,3.1184426E-1,2.383828E0,6.401529E-1,4.6249557E-1,-7.646977E-1,-6.844586E-1,7.6583284E-1,-1.09675676E-1,-9.436065E-1,-1.2157401E0,-2.1335635E-1,-6.432037E-1,3.3441147E-1,-4.913548E-2,3.4661982E-2,5.0434737E0,2.539886E-2,1.2787732E-1,-3.8645912E-2,1.2162943E0,1.4516681E0,-2.7184134E-2,2.188142E-1,4.6747115E-2,1.7059697E0,4.2315435E-1,1.156748E-1,-5.82756E-1,-1.3262397E0,2.1868996E-1,1.2836961E-1,2.4005787E-1,-1.3039813E0,3.1734753E0,-1.1254883E0,1.020572E0,-6.0430276E-1,-2.8716233E-1,-2.0762217E-1,-7.135787E-1,3.367654E-2,-2.5515312E-1,-3.8353658E-1,9.0922825E-2,-3.6078535E-2,-3.789802E-2,3.776797E-2,9.3286015E-2,3.1595867E-2,-6.0572784E-2,1.0424848E-2,8.215781E-2,9.723108E-3,2.539886E-2,-4.7008898E-2,8.944363E-2,-1.0468582E-2,-1.2826842E-2,1.20275214E-1,5.051552E-3,8.4470816E-2,-3.731632E-2,2.6099024E-2,2.9045388E-2,-3.8503524E-2,-7.95988E-3,-4.866358E-2,-3.778067E-2,5.783965E-2,7.584332E-2,-6.000267E-3,1.5054445E-1,3.0682033E-2,-2.4352284E-2,9.1298334E-2,1.0289623E-1,1.6008066E-2,2.7359331E-2,-5.004098E-2,4.6747115E-2,1.6046028E-1,4.1372355E-2,1.4389528E-1,8.017992E-2,-2.1091875E-2],"split_indices":[37,3,36,60,11,2,26,21,34,53,37,39,15,52,51,32,16,6,22,21,41,40,21,53,44,0,0,15,0,15,0,53,7,0,64,0,8,35,0,20,32,46,34,53,22,13,52,42,52,3,26,2,0,34,12,0,0,0,0,0,0,0,0,0,0,0,0,0,0,0,0,0,0,0,0,0,0,0,0,0,0,0,0,0,0,0,0,0,0,0,0,0,0,0,0,0,0],"split_type":[0,0,0,0,0,0,0,0,0,0,0,0,0,0,0,0,0,0,0,0,0,0,0,0,0,0,0,0,0,0,0,0,0,0,0,0,0,0,0,0,0,0,0,0,0,0,0,0,0,0,0,0,0,0,0,0,0,0,0,0,0,0,0,0,0,0,0,0,0,0,0,0,0,0,0,0,0,0,0,0,0,0,0,0,0,0,0,0,0,0,0,0,0,0,0,0,0],"sum_hessian":[6.961724E2,6.039502E2,9.222224E1,8.110188E1,5.228483E2,3.9688156E1,5.253408E1,5.560176E1,2.5500118E1,5.8477715E1,4.6437057E2,3.4894897E1,4.7932553E0,4.0646805E1,1.1887274E1,1.6488798E1,3.9112965E1,1.1312082E1,1.4188036E1,1.4571496E1,4.390622E1,3.6352048E2,1.0085009E2,1.898129E1,1.5913608E1,2.684223E0,2.1090324E0,3.9304695E1,1.3421115E0,1.0545162E1,1.3421115E0,5.943637E0,1.0545162E1,1.9173021E0,3.7195663E1,1.3421115E0,9.969972E0,1.0545162E1,3.642874E0,7.6692085E0,6.902288E0,1.4954957E1,2.8951263E1,2.2624165E1,3.4089633E2,5.6752144E1,4.409795E1,1.3421115E1,5.5601764E0,1.0161701E1,5.7519064E0,3.8154312E1,1.1503813E0,7.860939E0,2.684223E0,4.7932553E0,1.1503813E0,8.05267E0,2.492493E0,2.7417421E1,9.778241E0,8.81959E0,1.1503813E0,6.135367E0,4.409795E0,1.3421115E0,2.3007627E0,1.3421115E0,6.327097E0,1.1503813E0,5.7519064E0,9.586511E0,5.368446E0,2.2815895E1,6.135367E0,1.2654194E1,9.969972E0,1.610534E1,3.24791E2,5.5218304E1,1.5338417E0,5.7519064E0,3.8346043E1,1.1695543E1,1.725572E0,1.725572E0,3.8346043E0,5.5601764E0,4.6015253E0,2.8759532E0,2.8759532E0,1.3421115E0,3.6812202E1,1.9173021E0,5.943637E0,1.1503813E0,1.5338417E0],"tree_param":{"num_deleted":"0","num_feature":"68","num_nodes":"97","size_leaf_vector":"1"}},{"base_weights":[-1.3510247E-1,-6.209137E-1,1.1981773E0,1.1936348E-1,-8.3066535E-1,1.9473696E0,5.753608E-1,9.5776105E-1,-3.0865225E-1,-4.2095277E-1,-9.2547345E-1,2.1596415E0,5.354737E-1,1.8287199E0,2.4437027E-1,1.495038E-1,1.6037917E0,5.4267687E-1,-7.2773135E-1,-8.1846356E-1,2.673395E-1,-6.2741107E-1,-1.0321287E0,1.1903054E0,2.4026093E0,1.5831842E0,-5.5901814E-1,1.1762426E0,1.4214568E-1,8.171098E-1,-2.3258992E-1,1.265051E0,-4.4703257E-1,7.803248E-2,1.9625502E0,-7.894567E-1,9.1180164E-1,5.7535976E-1,-8.6191076E-1,4.5813028E-2,-8.874312E-1,-9.818573E-2,1.619174E0,7.504599E-1,-7.184931E-1,-1.0433352E0,3.3196565E-2,2.0472374E0,1.1271419E-1,2.4655077E0,2.1534588E-2,2.026463E0,-1.3058533E-2,-9.284771E-1,3.2623395E-2,1.3291258E-2,1.6605337E0,1.5818261E0,8.554282E-2,-4.796509E-1,1.1096772E0,-1.674002E-2,8.646555E-2,6.55201E-2,-4.2558193E-2,4.8364714E-2,-4.5014273E-2,-2.97906E-3,1.20650746E-1,1.1089787E-2,-5.3322937E-2,-9.7588636E-4,7.7575795E-2,8.3328985E-2,-3.152239E-2,-4.6590533E-2,3.0574674E-2,-4.7810614E-2,2.476762E-2,1.6685924E-2,-3.5519194E-2,4.7671474E-3,1.0079968E-1,-2.3430621E-2,1.0139717E-1,7.89768E-2,-3.8541082E-2,-5.42516E-2,-2.3705209E-2,1.20132826E-1,1.7849215E-3,7.285952E-2,-2.0935854E-2,1.463802E-1,9.962091E-2,1.1921789E-1,3.55532E-2,-1.214629E-2,-5.2420884E-2,6.425897E-2,-4.9171053E-2,1.7973723E-2,1.1066856E-1,2.7588788E-2,9.583198E-2,5.3964056E-2,-3.644463E-2,-3.1764336E-2,6.35529E-2,-1.614765E-2,9.032814E-2],"categories":[],"categories_nodes":[],"categories_segments":[],"categories_sizes":[],"default_left":[0,0,0,0,0,0,0,0,0,0,0,0,0,0,0,0,0,0,0,0,0,0,0,0,0,0,0,0,0,0,0,0,0,0,0,0,0,0,0,0,0,0,0,0,0,0,0,0,0,0,0,0,0,0,0,0,0,0,0,0,0,0,0,0,0,0,0,0,0,0,0,0,0,0,0,0,0,0,0,0,0,0,0,0,0,0,0,0,0,0,0,0,0,0,0,0,0,0,0,0,0,0,0,0,0,0,0,0,0,0,0],"id":1,"left_children":[1,3,5,7,9,11,13,15,17,19,21,23,25,27,29,31,33,35,37,39,41,43,45,47,49,51,53,55,-1,57,59,61,63,65,67,69,71,73,75,-1,77,79,81,83,85,87,-1,89,91,93,-1,95,-1,97,-1,99,101,103,105,107,109,-1,-1,-1,-1,-1,-1,-1,-1,-1,-1,-1,-1,-1,-1,-1,-1,-1,-1,-1,-1,-1,-1,-1,-1,-1,-1,-1,-1,-1,-1,-1,-1,-1,-1,-1,-1,-1,-1,-1,-1,-1,-1,-1,-1,-1,-1,-1,-1,-1,-1],"loss_changes":[4.5074094E2,7.926698E1,8.561282E1,4.100435E1,1.5047638E1,2.4006805E1,4.224943E1,1.9907528E1,2.7459263E1,2.1153685E1,9.585571E0,1.4252136E1,1.4992884E1,1.0782188E1,2.2746813E1,1.2705614E1,1.1528786E1,1.3306385E1,9.458897E0,6.6454926E0,1.4373083E1,1.1505383E1,5.169159E0,1.5045998E1,6.021942E0,5.881624E0,3.629819E0,8.254663E0,0E0,2.0978481E1,1.5731162E1,5.4940834E0,1.0082477E1,5.3114257E0,1.5845245E1,1.9423885E0,1.2247955E1,8.1367035E0,5.397625E0,0E0,4.9812126E0,6.4735136E0,3.5445995E0,1.0149738E1,1.1135162E1,5.0481873E0,0E0,6.460972E0,6.602319E0,6.220459E0,0E0,8.4313965E-1,0E0,2.0495081E-1,0E0,8.019006E0,6.661133E0,5.286484E0,1.725315E1,1.154446E1,7.9977827E0,0E0,0E0,0E0,0E0,0E0,0E0,0E0,0E0,0E0,0E0,0E0,0E0,0E0,0E0,0E0,0E0,0E0,0E0,0E0,0E0,0E0,0E0,0E0,0E0,0E0,0E0,0E0,0E0,0E0,0E0,0E0,0E0,0E0,0E0,0E0,0E0,0E0,0E0,0E0,0E0,0E0,0E0,0E0,0E0,0E0,0E0,0E0,0E0,0E0,0E0],"parents":[2147483647,0,0,1,1,2,2,3,3,4,4,5,5,6,6,7,7,8,8,9,9,10,10,11,11,12,12,13,13,14,14,15,15,16,16,17,17,18,18,19,19,20,20,21,21,22,22,23,23,24,24,25,25,26,26,27,27,29,29,30,30,31,31,32,32,33,33,34,34,35,35,36,36,37,37,38,38,40,40,41,41,42,42,43,43,44,44,45,45,47,47,48,48,49,49,51,51,53,53,55,55,56,56,57,57,58,58,59,59,60,60],"right_children":[2,4,6,8,10,12,14,16,18,20,22,24,26,28,30,32,34,36,38,40,42,44,46,48,50,52,54,56,-1,58,60,62,64,66,68,70,72,74,76,-1,78,80,82,84,86,88,-1,90,92,94,-1,96,-1,98,-1,100,102,104,106,108,110,-1,-1,-1,-1,-1,-1,-1,-1,-1,-1,-1,-1,-1,-1,-1,-1,-1,-1,-1,-1,-1,-1,-1,-1,-1,-1,-1,-1,-1,-1,-1,-1,-1,-1,-1,-1,-1,-1,-1,-1,-1,-1,-1,-1,-1,-1,-1,-1,-1,-1],"split_conditions":[2.1591794E-1,-5.906923E-1,-3.9572498E-1,-4.0822598E-1,-7.4328554E-1,5.7440954E-1,-7.4045765E-1,-1.10771485E-1,-1.7193127E-1,1.1417447E-1,-5.836971E-1,-2.5515312E-1,-1.1405289E0,1.8813428E0,-1.8363166E-1,-5.0604665E-1,-5.69557E-1,-6.149171E-1,-8.600467E-1,-1.0987116E0,-1.2166816E-1,-8.979774E-1,3.7238903E0,6.99426E-2,1.9679465E0,6.2397504E-1,1.0530775E0,-1.1781204E0,1.4214568E-1,-5.906923E-1,8.092954E-1,-5.7318926E-1,-1.7280713E-2,3.7717944E-1,-6.420009E-1,-3.8979417E-1,-6.505654E-1,3.114361E-1,1.4840072E-1,4.5813028E-2,1.5935607E0,-6.253601E-1,-5.66895E-1,-7.387606E-2,-1.3604224E0,9.7348166E-1,3.3196565E-2,8.8215476E-1,-1.1349179E0,-1.261308E0,2.1534588E-2,-8.243904E-1,-1.3058533E-2,-8.3220446E-1,3.2623395E-2,-5.2737817E-2,-5.1141465E-1,-3.6043388E-1,3.9940354E-1,1.4737757E0,9.361017E-1,-1.674002E-2,8.646555E-2,6.55201E-2,-4.2558193E-2,4.8364714E-2,-4.5014273E-2,-2.97906E-3,1.20650746E-1,1.1089787E-2,-5.3322937E-2,-9.7588636E-4,7.7575795E-2,8.3328985E-2,-3.152239E-2,-4.6590533E-2,3.0574674E-2,-4.7810614E-2,2.476762E-2,1.6685924E-2,-3.5519194E-2,4.7671474E-3,1.0079968E-1,-2.3430621E-2,1.0139717E-1,7.89768E-2,-3.8541082E-2,-5.42516E-2,-2.3705209E-2,1.20132826E-1,1.7849215E-3,7.285952E-2,-2.0935854E-2,1.463802E-1,9.962091E-2,1.1921789E-1,3.55532E-2,-1.214629E-2,-5.2420884E-2,6.425897E-2,-4.9171053E-2,1.7973723E-2,1.1066856E-1,2.7588788E-2,9.583198E-2,5.3964056E-2,-3.644463E-2,-3.1764336E-2,6.35529E-2,-1.614765E-2,9.032814E-2],"split_indices":[36,61,10,55,52,51,51,24,39,16,41,34,10,36,55,41,52,28,48,11,36,24,38,55,38,20,56,11,0,61,45,21,51,51,13,0,2,51,36,0,19,2,57,0,57,57,0,18,51,10,0,11,0,8,0,56,42,34,10,47,36,0,0,0,0,0,0,0,0,0,0,0,0,0,0,0,0,0,0,0,0,0,0,0,0,0,0,0,0,0,0,0,0,0,0,0,0,0,0,0,0,0,0,0,0,0,0,0,0,0,0],"split_type":[0,0,0,0,0,0,0,0,0,0,0,0,0,0,0,0,0,0,0,0,0,0,0,0,0,0,0,0,0,0,0,0,0,0,0,0,0,0,0,0,0,0,0,0,0,0,0,0,0,0,0,0,0,0,0,0,0,0,0,0,0,0,0,0,0,0,0,0,0,0,0,0,0,0,0,0,0,0,0,0,0,0,0,0,0,0,0,0,0,0,0,0,0,0,0,0,0,0,0,0,0,0,0,0,0,0,0,0,0,0,0],"sum_hessian":[6.937374E2,5.088577E2,1.8487973E2,1.1244305E2,3.9641464E2,8.295982E1,1.0191991E2,3.758461E1,7.485844E1,7.551537E1,3.208993E2,7.165694E1,1.1302892E1,2.0347017E1,8.157289E1,1.724304E1,2.034157E1,2.4596825E1,5.0261612E1,4.7749428E1,2.7765944E1,8.6380394E1,2.3451889E2,1.5543618E1,5.6113316E1,5.5467353E0,5.756156E0,1.3695717E1,6.651301E0,3.674086E1,4.483203E1,5.617474E0,1.1625566E1,4.1042337E0,1.6237335E1,5.089741E0,1.9507084E1,4.385321E0,4.5876293E1,1.3560368E0,4.639339E1,2.2586187E1,5.1797557E0,4.907118E0,8.147328E1,2.3336183E2,1.1570532E0,8.157059E0,7.3865595E0,5.4136215E1,1.977102E0,4.392329E0,1.1544061E0,4.5899835E0,1.1661725E0,4.328626E0,9.367091E0,1.7395195E1,1.9345663E1,3.8405647E1,6.426382E0,1.3262016E0,4.2912726E0,1.7542765E0,9.871289E0,2.1558754E0,1.9483585E0,3.1162515E0,1.3121084E1,1.1372559E0,3.9524853E0,8.337922E0,1.1169162E1,2.1014469E0,2.2838743E0,4.4149376E1,1.726916E0,4.4488953E1,1.9044379E0,1.3509884E1,9.0763035E0,1.3264207E0,3.8533347E0,2.8349588E0,2.072159E0,1.1641511E0,8.030913E1,2.1659021E2,1.6771624E1,6.766966E0,1.390093E0,1.5990607E0,5.7874985E0,2.4761677E1,2.9374538E1,2.814035E0,1.5782943E0,1.133955E0,3.4560285E0,1.7746305E0,2.5539954E0,3.2854002E0,6.0816913E0,4.9167805E0,1.24784155E1,8.567179E0,1.0778483E1,3.5855286E1,2.550363E0,2.278633E0,4.147749E0],"tree_param":{"num_deleted":"0","num_feature":"68","num_nodes":"111","size_leaf_vector":"1"}},{"base_weights":[-1.1940582E-1,-4.5388418E-1,1.6794682E0,6.971044E-1,-6.2847275E-1,2.533996E0,1.1934682E0,1.1007506E0,1.4382345E-2,-7.187482E-1,1.4735742E-1,2.6494257E0,1.0918021E0,5.6421185E-1,1.8206464E0,4.1173688E-1,1.5268362E0,-7.223297E-1,6.085179E-1,-1.5060595E-1,-8.213936E-1,9.739407E-1,-1.8588322E-1,9.269169E-1,2.733701E0,1.0298473E-1,-1.0527874E-2,-9.110362E-2,1.2058035E0,2.3515642E0,1.0245485E0,1.2749492E0,-1.2631102E-2,1.793082E0,-4.758775E-3,-9.047389E-1,3.4105774E-2,1.1733178E0,-4.133855E-1,-4.3182415E-1,7.1359634E-1,-4.9115907E-2,-8.65802E-1,-4.3529525E-1,1.648777E0,-5.046902E-1,8.128581E-1,-1.268809E-2,8.245329E-2,3.464197E-2,2.7812436E0,1.1908535E0,-4.455903E-1,1.7709986E0,-1.3194863E-2,2.5511591E0,5.406131E-1,1.6371672E0,-1.9064929E-1,2.0128628E-2,1.141349E-1,2.3916803E-2,-3.9771285E-2,1.025269E-1,1.0351932E-2,-2.7469564E-2,4.9945705E-2,6.190102E-3,-5.9622884E-2,7.561173E-2,-3.8250893E-2,3.3437166E-2,-5.2831378E-2,6.048731E-2,-2.6383428E-2,6.4267926E-2,-3.0415365E-2,4.6077456E-2,-1.5895324E-2,-2.9503435E-2,-4.9357798E-2,3.3174466E-2,-4.2530075E-2,-1.10646505E-2,1.0448934E-1,-3.28399E-2,5.230818E-2,-4.3095246E-2,6.405722E-2,4.800868E-2,1.4259537E-1,9.227949E-2,-1.520997E-2,3.2625668E-2,-4.130141E-2,9.77342E-2,-9.661119E-3,3.882697E-2,-4.9027734E-2,1.3754989E-1,3.39909E-2,-1.6704446E-2,6.1727405E-2,1.1042049E-1,8.686519E-3,7.10206E-2,-5.3789597E-2],"categories":[],"categories_nodes":[],"categories_segments":[],"categories_sizes":[],"default_left":[0,0,0,0,0,0,0,0,0,0,0,0,0,0,0,0,0,0,0,0,0,0,0,0,0,0,0,0,0,0,0,0,0,0,0,0,0,0,0,0,0,0,0,0,0,0,0,0,0,0,0,0,0,0,0,0,0,0,0,0,0,0,0,0,0,0,0,0,0,0,0,0,0,0,0,0,0,0,0,0,0,0,0,0,0,0,0,0,0,0,0,0,0,0,0,0,0,0,0,0,0,0,0,0,0,0,0],"id":2,"left_children":[1,3,5,7,9,11,13,15,17,19,21,23,25,27,29,31,33,35,37,39,41,43,45,47,49,-1,-1,51,53,55,57,59,61,63,65,67,-1,69,71,73,75,77,79,81,83,85,87,-1,-1,-1,89,91,93,95,97,99,101,103,105,-1,-1,-1,-1,-1,-1,-1,-1,-1,-1,-1,-1,-1,-1,-1,-1,-1,-1,-1,-1,-1,-1,-1,-1,-1,-1,-1,-1,-1,-1,-1,-1,-1,-1,-1,-1,-1,-1,-1,-1,-1,-1,-1,-1,-1,-1,-1,-1],"loss_changes":[4.146115E2,1.1714257E2,4.1850006E1,2.119413E1,3.546129E1,3.480484E0,2.6902191E1,1.3567398E1,1.3400108E1,2.6256317E1,1.4902772E1,2.5099182E0,6.154013E0,1.5571736E1,1.2381355E1,7.28609E0,1.2041809E1,4.1207604E0,1.0258802E1,1.7428291E1,1.30896E1,1.5473805E1,1.2805632E1,3.0903237E0,1.2372894E0,0E0,0E0,9.22069E0,1.2874313E1,5.92997E0,1.2054087E1,4.8400707E0,5.8745213E0,9.841751E0,3.4828048E0,3.8568144E0,0E0,8.492666E0,5.4170885E0,9.098653E0,1.4138845E1,6.001931E0,1.1531433E1,3.2181308E0,9.287704E0,7.7939186E0,8.792276E0,0E0,0E0,0E0,1.3200531E0,4.8827796E0,7.1011934E0,4.978256E0,6.033719E0,4.84066E0,2.401147E0,8.469751E0,1.0343875E1,0E0,0E0,0E0,0E0,0E0,0E0,0E0,0E0,0E0,0E0,0E0,0E0,0E0,0E0,0E0,0E0,0E0,0E0,0E0,0E0,0E0,0E0,0E0,0E0,0E0,0E0,0E0,0E0,0E0,0E0,0E0,0E0,0E0,0E0,0E0,0E0,0E0,0E0,0E0,0E0,0E0,0E0,0E0,0E0,0E0,0E0,0E0,0E0],"parents":[2147483647,0,0,1,1,2,2,3,3,4,4,5,5,6,6,7,7,8,8,9,9,10,10,11,11,12,12,13,13,14,14,15,15,16,16,17,17,18,18,19,19,20,20,21,21,22,22,23,23,24,24,27,27,28,28,29,29,30,30,31,31,32,32,33,33,34,34,35,35,37,37,38,38,39,39,40,40,41,41,42,42,43,43,44,44,45,45,46,46,50,50,51,51,52,52,53,53,54,54,55,55,56,56,57,57,58,58],"right_children":[2,4,6,8,10,12,14,16,18,20,22,24,26,28,30,32,34,36,38,40,42,44,46,48,50,-1,-1,52,54,56,58,60,62,64,66,68,-1,70,72,74,76,78,80,82,84,86,88,-1,-1,-1,90,92,94,96,98,100,102,104,106,-1,-1,-1,-1,-1,-1,-1,-1,-1,-1,-1,-1,-1,-1,-1,-1,-1,-1,-1,-1,-1,-1,-1,-1,-1,-1,-1,-1,-1,-1,-1,-1,-1,-1,-1,-1,-1,-1,-1,-1,-1,-1,-1,-1,-1,-1,-1,-1],"split_conditions":[6.0458726E-1,-9.5418984E-1,-1.0298148E0,-5.906923E-1,3.509524E-1,8.401555E-1,1.3186992E0,-4.59003E-1,-3.3035368E-1,-9.1455793E-1,-5.9349906E-1,-3.8781867E0,-1.4003903E-1,3.0175565E-2,-4.1420513E-1,2.191966E-2,8.504124E-1,1.1341425E0,4.2752004E-1,7.824101E-1,-1.0987116E0,-2.1755286E-1,6.5477335E-1,-2.470549E-1,-2.0522065E0,1.0298473E-1,-1.0527874E-2,-1.3137925E0,1.4295259E-1,8.960002E-1,-5.037413E-1,-1.4580652E-1,1.4295259E-1,9.970515E-1,2.8707078E-1,-5.2595097E-1,3.4105774E-2,5.7954264E-1,-4.1727582E-1,-9.922274E-1,5.7954264E-1,-6.5266037E-1,3.805273E-1,-3.6062843E-1,-4.4469696E-1,1.3577025E0,-5.993637E-1,-1.268809E-2,8.245329E-2,3.464197E-2,-4.5462528E-1,9.361017E-1,-7.361786E-1,1.0156054E0,-5.7494944E-1,9.831688E-1,-1.1140977E0,1.0138492E-2,-9.5418984E-1,2.0128628E-2,1.141349E-1,2.3916803E-2,-3.9771285E-2,1.025269E-1,1.0351932E-2,-2.7469564E-2,4.9945705E-2,6.190102E-3,-5.9622884E-2,7.561173E-2,-3.8250893E-2,3.3437166E-2,-5.2831378E-2,6.048731E-2,-2.6383428E-2,6.4267926E-2,-3.0415365E-2,4.6077456E-2,-1.5895324E-2,-2.9503435E-2,-4.9357798E-2,3.3174466E-2,-4.2530075E-2,-1.10646505E-2,1.0448934E-1,-3.28399E-2,5.230818E-2,-4.3095246E-2,6.405722E-2,4.800868E-2,1.4259537E-1,9.227949E-2,-1.520997E-2,3.2625668E-2,-4.130141E-2,9.77342E-2,-9.661119E-3,3.882697E-2,-4.9027734E-2,1.3754989E-1,3.39909E-2,-1.6704446E-2,6.1727405E-2,1.1042049E-1,8.686519E-3,7.10206E-2,-5.3789597E-2],"split_indices":[37,3,10,61,36,40,36,16,34,40,13,10,56,17,25,23,11,10,33,8,11,34,34,22,18,0,0,45,11,30,53,11,11,45,47,54,0,7,13,27,7,40,61,49,8,23,22,0,0,0,14,36,53,7,2,10,25,15,3,0,0,0,0,0,0,0,0,0,0,0,0,0,0,0,0,0,0,0,0,0,0,0,0,0,0,0,0,0,0,0,0,0,0,0,0,0,0,0,0,0,0,0,0,0,0,0,0],"split_type":[0,0,0,0,0,0,0,0,0,0,0,0,0,0,0,0,0,0,0,0,0,0,0,0,0,0,0,0,0,0,0,0,0,0,0,0,0,0,0,0,0,0,0,0,0,0,0,0,0,0,0,0,0,0,0,0,0,0,0,0,0,0,0,0,0,0,0,0,0,0,0,0,0,0,0,0,0,0,0,0,0,0,0,0,0,0,0,0,0,0,0,0,0,0,0,0,0,0,0,0,0,0,0,0,0,0,0],"sum_hessian":[6.868178E2,5.7976526E2,1.070525E2,7.596532E1,5.0379996E2,3.728345E1,6.976905E1,4.735518E1,2.8610134E1,4.513541E2,5.244589E1,3.3745464E1,3.5379846E0,3.577505E1,3.3993996E1,1.8846016E1,2.8509163E1,1.267621E1,1.5933924E1,6.944475E1,3.8190933E2,1.4516343E1,3.7929546E1,2.1336775E0,3.1611788E1,1.6960204E0,1.8419644E0,1.8122702E1,1.765235E1,1.9221388E1,1.4772607E1,5.550772E0,1.3295244E1,2.4141739E1,4.367424E0,1.153398E1,1.1422297E0,1.0166687E1,5.7672367E0,5.2772488E1,1.6672262E1,2.088134E1,3.6102798E2,4.815427E0,9.700916E0,2.9126717E1,8.802829E0,1.0559126E0,1.077765E0,1.0741633E0,3.0537624E1,3.4146543E0,1.4708048E1,1.1751072E1,5.9012775E0,1.694504E1,2.2763476E0,9.590498E0,5.182109E0,3.7253397E0,1.8254325E0,8.40966E0,4.885584E0,2.0518232E1,3.6235068E0,3.124543E0,1.2428812E0,2.645723E0,8.888258E0,8.840721E0,1.325966E0,2.1353252E0,3.6319115E0,2.2700644E0,5.0502422E1,1.1657637E1,5.0146246E0,4.001715E0,1.6879623E1,1.1212548E2,2.4890251E2,1.1569277E0,3.6584992E0,1.9462396E0,7.754677E0,2.705013E1,2.0765853E0,1.7398694E0,7.0629597E0,1.6856185E0,2.8852005E1,2.2116363E0,1.203018E0,3.6004562E0,1.1107592E1,1.075058E1,1.0004916E0,3.3575206E0,2.5437572E0,1.4885378E1,2.0596623E0,1.236413E0,1.0399346E0,6.5317984E0,3.0586998E0,1.6231192E0,3.5589898E0],"tree_param":{"num_deleted":"0","num_feature":"68","num_nodes":"107","size_leaf_vector":"1"}},{"base_weights":[-9.5400415E-2,-3.9822927E-1,1.7245046E0,6.841534E-1,-5.7807744E-1,1.9947641E0,1.0239848E0,1.128103E0,-2.3537662E-2,2.937145E-1,-6.956403E-1,2.204011E0,1.3077979E0,2.1406107E0,5.660548E-1,1.9783875E0,8.210193E-1,1.2795924E0,-2.4508773E-1,7.9517406E-1,-3.0501932E-1,-7.8454745E-1,-8.310068E-2,2.3228948E0,1.2826681E0,1.9931173E0,4.2441177E-1,1.2313997E-1,1.9150782E-2,-3.157054E-1,1.0742404E0,2.2809511E-2,2.1943622E0,4.8302522E-1,1.6337816E0,-1.4828307E-2,1.8488251E0,9.552622E-1,-4.6593997E-1,1.3267187E0,1.7163607E-1,1.3503877E0,-6.563939E-1,3.4852862E-2,-8.27277E-1,-3.2166982E-1,1.4506692E0,2.3743877E0,3.8486287E-2,-1.2021225E-2,1.7792957E0,2.2164662E0,1.89488E-2,1.2321968E0,-6.727059E-1,6.383603E-2,-7.851917E-1,1.4168562E0,-3.010833E-2,1.5295175E-2,1.1753722E-1,-1.0029398E-2,5.0974816E-2,9.958792E-2,-8.33446E-3,3.154206E-2,1.0771736E-1,9.322558E-2,-2.3754252E-2,4.592458E-2,-3.042289E-2,3.0439475E-3,7.76911E-2,-9.698392E-3,1.0811525E-1,1.001444E-1,-1.6952137E-2,1.8716792E-2,-4.729629E-2,7.902943E-2,-2.8662521E-2,-2.7350754E-2,-4.6890736E-2,1.2919472E-3,-4.463018E-2,8.976983E-2,-1.4062464E-2,3.612806E-2,1.2084378E-1,1.1270846E-2,1.0257597E-1,1.2179039E-1,2.5551936E-2,-1.826383E-2,9.0273775E-2,-5.0590124E-2,1.3244699E-2,-5.7553943E-2,3.8406983E-2,9.595072E-2,4.0827366E-3],"categories":[],"categories_nodes":[],"categories_segments":[],"categories_sizes":[],"default_left":[0,0,0,0,0,0,0,0,0,0,0,0,0,0,0,0,0,0,0,0,0,0,0,0,0,0,0,0,0,0,0,0,0,0,0,0,0,0,0,0,0,0,0,0,0,0,0,0,0,0,0,0,0,0,0,0,0,0,0,0,0,0,0,0,0,0,0,0,0,0,0,0,0,0,0,0,0,0,0,0,0,0,0,0,0,0,0,0,0,0,0,0,0,0,0,0,0,0,0,0,0],"id":3,"left_children":[1,3,5,7,9,11,13,15,17,19,21,23,25,27,29,31,33,35,37,39,41,43,45,47,49,51,53,-1,-1,55,57,-1,59,61,63,-1,65,67,69,71,73,75,77,79,81,83,85,87,-1,-1,89,91,-1,93,95,-1,97,99,-1,-1,-1,-1,-1,-1,-1,-1,-1,-1,-1,-1,-1,-1,-1,-1,-1,-1,-1,-1,-1,-1,-1,-1,-1,-1,-1,-1,-1,-1,-1,-1,-1,-1,-1,-1,-1,-1,-1,-1,-1,-1,-1],"loss_changes":[3.7756638E2,1.1468278E2,1.6462585E1,2.6452286E1,5.185829E1,7.1047974E0,1.3753252E1,1.1876801E1,9.9575E0,1.8434433E1,2.4136307E1,2.6940002E0,1.046357E1,3.6730385E0,1.0248507E1,3.2760544E0,1.0115927E1,5.047392E0,8.236105E0,1.0793051E1,1.7370657E1,1.3612045E1,2.1486364E1,1.7429504E0,6.5946407E0,2.8550453E0,9.187595E0,0E0,0E0,7.6250486E0,9.041365E0,0E0,2.5681114E0,1.1007546E1,7.5763607E0,0E0,6.331158E-2,7.251746E0,5.589009E0,5.0228233E0,1.2391778E1,6.509613E0,7.531458E0,1.988173E1,1.0911179E1,1.0048652E1,5.2299232E0,1.2526855E0,0E0,0E0,2.188572E0,2.04599E0,0E0,5.957631E0,1.7452867E0,0E0,5.1242723E0,7.979721E0,0E0,0E0,0E0,0E0,0E0,0E0,0E0,0E0,0E0,0E0,0E0,0E0,0E0,0E0,0E0,0E0,0E0,0E0,0E0,0E0,0E0,0E0,0E0,0E0,0E0,0E0,0E0,0E0,0E0,0E0,0E0,0E0,0E0,0E0,0E0,0E0,0E0,0E0,0E0,0E0,0E0,0E0,0E0],"parents":[2147483647,0,0,1,1,2,2,3,3,4,4,5,5,6,6,7,7,8,8,9,9,10,10,11,11,12,12,13,13,14,14,15,15,16,16,17,17,18,18,19,19,20,20,21,21,22,22,23,23,24,24,25,25,26,26,29,29,30,30,32,32,33,33,34,34,36,36,37,37,38,38,39,39,40,40,41,41,42,42,43,43,44,44,45,45,46,46,47,47,50,50,51,51,53,53,54,54,56,56,57,57],"right_children":[2,4,6,8,10,12,14,16,18,20,22,24,26,28,30,32,34,36,38,40,42,44,46,48,50,52,54,-1,-1,56,58,-1,60,62,64,-1,66,68,70,72,74,76,78,80,82,84,86,88,-1,-1,90,92,-1,94,96,-1,98,100,-1,-1,-1,-1,-1,-1,-1,-1,-1,-1,-1,-1,-1,-1,-1,-1,-1,-1,-1,-1,-1,-1,-1,-1,-1,-1,-1,-1,-1,-1,-1,-1,-1,-1,-1,-1,-1,-1,-1,-1,-1,-1,-1],"split_conditions":[7.8070945E-1,-9.5418984E-1,4.7131408E-2,-5.906923E-1,-8.893612E-1,-1.0962393E-1,-6.747143E-1,-4.7021085E-1,-1.0650473E0,1.7994937E-1,1.0338925E-1,1.1928183E0,-5.906923E-1,1.4614719E0,1.175415E-1,-1.2271358E0,9.297881E-1,-1.0056909E0,-1.0421317E0,-3.9572498E-1,-1.2992169E0,-1.1966668E0,1.2859069E0,2.383828E0,1.3443004E0,3.2206786E-1,-2.1913585E-3,1.2313997E-1,1.9150782E-2,-8.3207947E-1,5.763666E-1,2.2809511E-2,-5.736385E-1,-6.149171E-1,-4.734308E-1,-1.4828307E-2,-3.550768E-1,-1.7832918E-1,-1.454472E0,-1.0971508E0,1.710501E0,6.491401E-1,-7.301049E-1,-7.3348504E-1,3.805273E-1,1.361217E-1,3.667409E-1,-5.7318926E-1,3.8486287E-2,-1.2021225E-2,-1.020252E0,2.5665417E-1,1.89488E-2,-5.354267E-1,1.9488599E0,6.383603E-2,1.7284997E0,-1.5809862E-2,-3.010833E-2,1.5295175E-2,1.1753722E-1,-1.0029398E-2,5.0974816E-2,9.958792E-2,-8.33446E-3,3.154206E-2,1.0771736E-1,9.322558E-2,-2.3754252E-2,4.592458E-2,-3.042289E-2,3.0439475E-3,7.76911E-2,-9.698392E-3,1.0811525E-1,1.001444E-1,-1.6952137E-2,1.8716792E-2,-4.729629E-2,7.902943E-2,-2.8662521E-2,-2.7350754E-2,-4.6890736E-2,1.2919472E-3,-4.463018E-2,8.976983E-2,-1.4062464E-2,3.612806E-2,1.2084378E-1,1.1270846E-2,1.0257597E-1,1.2179039E-1,2.5551936E-2,-1.826383E-2,9.0273775E-2,-5.0590124E-2,1.3244699E-2,-5.7553943E-2,3.8406983E-2,9.595072E-2,4.0827366E-3],"split_indices":[37,3,10,61,11,39,51,23,38,51,36,29,61,28,47,45,24,41,41,10,52,43,45,52,37,55,24,0,0,0,55,0,16,28,55,0,24,53,23,45,26,16,47,12,61,41,11,21,0,0,49,15,0,16,36,0,38,26,0,0,0,0,0,0,0,0,0,0,0,0,0,0,0,0,0,0,0,0,0,0,0,0,0,0,0,0,0,0,0,0,0,0,0,0,0,0,0,0,0,0,0],"split_type":[0,0,0,0,0,0,0,0,0,0,0,0,0,0,0,0,0,0,0,0,0,0,0,0,0,0,0,0,0,0,0,0,0,0,0,0,0,0,0,0,0,0,0,0,0,0,0,0,0,0,0,0,0,0,0,0,0,0,0,0,0,0,0,0,0,0,0,0,0,0,0,0,0,0,0,0,0,0,0,0,0,0,0,0,0,0,0,0,0,0,0,0,0,0,0,0,0,0,0,0,0],"sum_hessian":[6.828434E2,5.860988E2,9.674458E1,8.3110374E1,5.0298843E2,6.847823E1,2.8266352E1,5.0706833E1,3.2403538E1,5.9590992E1,4.4339746E2,5.0797287E1,1.7680946E1,7.1520677E0,2.1114283E1,1.2009955E1,3.869688E1,4.014589E0,2.838895E1,3.225133E1,2.733966E1,3.869524E2,5.644505E1,4.3644493E1,7.152796E0,9.249265E0,8.431682E0,5.7050323E0,1.447035E0,7.858187E0,1.3256096E1,1.8789922E0,1.0130963E1,2.8457067E1,1.0239812E1,1.1922774E0,2.8223114E0,3.8948388E0,2.4494112E1,1.680118E1,1.5450152E1,4.2891803E0,2.3050482E1,1.918758E1,3.6776483E2,4.953105E1,6.913997E0,4.173218E1,1.9123093E0,1.8856468E0,5.267149E0,7.7972093E0,1.4520552E0,4.785267E0,3.646415E0,1.3977691E0,6.460418E0,1.1135171E1,2.1209254E0,1.0008552E0,9.130108E0,1.27878685E1,1.5669199E1,8.452925E0,1.7868878E0,1.180594E0,1.6417174E0,2.1955953E0,1.6992433E0,1.7779722E0,2.2716139E1,2.7486558E0,1.4052524E1,1.3815395E1,1.6347576E0,2.9602985E0,1.3288819E0,4.990712E0,1.8059769E1,4.965805E0,1.4221775E1,1.0570489E2,2.6205994E2,3.1383614E1,1.8147438E1,5.735692E0,1.1783051E0,1.4980456E0,4.023414E1,1.0577083E0,4.2094407E0,6.529196E0,1.2680135E0,1.3595719E0,3.4256952E0,2.6197896E0,1.0266254E0,5.4383717E0,1.0220467E0,7.774135E0,3.3610356E0],"tree_param":{"num_deleted":"0","num_feature":"68","num_nodes":"101","size_leaf_vector":"1"}},{"base_weights":[-1.0703476E-1,-4.1829485E-1,1.4013542E0,6.9560504E-1,-6.08629E-1,2.1030617E0,9.697835E-1,1.0727593E0,6.2777705E-2,-7.2600526E-1,-2.3764296E-2,2.1514547E0,6.7400746E-3,4.0386406E-1,1.5886059E0,1.8293346E-1,1.3276429E0,-4.9037182E-1,8.4684753E-1,-2.2753924E-1,-8.2486016E-1,-2.1497783E-1,1.4095887E0,2.3406513E-2,2.2129617E0,9.5019585E-1,1.9499267E-2,2.0008812E0,8.5187477E-1,1.4305006E0,-3.4388125E-1,1.6595103E0,5.4555976E-1,-7.003605E-1,6.597722E-2,1.5046866E0,-5.1285005E-1,1.1251578E0,-4.0760288E-1,-5.4283816E-1,-9.459414E-1,1.6032624E0,-3.5614118E-1,1.1315358E-2,1.8040266E0,2.564711E-2,2.2544467E0,1.32502E-1,1.557223E0,1.0144273E0,-3.0942282E-1,1.9037585E-1,2.2148554E0,1.5723727E0,-2.657415E-1,9.7420216E-2,1.6920723E-2,-3.9040457E-2,2.9436115E-2,8.945854E-2,-9.601552E-3,-2.6653105E-2,6.480799E-2,-4.64262E-2,4.3069746E-2,1.1007898E-2,1.0311395E-1,-5.0415244E-2,3.2131758E-2,1.1317841E-1,1.8027624E-2,6.428899E-4,-4.177678E-2,-3.1460833E-2,3.8034625E-2,2.9190991E-2,-4.837234E-2,1.2969648E-3,1.0692066E-1,-2.2175992E-2,5.5153586E-2,-3.6280554E-2,3.979669E-2,1.0900519E-1,2.6225166E-3,1.15166776E-1,2.3317913E-2,-2.7750134E-2,5.2792903E-2,-3.1353484E-3,9.347781E-2,8.174599E-2,-1.2024948E-2,-2.9193649E-2,3.7603926E-2,-3.6330987E-2,4.8978817E-2,1.1542244E-1,1.3639684E-2,1.0664721E-2,9.198708E-2,-3.6723193E-2,4.5259327E-2],"categories":[],"categories_nodes":[],"categories_segments":[],"categories_sizes":[],"default_left":[0,0,0,0,0,0,0,0,0,0,0,0,0,0,0,0,0,0,0,0,0,0,0,0,0,0,0,0,0,0,0,0,0,0,0,0,0,0,0,0,0,0,0,0,0,0,0,0,0,0,0,0,0,0,0,0,0,0,0,0,0,0,0,0,0,0,0,0,0,0,0,0,0,0,0,0,0,0,0,0,0,0,0,0,0,0,0,0,0,0,0,0,0,0,0,0,0,0,0,0,0,0,0],"id":4,"left_children":[1,3,5,7,9,11,13,15,17,19,21,23,-1,25,27,29,31,33,35,37,39,41,43,-1,45,47,49,51,53,55,57,59,61,63,-1,65,67,69,71,73,75,77,79,81,83,-1,85,87,89,91,93,95,97,99,101,-1,-1,-1,-1,-1,-1,-1,-1,-1,-1,-1,-1,-1,-1,-1,-1,-1,-1,-1,-1,-1,-1,-1,-1,-1,-1,-1,-1,-1,-1,-1,-1,-1,-1,-1,-1,-1,-1,-1,-1,-1,-1,-1,-1,-1,-1,-1,-1],"loss_changes":[3.2089285E2,1.20486244E2,3.337065E1,1.9768776E1,3.3221985E1,3.8697815E0,2.5363098E1,1.1553616E1,1.4336255E1,1.9681564E1,2.2767391E1,3.3703156E0,0E0,8.407705E0,8.965477E0,8.865757E0,9.546951E0,8.317696E0,1.2975804E1,1.7049152E1,1.0963928E1,1.9355106E1,5.373335E0,0E0,1.7202606E0,8.008871E0,8.356438E0,8.01712E0,1.1969899E1,1.5897799E0,4.43847E0,7.0137177E0,1.1610467E1,7.2439394E0,0E0,6.3141136E0,3.6218343E0,6.3803473E0,1.0958679E1,1.2110525E1,8.256622E0,4.5484924E0,9.252589E0,2.4035387E0,4.906166E0,0E0,2.3808136E0,5.7563963E0,4.876299E0,5.3298397E0,6.0431437E0,3.1697035E0,2.8940735E0,2.8297615E0,4.2206316E0,0E0,0E0,0E0,0E0,0E0,0E0,0E0,0E0,0E0,0E0,0E0,0E0,0E0,0E0,0E0,0E0,0E0,0E0,0E0,0E0,0E0,0E0,0E0,0E0,0E0,0E0,0E0,0E0,0E0,0E0,0E0,0E0,0E0,0E0,0E0,0E0,0E0,0E0,0E0,0E0,0E0,0E0,0E0,0E0,0E0,0E0,0E0,0E0],"parents":[2147483647,0,0,1,1,2,2,3,3,4,4,5,5,6,6,7,7,8,8,9,9,10,10,11,11,13,13,14,14,15,15,16,16,17,17,18,18,19,19,20,20,21,21,22,22,24,24,25,25,26,26,27,27,28,28,29,29,30,30,31,31,32,32,33,33,35,35,36,36,37,37,38,38,39,39,40,40,41,41,42,42,43,43,44,44,46,46,47,47,48,48,49,49,50,50,51,51,52,52,53,53,54,54],"right_children":[2,4,6,8,10,12,14,16,18,20,22,24,-1,26,28,30,32,34,36,38,40,42,44,-1,46,48,50,52,54,56,58,60,62,64,-1,66,68,70,72,74,76,78,80,82,84,-1,86,88,90,92,94,96,98,100,102,-1,-1,-1,-1,-1,-1,-1,-1,-1,-1,-1,-1,-1,-1,-1,-1,-1,-1,-1,-1,-1,-1,-1,-1,-1,-1,-1,-1,-1,-1,-1,-1,-1,-1,-1,-1,-1,-1,-1,-1,-1,-1,-1,-1,-1,-1,-1,-1],"split_conditions":[5.341384E-1,-9.5418984E-1,-8.587112E-1,-5.906923E-1,3.5872027E-2,3.0918186E0,1.3186992E0,-1.1457576E0,-1.8747264E-1,-8.883682E-1,9.856557E-1,-1.6026479E0,6.7400746E-3,-5.457753E-1,1.0138492E-2,-1.0462591E-1,-4.0822598E-1,1.3052461E0,4.2752004E-1,-1.2806296E0,3.805273E-1,-1.2860721E0,1.1792606E-1,2.3406513E-2,-4.7185487E-1,-3.1919625E-2,-9.5418984E-1,-3.8299403E-1,2.5849468E-1,-1.9168099E0,2.8707078E-1,1.8053416E0,6.697104E-2,7.1104425E-1,6.597722E-2,-3.8222182E-1,1.8775462E0,2.4382208E-1,1.6252838E-1,1.2986178E0,-1.8941019E0,-2.903911E-1,1.9449326E0,-2.0305276E-1,2.8756732E-1,2.564711E-2,2.1406078E0,-6.0079277E-1,-7.4328554E-1,2.241152E-1,1.0490094E0,1.0511653E-1,9.4960076E-1,-7.278673E-1,-2.6873744E-1,9.7420216E-2,1.6920723E-2,-3.9040457E-2,2.9436115E-2,8.945854E-2,-9.601552E-3,-2.6653105E-2,6.480799E-2,-4.64262E-2,4.3069746E-2,1.1007898E-2,1.0311395E-1,-5.0415244E-2,3.2131758E-2,1.1317841E-1,1.8027624E-2,6.428899E-4,-4.177678E-2,-3.1460833E-2,3.8034625E-2,2.9190991E-2,-4.837234E-2,1.2969648E-3,1.0692066E-1,-2.2175992E-2,5.5153586E-2,-3.6280554E-2,3.979669E-2,1.0900519E-1,2.6225166E-3,1.15166776E-1,2.3317913E-2,-2.7750134E-2,5.2792903E-2,-3.1353484E-3,9.347781E-2,8.174599E-2,-1.2024948E-2,-2.9193649E-2,3.7603926E-2,-3.6330987E-2,4.8978817E-2,1.1542244E-1,1.3639684E-2,1.0664721E-2,9.198708E-2,-3.6723193E-2,4.5259327E-2],"split_indices":[37,3,10,61,36,44,36,29,34,40,34,45,0,39,15,30,55,10,33,49,61,29,28,0,15,17,3,34,10,47,47,34,25,36,0,24,58,55,23,28,29,56,8,33,37,0,52,41,52,44,14,42,39,10,33,0,0,0,0,0,0,0,0,0,0,0,0,0,0,0,0,0,0,0,0,0,0,0,0,0,0,0,0,0,0,0,0,0,0,0,0,0,0,0,0,0,0,0,0,0,0,0,0],"split_type":[0,0,0,0,0,0,0,0,0,0,0,0,0,0,0,0,0,0,0,0,0,0,0,0,0,0,0,0,0,0,0,0,0,0,0,0,0,0,0,0,0,0,0,0,0,0,0,0,0,0,0,0,0,0,0,0,0,0,0,0,0,0,0,0,0,0,0,0,0,0,0,0,0,0,0,0,0,0,0,0,0,0,0,0,0,0,0,0,0,0,0,0,0,0,0,0,0,0,0,0,0,0,0],"sum_hessian":[6.812275E2,5.652992E2,1.1592831E2,8.210985E1,4.8318933E2,4.2672466E1,7.325584E1,5.101224E1,3.1097609E1,4.022255E2,8.096383E1,4.1557625E1,1.1148418E0,3.91267E1,3.412913E1,1.17409725E1,3.9271267E1,1.8453512E1,1.2644096E1,6.7113594E1,3.351119E2,7.218425E1,8.779576E0,1.7684932E0,3.978913E1,1.5550821E1,2.357588E1,2.0783037E1,1.3346096E1,2.9766033E0,8.764369E0,2.678393E1,1.2487339E1,1.7084402E1,1.3691102E0,8.4494915E0,4.194605E0,7.2676864E0,5.9845905E1,1.0230549E2,2.3280643E2,4.4542484E0,6.773E1,2.1580443E0,6.6215315E0,1.2661896E0,3.852294E1,7.1447673E0,8.406054E0,5.3398213E0,1.823606E1,2.3963609E0,1.8386677E1,7.867334E0,5.4787617E0,1.4872078E0,1.4893956E0,6.0790687E0,2.6853E0,2.5062527E1,1.7214025E0,5.2429585E0,7.24438E0,1.52604065E1,1.8239958E0,2.9797843E0,5.4697065E0,3.024934E0,1.1696709E0,2.1323783E0,5.135308E0,3.067574E1,2.9170164E1,9.643267E1,5.872814E0,2.864941E0,2.2994148E2,1.3939978E0,3.0602505E0,6.456016E1,3.1698506E0,1.1516248E0,1.0064194E0,5.2497225E0,1.3718092E0,3.7217216E1,1.3057251E0,4.324096E0,2.8206708E0,1.4879522E0,6.918102E0,3.3704944E0,1.969327E0,1.4847269E1,3.388791E0,1.1451145E0,1.2512462E0,1.7361328E1,1.0253489E0,1.5888277E0,6.2785063E0,4.1787567E0,1.3000051E0],"tree_param":{"num_deleted":"0","num_feature":"68","num_nodes":"103","size_leaf_vector":"1"}},{"base_weights":[-8.258998E-2,-5.033892E-1,9.200537E-1,6.1782783E-1,-6.596705E-1,1.2856919E0,3.6485085E-1,1.0610965E0,-8.618952E-2,-1.2126861E-3,-7.666677E-1,1.4925735E0,2.38587E-1,8.886173E-1,-8.88072E-2,1.1672602E0,-2.8732017E-2,-4.73687E-1,7.770598E-1,7.656857E-1,-4.5344192E-1,-8.1009734E-1,8.3764523E-1,7.5828636E-1,1.6410275E0,-3.290999E-2,8.428672E-2,2.0657448E-1,1.358901E0,4.9436277E-1,-5.545777E-1,6.003446E-1,1.6032543E0,-2.2068862E-2,-5.6010555E-2,-2.7195076E-2,1.3384726E0,2.024083E0,2.8946963E-1,-6.214774E-1,8.316485E-1,-5.722693E-1,-9.293846E-1,2.0875978E0,-1.6330875E-1,1.4740084E0,1.0628328E-1,1.7189904E0,1.6339514E-1,8.302535E-1,-4.8924866E-1,-3.2870933E-1,1.0632961E0,8.143725E-1,2.0309227E0,1.9032804E-2,1.2994182E0,6.6645455E-1,-7.539889E-1,-9.864054E-3,5.3409297E-2,4.9487087E-3,9.9097416E-2,4.625882E-2,-3.0170131E-2,9.237728E-2,-1.3446191E-3,1.2268754E-1,7.946244E-3,7.450718E-2,-5.004731E-3,-3.7151825E-2,6.154096E-2,-3.3834156E-2,7.237247E-2,2.2264637E-2,-3.0967427E-2,-4.948299E-3,-4.7984183E-2,1.4558472E-2,1.2821035E-1,6.457528E-2,-4.176004E-2,9.4634704E-2,-8.834731E-3,5.702997E-2,-2.1826489E-2,9.159632E-2,4.7684513E-2,-3.1144727E-2,4.3386646E-2,9.292321E-2,-2.0839786E-3,-4.7138758E-2,1.4673187E-2,-4.285892E-2,2.4182776E-2,8.1027105E-2,-2.2158412E-2,6.2613264E-2,-7.964289E-3,1.1851678E-1,4.2552244E-2,7.097385E-2,-1.3894762E-2,-1.8123545E-2,8.652319E-2,6.941082E-2,-8.319068E-3,-5.0311208E-2,2.0488633E-2],"categories":[],"categories_nodes":[],"categories_segments":[],"categories_sizes":[],"default_left":[0,0,0,0,0,0,0,0,0,0,0,0,0,0,0,0,0,0,0,0,0,0,0,0,0,0,0,0,0,0,0,0,0,0,0,0,0,0,0,0,0,0,0,0,0,0,0,0,0,0,0,0,0,0,0,0,0,0,0,0,0,0,0,0,0,0,0,0,0,0,0,0,0,0,0,0,0,0,0,0,0,0,0,0,0,0,0,0,0,0,0,0,0,0,0,0,0,0,0,0,0,0,0,0,0,0,0,0,0,0,0],"id":5,"left_children":[1,3,5,7,9,11,13,15,17,19,21,23,25,27,29,31,-1,33,35,37,39,41,43,45,47,49,-1,51,53,55,57,59,61,63,-1,-1,65,67,69,71,73,75,77,79,81,83,85,87,89,91,93,95,97,99,101,103,105,107,109,-1,-1,-1,-1,-1,-1,-1,-1,-1,-1,-1,-1,-1,-1,-1,-1,-1,-1,-1,-1,-1,-1,-1,-1,-1,-1,-1,-1,-1,-1,-1,-1,-1,-1,-1,-1,-1,-1,-1,-1,-1,-1,-1,-1,-1,-1,-1,-1,-1,-1,-1,-1],"loss_changes":[2.8393073E2,8.344577E1,3.992267E1,1.8344255E1,2.9336075E1,2.5545807E1,1.9183186E1,6.916561E0,8.236726E0,2.0881224E1,2.5635818E1,9.618561E0,8.273574E0,1.1718067E1,1.2223797E1,7.4671326E0,0E0,4.8971086E0,6.413498E0,1.2798591E1,8.69516E0,9.376724E0,1.2768106E1,8.531467E0,9.169556E0,7.730013E0,0E0,7.891537E0,6.3827286E0,7.652902E0,6.5726213E0,6.339841E0,1.04449005E1,6.584917E0,0E0,0E0,3.9899855E0,4.3902473E0,8.273737E0,8.584896E0,5.4445486E0,5.9894066E0,5.717102E0,3.0972576E0,7.3767085E0,6.414665E0,6.572899E0,4.9787445E0,3.4294367E0,6.174876E0,4.8176527E0,5.0879474E0,6.2254095E0,6.0837126E0,1.65131E0,6.062239E0,5.9522276E0,2.6538258E0,6.8406696E0,0E0,0E0,0E0,0E0,0E0,0E0,0E0,0E0,0E0,0E0,0E0,0E0,0E0,0E0,0E0,0E0,0E0,0E0,0E0,0E0,0E0,0E0,0E0,0E0,0E0,0E0,0E0,0E0,0E0,0E0,0E0,0E0,0E0,0E0,0E0,0E0,0E0,0E0,0E0,0E0,0E0,0E0,0E0,0E0,0E0,0E0,0E0,0E0,0E0,0E0,0E0,0E0],"parents":[2147483647,0,0,1,1,2,2,3,3,4,4,5,5,6,6,7,7,8,8,9,9,10,10,11,11,12,12,13,13,14,14,15,15,17,17,18,18,19,19,20,20,21,21,22,22,23,23,24,24,25,25,27,27,28,28,29,29,30,30,31,31,32,32,33,33,36,36,37,37,38,38,39,39,40,40,41,41,42,42,43,43,44,44,45,45,46,46,47,47,48,48,49,49,50,50,51,51,52,52,53,53,54,54,55,55,56,56,57,57,58,58],"right_children":[2,4,6,8,10,12,14,16,18,20,22,24,26,28,30,32,-1,34,36,38,40,42,44,46,48,50,-1,52,54,56,58,60,62,64,-1,-1,66,68,70,72,74,76,78,80,82,84,86,88,90,92,94,96,98,100,102,104,106,108,110,-1,-1,-1,-1,-1,-1,-1,-1,-1,-1,-1,-1,-1,-1,-1,-1,-1,-1,-1,-1,-1,-1,-1,-1,-1,-1,-1,-1,-1,-1,-1,-1,-1,-1,-1,-1,-1,-1,-1,-1,-1,-1,-1,-1,-1,-1,-1,-1,-1,-1,-1,-1],"split_conditions":[2.1591794E-1,-9.5418984E-1,2.4569273E-1,-5.906923E-1,-9.8003227E-1,5.792015E-3,-4.248126E-1,2.2301683E0,-1.8918538E-1,3.4667928E-2,1.9865437E0,-3.717267E-1,1.1806186E0,-2.3259297E-1,-2.4410817E-1,-3.9173704E-1,-2.8732017E-2,4.1154185E-1,-3.6249885E-1,-6.0897094E-1,1.2068721E0,-1.7193127E-1,2.8646221E-2,-4.6959066E-1,1.4102218E0,-7.4045765E-1,8.428672E-2,6.261293E-1,-4.837147E-2,4.5660007E-1,-6.446238E-1,-4.4345573E-2,-7.4328554E-1,-3.6062843E-1,-5.6010555E-2,-2.7195076E-2,3.8751933E-1,-1.2157401E0,-7.0758367E-1,2.0001295E0,-5.772109E-1,-1.3687083E0,-1.1203685E0,-1.0928764E0,-2.739113E-1,4.577048E-1,-3.7317348E-1,1.6041559E-1,-5.1987782E-2,-2.9804188E-1,4.6002275E-1,4.6832255E-1,-8.8054694E-2,7.6206243E-3,7.809699E-1,-1.3169848E0,-4.1927367E-1,-2.5581548E-1,6.9362354E-1,-9.864054E-3,5.3409297E-2,4.9487087E-3,9.9097416E-2,4.625882E-2,-3.0170131E-2,9.237728E-2,-1.3446191E-3,1.2268754E-1,7.946244E-3,7.450718E-2,-5.004731E-3,-3.7151825E-2,6.154096E-2,-3.3834156E-2,7.237247E-2,2.2264637E-2,-3.0967427E-2,-4.948299E-3,-4.7984183E-2,1.4558472E-2,1.2821035E-1,6.457528E-2,-4.176004E-2,9.4634704E-2,-8.834731E-3,5.702997E-2,-2.1826489E-2,9.159632E-2,4.7684513E-2,-3.1144727E-2,4.3386646E-2,9.292321E-2,-2.0839786E-3,-4.7138758E-2,1.4673187E-2,-4.285892E-2,2.4182776E-2,8.1027105E-2,-2.2158412E-2,6.2613264E-2,-7.964289E-3,1.1851678E-1,4.2552244E-2,7.097385E-2,-1.3894762E-2,-1.8123545E-2,8.652319E-2,6.941082E-2,-8.319068E-3,-5.0311208E-2,2.0488633E-2],"split_indices":[36,3,51,61,40,11,60,30,36,11,48,20,14,34,19,36,0,38,14,51,57,39,55,54,43,51,0,47,52,47,24,42,52,49,0,0,43,40,42,49,45,52,11,55,3,43,24,41,47,17,57,24,11,53,18,43,46,32,42,0,0,0,0,0,0,0,0,0,0,0,0,0,0,0,0,0,0,0,0,0,0,0,0,0,0,0,0,0,0,0,0,0,0,0,0,0,0,0,0,0,0,0,0,0,0,0,0,0,0,0,0],"split_type":[0,0,0,0,0,0,0,0,0,0,0,0,0,0,0,0,0,0,0,0,0,0,0,0,0,0,0,0,0,0,0,0,0,0,0,0,0,0,0,0,0,0,0,0,0,0,0,0,0,0,0,0,0,0,0,0,0,0,0,0,0,0,0,0,0,0,0,0,0,0,0,0,0,0,0,0,0,0,0,0,0,0,0,0,0,0,0,0,0,0,0,0,0,0,0,0,0,0,0,0,0,0,0,0,0,0,0,0,0,0,0],"sum_hessian":[6.708648E2,4.72894E2,1.979708E2,5.7489666E1,4.1540433E2,1.1856929E2,7.94015E1,3.4966557E1,2.252311E1,5.8207634E1,3.5719672E2,9.865258E1,1.9916712E1,3.64081E1,4.2993397E1,3.3104393E1,1.8621622E0,1.5856624E1,6.666486E0,2.1334713E1,3.687292E1,3.4826407E2,8.932648E0,1.7617964E1,8.1034615E1,1.7593317E1,2.323395E0,1.5446138E1,2.0961962E1,1.9063488E1,2.3929909E1,1.5424778E1,1.7679617E1,9.9443245E0,5.912299E0,1.9975634E0,4.6689224E0,4.9648337E0,1.636988E1,3.306572E1,3.807204E0,1.182672E2,2.2999687E2,3.489494E0,5.443154E0,7.7975903E0,9.820374E0,7.6818184E1,4.216432E0,5.8011246E0,1.1792192E1,9.885775E0,5.5603633E0,1.28011875E1,8.160774E0,1.2629988E1,6.4334993E0,3.0306368E0,2.0899271E1,5.916321E0,9.508457E0,3.8093097E0,1.3870307E1,3.5569825E0,6.3873415E0,3.1436632E0,1.525259E0,3.7787645E0,1.186069E0,3.3180819E0,1.3051798E1,3.1591358E1,1.4743611E0,1.0750728E0,2.7321312E0,4.855826E0,1.1341137E2,8.246549E0,2.2175032E2,1.0694511E0,2.420043E0,1.4283109E0,4.014843E0,6.1030183E0,1.6945724E0,3.0009212E0,6.8194523E0,6.572532E1,1.1092862E1,2.046947E0,2.169485E0,2.1428175E0,3.6583068E0,7.3366346E0,4.455558E0,5.956027E0,3.929748E0,4.0036683E0,1.556695E0,8.632614E0,4.168574E0,5.554078E0,2.6066966E0,1.5480688E0,1.108192E1,1.3577614E0,5.075738E0,1.2663356E0,1.7643011E0,1.7287685E1,3.6115866E0],"tree_param":{"num_deleted":"0","num_feature":"68","num_nodes":"111","size_leaf_vector":"1"}},{"base_weights":[-7.303028E-2,-4.4096726E-1,1.1309812E0,6.0728985E-1,-6.1160034E-1,6.8358356E-1,1.6200694E0,9.462413E-1,5.62663E-2,8.081014E-2,-6.9876224E-1,1.6194866E0,3.6807036E-1,1.7407603E0,5.795681E-1,1.0624352E0,-3.9290088E-1,5.6301165E-1,-5.571866E-1,-6.013219E-1,5.123282E-1,-7.887684E-1,-2.7456215E-1,-7.369611E-2,1.8195313E0,6.9987404E-1,-1.338723E-1,1.7815144E0,-1.3876944E-2,-5.214627E-1,1.3918228E0,-4.6267793E-2,1.2206752E0,-4.8018973E-2,3.3436727E-2,-2.2840379E-1,1.4507059E0,-7.9706585E-1,4.5349654E-2,-7.962411E-1,3.9433092E-2,1.5508486E0,1.5891576E-1,1.801046E-1,-8.245054E-1,-3.9850307E-1,8.020497E-1,3.208147E-2,-3.8042005E-2,1.9661297E0,1.0630568E-2,1.1959217E0,2.4795885E-1,1.0358711E0,-4.1723633E-1,1.8636446E0,5.525481E-1,2.6515929E-2,-5.1159322E-2,9.139182E-2,-4.854913E-4,-3.9159503E-2,4.1615307E-2,-1.1158865E-4,7.04702E-2,1.6118461E-2,-4.959155E-2,-3.8295466E-2,9.881535E-2,-5.0288733E-2,2.9634247E-2,-4.6462186E-2,2.0095645E-2,9.831382E-2,1.5763583E-2,4.769274E-2,-2.0376604E-2,5.14761E-2,-2.3320742E-2,-1.1288905E-2,-4.3968733E-2,-2.4892861E-2,5.3525258E-2,6.64069E-2,-2.5027722E-2,8.209656E-3,1.0397784E-1,7.325116E-2,-4.7487994E-3,-2.188491E-2,4.0063422E-2,-2.2963285E-2,8.561047E-2,-4.0176142E-2,2.493954E-2,9.462163E-2,8.045907E-3,6.5928765E-2,-2.0660779E-2],"categories":[],"categories_nodes":[],"categories_segments":[],"categories_sizes":[],"default_left":[0,0,0,0,0,0,0,0,0,0,0,0,0,0,0,0,0,0,0,0,0,0,0,0,0,0,0,0,0,0,0,0,0,0,0,0,0,0,0,0,0,0,0,0,0,0,0,0,0,0,0,0,0,0,0,0,0,0,0,0,0,0,0,0,0,0,0,0,0,0,0,0,0,0,0,0,0,0,0,0,0,0,0,0,0,0,0,0,0,0,0,0,0,0,0,0,0,0,0],"id":6,"left_children":[1,3,5,7,9,11,13,15,17,19,21,23,25,27,29,31,33,35,37,39,41,43,45,47,49,51,53,55,-1,57,59,61,63,-1,-1,65,67,69,-1,71,-1,73,75,77,79,81,83,-1,-1,85,-1,87,89,91,93,95,97,-1,-1,-1,-1,-1,-1,-1,-1,-1,-1,-1,-1,-1,-1,-1,-1,-1,-1,-1,-1,-1,-1,-1,-1,-1,-1,-1,-1,-1,-1,-1,-1,-1,-1,-1,-1,-1,-1,-1,-1,-1,-1],"loss_changes":[2.9652914E2,9.204951E1,3.317932E1,1.3441582E1,2.6689407E1,2.4079369E1,8.300034E0,7.3684387E0,9.198635E0,1.5095244E1,1.4752457E1,7.170616E0,1.0717559E1,5.9169617E0,8.956869E0,7.315468E0,3.2307808E0,1.1676857E1,5.440603E0,6.0265126E0,1.1245371E1,1.132872E1,9.681432E0,2.0395286E0,3.9678917E0,8.348356E0,9.124973E0,5.5062103E0,0E0,2.9883955E0,3.4208937E0,4.621479E0,8.368252E0,0E0,0E0,4.272901E0,1.0540197E1,4.0980453E0,0E0,3.2375612E0,0E0,3.4020596E0,1.1409626E1,7.23886E0,1.0037781E1,9.813244E0,5.8558025E0,0E0,0E0,3.1209717E0,0E0,6.4346294E0,8.48506E0,6.248194E0,8.1232605E0,2.650116E0,4.5973372E0,0E0,0E0,0E0,0E0,0E0,0E0,0E0,0E0,0E0,0E0,0E0,0E0,0E0,0E0,0E0,0E0,0E0,0E0,0E0,0E0,0E0,0E0,0E0,0E0,0E0,0E0,0E0,0E0,0E0,0E0,0E0,0E0,0E0,0E0,0E0,0E0,0E0,0E0,0E0,0E0,0E0,0E0],"parents":[2147483647,0,0,1,1,2,2,3,3,4,4,5,5,6,6,7,7,8,8,9,9,10,10,11,11,12,12,13,13,14,14,15,15,16,16,17,17,18,18,19,19,20,20,21,21,22,22,23,23,24,24,25,25,26,26,27,27,29,29,30,30,31,31,32,32,35,35,36,36,37,37,39,39,41,41,42,42,43,43,44,44,45,45,46,46,49,49,51,51,52,52,53,53,54,54,55,55,56,56],"right_children":[2,4,6,8,10,12,14,16,18,20,22,24,26,28,30,32,34,36,38,40,42,44,46,48,50,52,54,56,-1,58,60,62,64,-1,-1,66,68,70,-1,72,-1,74,76,78,80,82,84,-1,-1,86,-1,88,90,92,94,96,98,-1,-1,-1,-1,-1,-1,-1,-1,-1,-1,-1,-1,-1,-1,-1,-1,-1,-1,-1,-1,-1,-1,-1,-1,-1,-1,-1,-1,-1,-1,-1,-1,-1,-1,-1,-1,-1,-1,-1,-1,-1,-1],"split_conditions":[3.2279176E-1,-9.5418984E-1,1.3186992E0,-5.906923E-1,-8.893612E-1,-9.895551E-1,7.2997224E-1,1.0958576E0,4.2752004E-1,1.1792606E-1,-1.3512595E-1,-1.127961E0,3.595527E-1,1.3577025E0,1.211351E0,-6.1679447E-1,6.465426E-1,-2.3419686E-1,2.003952E0,1.0925108E0,-7.3684996E-1,-1.5951214E0,1.048902E0,-5.8449936E-1,8.401555E-1,-7.1469635E-1,-6.747143E-1,1.8625269E0,-1.3876944E-2,-1.6894273E0,1.6746497E0,-1.2397219E-1,-8.475227E-1,-4.8018973E-2,3.3436727E-2,4.1154185E-1,-1.020252E0,1.2247268E0,4.5349654E-2,7.047408E-1,3.9433092E-2,6.1717075E-1,-2.7293086E-1,-3.0782866E-1,-4.0822598E-1,1.7992572E0,1.9811384E-1,3.208147E-2,-3.8042005E-2,-1.9796844E0,1.0630568E-2,8.8589287E-1,-1.4626884E-1,-4.2012766E-1,4.5597115E-1,2.628775E0,-7.536074E-1,2.6515929E-2,-5.1159322E-2,9.139182E-2,-4.854913E-4,-3.9159503E-2,4.1615307E-2,-1.1158865E-4,7.04702E-2,1.6118461E-2,-4.959155E-2,-3.8295466E-2,9.881535E-2,-5.0288733E-2,2.9634247E-2,-4.6462186E-2,2.0095645E-2,9.831382E-2,1.5763583E-2,4.769274E-2,-2.0376604E-2,5.14761E-2,-2.3320742E-2,-1.1288905E-2,-4.3968733E-2,-2.4892861E-2,5.3525258E-2,6.64069E-2,-2.5027722E-2,8.209656E-3,1.0397784E-1,7.325116E-2,-4.7487994E-3,-2.188491E-2,4.0063422E-2,-2.2963285E-2,8.561047E-2,-4.0176142E-2,2.493954E-2,9.462163E-2,8.045907E-3,6.5928765E-2,-2.0660779E-2],"split_indices":[37,3,36,61,11,10,41,11,33,28,37,48,60,23,41,36,52,36,33,57,12,51,35,29,40,3,51,12,0,27,35,10,52,0,0,38,49,10,0,35,0,26,56,40,55,13,27,0,0,19,0,44,21,11,17,46,57,0,0,0,0,0,0,0,0,0,0,0,0,0,0,0,0,0,0,0,0,0,0,0,0,0,0,0,0,0,0,0,0,0,0,0,0,0,0,0,0,0,0],"split_type":[0,0,0,0,0,0,0,0,0,0,0,0,0,0,0,0,0,0,0,0,0,0,0,0,0,0,0,0,0,0,0,0,0,0,0,0,0,0,0,0,0,0,0,0,0,0,0,0,0,0,0,0,0,0,0,0,0,0,0,0,0,0,0,0,0,0,0,0,0,0,0,0,0,0,0,0,0,0,0,0,0,0,0,0,0,0,0,0,0,0,0,0,0,0,0,0,0,0,0],"sum_hessian":[6.672396E2,5.1154807E2,1.5569156E2,7.1253624E1,4.4029443E2,8.256353E1,7.312802E1,4.367225E1,2.7581379E1,4.9236305E1,3.9105814E2,1.9774323E1,6.278921E1,6.492426E1,8.203763E0,4.0375595E1,3.2966542E0,1.5149388E1,1.243199E1,1.892565E1,3.0310656E1,3.218987E2,6.915943E1,2.1561584E0,1.7618164E1,3.7563766E1,2.5225445E1,6.3754234E1,1.1700248E0,3.634762E0,4.569001E0,5.1312575E0,3.5244335E1,2.2104657E0,1.0861884E0,8.401664E0,6.747724E0,1.1073432E1,1.358558E0,1.6972704E1,1.952947E0,6.835622E0,2.3475035E1,1.130719E1,3.1059152E2,6.258448E1,6.5749493E0,1.0888692E0,1.0672892E0,1.5940393E1,1.6777711E0,1.7122643E1,2.0441122E1,4.4012413E0,2.0824203E1,5.927644E1,4.4777975E0,1.155485E0,2.4792771E0,3.252871E0,1.31613E0,2.8496342E0,2.2816231E0,4.844106E0,3.040023E1,5.216189E0,3.1854749E0,1.2057048E0,5.5420194E0,9.867805E0,1.2056274E0,1.5478888E1,1.4938154E0,4.6730556E0,2.1625662E0,9.482959E0,1.3992076E1,4.6307545E0,6.676436E0,2.6503475E1,2.8408804E2,5.9239033E1,3.3454494E0,4.669469E0,1.9054806E0,1.0889282E0,1.4851466E1,1.405735E1,3.0652933E0,9.222105E0,1.1219018E1,1.4707978E0,2.9304435E0,1.47338085E1,6.0903945E0,5.8181355E1,1.0950857E0,2.2933962E0,2.184401E0],"tree_param":{"num_deleted":"0","num_feature":"68","num_nodes":"99","size_leaf_vector":"1"}},{"base_weights":[-8.708854E-2,-3.8710824E-1,1.2117987E0,5.4216135E-1,-5.583489E-1,1.8214947E0,8.7486225E-1,8.4391457E-1,-1.8529875E-2,-1.6147143E-1,-7.171561E-1,1.8855317E0,-3.0350348E-3,1.8069401E-2,1.11994E0,4.0104336E-1,1.2639967E0,5.2835137E-1,-6.595506E-1,5.351358E-1,-3.5049155E-1,-3.5098457E-1,-8.4619075E-1,1.9681007E0,6.0154647E-1,6.28034E-1,-9.214171E-1,1.4852284E0,4.474733E-1,5.575952E-2,1.3272072E0,-1.1720009E-1,1.4403342E0,1.14390016E-1,1.3637428E0,7.193892E-1,-9.50325E-1,1.2269721E0,-2.5956854E-1,3.048041E-1,-5.657726E-1,-5.3048426E-1,5.7260305E-1,7.5193204E-2,-8.84541E-1,2.0078826E0,2.0449428E-2,-2.038793E-2,6.2537424E-2,-2.4568427E-1,1.550795E0,-5.672264E-2,1.2581038E-2,4.5632535E-1,1.7004246E0,1.3768245E0,7.546356E-2,6.336261E-2,-9.848211E-3,8.2673445E-2,-1.5160575E-2,-4.4091977E-2,3.4516625E-2,2.6498128E-2,8.753641E-2,6.302792E-2,-1.5186064E-2,-8.066158E-4,9.28662E-2,6.430071E-2,-9.276528E-3,7.915007E-3,-5.834619E-2,7.274901E-2,-2.2703562E-2,-2.6357103E-2,6.0785223E-2,9.069044E-2,7.732566E-4,5.382942E-2,-3.1218404E-2,-3.104415E-2,4.6596803E-2,-7.039991E-3,7.419037E-2,-2.160093E-2,7.397936E-2,-4.5910683E-2,-4.803005E-3,4.0070854E-2,1.0290505E-1,3.782774E-2,-3.7932795E-2,2.4697632E-3,9.719058E-2,-3.429021E-2,4.9252573E-2,9.641395E-2,4.4773202E-2,8.4756106E-2,-1.0711334E-2,2.166338E-2,-3.4082215E-2],"categories":[],"categories_nodes":[],"categories_segments":[],"categories_sizes":[],"default_left":[0,0,0,0,0,0,0,0,0,0,0,0,0,0,0,0,0,0,0,0,0,0,0,0,0,0,0,0,0,0,0,0,0,0,0,0,0,0,0,0,0,0,0,0,0,0,0,0,0,0,0,0,0,0,0,0,0,0,0,0,0,0,0,0,0,0,0,0,0,0,0,0,0,0,0,0,0,0,0,0,0,0,0,0,0,0,0,0,0,0,0,0,0,0,0,0,0,0,0,0,0,0,0],"id":7,"left_children":[1,3,5,7,9,11,13,15,17,19,21,23,-1,25,27,29,31,33,35,37,39,41,43,45,47,49,51,53,55,57,59,61,63,65,67,69,71,73,75,77,79,81,83,85,87,89,-1,-1,-1,91,93,-1,-1,95,97,99,101,-1,-1,-1,-1,-1,-1,-1,-1,-1,-1,-1,-1,-1,-1,-1,-1,-1,-1,-1,-1,-1,-1,-1,-1,-1,-1,-1,-1,-1,-1,-1,-1,-1,-1,-1,-1,-1,-1,-1,-1,-1,-1,-1,-1,-1,-1],"loss_changes":[2.5489606E2,8.48226E1,2.3623077E1,1.4084427E1,2.8182571E1,5.26915E0,1.6984932E1,9.554474E0,1.0890723E1,1.725305E1,1.48407135E1,3.2042694E0,0E0,1.14832735E1,1.4800056E1,8.813339E0,6.8154564E0,5.647903E0,6.4131308E0,1.5744655E1,1.4639142E1,1.4426881E1,8.41243E0,1.5636139E0,3.09237E0,1.0162691E1,2.2587414E0,8.161285E0,8.052312E0,6.7673807E0,4.4926987E0,3.087543E0,5.931816E0,6.2838955E0,3.755021E0,1.8063776E0,3.1219044E0,6.4767876E0,6.1212215E0,1.1327605E1,8.134182E0,1.0076818E1,9.53296E0,8.018706E0,5.9342957E0,6.067047E-1,0E0,0E0,0E0,4.221717E0,3.4665298E0,0E0,0E0,5.7171097E0,4.3287582E0,3.7490692E0,5.1458745E0,0E0,0E0,0E0,0E0,0E0,0E0,0E0,0E0,0E0,0E0,0E0,0E0,0E0,0E0,0E0,0E0,0E0,0E0,0E0,0E0,0E0,0E0,0E0,0E0,0E0,0E0,0E0,0E0,0E0,0E0,0E0,0E0,0E0,0E0,0E0,0E0,0E0,0E0,0E0,0E0,0E0,0E0,0E0,0E0,0E0,0E0],"parents":[2147483647,0,0,1,1,2,2,3,3,4,4,5,5,6,6,7,7,8,8,9,9,10,10,11,11,13,13,14,14,15,15,16,16,17,17,18,18,19,19,20,20,21,21,22,22,23,23,24,24,25,25,26,26,27,27,28,28,29,29,30,30,31,31,32,32,33,33,34,34,35,35,36,36,37,37,38,38,39,39,40,40,41,41,42,42,43,43,44,44,45,45,49,49,50,50,53,53,54,54,55,55,56,56],"right_children":[2,4,6,8,10,12,14,16,18,20,22,24,-1,26,28,30,32,34,36,38,40,42,44,46,48,50,52,54,56,58,60,62,64,66,68,70,72,74,76,78,80,82,84,86,88,90,-1,-1,-1,92,94,-1,-1,96,98,100,102,-1,-1,-1,-1,-1,-1,-1,-1,-1,-1,-1,-1,-1,-1,-1,-1,-1,-1,-1,-1,-1,-1,-1,-1,-1,-1,-1,-1,-1,-1,-1,-1,-1,-1,-1,-1,-1,-1,-1,-1,-1,-1,-1,-1,-1,-1],"split_conditions":[5.341384E-1,-9.5418984E-1,-1.0298148E0,-5.906923E-1,1.1420601E-1,2.08767E0,-3.1531355E-1,-2.7760562E-1,4.0954608E-1,-8.893612E-1,-4.248126E-1,8.401555E-1,-3.0350348E-3,-5.7494944E-1,-3.5885328E-1,6.8432736E-1,-5.859988E-1,9.3706185E-1,-8.7506986E-1,-3.9572498E-1,-9.1455793E-1,8.914828E-1,-1.5424367E0,1.8641704E0,-3.3206367E-1,-2.1561891E-1,7.9565865E-1,-3.3209676E-1,-5.9349906E-1,-5.5755943E-1,9.0346456E-1,-1.8743792E-3,-8.1848466E-1,-7.0853984E-1,-5.067554E-1,-6.485216E-1,-6.432037E-1,8.5526325E-2,9.3706185E-1,-1.2213596E0,-1.1684889E0,1.6761833E0,-1.3512595E-1,4.8811316E-1,1.5688981E0,-4.5462528E-1,2.0449428E-2,-2.038793E-2,6.2537424E-2,-5.122006E-1,-9.453238E-1,-5.672264E-2,1.2581038E-2,9.145623E-1,1.0950503E0,5.2927023E-1,6.9128615E-1,6.336261E-2,-9.848211E-3,8.2673445E-2,-1.5160575E-2,-4.4091977E-2,3.4516625E-2,2.6498128E-2,8.753641E-2,6.302792E-2,-1.5186064E-2,-8.066158E-4,9.28662E-2,6.430071E-2,-9.276528E-3,7.915007E-3,-5.834619E-2,7.274901E-2,-2.2703562E-2,-2.6357103E-2,6.0785223E-2,9.069044E-2,7.732566E-4,5.382942E-2,-3.1218404E-2,-3.104415E-2,4.6596803E-2,-7.039991E-3,7.419037E-2,-2.160093E-2,7.397936E-2,-4.5910683E-2,-4.803005E-3,4.0070854E-2,1.0290505E-1,3.782774E-2,-3.7932795E-2,2.4697632E-3,9.719058E-2,-3.429021E-2,4.9252573E-2,9.641395E-2,4.4773202E-2,8.4756106E-2,-1.0711334E-2,2.166338E-2,-3.4082215E-2],"split_indices":[37,3,10,61,51,38,34,20,31,11,60,40,0,2,39,0,37,0,54,10,40,28,52,54,18,40,47,20,13,57,57,7,28,52,11,12,53,13,0,42,54,54,37,42,0,14,0,0,0,21,38,0,0,37,28,56,10,0,0,0,0,0,0,0,0,0,0,0,0,0,0,0,0,0,0,0,0,0,0,0,0,0,0,0,0,0,0,0,0,0,0,0,0,0,0,0,0,0,0,0,0,0,0],"split_type":[0,0,0,0,0,0,0,0,0,0,0,0,0,0,0,0,0,0,0,0,0,0,0,0,0,0,0,0,0,0,0,0,0,0,0,0,0,0,0,0,0,0,0,0,0,0,0,0,0,0,0,0,0,0,0,0,0,0,0,0,0,0,0,0,0,0,0,0,0,0,0,0,0,0,0,0,0,0,0,0,0,0,0,0,0,0,0,0,0,0,0,0,0,0,0,0,0,0,0,0,0,0,0],"sum_hessian":[6.518928E2,5.301416E2,1.2175126E2,8.2153595E1,4.47988E2,4.1766865E1,7.998439E1,5.3081192E1,2.9072407E1,1.2860529E2,3.193827E2,4.0390896E1,1.3759711E0,1.8028925E1,6.1955467E1,2.6791235E1,2.6289957E1,1.5783023E1,1.3289383E1,2.7057512E1,1.01547775E2,8.419009E1,2.3519261E2,3.744981E1,2.941083E0,1.1132578E1,6.8963475E0,3.9364033E1,2.2591433E1,2.0287895E1,6.50334E0,3.0144062E0,2.327555E1,1.1313685E1,4.469338E0,2.057596E0,1.1231787E1,1.4174153E1,1.2883359E1,2.5008467E1,7.6539314E1,7.0846634E1,1.3343448E1,9.359731E0,2.2583289E2,3.623735E1,1.2124628E0,1.2968292E0,1.6442537E0,6.0951357E0,5.0374417E0,5.8642354E0,1.0321122E0,7.3486958E0,3.201534E1,5.685908E0,1.6905525E1,2.8088088E0,1.7479086E1,5.407177E0,1.0961629E0,1.5010599E0,1.5133463E0,6.606466E0,1.6669085E1,2.485446E0,8.828239E0,1.4323417E0,3.0369964E0,1.0063336E0,1.0512624E0,1.8797503E0,9.352036E0,1.2599676E1,1.5744768E0,1.1449432E1,1.433927E0,3.1759522E0,2.1832514E1,2.0381858E0,7.450112E1,6.7264175E1,3.5824594E0,7.9582386E0,5.3852096E0,7.3849564E0,1.9747744E0,2.1642574E2,9.40716E0,2.1257627E0,3.4111588E1,1.9027376E0,4.192398E0,1.2786052E0,3.7588367E0,2.231413E0,5.117283E0,2.3864647E1,8.150691E0,4.6835337E0,1.0023744E0,1.1770568E1,5.1349573E0],"tree_param":{"num_deleted":"0","num_feature":"68","num_nodes":"103","size_leaf_vector":"1"}},{"base_weights":[-8.4986046E-2,-3.8620403E-1,1.1763968E0,1.6139612E-1,-5.833902E-1,6.6665095E-1,1.5015792E0,4.6114245E-1,-5.6979984E-1,-6.6403794E-1,1.46638E-1,1.4933474E0,3.5286406E-1,1.6022073E0,2.6803297E-1,-6.842716E-2,7.329023E-1,4.2099103E-1,-9.4399446E-1,-6.93238E-3,-7.257812E-1,-6.0001415E-1,6.670427E-1,3.8209112E-4,1.6338277E0,6.330536E-1,-5.4401183E-1,1.7239931E0,8.5152787E-1,7.9787984E-2,-5.556688E-1,-4.321343E-1,8.6113095E-1,2.9227543E-1,1.0735191E0,1.5839845E0,-4.821092E-1,-1.0305285E0,2.5063926E-2,-6.337804E-1,6.2706083E-1,-4.585977E-1,-8.6134857E-1,2.3535502E-1,-8.542322E-1,1.575465E0,1.13519676E-1,1.7353572E0,1.8786497E-2,7.7854866E-1,-4.500505E-2,2.6757712E-2,-8.412067E-1,1.8986851E0,1.0878817E0,1.4006926E0,5.50428E-2,-4.9911078E-2,1.44997435E-2,5.190521E-2,-3.3062946E-2,8.627326E-2,4.297505E-3,5.2717486E-3,8.179041E-2,-1.3165826E-2,5.90841E-2,-1.3133159E-3,1.096193E-1,-4.4437133E-2,2.400379E-2,6.276957E-3,-5.6000948E-2,1.3234253E-2,-5.844983E-2,7.472107E-2,-1.1868643E-2,-3.0649392E-2,1.804514E-2,-7.6540927E-3,-4.5922816E-2,-3.9325677E-2,5.2121848E-2,2.7528806E-2,-5.3065147E-2,9.148546E-2,-8.852834E-3,3.5162646E-2,-4.571399E-2,9.296728E-2,2.2236507E-2,1.3594317E-2,6.128495E-2,1.2985915E-2,-5.789707E-2,2.8917288E-2,9.718689E-2,9.375967E-2,-1.7963179E-3,4.017489E-4,8.4203005E-2,-2.8423784E-2,6.764742E-2],"categories":[],"categories_nodes":[],"categories_segments":[],"categories_sizes":[],"default_left":[0,0,0,0,0,0,0,0,0,0,0,0,0,0,0,0,0,0,0,0,0,0,0,0,0,0,0,0,0,0,0,0,0,0,0,0,0,0,0,0,0,0,0,0,0,0,0,0,0,0,0,0,0,0,0,0,0,0,0,0,0,0,0,0,0,0,0,0,0,0,0,0,0,0,0,0,0,0,0,0,0,0,0,0,0,0,0,0,0,0,0,0,0,0,0,0,0,0,0,0,0,0,0],"id":8,"left_children":[1,3,5,7,9,11,13,15,17,19,21,23,25,27,29,31,33,35,37,39,41,43,45,-1,47,49,51,53,55,-1,57,59,61,63,65,67,69,71,-1,73,75,77,79,81,83,85,87,89,-1,91,-1,-1,93,95,97,99,101,-1,-1,-1,-1,-1,-1,-1,-1,-1,-1,-1,-1,-1,-1,-1,-1,-1,-1,-1,-1,-1,-1,-1,-1,-1,-1,-1,-1,-1,-1,-1,-1,-1,-1,-1,-1,-1,-1,-1,-1,-1,-1,-1,-1,-1,-1],"loss_changes":[2.4981581E2,5.7381287E1,2.0010742E1,3.122017E1,2.3075912E1,1.2746386E1,9.077881E0,1.4547018E1,1.5788908E1,1.4261871E1,1.5805225E1,2.8612175E0,9.993961E0,4.9876404E0,8.517915E0,1.223098E1,9.690186E0,1.34432125E1,4.32386E0,1.2802083E1,1.1247742E1,3.7709012E0,1.1806827E1,0E0,9.541817E-1,7.330511E0,3.5542681E0,4.5775757E0,5.098625E0,0E0,2.1786742E0,9.403797E0,6.6849966E0,7.467603E0,5.6930046E0,5.4558306E0,3.385388E0,3.1460152E0,0E0,8.095895E0,1.2366751E1,1.4181013E1,8.438278E0,4.7010927E0,4.396183E0,4.310589E0,1.027375E1,9.9082947E-1,0E0,5.938019E0,0E0,0E0,3.082469E0,1.5859528E0,1.3535536E1,2.7342806E0,5.5194817E0,0E0,0E0,0E0,0E0,0E0,0E0,0E0,0E0,0E0,0E0,0E0,0E0,0E0,0E0,0E0,0E0,0E0,0E0,0E0,0E0,0E0,0E0,0E0,0E0,0E0,0E0,0E0,0E0,0E0,0E0,0E0,0E0,0E0,0E0,0E0,0E0,0E0,0E0,0E0,0E0,0E0,0E0,0E0,0E0,0E0,0E0],"parents":[2147483647,0,0,1,1,2,2,3,3,4,4,5,5,6,6,7,7,8,8,9,9,10,10,11,11,12,12,13,13,14,14,15,15,16,16,17,17,18,18,19,19,20,20,21,21,22,22,24,24,25,25,26,26,27,27,28,28,30,30,31,31,32,32,33,33,34,34,35,35,36,36,37,37,39,39,40,40,41,41,42,42,43,43,44,44,45,45,46,46,47,47,49,49,52,52,53,53,54,54,55,55,56,56],"right_children":[2,4,6,8,10,12,14,16,18,20,22,24,26,28,30,32,34,36,38,40,42,44,46,-1,48,50,52,54,56,-1,58,60,62,64,66,68,70,72,-1,74,76,78,80,82,84,86,88,90,-1,92,-1,-1,94,96,98,100,102,-1,-1,-1,-1,-1,-1,-1,-1,-1,-1,-1,-1,-1,-1,-1,-1,-1,-1,-1,-1,-1,-1,-1,-1,-1,-1,-1,-1,-1,-1,-1,-1,-1,-1,-1,-1,-1,-1,-1,-1,-1,-1,-1,-1,-1,-1],"split_conditions":[5.341384E-1,-5.906923E-1,1.161159E0,-5.497441E-1,4.0750706E-1,-1.0801394E0,1.0536232E0,-6.505654E-1,-5.252118E-1,-1.0615908E0,-1.2062704E-1,-1.127961E0,7.248969E-1,-1.5809862E-2,-1.0691745E0,1.0338925E-1,-4.329154E-1,2.191966E-2,1.4668733E0,4.3159288E-1,-4.8094296E-1,-6.5895087E-1,-4.6933213E-1,3.8209112E-4,1.3762023E0,1.8476195E0,-7.4045765E-1,7.0193255E-1,-5.126627E-1,7.9787984E-2,2.519106E-1,-1.2681196E0,-5.9349906E-1,1.6865942E0,-1.2009184E0,-3.246813E-1,6.532409E-1,-1.0442339E0,2.5063926E-2,-2.7391267E-1,-8.302408E-2,1.0525037E0,-1.1254883E0,9.704459E-1,-9.819266E-1,6.0001016E0,1.3561115E-3,6.401529E-1,1.8786497E-2,-2.0301631E-1,-4.500505E-2,2.6757712E-2,-3.982681E-1,-3.8781867E0,1.638449E-1,-9.330118E-1,6.315601E-1,-4.9911078E-2,1.44997435E-2,5.190521E-2,-3.3062946E-2,8.627326E-2,4.297505E-3,5.2717486E-3,8.179041E-2,-1.3165826E-2,5.90841E-2,-1.3133159E-3,1.096193E-1,-4.4437133E-2,2.400379E-2,6.276957E-3,-5.6000948E-2,1.3234253E-2,-5.844983E-2,7.472107E-2,-1.1868643E-2,-3.0649392E-2,1.804514E-2,-7.6540927E-3,-4.5922816E-2,-3.9325677E-2,5.2121848E-2,2.7528806E-2,-5.3065147E-2,9.148546E-2,-8.852834E-3,3.5162646E-2,-4.571399E-2,9.296728E-2,2.2236507E-2,1.3594317E-2,6.128495E-2,1.2985915E-2,-5.789707E-2,2.8917288E-2,9.718689E-2,9.375967E-2,-1.7963179E-3,4.017489E-4,8.4203005E-2,-2.8423784E-2,6.764742E-2],"split_indices":[37,61,36,2,15,10,10,2,41,53,17,48,7,26,51,36,21,23,16,0,41,41,40,0,52,29,51,32,13,0,38,40,13,8,10,15,8,39,0,45,51,29,52,15,39,15,25,51,0,22,0,0,15,10,29,13,29,0,0,0,0,0,0,0,0,0,0,0,0,0,0,0,0,0,0,0,0,0,0,0,0,0,0,0,0,0,0,0,0,0,0,0,0,0,0,0,0,0,0,0,0,0,0],"split_type":[0,0,0,0,0,0,0,0,0,0,0,0,0,0,0,0,0,0,0,0,0,0,0,0,0,0,0,0,0,0,0,0,0,0,0,0,0,0,0,0,0,0,0,0,0,0,0,0,0,0,0,0,0,0,0,0,0,0,0,0,0,0,0,0,0,0,0,0,0,0,0,0,0,0,0,0,0,0,0,0,0,0,0,0,0,0,0,0,0,0,0,0,0,0,0,0,0,0,0,0,0,0,0],"sum_hessian":[6.552987E2,5.2953876E2,1.2575993E2,1.4024626E2,3.8929248E2,5.016808E1,7.559186E1,9.973163E1,4.0514637E1,3.5064624E2,3.864623E1,1.2768729E1,3.739935E1,6.961413E1,5.977731E0,3.407635E1,6.565528E1,1.1072326E1,2.9442312E1,3.0213186E1,3.2043307E2,1.5809921E1,2.2836308E1,1.1941291E0,1.15746E1,2.8720917E1,8.678432E0,5.8781242E1,1.0832887E1,1.9297923E0,4.0479393E0,2.4877626E1,9.198722E0,2.9435356E1,3.6219925E1,4.510219E0,6.5621066E0,2.8049828E1,1.3924845E0,1.5192371E1,1.5020816E1,1.0933417E2,2.1109889E2,3.706018E0,1.2103904E1,7.947274E0,1.4889033E1,1.035925E1,1.21535E0,2.6681095E1,2.0398216E0,1.7010266E0,6.977406E0,4.455931E1,1.4221928E1,5.9629364E0,4.86995E0,2.538888E0,1.5090512E0,2.8781946E0,2.1999432E1,3.7696443E0,5.429078E0,2.6788454E1,2.6469018E0,2.603806E0,3.361612E1,1.4991797E0,3.0110395E0,4.6663623E0,1.8957442E0,1.9863735E0,2.6063454E1,5.860251E0,9.332121E0,7.1339374E0,7.886878E0,9.221356E1,1.7120607E1,1.6025587E1,1.950733E2,1.6466429E0,2.0593748E0,1.3418243E0,1.0762079E1,6.901942E0,1.0453323E0,9.661312E0,5.227722E0,9.049251E0,1.3099995E0,1.3262036E1,1.3419059E1,1.5991163E0,5.3782897E0,1.926862E0,4.263245E1,7.9698467E0,6.2520814E0,1.1820257E0,4.780911E0,3.6692395E0,1.2007107E0],"tree_param":{"num_deleted":"0","num_feature":"68","num_nodes":"103","size_leaf_vector":"1"}},{"base_weights":[-7.929247E-2,-4.0394413E-1,9.61352E-1,4.058085E-1,-5.4439163E-1,3.887994E-1,1.269542E0,1.1282842E0,1.8969841E-1,-1.6664948E-1,-6.969451E-1,9.317507E-1,-1.6557075E-1,1.4865106E0,6.0839313E-1,-3.2743916E-1,1.3746034E0,-5.4440665E-1,3.893111E-1,-2.8423083E-1,1.5702736E0,-7.3394084E-1,5.0615263E-1,1.2585678E0,1.3182527E-1,-9.8097074E-1,2.0190774E-1,1.5716919E0,7.2628415E-1,1.4822486E-1,1.1228845E0,-3.6501817E-2,1.4195842E-2,-2.351298E-2,1.6193241E0,-8.275175E-1,5.565601E-1,-8.5235786E-1,5.637605E-1,1.6291827E0,-3.7346634E-1,-2.2282898E-2,2.1636486E0,2.1419904E-1,-7.7231616E-1,-5.995587E-1,1.3486763E0,1.5289571E0,-1.8343537E-1,7.2202766E-1,-4.181259E-1,-5.7788085E-2,-5.6990287E-3,7.783627E-1,-6.9492704E-1,6.3685566E-1,1.6312853E0,1.2471434E0,-2.311725E-1,1.0875036E0,-2.8353974E-1,-8.366583E-2,1.490844E0,9.1380864E-2,-1.6846653E-2,-5.2756585E-2,2.2237098E-2,-1.3681336E-2,5.6935657E-2,6.356788E-3,-5.601986E-2,4.742686E-2,8.689223E-4,1.0770072E-1,3.9508226E-3,-3.1095806E-3,-3.4197066E-2,1.1183697E-2,1.283084E-1,-1.3820372E-2,6.799943E-2,7.1680443E-3,-3.9918557E-2,-4.635267E-2,1.48621965E-2,1.05721705E-1,-7.1654194E-3,8.68728E-2,1.2285939E-2,3.7145518E-2,-4.6151575E-2,-3.7783023E-2,7.37843E-2,2.8674101E-2,-4.0407043E-2,5.686546E-2,-1.5290089E-2,-5.4437526E-2,1.8737858E-2,-7.635334E-3,6.897206E-2,9.42975E-3,8.313804E-2,-3.165456E-4,7.669875E-2,-4.5820266E-2,3.0990684E-2,8.349572E-2,-6.604866E-3,5.318004E-2,-3.2067515E-2,4.4803318E-2,-4.3684058E-2,2.7414346E-3,8.5129075E-2],"categories":[],"categories_nodes":[],"categories_segments":[],"categories_sizes":[],"default_left":[0,0,0,0,0,0,0,0,0,0,0,0,0,0,0,0,0,0,0,0,0,0,0,0,0,0,0,0,0,0,0,0,0,0,0,0,0,0,0,0,0,0,0,0,0,0,0,0,0,0,0,0,0,0,0,0,0,0,0,0,0,0,0,0,0,0,0,0,0,0,0,0,0,0,0,0,0,0,0,0,0,0,0,0,0,0,0,0,0,0,0,0,0,0,0,0,0,0,0,0,0,0,0,0,0,0,0,0,0,0,0,0,0,0,0],"id":9,"left_children":[1,3,5,7,9,11,13,15,17,19,21,23,25,27,29,31,33,35,37,39,41,43,45,47,49,51,53,55,57,59,61,-1,-1,-1,63,65,67,69,71,73,75,-1,77,79,81,83,85,87,89,91,93,-1,-1,95,97,99,101,103,105,107,109,111,113,-1,-1,-1,-1,-1,-1,-1,-1,-1,-1,-1,-1,-1,-1,-1,-1,-1,-1,-1,-1,-1,-1,-1,-1,-1,-1,-1,-1,-1,-1,-1,-1,-1,-1,-1,-1,-1,-1,-1,-1,-1,-1,-1,-1,-1,-1,-1,-1,-1,-1,-1,-1],"loss_changes":[2.194335E2,5.6503494E1,2.6762955E1,1.1296438E1,2.4211586E1,1.6857384E1,1.3436859E1,6.464203E0,8.703637E0,2.5517914E1,1.3742386E1,7.2027416E0,8.679966E0,3.6880646E0,6.082638E0,1.0034783E0,7.324806E0,4.45198E0,1.0475654E1,2.0384907E1,1.04582E1,1.0784515E1,9.708867E0,8.037001E0,3.3180768E0,1.2267799E0,1.1057504E1,2.6494446E0,4.9629006E0,6.4260855E0,5.5898285E0,0E0,0E0,0E0,5.9373856E0,3.5354586E0,1.8664545E0,1.7393541E0,8.61604E0,4.180394E0,1.0730979E1,0E0,4.347618E0,7.197868E0,6.8117523E0,1.6923213E0,6.8495207E0,4.0838776E0,3.4495766E0,6.51525E0,2.5687006E0,0E0,0E0,5.350237E0,3.9835653E0,3.4987059E0,2.483551E0,2.2486591E0,2.9857695E0,3.7418518E0,6.0459566E0,3.7423894E0,2.7910042E0,0E0,0E0,0E0,0E0,0E0,0E0,0E0,0E0,0E0,0E0,0E0,0E0,0E0,0E0,0E0,0E0,0E0,0E0,0E0,0E0,0E0,0E0,0E0,0E0,0E0,0E0,0E0,0E0,0E0,0E0,0E0,0E0,0E0,0E0,0E0,0E0,0E0,0E0,0E0,0E0,0E0,0E0,0E0,0E0,0E0,0E0,0E0,0E0,0E0,0E0,0E0,0E0],"parents":[2147483647,0,0,1,1,2,2,3,3,4,4,5,5,6,6,7,7,8,8,9,9,10,10,11,11,12,12,13,13,14,14,15,15,16,16,17,17,18,18,19,19,20,20,21,21,22,22,23,23,24,24,25,25,26,26,27,27,28,28,29,29,30,30,34,34,35,35,36,36,37,37,38,38,39,39,40,40,42,42,43,43,44,44,45,45,46,46,47,47,48,48,49,49,50,50,53,53,54,54,55,55,56,56,57,57,58,58,59,59,60,60,61,61,62,62],"right_children":[2,4,6,8,10,12,14,16,18,20,22,24,26,28,30,32,34,36,38,40,42,44,46,48,50,52,54,56,58,60,62,-1,-1,-1,64,66,68,70,72,74,76,-1,78,80,82,84,86,88,90,92,94,-1,-1,96,98,100,102,104,106,108,110,112,114,-1,-1,-1,-1,-1,-1,-1,-1,-1,-1,-1,-1,-1,-1,-1,-1,-1,-1,-1,-1,-1,-1,-1,-1,-1,-1,-1,-1,-1,-1,-1,-1,-1,-1,-1,-1,-1,-1,-1,-1,-1,-1,-1,-1,-1,-1,-1,-1,-1,-1,-1,-1],"split_conditions":[3.580162E-1,-9.5418984E-1,8.2357293E-1,-5.4051524E-1,1.1420601E-1,1.7994937E-1,2.7862453E-1,-5.402749E-1,-1.1925291E0,7.528888E-1,1.9865437E0,5.792015E-3,-5.1987782E-2,9.107926E-1,-3.046299E-2,-2.5779065E-1,-8.3207947E-1,1.1988301E0,-1.5777514E0,-1.1372337E0,-2.0778202E-1,-1.344402E0,-6.127574E-1,1.3799044E0,-2.3412335E-1,8.8589287E-1,3.595527E-1,-1.006041E0,3.5093096E-1,-7.6387787E-1,-6.505654E-1,-3.6501817E-2,1.4195842E-2,-2.351298E-2,1.0949383E0,2.807801E-1,3.6844814E-1,-1.5677145E-1,-4.0822598E-1,2.079234E-1,5.792015E-3,-2.2282898E-2,-8.14373E-1,-2.0557483E-1,-1.3270113E0,7.718746E-1,3.709351E-1,1.2063736E0,-2.999845E-1,-2.910935E-1,-9.5418984E-1,-5.7788085E-2,-5.6990287E-3,5.214056E-1,8.511583E-1,2.7504554E-1,-1.5298327E0,-4.376625E-1,3.950457E-1,6.719135E-2,-1.0691745E0,-1.2664045E0,-1.1966668E0,9.1380864E-2,-1.6846653E-2,-5.2756585E-2,2.2237098E-2,-1.3681336E-2,5.6935657E-2,6.356788E-3,-5.601986E-2,4.742686E-2,8.689223E-4,1.0770072E-1,3.9508226E-3,-3.1095806E-3,-3.4197066E-2,1.1183697E-2,1.283084E-1,-1.3820372E-2,6.799943E-2,7.1680443E-3,-3.9918557E-2,-4.635267E-2,1.48621965E-2,1.05721705E-1,-7.1654194E-3,8.68728E-2,1.2285939E-2,3.7145518E-2,-4.6151575E-2,-3.7783023E-2,7.37843E-2,2.8674101E-2,-4.0407043E-2,5.686546E-2,-1.5290089E-2,-5.4437526E-2,1.8737858E-2,-7.635334E-3,6.897206E-2,9.42975E-3,8.313804E-2,-3.165456E-4,7.669875E-2,-4.5820266E-2,3.0990684E-2,8.349572E-2,-6.604866E-3,5.318004E-2,-3.2067515E-2,4.4803318E-2,-4.3684058E-2,2.7414346E-3,8.5129075E-2],"split_indices":[37,3,36,23,51,51,10,36,29,14,48,11,47,6,32,20,0,39,47,50,28,38,2,29,43,44,60,12,29,26,2,0,0,0,25,28,19,48,55,11,11,0,16,37,43,29,3,12,14,22,3,0,0,54,37,18,48,44,25,21,51,51,43,0,0,0,0,0,0,0,0,0,0,0,0,0,0,0,0,0,0,0,0,0,0,0,0,0,0,0,0,0,0,0,0,0,0,0,0,0,0,0,0,0,0,0,0,0,0,0,0,0,0,0,0],"split_type":[0,0,0,0,0,0,0,0,0,0,0,0,0,0,0,0,0,0,0,0,0,0,0,0,0,0,0,0,0,0,0,0,0,0,0,0,0,0,0,0,0,0,0,0,0,0,0,0,0,0,0,0,0,0,0,0,0,0,0,0,0,0,0,0,0,0,0,0,0,0,0,0,0,0,0,0,0,0,0,0,0,0,0,0,0,0,0,0,0,0,0,0,0,0,0,0,0,0,0,0,0,0,0,0,0,0,0,0,0,0,0,0,0,0,0],"sum_hessian":[6.473562E2,4.938887E2,1.5346748E2,7.27216E1,4.2116708E2,5.4492805E1,9.8974686E1,1.5772345E1,5.6949257E1,1.2176168E2,2.9940543E2,2.7186022E1,2.7306786E1,7.357971E1,2.5394968E1,2.234909E0,1.3537436E1,1.1805495E1,4.5143764E1,1.1482494E2,6.9367375E0,2.9085156E2,8.553854E0,1.8893534E1,8.292486E0,7.9646087E0,1.9342176E1,6.5206154E1,8.37356E0,1.4085132E1,1.1309836E1,1.2304757E0,1.0044332E0,1.4774964E0,1.2059939E1,9.588268E0,2.217227E0,5.0824814E0,4.0061283E1,4.3474984E0,1.1047744E2,1.6340754E0,5.3026624E0,1.1135868E1,2.797157E2,3.8238661E0,4.7299876E0,1.5859438E1,3.0340972E0,3.848943E0,4.4435434E0,6.3511095E0,1.6134993E0,1.1854566E1,7.487612E0,4.6079793E0,6.0598175E1,5.227322E0,3.1462376E0,3.9573674E0,1.0127764E1,2.823644E0,8.486193E0,1.095885E1,1.101089E0,8.277959E0,1.3103094E0,1.1323704E0,1.0848566E0,1.2049448E0,3.8775365E0,2.3075132E1,1.6986149E1,2.9568694E0,1.3906293E0,5.5767056E1,5.471039E1,1.1784947E0,4.1241674E0,8.328511E0,2.807356E0,7.6143465E0,2.7210135E2,2.7762885E0,1.0475779E0,2.8500242E0,1.8799636E0,1.3338288E1,2.521149E0,1.3450003E0,1.6890968E0,1.2991195E0,2.5498235E0,1.1215658E0,3.3219776E0,8.86914E0,2.9854252E0,5.459701E0,2.0279107E0,2.6183486E0,1.9896305E0,1.4431428E0,5.9155033E1,1.1555248E0,4.0717974E0,1.700269E0,1.4459686E0,2.42845E0,1.5289173E0,1.7115037E0,8.416261E0,1.2005503E0,1.6230936E0,1.2522571E0,7.2339354E0],"tree_param":{"num_deleted":"0","num_feature":"68","num_nodes":"115","size_leaf_vector":"1"}},{"base_weights":[-6.97731E-2,-4.8750353E-1,7.0030516E-1,1.7439611E-1,-6.1403024E-1,4.3850443E-1,1.2784419E0,-3.6383006E-1,5.998513E-1,-2.91439E-1,-8.0739516E-1,1.5732543E0,3.2053646E-1,-1.018701E-1,1.3348469E0,-5.459919E-1,1.002249E0,-8.105923E-1,7.7361864E-1,6.6756696E-1,-4.108218E-1,-2.3066859E-1,-8.829423E-1,1.8152187E0,5.753745E-1,-5.216656E-4,6.749236E-1,4.0952053E-2,-4.389909E-2,1.730435E0,1.0854467E0,1.1138973E0,-7.4988395E-1,7.5628914E-2,-9.364954E-3,-4.775557E-2,-7.395712E-3,4.7972256E-1,1.5527048E0,-5.368898E-1,1.2525051E0,-3.8659252E-2,-6.235128E-1,1.0324374E0,-5.2110684E-1,3.2542355E-2,-8.9615875E-1,1.0647508E-2,1.957391E0,-2.5265401E-2,6.241401E-2,5.3582436E-1,-3.2283583E-1,3.2276553E-1,1.1168591E0,9.2496365E-2,5.7280135E-1,1.3701451E0,2.51318E-1,8.693635E-2,-8.212342E-3,-4.4268426E-2,5.9955906E-2,6.0845193E-2,3.172428E-4,-1.5355068E-2,1.0522335E-1,3.922976E-2,-5.006939E-2,8.353411E-2,-3.76106E-2,-9.784809E-3,6.7001015E-2,-3.857713E-2,-3.8414455E-3,-1.75352E-2,8.3133355E-2,1.481258E-2,-4.2961147E-2,-3.138892E-2,-4.977956E-2,1.08153306E-1,2.6158243E-2,-4.259695E-3,5.7707604E-2,6.221552E-2,-2.6215086E-2,4.2531136E-2,6.1114866E-4,6.995244E-2,1.5544516E-2,-2.6806405E-2,6.6799745E-2,-9.698129E-3,7.282271E-2,5.6158286E-2,-1.5830947E-2],"categories":[],"categories_nodes":[],"categories_segments":[],"categories_sizes":[],"default_left":[0,0,0,0,0,0,0,0,0,0,0,0,0,0,0,0,0,0,0,0,0,0,0,0,0,0,0,0,0,0,0,0,0,0,0,0,0,0,0,0,0,0,0,0,0,0,0,0,0,0,0,0,0,0,0,0,0,0,0,0,0,0,0,0,0,0,0,0,0,0,0,0,0,0,0,0,0,0,0,0,0,0,0,0,0,0,0,0,0,0,0,0,0,0,0,0,0],"id":10,"left_children":[1,3,5,7,9,11,13,15,17,19,21,23,25,27,29,31,33,35,37,39,41,43,45,47,49,51,53,-1,-1,55,57,59,61,-1,-1,-1,-1,63,65,67,69,71,73,75,77,-1,79,-1,81,-1,-1,83,85,87,89,-1,91,93,95,-1,-1,-1,-1,-1,-1,-1,-1,-1,-1,-1,-1,-1,-1,-1,-1,-1,-1,-1,-1,-1,-1,-1,-1,-1,-1,-1,-1,-1,-1,-1,-1,-1,-1,-1,-1,-1,-1],"loss_changes":[2.0449127E2,3.461374E1,3.3282265E1,1.5538058E1,2.1355423E1,2.0301662E1,5.521393E0,8.052137E0,9.877393E0,1.5304729E1,9.200699E0,2.4277687E0,1.616211E1,3.3240933E0,4.685173E0,1.0060324E1,2.6514769E0,3.0196667E-1,7.066326E0,1.1180319E1,9.266287E0,1.0205744E1,4.4447784E0,2.1140099E0,3.7362838E0,1.322938E1,1.0147562E1,0E0,0E0,2.2659225E0,9.982304E0,2.9883175E0,7.6297235E0,0E0,0E0,0E0,0E0,9.1412325E0,9.776176E0,4.208038E0,9.924353E0,9.734061E0,5.979355E0,5.1701355E0,6.3596244E0,0E0,4.426193E0,0E0,1.8425293E0,0E0,0E0,1.1128993E1,1.5744177E1,6.379719E0,6.2826614E0,0E0,3.8458772E0,4.628765E0,6.4410315E0,0E0,0E0,0E0,0E0,0E0,0E0,0E0,0E0,0E0,0E0,0E0,0E0,0E0,0E0,0E0,0E0,0E0,0E0,0E0,0E0,0E0,0E0,0E0,0E0,0E0,0E0,0E0,0E0,0E0,0E0,0E0,0E0,0E0,0E0,0E0,0E0,0E0,0E0],"parents":[2147483647,0,0,1,1,2,2,3,3,4,4,5,5,6,6,7,7,8,8,9,9,10,10,11,11,12,12,13,13,14,14,15,15,16,16,17,17,18,18,19,19,20,20,21,21,22,22,23,23,24,24,25,25,26,26,29,29,30,30,31,31,32,32,37,37,38,38,39,39,40,40,41,41,42,42,43,43,44,44,46,46,48,48,51,51,52,52,53,53,54,54,56,56,57,57,58,58],"right_children":[2,4,6,8,10,12,14,16,18,20,22,24,26,28,30,32,34,36,38,40,42,44,46,48,50,52,54,-1,-1,56,58,60,62,-1,-1,-1,-1,64,66,68,70,72,74,76,78,-1,80,-1,82,-1,-1,84,86,88,90,-1,92,94,96,-1,-1,-1,-1,-1,-1,-1,-1,-1,-1,-1,-1,-1,-1,-1,-1,-1,-1,-1,-1,-1,-1,-1,-1,-1,-1,-1,-1,-1,-1,-1,-1,-1,-1,-1,-1,-1,-1],"split_conditions":[1.0338925E-1,-3.4302118E-1,1.3443004E0,-3.500419E-2,-1.0962393E-1,-2.1210682E0,-1.4291873E0,1.6194223E0,-6.250457E-1,-1.0947684E0,-9.957111E-1,7.2922915E-1,-7.450229E-2,-3.9194882E-1,-8.7194437E-1,-1.5713135E0,1.9811384E-1,5.757567E-1,-2.1169113E-1,-1.3705967E-1,3.595527E-1,-8.2902163E-1,-1.1883817E0,-1.8187436E0,1.1144534E0,-4.0822598E-1,1.8101E-1,4.0952053E-2,-4.389909E-2,1.153615E0,3.0625644E-1,-2.670822E-1,2.6099873E0,7.5628914E-2,-9.364954E-3,-4.775557E-2,-7.395712E-3,-2.5326666E-1,-8.302408E-2,-1.3470643E0,2.4569273E-1,1.2579043E0,8.092954E-1,-8.8278407E-1,-3.9943448E-1,3.2542355E-2,-5.252118E-1,1.0647508E-2,8.02392E-1,-2.5265401E-2,6.241401E-2,-6.039217E-2,-1.127961E0,-4.0822598E-1,1.642627E-1,9.2496365E-2,-9.3033105E-1,-1.2806296E0,-1.3201336E0,8.693635E-2,-8.212342E-3,-4.4268426E-2,5.9955906E-2,6.0845193E-2,3.172428E-4,-1.5355068E-2,1.0522335E-1,3.922976E-2,-5.006939E-2,8.353411E-2,-3.76106E-2,-9.784809E-3,6.7001015E-2,-3.857713E-2,-3.8414455E-3,-1.75352E-2,8.3133355E-2,1.481258E-2,-4.2961147E-2,-3.138892E-2,-4.977956E-2,1.08153306E-1,2.6158243E-2,-4.259695E-3,5.7707604E-2,6.221552E-2,-2.6215086E-2,4.2531136E-2,6.1114866E-4,6.995244E-2,1.5544516E-2,-2.6806405E-2,6.6799745E-2,-9.698129E-3,7.282271E-2,5.6158286E-2,-1.5830947E-2],"split_indices":[36,55,37,42,39,51,28,52,56,41,22,30,20,12,51,19,27,39,36,0,60,42,54,49,31,55,34,0,0,31,63,14,34,0,0,0,0,40,51,43,51,28,45,31,26,0,41,0,49,0,0,31,48,55,19,0,12,49,26,0,0,0,0,0,0,0,0,0,0,0,0,0,0,0,0,0,0,0,0,0,0,0,0,0,0,0,0,0,0,0,0,0,0,0,0,0,0],"split_type":[0,0,0,0,0,0,0,0,0,0,0,0,0,0,0,0,0,0,0,0,0,0,0,0,0,0,0,0,0,0,0,0,0,0,0,0,0,0,0,0,0,0,0,0,0,0,0,0,0,0,0,0,0,0,0,0,0,0,0,0,0,0,0,0,0,0,0,0,0,0,0,0,0,0,0,0,0,0,0,0,0,0,0,0,0,0,0,0,0,0,0,0,0,0,0,0,0],"sum_hessian":[6.336264E2,4.1102957E2,2.2259683E2,6.590134E1,3.4512823E2,1.5442584E2,6.8171E1,2.9158695E1,3.6742638E1,1.3028337E2,2.1484488E2,1.338052E1,1.4104532E2,2.6447198E0,6.5526276E1,2.625765E1,2.9010437E0,3.6282063E0,3.3114433E1,1.3914657E1,1.16368706E2,2.5353058E1,1.8949182E2,1.010999E1,3.2705295E0,7.452641E1,6.6518906E1,1.184232E0,1.460488E0,2.3041082E1,4.248519E1,2.3842502E0,2.3873402E1,1.8400745E0,1.0609691E0,2.6163366E0,1.0118698E0,2.5217384E1,7.8970485E0,4.5754356E0,9.339221E0,4.2749035E1,7.3619675E1,4.2621884E0,2.109087E1,1.206699E0,1.8828511E2,1.0275404E0,9.08245E0,1.3505769E0,1.9199526E0,2.7726229E1,4.6800186E1,3.798263E1,2.8536272E1,2.0343208E1,2.697873E0,3.119526E1,1.1289933E1,1.3593634E0,1.0248867E0,2.2831972E1,1.0414282E0,9.24682E0,1.5970564E1,1.9082825E0,5.988766E0,1.0107507E0,3.5646849E0,7.8651934E0,1.4740279E0,3.9147984E1,3.6010516E0,5.76091E1,1.601057E1,1.4729936E0,2.789195E0,6.2078624E0,1.4883007E1,5.287706E1,1.3540805E2,7.4988947E0,1.5835556E0,1.4263191E1,1.34630375E1,4.7414556E0,4.205873E1,1.3424556E1,2.4558077E1,2.0590992E1,7.94528E0,1.2211081E0,1.476765E0,1.5661404E0,2.9629118E1,4.06779E0,7.2221437E0],"tree_param":{"num_deleted":"0","num_feature":"68","num_nodes":"97","size_leaf_vector":"1"}},{"base_weights":[-5.0507113E-2,-4.2630434E-1,7.2896284E-1,4.6758875E-1,-5.6649643E-1,1.9959636E-1,1.0189718E0,7.8477335E-1,-5.0032195E-2,3.022163E-1,-6.3306004E-1,5.711109E-1,-3.2228586E-1,4.5757893E-1,1.1477065E0,9.45222E-1,-4.027063E-1,-4.7272834E-1,7.3919463E-1,1.3839545E0,-1.3040775E-1,-6.75576E-1,5.7626534E-1,8.431876E-1,-1.4236327E-1,-5.301891E-1,9.4872904E-1,9.87814E-1,-1.0685072E-1,9.879743E-1,1.6990021E0,-2.6609823E-2,1.0415943E0,2.2534262E-2,-4.9936038E-2,-6.658961E-1,4.6535995E-2,1.2300942E0,-8.6440295E-2,3.9299834E-1,9.75607E-2,6.7195046E-1,-5.071082E-1,2.6792282E-1,-7.3640937E-1,1.6892523E0,8.815851E-2,1.1549058E0,-2.1463452E-1,-9.593281E-1,3.804017E-1,-7.1698344E-1,1.0082037E0,1.3766669E0,-1.2110258E-2,1.3289967E0,-2.7875438E-1,5.045965E-1,-8.7330973E-1,5.6866604E-1,1.1856135E0,2.1900842E-2,8.822519E-2,5.9166267E-3,6.167939E-2,1.6978417E-2,-4.6393156E-2,9.520892E-2,3.7544146E-3,3.104264E-2,-4.009788E-2,-2.6746795E-2,6.939349E-2,7.114676E-2,-2.074329E-2,6.294186E-2,-4.0035717E-2,7.101238E-2,-1.25198765E-2,-3.6899762E-3,-3.9595004E-2,1.0751579E-1,1.4159481E-2,-4.616503E-2,3.2270607E-2,6.989286E-2,6.448717E-3,-3.6488872E-2,4.4841327E-2,-1.2543246E-2,-5.4472726E-2,4.8562866E-2,-2.8383067E-2,-4.3966528E-2,6.000488E-2,8.4054284E-2,-1.1152093E-2,7.6683178E-3,9.5050305E-2,1.6711537E-2,7.9969406E-2,2.8601004E-2,-4.212248E-2,-4.5249995E-2,4.7655273E-2,9.55592E-3,-5.553767E-2,4.0582396E-2,-2.7937254E-2,6.570986E-2,1.6902829E-2],"categories":[],"categories_nodes":[],"categories_segments":[],"categories_sizes":[],"default_left":[0,0,0,0,0,0,0,0,0,0,0,0,0,0,0,0,0,0,0,0,0,0,0,0,0,0,0,0,0,0,0,0,0,0,0,0,0,0,0,0,0,0,0,0,0,0,0,0,0,0,0,0,0,0,0,0,0,0,0,0,0,0,0,0,0,0,0,0,0,0,0,0,0,0,0,0,0,0,0,0,0,0,0,0,0,0,0,0,0,0,0,0,0,0,0,0,0,0,0,0,0,0,0,0,0,0,0,0,0,0,0],"id":11,"left_children":[1,3,5,7,9,11,13,15,17,19,21,23,25,27,29,31,33,35,37,39,41,43,45,47,49,51,53,55,57,59,61,-1,63,-1,-1,65,-1,67,69,71,-1,73,75,77,79,81,83,85,87,89,91,93,95,97,-1,99,101,103,105,107,109,-1,-1,-1,-1,-1,-1,-1,-1,-1,-1,-1,-1,-1,-1,-1,-1,-1,-1,-1,-1,-1,-1,-1,-1,-1,-1,-1,-1,-1,-1,-1,-1,-1,-1,-1,-1,-1,-1,-1,-1,-1,-1,-1,-1,-1,-1,-1,-1,-1,-1],"loss_changes":[1.8740599E2,5.4349174E1,3.1750206E1,9.735441E0,2.1790169E1,1.470847E1,9.175446E0,7.3690147E0,8.148766E0,1.2938013E1,1.8244019E1,8.684762E0,8.903703E0,8.096712E0,7.878113E0,5.1976166E0,3.0274734E0,4.9125967E0,3.5693455E0,3.6593323E0,6.5025725E0,1.9478348E1,6.5514126E0,1.0827684E1,5.932266E0,8.7585E0,2.7938027E0,6.3620863E0,6.9248905E0,6.4970474E0,1.1260681E0,0E0,5.3406982E0,0E0,0E0,4.134868E0,0E0,4.07998E0,2.583079E0,4.54467E0,0E0,6.2574563E0,8.496621E0,1.2946617E1,1.1554886E1,1.7929163E0,6.0230193E0,6.0357857E0,5.31862E0,2.2180176E-1,5.4053535E0,8.997941E0,3.2276874E0,2.0824084E0,0E0,2.4500732E0,2.289419E0,6.128954E0,1.8566074E0,8.573935E0,5.8648453E0,0E0,0E0,0E0,0E0,0E0,0E0,0E0,0E0,0E0,0E0,0E0,0E0,0E0,0E0,0E0,0E0,0E0,0E0,0E0,0E0,0E0,0E0,0E0,0E0,0E0,0E0,0E0,0E0,0E0,0E0,0E0,0E0,0E0,0E0,0E0,0E0,0E0,0E0,0E0,0E0,0E0,0E0,0E0,0E0,0E0,0E0,0E0,0E0,0E0,0E0],"parents":[2147483647,0,0,1,1,2,2,3,3,4,4,5,5,6,6,7,7,8,8,9,9,10,10,11,11,12,12,13,13,14,14,15,15,16,16,17,17,18,18,19,19,20,20,21,21,22,22,23,23,24,24,25,25,26,26,27,27,28,28,29,29,30,30,32,32,35,35,37,37,38,38,39,39,41,41,42,42,43,43,44,44,45,45,46,46,47,47,48,48,49,49,50,50,51,51,52,52,53,53,55,55,56,56,57,57,58,58,59,59,60,60],"right_children":[2,4,6,8,10,12,14,16,18,20,22,24,26,28,30,32,34,36,38,40,42,44,46,48,50,52,54,56,58,60,62,-1,64,-1,-1,66,-1,68,70,72,-1,74,76,78,80,82,84,86,88,90,92,94,96,98,-1,100,102,104,106,108,110,-1,-1,-1,-1,-1,-1,-1,-1,-1,-1,-1,-1,-1,-1,-1,-1,-1,-1,-1,-1,-1,-1,-1,-1,-1,-1,-1,-1,-1,-1,-1,-1,-1,-1,-1,-1,-1,-1,-1,-1,-1,-1,-1,-1,-1,-1,-1,-1,-1,-1],"split_conditions":[2.1591794E-1,-9.5418984E-1,3.9324063E-1,-1.076302E0,-1.0626167E0,-6.3796276E-1,-2.4763307E-1,9.5861864E-1,-1.08731166E-1,-5.906923E-1,1.6683953E0,5.8967847E-1,1.2859069E0,-5.906923E-1,1.2859069E0,-9.863525E-1,-2.342386E-1,1.5060686E0,8.66137E-1,-3.9943448E-1,-6.5266037E-1,-1.3623862E0,-6.385986E-1,6.7640346E-1,-5.503863E-1,9.856557E-1,-3.9233348E-1,-6.253601E-1,-3.9943448E-1,1.161159E0,-2.528551E0,-2.6609823E-2,-1.4731582E0,2.2534262E-2,-4.9936038E-2,-2.493901E-1,4.6535995E-2,-2.123065E-2,-6.244204E-1,3.4164572E-1,9.75607E-2,-5.502288E-1,-1.3137158E0,-8.534485E-1,-1.1278269E0,-2.7750397E-1,-3.9022335E-1,9.1864586E-1,-2.0301631E-1,-1.2703469E0,-5.906923E-1,2.1310506E0,4.429228E-1,-5.3943574E-1,-1.2110258E-2,-9.221284E-1,-5.112865E-1,-1.3874707E0,-1.2405318E0,1.1460468E0,5.7440954E-1,2.1900842E-2,8.822519E-2,5.9166267E-3,6.167939E-2,1.6978417E-2,-4.6393156E-2,9.520892E-2,3.7544146E-3,3.104264E-2,-4.009788E-2,-2.6746795E-2,6.939349E-2,7.114676E-2,-2.074329E-2,6.294186E-2,-4.0035717E-2,7.101238E-2,-1.25198765E-2,-3.6899762E-3,-3.9595004E-2,1.0751579E-1,1.4159481E-2,-4.616503E-2,3.2270607E-2,6.989286E-2,6.448717E-3,-3.6488872E-2,4.4841327E-2,-1.2543246E-2,-5.4472726E-2,4.8562866E-2,-2.8383067E-2,-4.3966528E-2,6.000488E-2,8.4054284E-2,-1.1152093E-2,7.6683178E-3,9.5050305E-2,1.6711537E-2,7.9969406E-2,2.8601004E-2,-4.212248E-2,-4.5249995E-2,4.7655273E-2,9.55592E-3,-5.553767E-2,4.0582396E-2,-2.7937254E-2,6.570986E-2,1.6902829E-2],"split_indices":[36,3,37,61,11,2,34,49,35,61,48,22,45,61,45,46,39,31,61,26,40,48,16,12,19,34,25,2,26,36,26,0,29,0,0,6,0,31,54,24,0,53,30,40,22,46,21,31,22,9,61,23,51,6,0,53,22,11,41,29,51,0,0,0,0,0,0,0,0,0,0,0,0,0,0,0,0,0,0,0,0,0,0,0,0,0,0,0,0,0,0,0,0,0,0,0,0,0,0,0,0,0,0,0,0,0,0,0,0,0,0],"split_type":[0,0,0,0,0,0,0,0,0,0,0,0,0,0,0,0,0,0,0,0,0,0,0,0,0,0,0,0,0,0,0,0,0,0,0,0,0,0,0,0,0,0,0,0,0,0,0,0,0,0,0,0,0,0,0,0,0,0,0,0,0,0,0,0,0,0,0,0,0,0,0,0,0,0,0,0,0,0,0,0,0,0,0,0,0,0,0,0,0,0,0,0,0,0,0,0,0,0,0,0,0,0,0,0,0,0,0,0,0,0,0],"sum_hessian":[6.377189E2,4.3058078E2,2.0713806E2,5.8057716E1,3.7252307E2,7.391179E1,1.3322627E2,3.5678654E1,2.237906E1,2.6260508E1,3.4626257E2,4.3120842E1,3.0790947E1,2.5701263E1,1.0752501E2,3.1611423E1,4.0672317E0,1.4834815E1,7.5442452E0,6.8739142E0,1.9386593E1,3.3492892E2,1.1333649E1,3.1085047E1,1.2035796E1,2.6963345E1,3.8276026E0,1.2865283E1,1.283598E1,8.55344E1,2.1990612E1,1.658823E0,2.99526E1,1.7727665E0,2.2944653E0,1.3501961E1,1.3328539E0,4.4239883E0,3.120257E0,3.1186638E0,3.7552505E0,5.9434605E0,1.3443132E1,2.0080782E1,3.1484814E2,2.7049544E0,8.628695E0,2.3938957E1,7.14609E0,4.37053E0,7.6652665E0,2.452002E1,2.443324E0,2.7010722E0,1.1265304E0,1.0096297E1,2.7689857E0,7.3300457E0,5.505935E0,2.8643045E1,5.6891354E1,1.465482E0,2.052513E1,5.4346566E0,2.4517942E1,2.72951E0,1.0772451E1,2.384005E0,2.0399833E0,1.6356798E0,1.4845771E0,1.852816E0,1.2658477E0,3.3318791E0,2.6115813E0,1.4477687E0,1.1995363E1,5.690228E0,1.4390554E1,2.450969E1,2.9033844E2,1.6383908E0,1.0665635E0,2.8318274E0,5.796867E0,1.906228E1,4.8766766E0,5.1175847E0,2.028505E0,1.1325116E0,3.2380185E0,4.707176E0,2.95809E0,2.3104725E1,1.4152943E0,1.3436557E0,1.0996684E0,1.198178E0,1.502894E0,2.6356993E0,7.460598E0,1.0976121E0,1.6713735E0,1.523649E0,5.806397E0,1.0397912E0,4.4661436E0,2.3794817E1,4.8482285E0,4.89192E1,7.972154E0],"tree_param":{"num_deleted":"0","num_feature":"68","num_nodes":"111","size_leaf_vector":"1"}},{"base_weights":[-3.757089E-2,-3.077544E-1,9.294523E-1,4.407005E-1,-4.5660475E-1,1.4289894E0,6.6374725E-1,6.6439235E-1,-3.796561E-2,1.4274887E0,-4.9997413E-1,1.5017005E0,-1.6571391E-2,2.221282E-1,9.464254E-1,7.360176E-1,-4.6848815E-2,4.4535965E-1,-5.1985276E-1,1.9298906E0,-2.520897E-1,-1.4910215E-1,-6.503055E-1,5.0621116E-1,1.558588E0,1.4800422E0,-1.9408368E-2,1.2077672E0,2.0126727E-1,2.7950254E-1,1.0167326E0,-2.4044406E-1,1.2206837E0,3.5460103E-1,-9.4576067E-1,1.2923381E-2,2.165101E0,-3.287523E-2,1.3642837E-2,-2.499159E-1,1.1215048E0,-3.4698975E-1,-7.94624E-1,-2.8285643E-2,5.9282538E-2,1.5982718E0,1.1696192E-2,2.0089727E-2,8.311187E-2,9.0565866E-1,-2.8201625E-1,1.5372838E0,6.1049247E-1,9.5930165E-1,-1.1281714E-1,-4.132452E-3,6.093056E-2,5.4580666E-2,-2.2912616E-2,-2.9581973E-2,4.995289E-2,-6.1875223E-3,8.455434E-2,7.505673E-2,-2.4016423E-2,1.323095E-2,-5.6343284E-2,1.19522296E-1,3.0664459E-2,6.2025134E-3,-2.7621215E-2,7.5510286E-2,-3.7175283E-2,-2.199767E-2,7.810933E-2,-7.907453E-3,-4.3533754E-2,1.4560006E-2,8.153981E-2,7.581457E-2,7.197634E-5,-3.0196792E-2,1.8237393E-2,8.093357E-2,-1.2351413E-3,6.1851777E-2,-7.7921986E-3,-2.007152E-2,7.4070744E-2,-3.679671E-2,2.0942388E-2],"categories":[],"categories_nodes":[],"categories_segments":[],"categories_sizes":[],"default_left":[0,0,0,0,0,0,0,0,0,0,0,0,0,0,0,0,0,0,0,0,0,0,0,0,0,0,0,0,0,0,0,0,0,0,0,0,0,0,0,0,0,0,0,0,0,0,0,0,0,0,0,0,0,0,0,0,0,0,0,0,0,0,0,0,0,0,0,0,0,0,0,0,0,0,0,0,0,0,0,0,0,0,0,0,0,0,0,0,0,0,0],"id":12,"left_children":[1,3,5,7,9,11,13,15,17,19,21,23,-1,25,27,29,-1,31,33,35,37,39,41,43,45,47,49,51,53,55,57,59,61,63,65,-1,67,-1,-1,69,71,73,75,-1,-1,77,-1,-1,-1,79,81,83,85,87,89,-1,-1,-1,-1,-1,-1,-1,-1,-1,-1,-1,-1,-1,-1,-1,-1,-1,-1,-1,-1,-1,-1,-1,-1,-1,-1,-1,-1,-1,-1,-1,-1,-1,-1,-1,-1],"loss_changes":[1.6575493E2,5.5433044E1,1.7441658E1,8.88546E0,3.4543594E1,6.544609E0,1.1313736E1,7.164192E0,6.590009E0,8.56613E0,2.1288742E1,1.7904434E0,0E0,1.137213E1,1.0658192E1,6.7118034E0,0E0,7.827157E0,5.5986257E0,2.3833694E0,8.3683443E-1,1.6023775E1,1.2135689E1,3.5425687E0,1.8657532E0,5.1611614E-1,8.103877E0,7.178688E0,3.8545136E0,7.63939E0,4.192047E0,4.22751E0,4.5190983E0,5.8481507E0,2.441145E0,0E0,7.8139114E-1,0E0,0E0,1.3042952E1,7.8045692E0,1.7226513E1,9.1243515E0,0E0,0E0,1.276329E0,0E0,0E0,0E0,4.0732064E0,5.6183457E0,3.3351898E0,8.029968E0,3.9444098E0,4.2903686E0,0E0,0E0,0E0,0E0,0E0,0E0,0E0,0E0,0E0,0E0,0E0,0E0,0E0,0E0,0E0,0E0,0E0,0E0,0E0,0E0,0E0,0E0,0E0,0E0,0E0,0E0,0E0,0E0,0E0,0E0,0E0,0E0,0E0,0E0,0E0,0E0],"parents":[2147483647,0,0,1,1,2,2,3,3,4,4,5,5,6,6,7,7,8,8,9,9,10,10,11,11,13,13,14,14,15,15,17,17,18,18,19,19,20,20,21,21,22,22,23,23,24,24,25,25,26,26,27,27,28,28,29,29,30,30,31,31,32,32,33,33,34,34,36,36,39,39,40,40,41,41,42,42,45,45,49,49,50,50,51,51,52,52,53,53,54,54],"right_children":[2,4,6,8,10,12,14,16,18,20,22,24,-1,26,28,30,-1,32,34,36,38,40,42,44,46,48,50,52,54,56,58,60,62,64,66,-1,68,-1,-1,70,72,74,76,-1,-1,78,-1,-1,-1,80,82,84,86,88,90,-1,-1,-1,-1,-1,-1,-1,-1,-1,-1,-1,-1,-1,-1,-1,-1,-1,-1,-1,-1,-1,-1,-1,-1,-1,-1,-1,-1,-1,-1,-1,-1,-1,-1,-1,-1],"split_conditions":[4.9891394E-1,-9.5418984E-1,-1.0298148E0,-1.0508249E-1,-1.8473303E0,2.08767E0,-1.0422473E-1,8.325954E-1,2.587513E-2,-3.8866825E-2,1.1420601E-1,-2.9756458E0,-1.6571391E-2,-1.9731414E0,4.256575E-1,-6.149171E-1,-4.6848815E-2,1.4463224E-1,-6.244204E-1,-3.982681E-1,-5.862891E-1,8.122343E-1,3.805273E-1,-6.7379415E-1,1.9634736E0,-4.8116794E-1,-6.747143E-1,-1.2987375E-1,-8.0446106E-1,1.0742154E0,-6.3796276E-1,9.3219626E-1,5.2491177E-2,-6.485216E-1,-1.1254883E0,1.2923381E-2,8.5391E-1,-3.287523E-2,1.3642837E-2,-8.8054694E-2,1.1347172E0,1.5428989E0,-1.1254883E0,-2.8285643E-2,5.9282538E-2,-3.0164185E0,1.1696192E-2,2.0089727E-2,8.311187E-2,5.2371517E-2,1.4851981E0,1.6273235E0,-5.503863E-1,-1.1781204E0,-1.589777E-1,-4.132452E-3,6.093056E-2,5.4580666E-2,-2.2912616E-2,-2.9581973E-2,4.995289E-2,-6.1875223E-3,8.455434E-2,7.505673E-2,-2.4016423E-2,1.323095E-2,-5.6343284E-2,1.19522296E-1,3.0664459E-2,6.2025134E-3,-2.7621215E-2,7.5510286E-2,-3.7175283E-2,-2.199767E-2,7.810933E-2,-7.907453E-3,-4.3533754E-2,1.4560006E-2,8.153981E-2,7.581457E-2,7.197634E-5,-3.0196792E-2,1.8237393E-2,8.093357E-2,-1.2351413E-3,6.1851777E-2,-7.7921986E-3,-2.007152E-2,7.4070744E-2,-3.679671E-2,2.0942388E-2],"split_indices":[37,3,10,61,29,38,20,55,32,53,51,11,0,55,54,28,0,48,54,15,49,15,61,52,12,32,51,25,31,39,2,28,0,12,52,0,22,0,0,11,47,28,52,0,0,55,0,0,0,38,37,10,19,11,22,0,0,0,0,0,0,0,0,0,0,0,0,0,0,0,0,0,0,0,0,0,0,0,0,0,0,0,0,0,0,0,0,0,0,0,0],"split_type":[0,0,0,0,0,0,0,0,0,0,0,0,0,0,0,0,0,0,0,0,0,0,0,0,0,0,0,0,0,0,0,0,0,0,0,0,0,0,0,0,0,0,0,0,0,0,0,0,0,0,0,0,0,0,0,0,0,0,0,0,0,0,0,0,0,0,0,0,0,0,0,0,0,0,0,0,0,0,0,0,0,0,0,0,0,0,0,0,0,0,0],"sum_hessian":[6.323162E2,4.947627E2,1.3755354E2,8.174894E1,4.1301376E2,4.624077E1,9.131277E1,5.5448536E1,2.63004E1,8.57502E0,4.0443875E2,4.454776E1,1.6930084E0,3.633444E1,5.4978333E1,5.3591885E1,1.8566513E0,1.316845E1,1.3131949E1,6.4859004E0,2.08912E0,1.2190514E2,2.825336E2,2.9431565E0,4.1604603E1,5.0269012E0,3.1307537E1,4.0243362E1,1.4734969E1,2.1166067E1,3.242582E1,7.3537006E0,5.8147497E0,4.355948E0,8.776001E0,1.0590549E0,5.4268456E0,1.0362834E0,1.0528364E0,1.13688095E2,8.217044E0,9.218715E1,1.9034647E2,1.2067305E0,1.7364261E0,4.019394E1,1.4106623E0,1.1899519E0,3.836949E0,6.381001E0,2.4926537E1,2.4920752E1,1.5322612E1,3.714893E0,1.1020076E1,1.5933552E1,5.2325153E0,3.1106544E1,1.3192747E0,6.137427E0,1.2162739E0,1.6981848E0,4.116565E0,1.499248E0,2.8567002E0,1.0821989E0,7.6938024E0,4.2668204E0,1.1600248E0,5.1103268E1,6.2584827E1,6.9572697E0,1.2597744E0,8.8640526E1,3.5466187E0,2.0645214E1,1.6970125E2,1.2175353E0,3.8976406E1,3.4047892E0,2.976212E0,1.668699E1,8.239544E0,2.3652065E1,1.2686864E0,8.092284E0,7.230327E0,1.0942364E0,2.6206567E0,4.8967843E0,6.1232915E0],"tree_param":{"num_deleted":"0","num_feature":"68","num_nodes":"91","size_leaf_vector":"1"}},{"base_weights":[-4.2103723E-2,-4.0226474E-1,6.438824E-1,4.802517E-1,-5.430123E-1,8.7196785E-1,5.654667E-2,1.710206E-1,9.5654565E-1,-4.0745277E-2,-6.669787E-1,5.845812E-1,1.2289866E0,1.1273286E0,-2.0234104E-1,1.2883152E0,1.3338148E-2,1.1969304E0,-3.5151348E-2,1.4784123E0,-2.4391922E-1,-5.04354E-1,-1.0043153E0,1.0354624E0,2.8735244E-1,1.4171431E0,8.0783606E-1,1.3483884E0,-1.8460908E-3,-3.2099053E-1,1.1826565E0,9.7568444E-4,9.040431E-2,-3.0021954E-1,4.3601125E-1,1.3446578E0,-9.162343E-3,-1.4420785E-2,1.8145705E0,6.5125126E-1,-3.8660708E-1,-6.716029E-1,5.383727E-2,-1.0836529E0,-4.7645077E-1,1.1510636E0,-3.1243796E-2,9.386184E-1,3.7129663E-2,1.4680518E0,8.58064E-3,1.2558327E0,2.5621396E-1,2.7357048E-1,1.777792E0,8.736137E-2,-7.584473E-1,6.324928E-5,8.6062126E-2,-3.6960285E-2,3.954118E-2,5.5851728E-2,-1.30214235E-2,1.6439775E-2,7.633944E-2,8.171297E-3,1.0640333E-1,-4.1658565E-2,5.7189237E-2,3.735354E-2,-2.5061557E-2,1.0845902E-2,-3.661896E-2,-1.6194936E-2,2.6899481E-2,8.357843E-3,-5.5365127E-2,-5.176432E-2,1.796695E-3,7.753332E-2,2.8135298E-2,1.7123071E-2,8.392226E-2,3.6054634E-2,-8.719606E-3,5.2330773E-2,8.542301E-2,7.165321E-2,-1.6798776E-2,3.3381935E-2,-2.9091928E-2,5.5438068E-2,-3.8254898E-2,2.5335958E-2,9.67087E-2,4.2629045E-2,-1.1015349E-2,4.1332867E-2,-4.436106E-2],"categories":[],"categories_nodes":[],"categories_segments":[],"categories_sizes":[],"default_left":[0,0,0,0,0,0,0,0,0,0,0,0,0,0,0,0,0,0,0,0,0,0,0,0,0,0,0,0,0,0,0,0,0,0,0,0,0,0,0,0,0,0,0,0,0,0,0,0,0,0,0,0,0,0,0,0,0,0,0,0,0,0,0,0,0,0,0,0,0,0,0,0,0,0,0,0,0,0,0,0,0,0,0,0,0,0,0,0,0,0,0,0,0,0,0,0,0,0,0],"id":13,"left_children":[1,3,5,7,9,11,13,15,17,19,21,23,25,27,29,31,33,35,-1,37,39,41,43,45,47,49,51,53,-1,55,57,-1,-1,59,61,63,-1,-1,65,67,69,71,73,75,77,79,-1,81,83,85,-1,87,89,91,93,95,97,-1,-1,-1,-1,-1,-1,-1,-1,-1,-1,-1,-1,-1,-1,-1,-1,-1,-1,-1,-1,-1,-1,-1,-1,-1,-1,-1,-1,-1,-1,-1,-1,-1,-1,-1,-1,-1,-1,-1,-1,-1,-1],"loss_changes":[1.5352669E2,5.0864395E1,2.861277E1,8.167902E0,2.1879234E1,1.5086403E1,1.7114748E1,6.240043E0,9.638254E0,2.2186012E1,1.4970245E1,1.1395191E1,4.2270203E0,3.1414423E0,8.580206E0,2.8546124E0,4.389764E0,4.2489223E0,0E0,5.5617485E0,8.327969E0,1.799438E1,3.2845612E0,7.2990036E0,8.759998E0,2.6350784E0,5.4262886E0,4.1854057E0,0E0,8.417887E0,2.6391778E0,0E0,0E0,9.704216E0,6.9754505E0,2.8011017E0,0E0,0E0,3.4123821E0,7.5809097E0,7.542742E0,8.155685E0,8.454089E0,2.4958038E0,3.943747E0,6.745228E0,0E0,6.0139713E0,5.917031E0,2.6303406E0,0E0,4.030287E0,4.415862E0,4.3802295E0,4.214363E-1,6.091843E0,5.361844E0,0E0,0E0,0E0,0E0,0E0,0E0,0E0,0E0,0E0,0E0,0E0,0E0,0E0,0E0,0E0,0E0,0E0,0E0,0E0,0E0,0E0,0E0,0E0,0E0,0E0,0E0,0E0,0E0,0E0,0E0,0E0,0E0,0E0,0E0,0E0,0E0,0E0,0E0,0E0,0E0,0E0,0E0],"parents":[2147483647,0,0,1,1,2,2,3,3,4,4,5,5,6,6,7,7,8,8,9,9,10,10,11,11,12,12,13,13,14,14,15,15,16,16,17,17,19,19,20,20,21,21,22,22,23,23,24,24,25,25,26,26,27,27,29,29,30,30,33,33,34,34,35,35,38,38,39,39,40,40,41,41,42,42,43,43,44,44,45,45,47,47,48,48,49,49,51,51,52,52,53,53,54,54,55,55,56,56],"right_children":[2,4,6,8,10,12,14,16,18,20,22,24,26,28,30,32,34,36,-1,38,40,42,44,46,48,50,52,54,-1,56,58,-1,-1,60,62,64,-1,-1,66,68,70,72,74,76,78,80,-1,82,84,86,-1,88,90,92,94,96,98,-1,-1,-1,-1,-1,-1,-1,-1,-1,-1,-1,-1,-1,-1,-1,-1,-1,-1,-1,-1,-1,-1,-1,-1,-1,-1,-1,-1,-1,-1,-1,-1,-1,-1,-1,-1,-1,-1,-1,-1,-1,-1],"split_conditions":[1.7090647E-1,-9.5418984E-1,4.4972813E-1,1.8782386E-1,-8.3598864E-1,1.3186992E0,-8.936416E-1,-8.3600813E-1,1.2278113E0,-1.2979882E0,1.5171702E-1,-7.1482927E-1,5.8478856E-1,1.2591915E0,1.2859069E0,-2.3923197E-1,3.3383128E-1,1.4886279E0,-3.5151348E-2,-1.0216304E0,-1.200042E0,4.6609792E-1,4.5022586E-1,1.7992572E0,-1.0298148E0,2.7475698E0,-6.547932E-1,-5.853153E-1,-1.8460908E-3,-3.9922744E-2,1.5863957E-1,9.7568444E-4,9.040431E-2,4.412063E-1,7.2179425E-1,-1.4263867E0,-9.162343E-3,-1.4420785E-2,-6.4722544E-1,-2.8920904E-1,-8.51638E-1,-1.2159041E0,-6.758056E-3,-1.8775916E0,5.466875E-1,7.4280643E-1,-3.1243796E-2,-2.6576546E-1,-1.0163801E0,1.1373983E-1,8.58064E-3,7.2997224E-1,-5.503863E-1,-2.9654592E-1,-1.1647084E0,-6.312709E-1,-2.252555E0,6.324928E-5,8.6062126E-2,-3.6960285E-2,3.954118E-2,5.5851728E-2,-1.30214235E-2,1.6439775E-2,7.633944E-2,8.171297E-3,1.0640333E-1,-4.1658565E-2,5.7189237E-2,3.735354E-2,-2.5061557E-2,1.0845902E-2,-3.661896E-2,-1.6194936E-2,2.6899481E-2,8.357843E-3,-5.5365127E-2,-5.176432E-2,1.796695E-3,7.753332E-2,2.8135298E-2,1.7123071E-2,8.392226E-2,3.6054634E-2,-8.719606E-3,5.2330773E-2,8.542301E-2,7.165321E-2,-1.6798776E-2,3.3381935E-2,-2.9091928E-2,5.5438068E-2,-3.8254898E-2,2.5335958E-2,9.67087E-2,4.2629045E-2,-1.1015349E-2,4.1332867E-2,-4.436106E-2],"split_indices":[36,3,10,24,40,36,57,13,44,49,3,3,29,40,45,25,52,25,0,0,41,12,24,13,10,22,25,40,0,19,28,0,0,13,22,29,0,0,44,28,25,22,57,19,2,33,0,12,32,20,0,41,19,39,7,29,51,0,0,0,0,0,0,0,0,0,0,0,0,0,0,0,0,0,0,0,0,0,0,0,0,0,0,0,0,0,0,0,0,0,0,0,0,0,0,0,0,0,0],"split_type":[0,0,0,0,0,0,0,0,0,0,0,0,0,0,0,0,0,0,0,0,0,0,0,0,0,0,0,0,0,0,0,0,0,0,0,0,0,0,0,0,0,0,0,0,0,0,0,0,0,0,0,0,0,0,0,0,0,0,0,0,0,0,0,0,0,0,0,0,0,0,0,0,0,0,0,0,0,0,0,0,0,0,0,0,0,0,0,0,0,0,0,0,0,0,0,0,0,0,0],"sum_hessian":[6.1935254E2,4.063969E2,2.1295563E2,5.5567165E1,3.5082974E2,1.530397E2,5.991592E1,3.4516556E1,2.105061E1,6.9711716E1,2.81118E2,8.624951E1,6.679019E1,1.101255E1,4.890337E1,3.3820393E0,3.1134516E1,1.8630764E1,2.4198456E0,7.483093E0,6.2228626E1,1.9136095E2,8.975707E1,3.3280666E1,5.296884E1,4.4530483E1,2.2259712E1,9.12231E0,1.8902406E0,4.5752132E1,3.1512403E0,1.2843599E0,2.0976794E0,1.8040777E1,1.3093739E1,1.6852673E1,1.778091E0,1.2188604E0,6.2642326E0,8.065365E0,5.416326E1,1.4708669E2,4.4274258E1,7.711398E1,1.26430855E1,3.1401093E1,1.8795742E0,1.3938738E1,3.9030106E1,4.2610214E1,1.9202678E0,1.1579154E1,1.0680559E1,3.0714402E0,6.0508695E0,2.4077164E1,2.1674967E1,1.3006359E0,1.8506044E0,1.3094589E1,4.946189E0,6.3148007E0,6.7789373E0,2.9885979E0,1.3864075E1,1.2423306E0,5.021902E0,1.837079E0,6.228286E0,4.4668403E0,4.969642E1,9.252355E0,1.3783434E2,2.5056309E1,1.9217949E1,1.3183737E0,7.579561E1,5.559287E0,7.083799E0,1.7726181E1,1.36749115E1,8.528951E0,5.4097877E0,8.650227E0,3.0379877E1,1.7422323E1,2.5187891E1,1.050883E1,1.0703238E0,7.3000793E0,3.3804796E0,1.6650743E0,1.4063659E0,1.1274247E0,4.9234447E0,6.3966317E0,1.7680532E1,1.2213736E0,2.0453592E1],"tree_param":{"num_deleted":"0","num_feature":"68","num_nodes":"99","size_leaf_vector":"1"}},{"base_weights":[-5.291922E-2,-3.9987805E-1,6.454074E-1,1.03925474E-1,-5.6947774E-1,8.754289E-1,7.9417E-2,3.2246456E-1,-6.5779126E-1,-9.825622E-2,-6.6876507E-1,-1.2521741E-2,9.847858E-1,9.0945977E-1,-1.4183676E-1,6.987206E-1,-8.162977E-2,4.524657E-1,-8.371491E-1,4.9841505E-1,-3.959001E-1,-7.188042E-1,2.6714122E-1,9.633982E-1,-5.33972E-1,1.061702E0,-1.3972045E-1,1.4163022E0,-6.323479E-2,3.2145733E-1,-4.4590738E-1,3.1513786E-1,1.275902E0,8.836255E-1,-3.0183694E-1,-3.354254E-2,5.6532826E-2,1.2209321E-2,-9.508073E-1,1.0218514E0,-3.6421865E-1,1.2018833E0,-5.3278035E-1,-7.786187E-1,-4.1895498E-2,1.3170187E0,-2.4782847E-1,1.4773344E0,-2.1747379E-2,2.4515706E-1,-8.4441036E-1,1.1825529E0,5.029052E-1,-6.520306E-1,8.495846E-1,1.6753588E0,7.1022226E-3,5.6878954E-2,-6.153742E-1,-1.0878825E-1,9.6134245E-1,-9.057868E-1,2.3405018E-1,3.5285242E-2,-2.7251659E-2,3.7832536E-2,9.250974E-2,6.760695E-2,-1.3410266E-2,-2.0373952E-2,6.419149E-2,-5.2262634E-2,1.8730793E-2,6.9960724E-3,9.2177756E-2,-4.385844E-2,3.598435E-2,9.2515916E-2,-7.0973276E-3,-3.2682564E-2,3.294584E-2,2.448036E-4,-4.084295E-2,4.998902E-2,-2.6968246E-2,-1.1548597E-2,9.609336E-2,-4.3803435E-2,3.2713916E-2,1.3852698E-2,9.815238E-2,-4.6106827E-2,6.761802E-2,1.2776027E-2,-5.624811E-2,7.6404266E-2,5.1284473E-2,-2.950622E-2,4.40293E-2,-4.827157E-2,1.7958876E-2,1.3405717E-3,6.0667466E-2,2.3860997E-2,9.191014E-2,-4.747875E-2,1.24935685E-2,2.4662187E-2,-3.9164335E-2,6.77503E-2,2.341117E-3,-5.5874314E-2,1.8761992E-2,4.130329E-2,-3.363298E-2],"categories":[],"categories_nodes":[],"categories_segments":[],"categories_sizes":[],"default_left":[0,0,0,0,0,0,0,0,0,0,0,0,0,0,0,0,0,0,0,0,0,0,0,0,0,0,0,0,0,0,0,0,0,0,0,0,0,0,0,0,0,0,0,0,0,0,0,0,0,0,0,0,0,0,0,0,0,0,0,0,0,0,0,0,0,0,0,0,0,0,0,0,0,0,0,0,0,0,0,0,0,0,0,0,0,0,0,0,0,0,0,0,0,0,0,0,0,0,0,0,0,0,0,0,0,0,0,0,0,0,0,0,0,0,0],"id":14,"left_children":[1,3,5,7,9,11,13,15,17,19,21,23,25,27,29,31,33,35,37,39,41,43,45,47,49,51,53,55,57,59,61,63,65,67,69,-1,-1,-1,71,73,75,77,79,81,83,85,87,89,-1,91,93,95,97,99,101,103,-1,-1,105,107,109,111,113,-1,-1,-1,-1,-1,-1,-1,-1,-1,-1,-1,-1,-1,-1,-1,-1,-1,-1,-1,-1,-1,-1,-1,-1,-1,-1,-1,-1,-1,-1,-1,-1,-1,-1,-1,-1,-1,-1,-1,-1,-1,-1,-1,-1,-1,-1,-1,-1,-1,-1,-1,-1],"loss_changes":[1.5253105E2,3.598729E1,2.7138847E1,1.7981598E1,1.4659653E1,1.4432068E1,1.14218235E1,1.2770729E1,5.183278E0,1.0133221E1,1.2358475E1,9.303354E0,1.1585129E1,6.5361595E0,7.104609E0,9.207794E0,9.026877E0,3.8093755E0,2.828164E0,8.979657E0,8.925763E0,9.9631195E0,7.849074E0,5.2211547E0,3.0851982E0,7.770981E0,5.292357E0,2.613945E0,4.3046913E0,5.6553E0,9.672054E0,9.591152E0,3.6699638E0,4.631414E0,6.2693644E0,0E0,0E0,0E0,2.809761E0,8.530054E0,5.043676E0,3.1351895E0,5.556776E0,6.7985992E0,1.1473669E1,4.8794107E0,6.340748E0,2.3047552E0,0E0,6.630593E0,2.9827223E0,3.9130402E0,1.0331213E1,2.4780698E0,1.0520778E0,5.0554466E-1,0E0,0E0,1.5018656E0,5.6466327E0,2.8914456E0,5.3692427E0,7.534174E0,0E0,0E0,0E0,0E0,0E0,0E0,0E0,0E0,0E0,0E0,0E0,0E0,0E0,0E0,0E0,0E0,0E0,0E0,0E0,0E0,0E0,0E0,0E0,0E0,0E0,0E0,0E0,0E0,0E0,0E0,0E0,0E0,0E0,0E0,0E0,0E0,0E0,0E0,0E0,0E0,0E0,0E0,0E0,0E0,0E0,0E0,0E0,0E0,0E0,0E0,0E0,0E0],"parents":[2147483647,0,0,1,1,2,2,3,3,4,4,5,5,6,6,7,7,8,8,9,9,10,10,11,11,12,12,13,13,14,14,15,15,16,16,17,17,18,18,19,19,20,20,21,21,22,22,23,23,24,24,25,25,26,26,27,27,28,28,29,29,30,30,31,31,32,32,33,33,34,34,38,38,39,39,40,40,41,41,42,42,43,43,44,44,45,45,46,46,47,47,49,49,50,50,51,51,52,52,53,53,54,54,55,55,58,58,59,59,60,60,61,61,62,62],"right_children":[2,4,6,8,10,12,14,16,18,20,22,24,26,28,30,32,34,36,38,40,42,44,46,48,50,52,54,56,58,60,62,64,66,68,70,-1,-1,-1,72,74,76,78,80,82,84,86,88,90,-1,92,94,96,98,100,102,104,-1,-1,106,108,110,112,114,-1,-1,-1,-1,-1,-1,-1,-1,-1,-1,-1,-1,-1,-1,-1,-1,-1,-1,-1,-1,-1,-1,-1,-1,-1,-1,-1,-1,-1,-1,-1,-1,-1,-1,-1,-1,-1,-1,-1,-1,-1,-1,-1,-1,-1,-1,-1,-1,-1,-1,-1,-1],"split_conditions":[2.1591794E-1,-5.906923E-1,4.4972813E-1,3.709351E-1,-9.1455793E-1,-2.4079926E-1,-8.936416E-1,6.99426E-2,-6.078211E-1,3.4667928E-2,9.962012E-1,-3.5966253E-1,7.0589626E-1,2.4569273E-1,-9.4085014E-1,-3.7377098E-1,-1.0785725E0,-1.0800211E-1,-9.436065E-1,1.7994937E-1,-1.135752E0,9.968207E-1,3.805273E-1,8.707149E-1,-4.734308E-1,1.8775462E0,1.4537337E0,1.625848E0,-1.2915722E0,1.1071433E-1,1.0993715E-1,3.284483E-1,-2.4994951E-1,7.286287E-1,2.784532E0,-3.354254E-2,5.6532826E-2,1.2209321E-2,5.345046E-1,-3.1531355E-1,1.7059697E0,-9.1732776E-1,1.2068721E0,-1.1781204E0,2.4382208E-1,-3.0615568E-1,-3.2421982E-1,-2.0762217E-1,-2.1747379E-2,1.2535705E-1,-7.7803123E-1,-7.766004E-1,6.210213E-1,9.2622447E-1,2.7706674E-1,-1.2662245E0,7.1022226E-3,5.6878954E-2,-2.6861912E-2,-1.605248E-1,-2.0548457E-1,6.109283E-1,9.0346456E-1,3.5285242E-2,-2.7251659E-2,3.7832536E-2,9.250974E-2,6.760695E-2,-1.3410266E-2,-2.0373952E-2,6.419149E-2,-5.2262634E-2,1.8730793E-2,6.9960724E-3,9.2177756E-2,-4.385844E-2,3.598435E-2,9.2515916E-2,-7.0973276E-3,-3.2682564E-2,3.294584E-2,2.448036E-4,-4.084295E-2,4.998902E-2,-2.6968246E-2,-1.1548597E-2,9.609336E-2,-4.3803435E-2,3.2713916E-2,1.3852698E-2,9.815238E-2,-4.6106827E-2,6.761802E-2,1.2776027E-2,-5.624811E-2,7.6404266E-2,5.1284473E-2,-2.950622E-2,4.40293E-2,-4.827157E-2,1.7958876E-2,1.3405717E-3,6.0667466E-2,2.3860997E-2,9.191014E-2,-4.747875E-2,1.24935685E-2,2.4662187E-2,-3.9164335E-2,6.77503E-2,2.341117E-3,-5.5874314E-2,1.8761992E-2,4.130329E-2,-3.363298E-2],"split_indices":[36,61,10,3,40,37,57,55,11,11,15,40,51,51,3,54,41,25,41,51,8,57,61,56,55,58,36,40,57,25,57,41,21,28,8,0,0,0,16,34,8,26,57,11,55,16,36,26,0,52,52,54,36,13,56,56,0,0,22,8,13,16,57,0,0,0,0,0,0,0,0,0,0,0,0,0,0,0,0,0,0,0,0,0,0,0,0,0,0,0,0,0,0,0,0,0,0,0,0,0,0,0,0,0,0,0,0,0,0,0,0,0,0,0,0],"split_type":[0,0,0,0,0,0,0,0,0,0,0,0,0,0,0,0,0,0,0,0,0,0,0,0,0,0,0,0,0,0,0,0,0,0,0,0,0,0,0,0,0,0,0,0,0,0,0,0,0,0,0,0,0,0,0,0,0,0,0,0,0,0,0,0,0,0,0,0,0,0,0,0,0,0,0,0,0,0,0,0,0,0,0,0,0,0,0,0,0,0,0,0,0,0,0,0,0,0,0,0,0,0,0,0,0,0,0,0,0,0,0,0,0,0,0],"sum_hessian":[6.274724E2,4.1948267E2,2.0798976E2,1.0574614E2,3.1373654E2,1.4749875E2,6.049101E1,8.26191E1,2.3127039E1,5.494677E1,2.5878976E2,1.6270653E1,1.312281E2,1.207619E1,4.8414818E1,4.2405678E1,4.0213425E1,3.004702E0,2.0122337E1,1.8062757E1,3.688401E1,2.4587576E2,1.2914006E1,5.371009E0,1.0899644E1,1.2287902E2,8.349077E0,7.6394415E0,4.436748E0,1.9161863E1,2.9252956E1,2.6404078E1,1.60016E1,6.91027E0,3.3303154E1,1.135217E0,1.8694853E0,1.8046454E0,1.8317692E1,1.1126657E1,6.936102E0,2.2965202E0,3.458749E1,2.2577507E2,2.0100698E1,3.7372804E0,9.176726E0,3.886215E0,1.4847937E0,3.1654296E0,7.734215E0,1.0011165E2,2.2767374E1,5.7252073E0,2.6238694E0,6.0871515E0,1.55229E0,1.063499E0,3.3732493E0,1.1954136E1,7.2077265E0,1.7252413E1,1.2000543E1,1.8282396E1,8.12168E0,9.620597E0,6.381005E0,4.7885838E0,2.121687E0,3.1919594E1,1.38356E0,1.7296574E1,1.021117E0,