{"learner":{"attributes":{"best_iteration":"160","best_score":"0.5584441862893358","scikit_learn":"{\"_estimator_type\": \"classifier\"}"},"feature_names":[],"feature_types":[],"gradient_booster":{"model":{"gbtree_model_param":{"num_parallel_tree":"1","num_trees":"171"},"iteration_indptr":[0,1,2,3,4,5,6,7,8,9,10,11,12,13,14,15,16,17,18,19,20,21,22,23,24,25,26,27,28,29,30,31,32,33,34,35,36,37,38,39,40,41,42,43,44,45,46,47,48,49,50,51,52,53,54,55,56,57,58,59,60,61,62,63,64,65,66,67,68,69,70,71,72,73,74,75,76,77,78,79,80,81,82,83,84,85,86,87,88,89,90,91,92,93,94,95,96,97,98,99,100,101,102,103,104,105,106,107,108,109,110,111,112,113,114,115,116,117,118,119,120,121,122,123,124,125,126,127,128,129,130,131,132,133,134,135,136,137,138,139,140,141,142,143,144,145,146,147,148,149,150,151,152,153,154,155,156,157,158,159,160,161,162,163,164,165,166,167,168,169,170,171],"tree_info":[0,0,0,0,0,0,0,0,0,0,0,0,0,0,0,0,0,0,0,0,0,0,0,0,0,0,0,0,0,0,0,0,0,0,0,0,0,0,0,0,0,0,0,0,0,0,0,0,0,0,0,0,0,0,0,0,0,0,0,0,0,0,0,0,0,0,0,0,0,0,0,0,0,0,0,0,0,0,0,0,0,0,0,0,0,0,0,0,0,0,0,0,0,0,0,0,0,0,0,0,0,0,0,0,0,0,0,0,0,0,0,0,0,0,0,0,0,0,0,0,0,0,0,0,0,0,0,0,0,0,0,0,0,0,0,0,0,0,0,0,0,0,0,0,0,0,0,0,0,0,0,0,0,0,0,0,0,0,0,0,0,0,0,0,0,0,0,0,0,0,0],"trees":[{"base_weights":[-7.17539E-1,-8.6418813E-1,2.5693636E0,-9.4176E-1,2.9958107E-3,1.8349354E0,4.523502E0,-1.0678033E0,-6.435911E-1,1.6579063E0,-1.4231068E-1,3.384573E0,1.1406606E0,5.2747164E0,3.2271168E0,-1.1004517E0,-8.6529815E-1,9.2863667E-1,-7.025781E-1,2.5699048E0,1.1988717E0,9.337999E-1,-3.7012598E-1,2.6699686E0,4.846551E0,3.1336641E0,6.7443544E-1,5.3180075E0,6.380918E-2,1.2148932E0,3.7703493E0,-1.1206824E0,-9.9002784E-1,-3.923967E-1,-9.157405E-1,1.4799006E0,1.6142635E-1,-9.5765305E-1,-4.891182E-1,3.4242473E0,1.1090008E0,-1.8241437E-1,1.5101141E0,1.4436877E-1,1.49554E0,-7.249611E-1,-6.52673E-2,2.9770472E0,1.0243195E0,5.0765615E0,1.6563543E0,1.9570733E0,3.6904209E0,2.6764467E0,2.7791175E-1,1.02040626E-1,5.3745193E0,2.845301E-1,2.4738398E0,4.557209E0,2.2533245E0,-5.6537975E-2,-5.0874718E-2,-3.299996E-2,-5.087716E-2,2.0383166E-2,-3.6553897E-2,-4.7068994E-2,-1.8376684E-2,3.1200869E-2,1.17745355E-1,8.502316E-2,-1.2807281E-3,-5.1829357E-2,-2.8906045E-2,-3.2645397E-2,-8.191431E-3,3.0299354E-2,2.0181945E-1,-1.1775618E-2,9.745231E-2,-4.723416E-2,3.1714447E-2,4.6045434E-2,1.1705905E-1,1.0897046E-1,-5.6925705E-3,5.302613E-2,1.3497916E-1,-4.379772E-2,-1.4497521E-2,4.0255424E-2,-1.31952735E-2,1.8994163E-1,1.1161082E-1,1.1623641E-1,1.4342169E-2,2.6234022E-1,8.4536366E-2,-3.2333687E-2,1.568624E-1,1.1673202E-1,-2.2066029E-2,1.9140896E-1,2.9818831E-2,6.762035E-2,1.7234407E-1,-2.209125E-3,6.215133E-2,2.7079806E-1,9.334061E-2,1.0173664E-1,-1.8360473E-2,-7.150774E-3,1.6617359E-1,2.3837493E-1,4.5541953E-2,1.338727E-1,-7.4087293E-3],"categories":[],"categories_nodes":[],"categories_segments":[],"categories_sizes":[],"default_left":[0,0,0,0,0,0,0,0,0,0,0,0,0,0,0,0,0,0,0,0,0,0,0,0,0,0,0,0,0,0,0,0,0,0,0,0,0,0,0,0,0,0,0,0,0,0,0,0,0,0,0,0,0,0,0,0,0,0,0,0,0,0,0,0,0,0,0,0,0,0,0,0,0,0,0,0,0,0,0,0,0,0,0,0,0,0,0,0,0,0,0,0,0,0,0,0,0,0,0,0,0,0,0,0,0,0,0,0,0,0,0,0,0,0,0,0,0,0,0],"id":0,"left_children":[1,3,5,7,9,11,13,15,17,19,21,23,25,27,29,31,33,35,37,39,41,43,45,47,49,51,53,55,-1,57,59,61,63,65,67,69,71,73,75,77,79,81,83,85,87,89,91,93,95,97,99,101,103,105,107,-1,109,111,113,115,117,-1,-1,-1,-1,-1,-1,-1,-1,-1,-1,-1,-1,-1,-1,-1,-1,-1,-1,-1,-1,-1,-1,-1,-1,-1,-1,-1,-1,-1,-1,-1,-1,-1,-1,-1,-1,-1,-1,-1,-1,-1,-1,-1,-1,-1,-1,-1,-1,-1,-1,-1,-1,-1,-1,-1,-1,-1,-1],"loss_changes":[4.992908E3,6.667866E2,6.267117E2,3.4124902E2,1.9618626E2,3.4394727E2,1.0002026E2,4.131787E1,2.5159521E2,2.4487183E1,1.8421506E2,9.102722E1,2.0673444E2,6.1118164E0,4.6433136E1,1.1182617E1,2.092688E1,4.132628E1,1.4156335E2,2.2629288E1,1.991333E1,5.801976E1,6.69876E1,3.1854584E1,1.466571E1,2.0511444E1,1.4486868E2,2.6257324E0,0E0,1.2644121E1,3.3029053E1,3.6767578E0,7.1428833E0,2.40774E1,1.0977051E1,4.126645E1,1.2195147E1,3.497278E1,7.566507E1,1.9776428E1,1.0954043E1,6.383995E0,1.615094E1,2.9519579E1,3.7268692E1,1.8549545E1,5.8029938E1,2.6827728E1,1.1211797E1,7.756714E0,1.4303397E1,1.5272728E1,9.484772E0,2.6153275E1,4.7995056E1,0E0,2.8955078E-1,9.5112295E0,1.0953787E1,1.3221802E1,1.5029594E1,0E0,0E0,0E0,0E0,0E0,0E0,0E0,0E0,0E0,0E0,0E0,0E0,0E0,0E0,0E0,0E0,0E0,0E0,0E0,0E0,0E0,0E0,0E0,0E0,0E0,0E0,0E0,0E0,0E0,0E0,0E0,0E0,0E0,0E0,0E0,0E0,0E0,0E0,0E0,0E0,0E0,0E0,0E0,0E0,0E0,0E0,0E0,0E0,0E0,0E0,0E0,0E0,0E0,0E0,0E0,0E0,0E0,0E0],"parents":[2147483647,0,0,1,1,2,2,3,3,4,4,5,5,6,6,7,7,8,8,9,9,10,10,11,11,12,12,13,13,14,14,15,15,16,16,17,17,18,18,19,19,20,20,21,21,22,22,23,23,24,24,25,25,26,26,27,27,29,29,30,30,31,31,32,32,33,33,34,34,35,35,36,36,37,37,38,38,39,39,40,40,41,41,42,42,43,43,44,44,45,45,46,46,47,47,48,48,49,49,50,50,51,51,52,52,53,53,54,54,56,56,57,57,58,58,59,59,60,60],"right_children":[2,4,6,8,10,12,14,16,18,20,22,24,26,28,30,32,34,36,38,40,42,44,46,48,50,52,54,56,-1,58,60,62,64,66,68,70,72,74,76,78,80,82,84,86,88,90,92,94,96,98,100,102,104,106,108,-1,110,112,114,116,118,-1,-1,-1,-1,-1,-1,-1,-1,-1,-1,-1,-1,-1,-1,-1,-1,-1,-1,-1,-1,-1,-1,-1,-1,-1,-1,-1,-1,-1,-1,-1,-1,-1,-1,-1,-1,-1,-1,-1,-1,-1,-1,-1,-1,-1,-1,-1,-1,-1,-1,-1,-1,-1,-1,-1,-1,-1,-1],"split_conditions":[1.4456718E0,4.5688698E-1,4.108282E0,1.4079688E0,-1.1491234E0,-8.242782E-1,-2.507805E-1,3.6529598E-1,-1.1491234E0,-5.082598E-1,-8.242782E-1,2.0831158E0,-1.158415E0,1.7313616E0,1.4079688E0,2.2231376E-1,-9.1986114E-1,7.8704536E-1,5.5027705E-1,3.1738007E-1,-3.0643925E-1,5.5027705E-1,6.817525E-3,-1.7662317E-1,1.5526359E0,1.9432956E0,-1.397955E0,-1.6806654E0,6.380918E-2,2.8411755E-1,-1.6185497E0,6.912822E-2,-1.1651958E0,-3.7141356E-1,1.8566705E0,-1.7748119E-1,-1.0819149E0,2.1383034E-1,4.655422E-2,-3.786713E-1,-5.004204E-1,1.799998E-2,1.2368515E-1,-1.6565762E0,1.467669E0,6.091036E-1,7.8704536E-1,-1.0100231E0,-4.6033254E-1,2.2385015E0,-8.069789E-1,1.3185244E0,4.6641917E0,7.969456E-2,8.998507E-1,1.02040626E-1,7.0599155E0,-1.2684202E0,8.998507E-1,1.0557971E0,2.0730298E0,-5.6537975E-2,-5.0874718E-2,-3.299996E-2,-5.087716E-2,2.0383166E-2,-3.6553897E-2,-4.7068994E-2,-1.8376684E-2,3.1200869E-2,1.17745355E-1,8.502316E-2,-1.2807281E-3,-5.1829357E-2,-2.8906045E-2,-3.2645397E-2,-8.191431E-3,3.0299354E-2,2.0181945E-1,-1.1775618E-2,9.745231E-2,-4.723416E-2,3.1714447E-2,4.6045434E-2,1.1705905E-1,1.0897046E-1,-5.6925705E-3,5.302613E-2,1.3497916E-1,-4.379772E-2,-1.4497521E-2,4.0255424E-2,-1.31952735E-2,1.8994163E-1,1.1161082E-1,1.1623641E-1,1.4342169E-2,2.6234022E-1,8.4536366E-2,-3.2333687E-2,1.568624E-1,1.1673202E-1,-2.2066029E-2,1.9140896E-1,2.9818831E-2,6.762035E-2,1.7234407E-1,-2.209125E-3,6.215133E-2,2.7079806E-1,9.334061E-2,1.0173664E-1,-1.8360473E-2,-7.150774E-3,1.6617359E-1,2.3837493E-1,4.5541953E-2,1.338727E-1,-7.4087293E-3],"split_indices":[17,17,17,55,54,5,5,16,54,26,5,28,54,6,55,10,5,57,64,8,12,64,57,24,26,17,6,19,0,28,24,17,6,24,2,11,18,16,10,28,40,36,11,6,28,16,57,6,7,2,18,35,45,11,16,0,37,7,16,53,65,0,0,0,0,0,0,0,0,0,0,0,0,0,0,0,0,0,0,0,0,0,0,0,0,0,0,0,0,0,0,0,0,0,0,0,0,0,0,0,0,0,0,0,0,0,0,0,0,0,0,0,0,0,0,0,0,0,0],"split_type":[0,0,0,0,0,0,0,0,0,0,0,0,0,0,0,0,0,0,0,0,0,0,0,0,0,0,0,0,0,0,0,0,0,0,0,0,0,0,0,0,0,0,0,0,0,0,0,0,0,0,0,0,0,0,0,0,0,0,0,0,0,0,0,0,0,0,0,0,0,0,0,0,0,0,0,0,0,0,0,0,0,0,0,0,0,0,0,0,0,0,0,0,0,0,0,0,0,0,0,0,0,0,0,0,0,0,0,0,0,0,0,0,0,0,0,0,0,0,0],"sum_hessian":[1.0352664E4,9.911201E3,4.414632E2,9.097335E3,8.138665E2,3.2227927E2,1.1918392E2,6.3924907E3,2.7048438E3,6.48519E1,7.4901465E2,9.851547E1,2.237638E2,7.351532E1,4.5668606E1,5.5011484E3,8.913423E2,9.727784E1,2.607566E3,2.0173395E1,4.46785E1,1.303226E2,6.18692E2,6.806974E1,3.0445738E1,4.1336895E1,1.824269E2,7.240145E1,1.1138685E0,1.0396106E1,3.52725E1,4.6416133E3,8.5953516E2,8.675797E1,8.045843E2,5.6064713E1,4.121313E1,1.1863937E3,1.4211724E3,1.1881264E1,8.292131E0,8.292131E0,3.6386368E1,5.4703316E1,7.561929E1,2.8527408E2,3.3341794E2,5.6683525E1,1.138621E1,2.784671E1,2.5990264E0,1.4727816E1,2.660908E1,2.9208105E1,1.532188E2,1.8564473E0,7.0545E1,6.6832104E0,3.7128947E0,2.1906078E1,1.3366421E1,4.219581E3,4.2203238E2,6.806974E1,7.914654E2,2.5742737E1,6.1015236E1,7.679504E2,3.6633896E1,2.9208105E1,2.6856606E1,3.5891316E0,3.7624E1,9.806993E2,2.0569437E2,9.445604E2,4.7661194E2,2.475263E0,9.406E0,3.4653685E0,4.826763E0,4.2079473E0,4.084184E0,2.2524895E1,1.3861474E1,5.321816E0,4.93815E1,5.6931053E1,1.8688236E1,2.1101619E2,7.42579E1,6.1386528E1,2.7203143E2,2.5000158E1,3.1683369E1,3.3416052E0,8.044605E0,2.5990263E1,1.8564473E0,1.2376316E0,1.3613948E0,1.2747605E1,1.9802105E0,2.5247684E1,1.3613948E0,1.17575E1,1.7450605E1,1.1559479E2,3.7624E1,6.918361E1,1.3613948E0,1.2376316E0,5.445579E0,1.1138685E0,2.5990264E0,2.0420921E1,1.485158E0,1.1262447E1,2.1039736E0],"tree_param":{"num_deleted":"0","num_feature":"66","num_nodes":"119","size_leaf_vector":"1"}},{"base_weights":[-7.0114815E-1,-8.558687E-1,2.0891235E0,-1.0259424E0,-4.9334052E-1,3.3104045E0,1.2652112E0,-1.0658846E0,-6.8525916E-1,1.1934817E0,-5.818902E-1,2.7717159E0,4.207867E0,8.3470595E-1,2.932115E0,-1.0932649E0,-8.8193727E-1,1.11466825E-1,-8.1821E-1,1.7821169E0,5.40623E-1,-6.826946E-1,2.7023906E-1,3.8780904E0,2.252385E0,5.7965238E-2,4.2570524E0,2.5294108E0,4.3846458E-1,3.4359531E0,1.1838778E0,-1.0945565E0,-1.1184671E-1,-5.429565E-1,-9.357672E-1,1.4899671E0,-4.6092693E-2,-9.265182E-1,-4.913519E-1,9.661048E-1,2.3815024E0,1.1973206E-1,1.2695076E0,-5.366921E-1,-1.0351107E0,5.917175E-1,-6.713334E-1,4.265512E0,1.8083744E0,1.5091517E0,2.811458E0,2.1462606E-1,7.898511E-2,1.0563827E0,2.7965019E0,2.3557224E0,2.38588E-1,3.614427E0,7.0893973E-1,2.28369E0,3.6592227E-1,-5.5396974E-2,-4.9371187E-2,8.2608044E-2,-3.404493E-2,1.4358086E-2,-3.3669464E-2,-1.6783241E-2,-4.787253E-2,1.1062213E-2,1.7464393E-1,-7.1068914E-3,1.2659235E-1,-1.2256346E-2,-4.790391E-2,-8.0708265E-3,-4.210693E-2,1.684399E-2,1.1425803E-1,1.268988E-1,2.0234365E-2,-8.276581E-3,6.683906E-2,4.0568728E-2,1.1937972E-1,-1.1381527E-3,-3.1107271E-2,-5.4790433E-2,-4.2612847E-2,8.4219836E-2,1.7213833E-2,-3.7725355E-2,4.4496328E-2,2.180898E-1,5.221395E-2,1.3427953E-1,-1.2793769E-2,1.4556621E-1,4.9846765E-2,3.3613395E-2,1.509798E-1,-2.2893777E-2,7.7678286E-2,1.723585E-1,9.507629E-2,3.3182614E-2,1.7057145E-1,2.695279E-3,8.172081E-2,8.968103E-2,1.8884335E-1,-3.4384143E-2,8.094652E-2,-8.592425E-3,1.416376E-1,7.232496E-2,-2.6706526E-2],"categories":[],"categories_nodes":[],"categories_segments":[],"categories_sizes":[],"default_left":[0,0,0,0,0,0,0,0,0,0,0,0,0,0,0,0,0,0,0,0,0,0,0,0,0,0,0,0,0,0,0,0,0,0,0,0,0,0,0,0,0,0,0,0,0,0,0,0,0,0,0,0,0,0,0,0,0,0,0,0,0,0,0,0,0,0,0,0,0,0,0,0,0,0,0,0,0,0,0,0,0,0,0,0,0,0,0,0,0,0,0,0,0,0,0,0,0,0,0,0,0,0,0,0,0,0,0,0,0,0,0,0,0,0,0,0,0],"id":1,"left_children":[1,3,5,7,9,11,13,15,17,19,21,23,25,27,29,31,33,35,37,39,41,43,45,47,49,-1,51,53,55,57,59,61,63,65,67,69,71,73,75,77,79,81,83,85,87,89,91,93,95,97,99,-1,-1,101,103,105,107,109,111,113,115,-1,-1,-1,-1,-1,-1,-1,-1,-1,-1,-1,-1,-1,-1,-1,-1,-1,-1,-1,-1,-1,-1,-1,-1,-1,-1,-1,-1,-1,-1,-1,-1,-1,-1,-1,-1,-1,-1,-1,-1,-1,-1,-1,-1,-1,-1,-1,-1,-1,-1,-1,-1,-1,-1,-1,-1],"loss_changes":[4.367352E3,5.9026514E2,5.3067676E2,8.800586E1,4.5799792E2,9.156323E1,2.2649506E2,2.842334E1,7.2873474E1,5.7845352E1,2.501117E2,6.961401E1,6.784424E0,1.7009213E2,5.3261475E1,6.3100586E0,1.3381165E1,2.160189E1,2.039505E1,3.684616E1,2.2547438E1,1.3333044E2,9.377867E1,2.6104248E1,3.5308655E1,0E0,4.8779297E-1,1.5971436E1,7.908715E1,2.1772095E1,1.3635946E1,6.1723633E0,8.938436E0,1.1745281E1,8.207764E0,2.5145254E1,2.2629519E1,9.25412E0,1.7076088E1,2.8758121E1,1.3034912E1,1.688959E1,1.1883709E1,8.087714E1,7.513977E0,6.1743988E1,1.0928711E1,6.2349243E0,1.58719845E1,2.7996239E1,2.1641083E1,0E0,0E0,7.4799995E0,1.6804443E1,3.2586784E1,4.8719604E1,7.0334473E0,6.5976286E0,9.48016E0,1.0903292E1,0E0,0E0,0E0,0E0,0E0,0E0,0E0,0E0,0E0,0E0,0E0,0E0,0E0,0E0,0E0,0E0,0E0,0E0,0E0,0E0,0E0,0E0,0E0,0E0,0E0,0E0,0E0,0E0,0E0,0E0,0E0,0E0,0E0,0E0,0E0,0E0,0E0,0E0,0E0,0E0,0E0,0E0,0E0,0E0,0E0,0E0,0E0,0E0,0E0,0E0,0E0,0E0,0E0,0E0,0E0,0E0],"parents":[2147483647,0,0,1,1,2,2,3,3,4,4,5,5,6,6,7,7,8,8,9,9,10,10,11,11,12,12,13,13,14,14,15,15,16,16,17,17,18,18,19,19,20,20,21,21,22,22,23,23,24,24,26,26,27,27,28,28,29,29,30,30,31,31,32,32,33,33,34,34,35,35,36,36,37,37,38,38,39,39,40,40,41,41,42,42,43,43,44,44,45,45,46,46,47,47,48,48,49,49,50,50,53,53,54,54,55,55,56,56,57,57,58,58,59,59,60,60],"right_children":[2,4,6,8,10,12,14,16,18,20,22,24,26,28,30,32,34,36,38,40,42,44,46,48,50,-1,52,54,56,58,60,62,64,66,68,70,72,74,76,78,80,82,84,86,88,90,92,94,96,98,100,-1,-1,102,104,106,108,110,112,114,116,-1,-1,-1,-1,-1,-1,-1,-1,-1,-1,-1,-1,-1,-1,-1,-1,-1,-1,-1,-1,-1,-1,-1,-1,-1,-1,-1,-1,-1,-1,-1,-1,-1,-1,-1,-1,-1,-1,-1,-1,-1,-1,-1,-1,-1,-1,-1,-1,-1,-1,-1,-1,-1,-1,-1,-1],"split_conditions":[1.3293443E0,1.4079688E0,-6.3311225E-1,2.3069438E-1,-1.158415E0,4.108282E0,4.108282E0,3.6529598E-1,-8.242782E-1,-6.219501E-1,5.2151346E-1,-6.97289E-1,-2.0100965E0,-1.1491234E0,-1.1657678E0,2.8116913E0,-6.279102E-1,-5.5932814E-1,6.3820857E-1,-2.2485568E-1,1.5752406E-1,2.0730298E0,2.0730298E0,2.0969822E0,2.1694882E0,5.7965238E-2,2.1778281E-1,-7.425852E-1,-1.6565762E0,1.1858479E0,-1.5515947E0,1.2368515E-1,-5.753164E-1,-9.1986114E-1,-1.7083004E0,7.4770606E-1,1.262009E0,-8.155908E-1,-6.4795345E-1,1.767151E-1,1.0326596E0,8.193743E-1,5.323204E-1,-5.3752935E-1,-7.649147E-1,-1.015444E0,1.1994687E0,9.256626E-1,-5.795957E-1,-5.8117485E-1,-8.5005987E-1,2.1462606E-1,7.898511E-2,-1.2415349E-1,-9.082359E-1,-1.9013107E-1,1.6193666E0,-1.6053355E-1,-3.8085705E-1,-4.1130856E-1,1.0468912E0,-5.5396974E-2,-4.9371187E-2,8.2608044E-2,-3.404493E-2,1.4358086E-2,-3.3669464E-2,-1.6783241E-2,-4.787253E-2,1.1062213E-2,1.7464393E-1,-7.1068914E-3,1.2659235E-1,-1.2256346E-2,-4.790391E-2,-8.0708265E-3,-4.210693E-2,1.684399E-2,1.1425803E-1,1.268988E-1,2.0234365E-2,-8.276581E-3,6.683906E-2,4.0568728E-2,1.1937972E-1,-1.1381527E-3,-3.1107271E-2,-5.4790433E-2,-4.2612847E-2,8.4219836E-2,1.7213833E-2,-3.7725355E-2,4.4496328E-2,2.180898E-1,5.221395E-2,1.3427953E-1,-1.2793769E-2,1.4556621E-1,4.9846765E-2,3.3613395E-2,1.509798E-1,-2.2893777E-2,7.7678286E-2,1.723585E-1,9.507629E-2,3.3182614E-2,1.7057145E-1,2.695279E-3,8.172081E-2,8.968103E-2,1.8884335E-1,-3.4384143E-2,8.094652E-2,-8.592425E-3,1.416376E-1,7.232496E-2,-2.6706526E-2],"split_indices":[17,55,5,17,54,17,17,16,5,7,17,26,0,54,24,49,24,47,16,11,11,65,65,39,17,0,24,0,6,53,23,11,38,5,6,17,49,26,6,23,8,4,22,5,53,5,18,13,21,2,32,0,0,43,24,0,16,16,32,30,43,0,0,0,0,0,0,0,0,0,0,0,0,0,0,0,0,0,0,0,0,0,0,0,0,0,0,0,0,0,0,0,0,0,0,0,0,0,0,0,0,0,0,0,0,0,0,0,0,0,0,0,0,0,0,0,0],"split_type":[0,0,0,0,0,0,0,0,0,0,0,0,0,0,0,0,0,0,0,0,0,0,0,0,0,0,0,0,0,0,0,0,0,0,0,0,0,0,0,0,0,0,0,0,0,0,0,0,0,0,0,0,0,0,0,0,0,0,0,0,0,0,0,0,0,0,0,0,0,0,0,0,0,0,0,0,0,0,0,0,0,0,0,0,0,0,0,0,0,0,0,0,0,0,0,0,0,0,0,0,0,0,0,0,0,0,0,0,0,0,0,0,0,0,0,0,0],"sum_hessian":[1.0111204E4,9.58065E3,5.305538E2,6.520053E3,3.0605974E3,2.1251942E2,3.1803433E2,5.833944E3,6.861093E2,1.5203014E2,2.9085671E3,1.3535997E2,7.715946E1,2.5394868E2,6.4085655E1,5.073777E3,7.601666E2,9.814193E1,5.879674E2,7.9037796E1,7.299234E1,2.6010674E3,3.0749988E2,4.1174644E1,9.4185326E1,1.615243E0,7.554422E1,4.710394E1,2.0684474E2,4.89989E1,1.5086753E1,5.066993E3,6.7838116E0,1.0569079E2,6.544758E2,9.199373E0,8.894256E1,4.4025064E2,1.4771678E2,3.4576572E1,4.4461224E1,4.701058E1,2.5981764E1,1.8409165E3,7.6015076E2,2.2951035E2,7.798952E1,3.378892E1,7.3857226E0,4.202138E1,5.2163944E1,7.3961136E1,1.5830816E0,7.9905543E0,3.9113388E1,1.8509722E1,1.8833502E2,4.5683643E1,3.315257E0,5.670426E0,9.416327E0,4.496013E3,5.709801E2,1.1903819E0,5.59343E0,1.4188542E1,9.150224E1,2.3398119E1,6.3107776E2,6.311734E0,2.8876388E0,8.665881E1,2.2837446E0,1.987653E1,4.2037408E2,7.68732E1,7.0843575E1,2.4259523E1,1.031705E1,4.093701E1,3.5242128E0,3.8784E1,8.226577E0,1.9654192E1,6.3275723E0,2.626381E2,1.5782784E3,5.669578E2,1.9319296E2,4.130472E1,1.8820563E2,7.4535484E1,3.4540334E0,3.246447E1,1.3244545E0,4.9718866E0,2.413836E0,9.990097E0,3.2031284E1,5.0004506E0,4.7163494E1,1.9946275E0,5.995927E0,2.099665E1,1.8116735E1,7.737233E0,1.0772488E1,1.6724535E2,2.1089663E1,4.728063E0,4.095558E1,1.4042931E0,1.9109639E0,1.1617612E0,4.5086646E0,4.003144E0,5.4131837E0],"tree_param":{"num_deleted":"0","num_feature":"66","num_nodes":"117","size_leaf_vector":"1"}},{"base_weights":[-6.79877E-1,-8.492855E-1,1.692234E0,-1.0136216E0,-5.0494003E-1,7.8344756E-1,2.494347E0,-1.0672144E0,-7.319307E-1,8.661675E-1,-5.7824945E-1,-1.102793E-1,1.2675816E0,2.9567995E0,1.5183579E0,-1.0905222E0,-8.877868E-1,-8.058406E-1,-5.1010985E-2,5.675668E-2,1.2857962E0,-7.3014355E-1,-1.1671465E-1,-6.8663645E-1,4.8384753E-1,1.0249332E0,2.788686E0,3.704979E0,2.605842E0,8.879763E-1,2.544363E0,-1.1089586E0,-9.816748E-1,-1.0191681E0,-6.1579585E-1,-4.6256477E-1,-8.953797E-1,-2.600849E-1,1.2943691E0,-3.9332235E-1,9.587613E-1,1.8449425E0,4.3537247E-1,-9.612303E-1,-5.1484984E-1,-3.0002603E-1,7.362924E-1,-8.0820656E-1,3.617714E-1,1.9587461E0,1.6643935E-1,2.6710036E0,8.2968414E-1,3.2476227E0,1.5409029E0,1.9781003E0,3.9967296E0,2.0228229E0,3.091745E0,2.142403E0,4.8134342E-1,1.9371635E0,3.7636476E0,-5.5532146E-2,-1.1965415E-2,-5.0051033E-2,-2.866505E-2,-5.1301803E-2,2.4379207E-2,3.5225686E-2,-3.4182306E-2,-3.1963628E-2,7.820604E-3,-5.1294405E-2,-3.9139204E-2,1.1496264E-2,-3.1645842E-2,-1.9285372E-2,1.0693274E-1,1.201957E-2,-3.5707664E-2,-3.5334458E-3,1.0183703E-1,1.1268467E-1,4.858267E-2,1.00061975E-1,1.0383393E-2,-5.2557655E-2,-3.2222703E-2,-2.959353E-3,-3.3828955E-2,-2.062454E-2,1.7125485E-2,2.422616E-2,1.184661E-1,-4.7069754E-2,1.1550802E-2,-2.4635583E-2,7.686032E-2,1.4046405E-1,1.2780457E-2,-6.020026E-3,6.598639E-2,1.5869659E-1,1.3547309E-2,8.9010485E-2,2.6091132E-2,1.6979502E-1,1.8515008E-2,1.375023E-1,3.2512333E-2,-1.4738514E-2,1.2837046E-1,4.167968E-2,2.0189956E-1,1.5055254E-2,1.1641636E-1,1.7800371E-1,1.2851697E-1,1.22836374E-1,-3.586069E-2,-1.0276202E-2,4.3145284E-2,1.486357E-1,7.910098E-2,2.0843993E-1,4.487677E-2],"categories":[],"categories_nodes":[],"categories_segments":[],"categories_sizes":[],"default_left":[0,0,0,0,0,0,0,0,0,0,0,0,0,0,0,0,0,0,0,0,0,0,0,0,0,0,0,0,0,0,0,0,0,0,0,0,0,0,0,0,0,0,0,0,0,0,0,0,0,0,0,0,0,0,0,0,0,0,0,0,0,0,0,0,0,0,0,0,0,0,0,0,0,0,0,0,0,0,0,0,0,0,0,0,0,0,0,0,0,0,0,0,0,0,0,0,0,0,0,0,0,0,0,0,0,0,0,0,0,0,0,0,0,0,0,0,0,0,0,0,0,0,0,0,0,0,0],"id":2,"left_children":[1,3,5,7,9,11,13,15,17,19,21,23,25,27,29,31,33,35,37,39,41,43,45,47,49,51,53,55,57,59,61,63,65,67,69,71,73,75,77,79,81,83,85,87,89,91,93,95,97,99,101,103,105,107,109,111,113,115,117,119,121,123,125,-1,-1,-1,-1,-1,-1,-1,-1,-1,-1,-1,-1,-1,-1,-1,-1,-1,-1,-1,-1,-1,-1,-1,-1,-1,-1,-1,-1,-1,-1,-1,-1,-1,-1,-1,-1,-1,-1,-1,-1,-1,-1,-1,-1,-1,-1,-1,-1,-1,-1,-1,-1,-1,-1,-1,-1,-1,-1,-1,-1,-1,-1,-1,-1],"loss_changes":[3.9623257E3,5.201113E2,4.7720813E2,9.322412E1,2.9945526E2,1.3411246E2,1.52896E2,2.0901367E1,5.0211E1,5.133438E1,1.978805E2,3.7901592E1,7.1299255E1,5.2193115E1,7.157721E1,8.190918E0,2.1048584E1,2.7269592E1,2.8138256E1,2.1780975E1,4.657225E1,1.05199585E2,1.09743126E2,7.443035E0,2.5239815E1,5.3982056E1,1.0491821E1,2.8790833E1,4.0121094E1,3.582294E1,2.4478241E1,5.5146484E0,4.786133E0,4.7170105E0,1.8406998E1,2.0706547E1,9.678345E0,1.5925901E1,1.9918915E1,7.4668903E0,1.9942192E1,1.9156418E1,1.41426325E1,2.8477112E1,8.1167694E1,4.1853966E1,4.9910355E1,7.218796E0,7.306392E0,1.3157051E1,1.5386862E1,2.097676E1,4.523835E1,6.797867E0,8.097277E0,1.7509056E1,4.63855E0,3.99617E1,1.2190369E1,1.7399544E1,1.4815424E1,6.589882E0,1.1591873E1,0E0,0E0,0E0,0E0,0E0,0E0,0E0,0E0,0E0,0E0,0E0,0E0,0E0,0E0,0E0,0E0,0E0,0E0,0E0,0E0,0E0,0E0,0E0,0E0,0E0,0E0,0E0,0E0,0E0,0E0,0E0,0E0,0E0,0E0,0E0,0E0,0E0,0E0,0E0,0E0,0E0,0E0,0E0,0E0,0E0,0E0,0E0,0E0,0E0,0E0,0E0,0E0,0E0,0E0,0E0,0E0,0E0,0E0,0E0,0E0,0E0,0E0,0E0,0E0],"parents":[2147483647,0,0,1,1,2,2,3,3,4,4,5,5,6,6,7,7,8,8,9,9,10,10,11,11,12,12,13,13,14,14,15,15,16,16,17,17,18,18,19,19,20,20,21,21,22,22,23,23,24,24,25,25,26,26,27,27,28,28,29,29,30,30,31,31,32,32,33,33,34,34,35,35,36,36,37,37,38,38,39,39,40,40,41,41,42,42,43,43,44,44,45,45,46,46,47,47,48,48,49,49,50,50,51,51,52,52,53,53,54,54,55,55,56,56,57,57,58,58,59,59,60,60,61,61,62,62],"right_children":[2,4,6,8,10,12,14,16,18,20,22,24,26,28,30,32,34,36,38,40,42,44,46,48,50,52,54,56,58,60,62,64,66,68,70,72,74,76,78,80,82,84,86,88,90,92,94,96,98,100,102,104,106,108,110,112,114,116,118,120,122,124,126,-1,-1,-1,-1,-1,-1,-1,-1,-1,-1,-1,-1,-1,-1,-1,-1,-1,-1,-1,-1,-1,-1,-1,-1,-1,-1,-1,-1,-1,-1,-1,-1,-1,-1,-1,-1,-1,-1,-1,-1,-1,-1,-1,-1,-1,-1,-1,-1,-1,-1,-1,-1,-1,-1,-1,-1,-1,-1,-1,-1,-1,-1,-1,-1],"split_conditions":[1.1354648E0,1.4079688E0,2.1694882E0,3.5229805E-1,-1.1491234E0,1.4079688E0,-1.2213726E0,1.0144146E-1,5.766134E-1,-2.941074E-1,2.1383034E-1,4.5832962E-1,2.3198261E0,-2.8745854E-1,6.987231E-1,2.2231376E-1,6.817525E-3,-3.7141356E-1,1.6096952E0,4.3202192E-1,7.8704536E-1,5.5027705E-1,4.5688698E-1,1.586545E0,-1.1068027E0,-1.585147E0,7.576483E-2,-2.366451E-1,8.998507E-1,-9.451852E-1,2.4618523E0,2.185858E0,1.81411E-1,4.781613E0,7.8704536E-1,-2.5560746E-1,-4.0816564E-2,-6.360546E-1,-1.2095685E-1,1.9594075E-1,1.7176476E0,8.767793E-2,-3.3694482E0,4.156635E-2,7.909188E-1,1.2104946E0,2.2770731E0,1.3667685E0,6.817525E-3,2.3379621E-1,1.1321709E0,1.5017447E0,-1.441179E0,1.8081356E0,-1.5550014E0,1.4079688E0,-6.618259E-1,1.4079688E0,-3.0483873E0,2.1789434E0,-8.753894E-2,-1.4156662E0,6.2986296E-1,-5.5532146E-2,-1.1965415E-2,-5.0051033E-2,-2.866505E-2,-5.1301803E-2,2.4379207E-2,3.5225686E-2,-3.4182306E-2,-3.1963628E-2,7.820604E-3,-5.1294405E-2,-3.9139204E-2,1.1496264E-2,-3.1645842E-2,-1.9285372E-2,1.0693274E-1,1.201957E-2,-3.5707664E-2,-3.5334458E-3,1.0183703E-1,1.1268467E-1,4.858267E-2,1.00061975E-1,1.0383393E-2,-5.2557655E-2,-3.2222703E-2,-2.959353E-3,-3.3828955E-2,-2.062454E-2,1.7125485E-2,2.422616E-2,1.184661E-1,-4.7069754E-2,1.1550802E-2,-2.4635583E-2,7.686032E-2,1.4046405E-1,1.2780457E-2,-6.020026E-3,6.598639E-2,1.5869659E-1,1.3547309E-2,8.9010485E-2,2.6091132E-2,1.6979502E-1,1.8515008E-2,1.375023E-1,3.2512333E-2,-1.4738514E-2,1.2837046E-1,4.167968E-2,2.0189956E-1,1.5055254E-2,1.1641636E-1,1.7800371E-1,1.2851697E-1,1.22836374E-1,-3.586069E-2,-1.0276202E-2,4.3145284E-2,1.486357E-1,7.910098E-2,2.0843993E-1,4.487677E-2],"split_indices":[17,55,17,16,54,55,24,17,17,10,16,16,28,2,31,10,57,24,28,22,57,64,17,31,7,3,3,28,16,7,28,49,52,28,57,23,4,3,22,15,33,13,7,10,64,2,31,4,57,9,4,44,53,36,24,55,16,55,24,19,10,3,1,0,0,0,0,0,0,0,0,0,0,0,0,0,0,0,0,0,0,0,0,0,0,0,0,0,0,0,0,0,0,0,0,0,0,0,0,0,0,0,0,0,0,0,0,0,0,0,0,0,0,0,0,0,0,0,0,0,0,0,0,0,0,0,0],"split_type":[0,0,0,0,0,0,0,0,0,0,0,0,0,0,0,0,0,0,0,0,0,0,0,0,0,0,0,0,0,0,0,0,0,0,0,0,0,0,0,0,0,0,0,0,0,0,0,0,0,0,0,0,0,0,0,0,0,0,0,0,0,0,0,0,0,0,0,0,0,0,0,0,0,0,0,0,0,0,0,0,0,0,0,0,0,0,0,0,0,0,0,0,0,0,0,0,0,0,0,0,0,0,0,0,0,0,0,0,0,0,0,0,0,0,0,0,0,0,0,0,0,0,0,0,0,0,0],"sum_hessian":[9.855495E3,9.199163E3,6.5633246E2,6.2259395E3,2.9732231E3,3.0863202E2,3.477004E2,5.228424E3,9.975159E2,1.5035301E2,2.82287E3,1.0871425E2,1.9991779E2,2.3453928E2,1.1316113E2,4.6228354E3,6.055883E2,8.996777E2,9.7838264E1,5.1722363E1,9.8630646E1,2.1234478E3,6.994226E2,5.510331E1,5.3610935E1,1.7385762E2,2.6060162E1,7.183755E1,1.6270172E2,7.12502E1,4.191093E1,3.9453809E3,6.774545E2,4.0649136E2,1.9909692E2,1.8739757E2,7.1228015E2,8.537721E1,1.2461053E1,3.488134E1,1.684102E1,5.880043E1,3.983022E1,1.02248883E3,1.1009587E3,5.7623737E2,1.2318525E2,4.958294E1,5.520372E0,8.578449E0,4.503249E1,1.7090887E1,1.5676674E2,1.7880846E1,8.179316E0,1.1507067E1,6.0330482E1,7.630674E1,8.639499E1,1.6397308E1,5.485289E1,2.9706144E1,1.2204786E1,3.9374778E3,7.9030285E0,6.4542755E2,3.2026955E1,4.0496457E2,1.5268016E0,9.272793E0,1.8982413E2,1.457543E2,4.164327E1,3.2614166E2,3.8613846E2,3.7056904E1,4.8320305E1,4.3493223E0,8.111731E0,1.1808198E1,2.3073143E1,9.092482E0,7.748539E0,3.897645E1,1.9823978E1,4.0678554E0,3.5762363E1,7.9460675E2,2.2788208E2,2.8875998E2,8.121988E2,4.907058E2,8.553154E1,1.078538E2,1.533145E1,4.4033646E1,5.5492945E0,3.5329318E0,1.9874402E0,5.288122E0,3.2903264E0,3.678029E1,8.252199E0,1.3863395E1,3.2274914E0,3.71826E1,1.1958414E2,1.683315E1,1.0476948E0,2.583851E0,5.5954647E0,2.472157E0,9.03491E0,1.0498667E0,5.9280617E1,1.1798732E1,6.4508E1,4.2443844E1,4.3951145E1,1.4900372E1,1.4969364E0,1.9754066E1,3.5098824E1,5.703902E0,2.4002243E1,1.0294983E1,1.9098032E0],"tree_param":{"num_deleted":"0","num_feature":"66","num_nodes":"127","size_leaf_vector":"1"}},{"base_weights":[-6.6006917E-1,-8.4230864E-1,1.4388595E0,-1.0046611E0,-5.0433975E-1,7.086286E-1,2.1879134E0,-1.0449697E0,-6.3807833E-1,-3.2659683E-1,-9.9066585E-1,-5.2452914E-2,1.143522E0,2.5689342E0,1.2871324E0,-1.075322E0,-8.4411925E-1,7.669272E-4,-7.4696904E-1,-4.9681798E-1,3.6015716E-1,-1.0057409E0,1.4971682E-1,-5.8305883E-1,4.9082574E-1,1.3967756E0,-2.0223989E-1,1.4619137E0,2.7834816E0,8.4395045E-1,2.2879179E0,-1.0922605E0,-9.4551086E-1,-4.563722E-1,-9.076308E-1,-3.1808716E-1,7.1876156E-1,-9.0241677E-1,-4.708329E-1,5.599841E-1,-5.5393213E-1,2.3242866E-1,1.5087132E0,-1.0107275E0,4.116885E-2,1.6080227E0,-5.2266794E-1,1.7993288E0,-7.5212467E-1,2.0045689E-1,2.013361E0,1.0494022E0,2.1367426E0,-3.999347E-1,1.3116701E0,7.764817E-1,2.5898273E0,3.278782E0,2.3702576E0,6.2882155E-1,2.4179542E0,2.6288855E-1,2.5328872E0,-5.4670107E-2,-4.6914895E-3,-2.337817E-2,-4.8415717E-2,-4.8211515E-2,-7.5593814E-3,-1.2650549E-2,-4.661782E-2,-2.4870021E-2,5.587989E-2,1.5599108E-1,2.4703054E-2,-4.670589E-2,-4.7275634E-3,-2.596699E-2,5.630966E-2,4.8179096E-3,5.9359457E-2,-3.912466E-2,-1.9706687E-2,-2.6718206E-3,3.7088506E-2,-2.0906156E-2,8.395623E-2,-5.3967305E-2,-4.2386536E-2,1.1385403E-2,1.1257415E-1,4.5254912E-2,-4.2587902E-2,-1.652985E-2,1.428951E-1,4.0216442E-2,-4.1298475E-2,5.072195E-2,-1.8775795E-2,3.2424174E-2,1.5103881E-1,2.454072E-2,7.400173E-2,1.4030652E-1,7.1351334E-2,-3.6492463E-2,1.5749943E-2,1.1957874E-1,-1.9726397E-2,8.502881E-2,-6.3819177E-3,1.4021607E-1,-9.89509E-3,1.6633274E-1,4.576534E-2,9.132562E-2,1.399328E-1,8.82781E-2,2.1537067E-2,1.3682711E-1,1.0522322E-2,-4.1240733E-2,7.03726E-2,1.3136081E-1,-5.8074943E-3],"categories":[],"categories_nodes":[],"categories_segments":[],"categories_sizes":[],"default_left":[0,0,0,0,0,0,0,0,0,0,0,0,0,0,0,0,0,0,0,0,0,0,0,0,0,0,0,0,0,0,0,0,0,0,0,0,0,0,0,0,0,0,0,0,0,0,0,0,0,0,0,0,0,0,0,0,0,0,0,0,0,0,0,0,0,0,0,0,0,0,0,0,0,0,0,0,0,0,0,0,0,0,0,0,0,0,0,0,0,0,0,0,0,0,0,0,0,0,0,0,0,0,0,0,0,0,0,0,0,0,0,0,0,0,0,0,0,0,0,0,0,0,0,0,0],"id":3,"left_children":[1,3,5,7,9,11,13,15,17,19,21,23,25,27,29,31,33,35,37,39,41,43,45,47,49,51,53,55,57,59,61,63,65,67,69,71,73,75,77,79,81,83,85,87,-1,89,91,93,95,97,99,101,103,105,107,109,111,113,115,117,119,121,123,-1,-1,-1,-1,-1,-1,-1,-1,-1,-1,-1,-1,-1,-1,-1,-1,-1,-1,-1,-1,-1,-1,-1,-1,-1,-1,-1,-1,-1,-1,-1,-1,-1,-1,-1,-1,-1,-1,-1,-1,-1,-1,-1,-1,-1,-1,-1,-1,-1,-1,-1,-1,-1,-1,-1,-1,-1,-1,-1,-1,-1,-1],"loss_changes":[3.6682153E3,4.8353027E2,4.175702E2,8.737012E1,2.4729144E2,1.2897194E2,1.26349E2,3.1805176E1,4.1237686E1,2.4559038E2,1.3322937E1,4.1387615E1,8.476938E1,5.874463E1,4.87632E1,9.209961E0,1.704889E1,2.022052E1,2.1314972E1,1.0187866E2,6.090819E1,7.731262E0,1.1496246E1,3.0590729E1,3.0981857E1,5.141797E1,1.25367155E1,3.281067E1,3.734375E1,2.5839989E1,1.6446304E1,4.5859375E0,5.488159E0,1.5634659E1,9.610107E0,1.630182E1,1.3112664E1,8.182617E0,1.4878212E1,2.5119587E1,5.8019135E1,5.49264E1,1.4364113E1,7.5265503E0,0E0,2.7510986E0,4.620302E0,1.2454319E1,8.53566E0,2.8854082E1,1.3523701E1,3.391974E1,2.7220917E1,8.7838E0,9.91552E0,2.4817347E1,1.0479164E1,8.003662E0,2.3721497E1,1.5549866E1,6.0098457E0,7.1844645E0,7.9657745E0,0E0,0E0,0E0,0E0,0E0,0E0,0E0,0E0,0E0,0E0,0E0,0E0,0E0,0E0,0E0,0E0,0E0,0E0,0E0,0E0,0E0,0E0,0E0,0E0,0E0,0E0,0E0,0E0,0E0,0E0,0E0,0E0,0E0,0E0,0E0,0E0,0E0,0E0,0E0,0E0,0E0,0E0,0E0,0E0,0E0,0E0,0E0,0E0,0E0,0E0,0E0,0E0,0E0,0E0,0E0,0E0,0E0,0E0,0E0,0E0,0E0,0E0],"parents":[2147483647,0,0,1,1,2,2,3,3,4,4,5,5,6,6,7,7,8,8,9,9,10,10,11,11,12,12,13,13,14,14,15,15,16,16,17,17,18,18,19,19,20,20,21,21,22,22,23,23,24,24,25,25,26,26,27,27,28,28,29,29,30,30,31,31,32,32,33,33,34,34,35,35,36,36,37,37,38,38,39,39,40,40,41,41,42,42,43,43,45,45,46,46,47,47,48,48,49,49,50,50,51,51,52,52,53,53,54,54,55,55,56,56,57,57,58,58,59,59,60,60,61,61,62,62],"right_children":[2,4,6,8,10,12,14,16,18,20,22,24,26,28,30,32,34,36,38,40,42,44,46,48,50,52,54,56,58,60,62,64,66,68,70,72,74,76,78,80,82,84,86,88,-1,90,92,94,96,98,100,102,104,106,108,110,112,114,116,118,120,122,124,-1,-1,-1,-1,-1,-1,-1,-1,-1,-1,-1,-1,-1,-1,-1,-1,-1,-1,-1,-1,-1,-1,-1,-1,-1,-1,-1,-1,-1,-1,-1,-1,-1,-1,-1,-1,-1,-1,-1,-1,-1,-1,-1,-1,-1,-1,-1,-1,-1,-1,-1,-1,-1,-1,-1,-1,-1,-1,-1,-1,-1,-1],"split_conditions":[1.0062119E0,1.4079688E0,2.1694882E0,2.3069438E-1,2.0730298E0,1.4079688E0,-1.1179007E0,3.6529598E-1,-1.21692E0,2.5623712E-1,1.9006826E0,4.5832962E-1,2.0730298E0,1.4079688E0,1.1362746E0,4.547033E-1,-6.279102E-1,8.998507E-1,6.817525E-3,-1.441179E0,2.7022648E0,3.929456E0,-9.84161E-1,-8.265318E-1,1.1927955E0,1.11128636E-1,6.301535E-1,8.9956427E-1,2.412308E-1,5.2910976E0,-4.0860316E-1,2.8116913E0,-7.441015E-1,-2.968548E-1,-1.7083004E0,4.376356E-1,-9.1397756E-1,2.8879309E0,7.005174E-1,-4.5509424E-2,-1.0179317E-1,3.2843173E-1,-5.2263814E-1,-8.4294516E-1,4.116885E-2,3.075787E-1,-1.3685502E0,-1.0187044E0,-1.837611E0,-1.0625017E0,-2.768051E-1,-3.4499083E-2,-4.52805E-1,6.1551195E-1,5.934463E-1,-1.0100231E0,1.1623992E0,3.3789887E0,4.108282E0,-1.5531276E0,1.0204805E-1,8.486113E-1,7.0599155E0,-5.4670107E-2,-4.6914895E-3,-2.337817E-2,-4.8415717E-2,-4.8211515E-2,-7.5593814E-3,-1.2650549E-2,-4.661782E-2,-2.4870021E-2,5.587989E-2,1.5599108E-1,2.4703054E-2,-4.670589E-2,-4.7275634E-3,-2.596699E-2,5.630966E-2,4.8179096E-3,5.9359457E-2,-3.912466E-2,-1.9706687E-2,-2.6718206E-3,3.7088506E-2,-2.0906156E-2,8.395623E-2,-5.3967305E-2,-4.2386536E-2,1.1385403E-2,1.1257415E-1,4.5254912E-2,-4.2587902E-2,-1.652985E-2,1.428951E-1,4.0216442E-2,-4.1298475E-2,5.072195E-2,-1.8775795E-2,3.2424174E-2,1.5103881E-1,2.454072E-2,7.400173E-2,1.4030652E-1,7.1351334E-2,-3.6492463E-2,1.5749943E-2,1.1957874E-1,-1.9726397E-2,8.502881E-2,-6.3819177E-3,1.4021607E-1,-9.89509E-3,1.6633274E-1,4.576534E-2,9.132562E-2,1.399328E-1,8.82781E-2,2.1537067E-2,1.3682711E-1,1.0522322E-2,-4.1240733E-2,7.03726E-2,1.3136081E-1,-5.8074943E-3],"split_indices":[17,55,17,17,65,55,24,16,6,17,10,16,65,55,28,10,24,16,57,53,33,28,6,26,21,23,16,28,2,17,16,49,26,52,6,50,26,28,51,11,0,16,11,53,0,33,18,8,6,24,36,0,26,28,42,6,51,11,17,6,6,48,37,0,0,0,0,0,0,0,0,0,0,0,0,0,0,0,0,0,0,0,0,0,0,0,0,0,0,0,0,0,0,0,0,0,0,0,0,0,0,0,0,0,0,0,0,0,0,0,0,0,0,0,0,0,0,0,0,0,0,0,0,0,0],"split_type":[0,0,0,0,0,0,0,0,0,0,0,0,0,0,0,0,0,0,0,0,0,0,0,0,0,0,0,0,0,0,0,0,0,0,0,0,0,0,0,0,0,0,0,0,0,0,0,0,0,0,0,0,0,0,0,0,0,0,0,0,0,0,0,0,0,0,0,0,0,0,0,0,0,0,0,0,0,0,0,0,0,0,0,0,0,0,0,0,0,0,0,0,0,0,0,0,0,0,0,0,0,0,0,0,0,0,0,0,0,0,0,0,0,0,0,0,0,0,0,0,0,0,0,0,0],"sum_hessian":[9.585746E3,8.820504E3,7.652415E2,5.9569497E3,2.8635542E3,3.8847476E2,3.7676672E2,5.365159E3,5.917906E2,2.0983271E3,7.65227E2,1.4158119E2,2.4689359E2,2.6346988E2,1.1329686E2,4.6570366E3,7.081229E2,8.6325424E1,5.0546515E2,1.6817577E3,4.1656952E2,7.553598E2,9.867232E0,7.158894E1,6.999225E1,2.0775844E2,3.9135143E1,4.404107E1,2.194288E2,7.9801384E1,3.349548E1,4.112944E3,5.4409247E2,1.0081554E2,6.0730743E2,6.0164127E1,2.6161297E1,3.2195578E2,1.8350935E2,8.5777794E1,1.5959799E3,3.7596194E2,4.0607574E1,7.5375226E2,1.607521E0,2.674691E0,7.192541E0,4.104713E0,6.748423E1,5.973215E1,1.0260099E1,1.4303134E2,6.47271E1,3.526577E1,3.8693748E0,2.8444063E1,1.5597007E1,9.6648735E1,1.22780075E2,7.1437126E1,8.364252E0,3.8384278E0,2.9657053E1,4.1081514E3,4.792683E0,2.5756426E1,5.1833606E2,3.7031635E1,6.3783897E1,2.251253E1,5.8479486E2,5.4065086E1,6.0990405E0,1.1361794E0,2.5025116E1,3.0964874E2,1.2307056E1,1.7875479E2,4.7545557E0,4.9983757E1,3.5794037E1,6.55095E2,9.408849E2,2.4138246E2,1.3457948E2,3.1814423E0,3.7426132E1,5.264888E2,2.272635E2,1.2808865E0,1.3938044E0,1.0194263E0,6.173115E0,1.5910671E0,2.5136461E0,2.6086495E0,6.487558E1,2.4436497E1,3.5295654E1,5.055059E0,5.205041E0,6.319661E1,7.9834724E1,3.1789808E1,3.293729E1,2.41162E1,1.114957E1,2.123591E0,1.7457838E0,1.3631E1,1.4813064E1,1.4477151E1,1.1198559E0,9.433051E1,2.318219E0,5.6425514E1,6.635456E1,9.426587E0,6.201054E1,7.0999355E0,1.2643167E0,2.1113393E0,1.7270883E0,2.8645267E1,1.0117853E0],"tree_param":{"num_deleted":"0","num_feature":"66","num_nodes":"125","size_leaf_vector":"1"}},{"base_weights":[-6.527833E-1,-8.316931E-1,1.2819961E0,-9.9274474E-1,-5.0183105E-1,2.0082633E0,6.870639E-1,-1.046836E0,-7.104973E-1,8.430928E-1,-5.754353E-1,1.7332159E0,2.8958213E0,1.9617723E0,3.992887E-1,-1.0685E0,-8.343831E-1,-8.614047E-2,-7.883691E-1,1.2207514E0,1.9611238E-1,-4.1345894E-1,-9.989093E-1,1.39072E0,2.5769174E0,1.470208E0,2.957731E0,2.3955767E0,1.2600828E0,1.16573654E-1,1.5407181E0,-1.082329E0,-9.282461E-1,-9.832098E-1,-5.3759235E-1,-3.4448636E-1,7.152221E-1,-8.936903E-1,-5.6152683E-1,-8.961352E-2,1.4469186E0,2.1569033E0,3.1907354E-2,-5.986216E-1,6.492927E-2,-1.0131162E0,-7.593323E-2,2.1624231E0,1.0451275E0,2.9316313E0,1.6889254E0,2.0724652E0,-1.4558131E-2,1.4916979E-1,3.3357214E-2,3.474252E-3,2.4661849E0,8.221377E-1,2.8634794E0,1.7693851E0,-3.865181E-2,1.825188E0,2.9859665E-1,-5.44837E-2,-4.5502216E-2,-4.704799E-2,6.788321E-3,-4.9629994E-2,3.2808244E-2,5.119554E-2,-3.0401224E-2,1.7572913E-2,-3.0602697E-2,9.003232E-2,-1.7122889E-3,-2.641275E-2,-4.7590997E-2,-3.0532693E-2,1.8782964E-2,5.3253096E-2,-2.4439652E-2,3.8523313E-2,9.764179E-2,1.3298203E-1,1.7429385E-2,7.428828E-2,-9.092192E-3,-3.7085246E-2,-1.6697234E-2,1.4153384E-1,8.991656E-4,-5.0852574E-2,3.7281882E-2,8.922689E-2,-3.2021437E-2,1.15450405E-1,-1.3445909E-2,2.78018E-2,7.133477E-2,1.5273002E-1,5.2434105E-2,4.101033E-2,1.14101045E-1,1.22026205E-1,3.1178284E-2,1.9074237E-2,1.2656425E-1,2.8191558E-3,6.5905266E-2,1.6307405E-1,4.3515634E-2,9.941958E-2,-1.2396927E-2,-2.6440948E-2,1.4986678E-2,5.5427015E-2,1.1438072E-1,-3.3230323E-2,4.1194413E-2],"categories":[],"categories_nodes":[],"categories_segments":[],"categories_sizes":[],"default_left":[0,0,0,0,0,0,0,0,0,0,0,0,0,0,0,0,0,0,0,0,0,0,0,0,0,0,0,0,0,0,0,0,0,0,0,0,0,0,0,0,0,0,0,0,0,0,0,0,0,0,0,0,0,0,0,0,0,0,0,0,0,0,0,0,0,0,0,0,0,0,0,0,0,0,0,0,0,0,0,0,0,0,0,0,0,0,0,0,0,0,0,0,0,0,0,0,0,0,0,0,0,0,0,0,0,0,0,0,0,0,0,0,0,0,0,0,0,0,0],"id":4,"left_children":[1,3,5,7,9,11,13,15,17,19,21,23,25,27,29,31,33,35,37,39,41,43,45,47,49,51,53,55,57,59,61,63,65,67,69,71,73,75,77,79,81,83,85,87,89,91,93,95,97,99,101,103,-1,-1,-1,-1,105,107,109,111,113,115,117,-1,-1,-1,-1,-1,-1,-1,-1,-1,-1,-1,-1,-1,-1,-1,-1,-1,-1,-1,-1,-1,-1,-1,-1,-1,-1,-1,-1,-1,-1,-1,-1,-1,-1,-1,-1,-1,-1,-1,-1,-1,-1,-1,-1,-1,-1,-1,-1,-1,-1,-1,-1,-1,-1,-1,-1],"loss_changes":[3.2341326E3,4.5372314E2,3.4038074E2,8.695166E1,2.7835626E2,8.180237E1,1.592704E2,2.128418E1,4.499756E1,3.544729E1,1.8217749E2,7.559296E1,2.946045E0,2.1364838E1,1.150925E2,7.4692383E0,1.9366394E1,2.1758411E1,1.9184326E1,2.7404083E1,1.7647305E1,1.7074731E2,9.571106E0,5.0294952E1,1.9598816E1,6.361574E0,2.6080322E0,7.7764893E0,2.0616756E1,7.379861E1,2.448265E1,4.032715E0,5.5269165E0,5.2506104E0,1.7409325E1,1.4972717E1,2.093328E1,1.1414978E1,1.2382324E1,7.198446E0,2.5375046E1,2.924633E0,1.6363712E1,5.237378E1,6.989125E1,5.772888E0,1.3992156E1,2.2011139E1,2.496846E1,9.377594E0,1.0806282E1,7.01004E-1,0E0,0E0,0E0,0E0,5.404358E0,1.0216997E1,2.4093742E0,1.1402962E1,4.3895187E1,1.6498215E1,7.8305664E0,0E0,0E0,0E0,0E0,0E0,0E0,0E0,0E0,0E0,0E0,0E0,0E0,0E0,0E0,0E0,0E0,0E0,0E0,0E0,0E0,0E0,0E0,0E0,0E0,0E0,0E0,0E0,0E0,0E0,0E0,0E0,0E0,0E0,0E0,0E0,0E0,0E0,0E0,0E0,0E0,0E0,0E0,0E0,0E0,0E0,0E0,0E0,0E0,0E0,0E0,0E0,0E0,0E0,0E0,0E0,0E0],"parents":[2147483647,0,0,1,1,2,2,3,3,4,4,5,5,6,6,7,7,8,8,9,9,10,10,11,11,12,12,13,13,14,14,15,15,16,16,17,17,18,18,19,19,20,20,21,21,22,22,23,23,24,24,25,25,26,26,27,27,28,28,29,29,30,30,31,31,32,32,33,33,34,34,35,35,36,36,37,37,38,38,39,39,40,40,41,41,42,42,43,43,44,44,45,45,46,46,47,47,48,48,49,49,50,50,51,51,56,56,57,57,58,58,59,59,60,60,61,61,62,62],"right_children":[2,4,6,8,10,12,14,16,18,20,22,24,26,28,30,32,34,36,38,40,42,44,46,48,50,52,54,56,58,60,62,64,66,68,70,72,74,76,78,80,82,84,86,88,90,92,94,96,98,100,102,104,-1,-1,-1,-1,106,108,110,112,114,116,118,-1,-1,-1,-1,-1,-1,-1,-1,-1,-1,-1,-1,-1,-1,-1,-1,-1,-1,-1,-1,-1,-1,-1,-1,-1,-1,-1,-1,-1,-1,-1,-1,-1,-1,-1,-1,-1,-1,-1,-1,-1,-1,-1,-1,-1,-1,-1,-1,-1,-1,-1,-1,-1,-1,-1,-1],"split_conditions":[1.0062119E0,1.4079688E0,-3.4636346E-1,3.5229805E-1,-1.1491234E0,5.2910976E0,-1.158415E0,1.5506884E-1,-9.1986114E-1,7.8704536E-1,2.0730298E0,2.0831158E0,-4.1271892E-1,-1.1068027E0,3.4297042E0,6.354507E-1,6.817525E-3,8.5222226E-1,6.817525E-3,6.817525E-3,-1.4495624E0,9.276114E-2,1.7973983E0,-6.97289E-1,-5.9819814E-2,5.349471E-1,3.0021641E0,-5.26022E-1,9.757726E-1,-1.6565762E0,4.1868668E-2,1.6626208E-1,1.0981003E0,4.0618334E0,-1.5014035E0,-6.5318793E-1,-3.7952375E-1,-1.3203685E0,7.4770606E-1,-8.411634E-1,-2.2485568E-1,2.86165E-1,-3.3694482E0,7.0947506E-2,-5.5078425E0,4.4105268E0,-1.2936976E0,1.4334568E0,1.9432956E0,-6.3311225E-1,-1.5416278E-3,3.1330507E-2,-1.4558131E-2,1.4916979E-1,3.3357214E-2,3.474252E-3,-2.130812E0,-9.562137E-2,4.1112714E0,2.2228856E0,1.4079688E0,3.0963522E-1,-4.6403298E-1,-5.44837E-2,-4.5502216E-2,-4.704799E-2,6.788321E-3,-4.9629994E-2,3.2808244E-2,5.119554E-2,-3.0401224E-2,1.7572913E-2,-3.0602697E-2,9.003232E-2,-1.7122889E-3,-2.641275E-2,-4.7590997E-2,-3.0532693E-2,1.8782964E-2,5.3253096E-2,-2.4439652E-2,3.8523313E-2,9.764179E-2,1.3298203E-1,1.7429385E-2,7.428828E-2,-9.092192E-3,-3.7085246E-2,-1.6697234E-2,1.4153384E-1,8.991656E-4,-5.0852574E-2,3.7281882E-2,8.922689E-2,-3.2021437E-2,1.15450405E-1,-1.3445909E-2,2.78018E-2,7.133477E-2,1.5273002E-1,5.2434105E-2,4.101033E-2,1.14101045E-1,1.22026205E-1,3.1178284E-2,1.9074237E-2,1.2656425E-1,2.8191558E-3,6.5905266E-2,1.6307405E-1,4.3515634E-2,9.941958E-2,-1.2396927E-2,-2.6440948E-2,1.4986678E-2,5.5427015E-2,1.1438072E-1,-3.3230323E-2,4.1194413E-2],"split_indices":[17,55,5,16,54,17,54,17,5,57,65,28,9,7,17,10,57,28,57,57,3,17,10,26,3,2,2,11,4,6,3,52,49,25,6,26,7,6,17,13,11,43,7,22,5,22,1,18,17,5,0,18,0,0,0,0,0,33,43,48,55,64,0,0,0,0,0,0,0,0,0,0,0,0,0,0,0,0,0,0,0,0,0,0,0,0,0,0,0,0,0,0,0,0,0,0,0,0,0,0,0,0,0,0,0,0,0,0,0,0,0,0,0,0,0,0,0,0,0],"split_type":[0,0,0,0,0,0,0,0,0,0,0,0,0,0,0,0,0,0,0,0,0,0,0,0,0,0,0,0,0,0,0,0,0,0,0,0,0,0,0,0,0,0,0,0,0,0,0,0,0,0,0,0,0,0,0,0,0,0,0,0,0,0,0,0,0,0,0,0,0,0,0,0,0,0,0,0,0,0,0,0,0,0,0,0,0,0,0,0,0,0,0,0,0,0,0,0,0,0,0,0,0,0,0,0,0,0,0,0,0,0,0,0,0,0,0,0,0,0,0],"sum_hessian":[9.339043E3,8.549076E3,7.8996643E2,5.7430723E3,2.806004E3,3.5464987E2,4.3531653E2,4.817176E3,9.258963E2,1.4505473E2,2.6609492E3,2.7300156E2,8.1648315E1,7.910437E1,3.5621216E2,4.367763E3,4.4941284E2,1.0290841E2,8.229879E2,9.103088E1,5.4023853E1,1.9261749E3,7.347742E2,1.9606035E2,7.6941216E1,4.4281325E0,7.722018E1,4.739155E1,3.1712818E1,2.8638177E2,6.9830376E1,3.9696387E3,3.9812454E2,2.9777817E2,1.5163467E2,7.825155E1,2.4656864E1,5.600303E2,2.6295758E2,1.3488006E1,7.754288E1,3.2368488E0,5.0787006E1,1.3884982E3,5.376768E2,7.2353937E2,1.1234768E1,5.9017647E1,1.370427E2,5.333486E1,2.3606356E1,3.168218E0,1.2599144E0,7.606545E1,1.1547252E0,1.4546331E0,4.5936916E1,2.6097424E1,5.615395E0,2.3693977E1,2.626878E2,5.643602E1,1.3394359E1,3.8022166E3,1.6742195E2,3.9353787E2,4.5866733E0,2.9647455E2,1.3036231E0,5.960086E0,1.4567458E2,2.1643406E1,5.660814E1,9.498298E0,1.5158567E1,7.8242386E1,4.817879E2,2.5019106E2,1.27665415E1,3.0364823E0,1.0451524E1,3.4258873E1,4.3284004E1,2.1643465E0,1.0725024E0,5.74701E0,4.5039993E1,9.001036E2,4.8839462E2,7.9845257E0,5.2969226E2,7.2234485E2,1.1945413E0,2.112167E0,9.1226015E0,5.5709263E1,3.3083825E0,6.1136074E1,7.5906624E1,4.948118E1,3.853683E0,1.0544517E1,1.3061839E1,1.9806753E0,1.1875427E0,1.5987908E0,4.4338127E1,1.0696354E1,1.540107E1,4.1503167E0,1.4650785E0,2.1386538E1,2.3074408E0,1.0705329E2,1.5563452E2,2.3466265E1,3.2969753E1,4.6332912E0,8.761067E0],"tree_param":{"num_deleted":"0","num_feature":"66","num_nodes":"119","size_leaf_vector":"1"}},{"base_weights":[-6.399715E-1,-8.1824976E-1,1.1892394E0,-9.8503774E-1,-4.8487708E-1,5.8513135E-1,1.7900454E0,-1.0262111E0,-6.195263E-1,7.548141E-1,-5.5698586E-1,2.2396323E-1,1.3134078E0,1.3863857E0,2.4178662E0,-1.0644995E0,-8.6491084E-1,-7.3317456E-1,8.08032E-2,1.3264931E0,3.6066666E-1,-7.6235944E-1,-2.4746941E-1,1.5331345E0,-9.902906E-3,2.3465095E0,9.453074E-1,2.0504198E0,9.0457845E-1,2.7475197E0,1.9918628E0,-1.0663384E0,-1.3552877E-1,-5.468628E-1,-9.2876095E-1,-1.2754424E-1,-8.1676847E-1,-2.6752716E-1,9.112753E-1,5.49002E-1,1.7829562E0,2.7230358E-1,1.4825143E-1,-8.0326694E-1,4.5723093E-1,-3.72613E-1,5.3085387E-1,3.2749042E-1,1.8461567E0,9.442337E-1,-2.308335E-1,2.5348186E0,1.3397317E-1,1.6247854E0,6.1709225E-1,1.446821E0,2.426203E0,1.9512696E0,4.3131584E-1,8.156658E-1,2.7910705E0,5.322079E-1,2.1504745E0,-4.8151623E-2,-5.406822E-2,6.710562E-2,-2.9903581E-2,-3.8594157E-2,-1.2929223E-2,-4.7343727E-2,-8.544287E-3,-1.5813647E-2,4.864917E-2,-4.710661E-2,-2.985253E-2,-2.7477687E-2,1.9722529E-2,4.6742926E-3,9.933748E-2,6.469806E-2,-1.7584316E-2,5.1307995E-2,1.16264895E-1,1.1245067E-3,6.1573744E-2,-5.0854396E-2,-3.0600036E-2,-1.507651E-2,6.672433E-2,-3.1326484E-2,-9.873492E-3,9.873654E-2,1.6482469E-2,-4.107545E-2,7.011495E-2,8.983024E-3,1.0630204E-1,2.8498998E-2,1.0949301E-1,-1.8448137E-2,5.513612E-2,6.3710646E-3,1.3179116E-1,5.6578763E-2,-3.8297024E-2,9.6991435E-2,1.8048458E-2,5.9401978E-2,6.1894273E-3,9.917536E-2,4.438966E-2,1.2579854E-1,9.345036E-4,1.05983295E-1,-1.2516397E-2,6.428758E-3,5.7647478E-2,-1.3683179E-2,7.321101E-2,3.2007255E-2,1.4069691E-1,7.8655474E-2,-2.9485134E-2,1.3793133E-1,8.900698E-2],"categories":[],"categories_nodes":[],"categories_segments":[],"categories_sizes":[],"default_left":[0,0,0,0,0,0,0,0,0,0,0,0,0,0,0,0,0,0,0,0,0,0,0,0,0,0,0,0,0,0,0,0,0,0,0,0,0,0,0,0,0,0,0,0,0,0,0,0,0,0,0,0,0,0,0,0,0,0,0,0,0,0,0,0,0,0,0,0,0,0,0,0,0,0,0,0,0,0,0,0,0,0,0,0,0,0,0,0,0,0,0,0,0,0,0,0,0,0,0,0,0,0,0,0,0,0,0,0,0,0,0,0,0,0,0,0,0,0,0,0,0,0,0,0,0],"id":5,"left_children":[1,3,5,7,9,11,13,15,17,19,21,23,25,27,29,31,33,35,37,39,41,43,45,47,49,51,53,55,57,59,61,63,65,67,69,71,73,75,77,79,81,83,-1,85,87,89,91,93,95,97,99,101,103,105,107,109,111,113,115,117,119,121,123,-1,-1,-1,-1,-1,-1,-1,-1,-1,-1,-1,-1,-1,-1,-1,-1,-1,-1,-1,-1,-1,-1,-1,-1,-1,-1,-1,-1,-1,-1,-1,-1,-1,-1,-1,-1,-1,-1,-1,-1,-1,-1,-1,-1,-1,-1,-1,-1,-1,-1,-1,-1,-1,-1,-1,-1,-1,-1,-1,-1,-1,-1],"loss_changes":[2.9662278E3,4.602417E2,2.921859E2,8.246533E1,2.4759723E2,1.0605812E2,9.917822E1,2.9719727E1,4.475493E1,3.3865433E1,1.6595203E2,8.313963E1,4.867836E1,7.7679565E1,1.657312E1,6.6972656E0,1.89281E1,2.4361755E1,2.318559E1,2.096354E1,2.0270401E1,7.8728516E1,1.0188421E2,1.4927063E1,4.8984364E1,1.4028244E1,2.1377533E1,2.0020355E1,7.1408554E1,4.94751E0,1.555249E1,5.163574E0,6.993671E0,1.0338253E1,1.0760681E1,1.2727838E1,1.112912E1,1.079216E1,2.0625055E1,1.6770603E1,1.3420601E1,2.1462442E1,0E0,6.1542725E1,3.4755966E1,3.9899307E1,4.147941E1,1.3129069E1,1.4756676E1,1.9120293E1,3.5156708E1,7.378189E0,4.2428336E0,1.2070045E1,1.9365492E1,1.0924553E1,1.3451294E1,1.7262238E1,2.2075119E1,2.7362971E0,2.3086548E0,1.0734313E1,9.665924E0,0E0,0E0,0E0,0E0,0E0,0E0,0E0,0E0,0E0,0E0,0E0,0E0,0E0,0E0,0E0,0E0,0E0,0E0,0E0,0E0,0E0,0E0,0E0,0E0,0E0,0E0,0E0,0E0,0E0,0E0,0E0,0E0,0E0,0E0,0E0,0E0,0E0,0E0,0E0,0E0,0E0,0E0,0E0,0E0,0E0,0E0,0E0,0E0,0E0,0E0,0E0,0E0,0E0,0E0,0E0,0E0,0E0,0E0,0E0,0E0,0E0,0E0],"parents":[2147483647,0,0,1,1,2,2,3,3,4,4,5,5,6,6,7,7,8,8,9,9,10,10,11,11,12,12,13,13,14,14,15,15,16,16,17,17,18,18,19,19,20,20,21,21,22,22,23,23,24,24,25,25,26,26,27,27,28,28,29,29,30,30,31,31,32,32,33,33,34,34,35,35,36,36,37,37,38,38,39,39,40,40,41,41,43,43,44,44,45,45,46,46,47,47,48,48,49,49,50,50,51,51,52,52,53,53,54,54,55,55,56,56,57,57,58,58,59,59,60,60,61,61,62,62],"right_children":[2,4,6,8,10,12,14,16,18,20,22,24,26,28,30,32,34,36,38,40,42,44,46,48,50,52,54,56,58,60,62,64,66,68,70,72,74,76,78,80,82,84,-1,86,88,90,92,94,96,98,100,102,104,106,108,110,112,114,116,118,120,122,124,-1,-1,-1,-1,-1,-1,-1,-1,-1,-1,-1,-1,-1,-1,-1,-1,-1,-1,-1,-1,-1,-1,-1,-1,-1,-1,-1,-1,-1,-1,-1,-1,-1,-1,-1,-1,-1,-1,-1,-1,-1,-1,-1,-1,-1,-1,-1,-1,-1,-1,-1,-1,-1,-1,-1,-1,-1,-1,-1,-1,-1,-1],"split_conditions":[1.0062119E0,1.4079688E0,2.1694882E0,2.3069438E-1,-1.1491234E0,5.014293E-1,1.1362746E0,2.9977694E-1,8.9601684E-1,-1.5108465E0,-8.753894E-2,-1.1491234E0,-7.329773E-1,-1.0100231E0,-2.3334684E0,2.60308E0,-1.0358852E0,-1.2945064E0,9.469063E-1,-3.6037505E-2,3.7962842E0,2.225142E0,8.9601684E-1,-6.182621E-1,-1.2427822E0,1.9096683E0,-7.835676E-1,3.4297042E0,-1.349229E0,-1.6446912E0,-2.6884627E-1,-6.6709226E-1,-7.038469E-1,8.194935E-3,2.2601283E0,1.7301517E0,6.817525E-3,8.2671463E-1,7.909188E-1,8.401679E-1,-1.2372666E-1,6.000762E-1,1.4825143E-1,5.5027705E-1,3.7953272E-1,5.5027705E-1,-8.618351E-1,-4.9278072E-1,-2.7899793E-1,1.2813599E0,2.3348658E0,-1.6806654E0,-6.249953E-1,1.0739319E0,-4.0885973E-1,-3.310385E-1,2.7037582E0,2.2893758E0,1.0614653E0,-1.9241086E0,-7.2488415E-1,1.420368E-3,-1.0097513E0,-4.8151623E-2,-5.406822E-2,6.710562E-2,-2.9903581E-2,-3.8594157E-2,-1.2929223E-2,-4.7343727E-2,-8.544287E-3,-1.5813647E-2,4.864917E-2,-4.710661E-2,-2.985253E-2,-2.7477687E-2,1.9722529E-2,4.6742926E-3,9.933748E-2,6.469806E-2,-1.7584316E-2,5.1307995E-2,1.16264895E-1,1.1245067E-3,6.1573744E-2,-5.0854396E-2,-3.0600036E-2,-1.507651E-2,6.672433E-2,-3.1326484E-2,-9.873492E-3,9.873654E-2,1.6482469E-2,-4.107545E-2,7.011495E-2,8.983024E-3,1.0630204E-1,2.8498998E-2,1.0949301E-1,-1.8448137E-2,5.513612E-2,6.3710646E-3,1.3179116E-1,5.6578763E-2,-3.8297024E-2,9.6991435E-2,1.8048458E-2,5.9401978E-2,6.1894273E-3,9.917536E-2,4.438966E-2,1.2579854E-1,9.345036E-4,1.05983295E-1,-1.2516397E-2,6.428758E-3,5.7647478E-2,-1.3683179E-2,7.321101E-2,3.2007255E-2,1.4069691E-1,7.8655474E-2,-2.9485134E-2,1.3793133E-1,8.900698E-2],"split_indices":[17,55,17,17,54,31,28,10,31,7,10,54,26,6,24,49,6,6,28,22,33,28,31,0,6,19,7,17,7,29,11,50,3,31,22,19,57,0,64,26,0,31,0,64,53,64,26,6,11,19,49,19,15,22,1,7,36,11,29,3,49,37,54,0,0,0,0,0,0,0,0,0,0,0,0,0,0,0,0,0,0,0,0,0,0,0,0,0,0,0,0,0,0,0,0,0,0,0,0,0,0,0,0,0,0,0,0,0,0,0,0,0,0,0,0,0,0,0,0,0,0,0,0,0,0],"split_type":[0,0,0,0,0,0,0,0,0,0,0,0,0,0,0,0,0,0,0,0,0,0,0,0,0,0,0,0,0,0,0,0,0,0,0,0,0,0,0,0,0,0,0,0,0,0,0,0,0,0,0,0,0,0,0,0,0,0,0,0,0,0,0,0,0,0,0,0,0,0,0,0,0,0,0,0,0,0,0,0,0,0,0,0,0,0,0,0,0,0,0,0,0,0,0,0,0,0,0,0,0,0,0,0,0,0,0,0,0,0,0,0,0,0,0,0,0,0,0,0,0,0,0,0,0],"sum_hessian":[9.091848E3,8.284936E3,8.0691235E2,5.520865E3,2.76407E3,4.0333478E2,4.035776E2,4.9603E3,5.605653E2,1.5141862E2,2.6126514E3,2.7049698E2,1.328378E2,2.4759425E2,1.5598335E2,4.004209E3,9.5609064E2,4.8225836E2,7.830692E1,6.0827614E1,9.059102E1,1.5696665E3,1.0429849E3,4.0155094E1,2.3034187E2,3.348499E1,9.935281E1,1.027403E2,1.4485394E2,8.4863846E1,7.111951E1,3.996151E3,8.058144E0,1.6144942E2,7.9464124E2,5.879799E1,4.234604E2,5.564517E1,2.2661757E1,2.3316118E1,3.7511494E1,8.868654E1,1.9044782E0,1.5190557E3,5.0610817E1,8.98965E2,1.4401987E2,8.698389E0,3.1456707E1,4.269225E1,1.8764963E2,3.0724375E1,2.7606163E0,3.1073473E1,6.827934E1,4.1281834E1,6.1458466E1,4.413026E1,1.0072369E2,2.3059142E0,8.255793E1,7.39755E0,6.372196E1,5.1570496E2,3.480446E3,1.4677303E0,6.590413E0,8.973092E1,7.171849E1,7.7584875E2,1.8792496E1,5.0799103E1,7.998885E0,2.675292E2,1.5593118E2,3.9139954E1,1.6505215E1,1.3490512E1,9.171245E0,1.2522293E1,1.0793825E1,1.686699E1,2.0644506E1,7.117314E1,1.7513395E1,7.1519977E2,8.0385596E2,2.7490152E1,2.3120663E1,3.659075E2,5.3305756E2,1.6536518E1,1.2748335E2,4.318E0,4.380389E0,4.759487E0,2.669722E1,3.394955E1,8.742701E0,1.7069266E2,1.695696E1,1.3282294E0,2.9396145E1,1.18716E0,1.5734563E0,2.4444956E1,6.6285176E0,3.0996181E1,3.7283157E1,1.9761736E1,2.1520098E1,5.920584E1,2.2526238E0,4.1029224E1,3.101036E0,7.178608E1,2.893761E1,1.0762525E0,1.2296618E0,1.1734833E0,8.1384445E1,3.6286976E0,3.7688525E0,2.1676504E1,4.2045452E1],"tree_param":{"num_deleted":"0","num_feature":"66","num_nodes":"125","size_leaf_vector":"1"}},{"base_weights":[-6.185663E-1,7.135665E-1,-7.2881967E-1,-1.128179E-1,1.2917593E0,9.334502E-1,-7.8875E-1,-5.568913E-1,8.022563E-1,9.2738265E-1,2.3116243E0,-4.3026653E-1,1.1806479E0,-9.5792663E-1,-4.530224E-1,-7.638237E-1,1.1372686E-1,4.500353E-1,2.2874417E0,4.469825E-1,1.6834326E0,2.8532674E0,1.8166971E0,-6.835984E-1,8.810816E-1,1.5670917E0,4.684551E-1,-1.0021007E0,-3.9250484E-1,7.875518E-1,-5.494222E-1,-8.1960666E-1,5.537531E-1,-4.8309898E-1,1.0660914E0,-1.5973222E-1,1.1115242E0,-8.017159E-3,2.6481977E0,1.6766652E0,2.2812238E-1,1.9309405E0,6.492436E-1,2.9470775E0,1.0147179E0,7.9844916E-1,2.1142342E0,-8.7029374E-1,3.0829865E-1,2.0819407E0,-3.217328E-1,6.3398886E-1,1.9102935E0,2.231455E0,2.5678858E-1,-1.0348628E0,-8.033097E-1,3.2405266E-1,-6.397758E-1,3.6991313E-1,1.5053724E0,-6.794537E-1,-8.812348E-2,-4.5042004E-2,-5.9974217E-3,-3.822672E-2,6.5315E-2,3.6991946E-2,-3.6482986E-2,1.070082E-1,4.814537E-3,1.19963326E-1,-1.7119912E-2,1.0617494E-1,2.809096E-2,4.0692594E-2,-3.5183474E-2,1.4305668E-1,2.1292588E-2,9.909291E-2,8.061255E-3,9.918471E-2,4.7095697E-3,1.1255312E-1,5.830496E-2,-1.403256E-2,7.525179E-2,5.611627E-2,1.509177E-1,7.605067E-2,-1.058526E-2,9.362637E-2,1.5984956E-3,1.1392236E-1,5.186508E-2,-4.758117E-2,1.5291141E-2,-2.1059658E-2,9.413225E-2,1.2505293E-2,1.3795315E-1,4.2778417E-2,-4.4787455E-2,-2.1846713E-3,5.7701815E-2,1.0625511E-1,6.186064E-2,3.241172E-2,1.3278933E-1,5.7124246E-2,1.6293431E-3,-2.1501936E-2,-5.2086573E-2,-4.5677464E-2,-2.8526438E-2,6.0895156E-2,3.644292E-3,5.994881E-2,-3.480423E-2,6.046906E-2,5.380151E-3,9.5588E-2,4.6981197E-2,-3.694063E-2,3.0326925E-3,9.185389E-2,-7.931051E-3],"categories":[],"categories_nodes":[],"categories_segments":[],"categories_sizes":[],"default_left":[0,0,0,0,0,0,0,0,0,0,0,0,0,0,0,0,0,0,0,0,0,0,0,0,0,0,0,0,0,0,0,0,0,0,0,0,0,0,0,0,0,0,0,0,0,0,0,0,0,0,0,0,0,0,0,0,0,0,0,0,0,0,0,0,0,0,0,0,0,0,0,0,0,0,0,0,0,0,0,0,0,0,0,0,0,0,0,0,0,0,0,0,0,0,0,0,0,0,0,0,0,0,0,0,0,0,0,0,0,0,0,0,0,0,0,0,0,0,0,0,0,0,0,0,0,0,0],"id":6,"left_children":[1,3,5,7,9,11,13,15,17,19,21,23,25,27,29,31,33,35,37,39,41,43,45,47,49,51,53,55,57,59,61,63,65,67,69,71,73,75,77,79,81,83,85,87,89,91,93,95,97,99,101,103,105,107,109,111,113,115,117,119,121,123,125,-1,-1,-1,-1,-1,-1,-1,-1,-1,-1,-1,-1,-1,-1,-1,-1,-1,-1,-1,-1,-1,-1,-1,-1,-1,-1,-1,-1,-1,-1,-1,-1,-1,-1,-1,-1,-1,-1,-1,-1,-1,-1,-1,-1,-1,-1,-1,-1,-1,-1,-1,-1,-1,-1,-1,-1,-1,-1,-1,-1,-1,-1,-1,-1],"loss_changes":[1.3036875E3,3.2444742E2,8.1713184E2,1.1435624E2,1.4628278E2,9.679797E1,4.488579E2,2.6359184E1,4.709563E1,1.06735596E2,2.2821472E1,1.5406816E1,6.5889404E1,1.3096094E2,3.1763892E2,1.1096863E1,2.6384506E1,3.0673927E1,1.4422302E1,4.8685207E1,2.8085999E1,5.310211E0,1.5684082E1,7.288969E0,1.1722643E1,4.8905884E1,3.1733915E1,3.0933105E1,6.802196E1,5.69004E1,1.4760486E2,7.810707E0,7.4258623E0,9.183853E0,1.8382736E1,1.9620083E1,1.9050861E1,2.4930744E0,5.894783E0,1.2348076E1,3.647659E1,1.9895752E1,1.9235851E1,2.4997253E0,2.7197602E0,1.1937594E1,5.376648E0,3.3680172E0,8.538137E0,4.2255898E0,3.9352226E0,1.5408894E1,1.38414E1,4.4254875E0,1.5535938E1,1.6932617E1,1.7302032E1,2.2104729E1,3.0330528E1,2.6842169E1,1.4336441E1,8.44068E1,7.391815E1,0E0,0E0,0E0,0E0,0E0,0E0,0E0,0E0,0E0,0E0,0E0,0E0,0E0,0E0,0E0,0E0,0E0,0E0,0E0,0E0,0E0,0E0,0E0,0E0,0E0,0E0,0E0,0E0,0E0,0E0,0E0,0E0,0E0,0E0,0E0,0E0,0E0,0E0,0E0,0E0,0E0,0E0,0E0,0E0,0E0,0E0,0E0,0E0,0E0,0E0,0E0,0E0,0E0,0E0,0E0,0E0,0E0,0E0,0E0,0E0,0E0,0E0,0E0,0E0],"parents":[2147483647,0,0,1,1,2,2,3,3,4,4,5,5,6,6,7,7,8,8,9,9,10,10,11,11,12,12,13,13,14,14,15,15,16,16,17,17,18,18,19,19,20,20,21,21,22,22,23,23,24,24,25,25,26,26,27,27,28,28,29,29,30,30,31,31,32,32,33,33,34,34,35,35,36,36,37,37,38,38,39,39,40,40,41,41,42,42,43,43,44,44,45,45,46,46,47,47,48,48,49,49,50,50,51,51,52,52,53,53,54,54,55,55,56,56,57,57,58,58,59,59,60,60,61,61,62,62],"right_children":[2,4,6,8,10,12,14,16,18,20,22,24,26,28,30,32,34,36,38,40,42,44,46,48,50,52,54,56,58,60,62,64,66,68,70,72,74,76,78,80,82,84,86,88,90,92,94,96,98,100,102,104,106,108,110,112,114,116,118,120,122,124,126,-1,-1,-1,-1,-1,-1,-1,-1,-1,-1,-1,-1,-1,-1,-1,-1,-1,-1,-1,-1,-1,-1,-1,-1,-1,-1,-1,-1,-1,-1,-1,-1,-1,-1,-1,-1,-1,-1,-1,-1,-1,-1,-1,-1,-1,-1,-1,-1,-1,-1,-1,-1,-1,-1,-1,-1,-1,-1,-1,-1,-1,-1,-1,-1],"split_conditions":[-1.111027E0,1.4079688E0,-1.158415E0,5.683171E-1,2.0831158E0,6.817525E-3,1.4079688E0,8.9956427E-1,2.3198261E0,6.301535E-1,-6.1054647E-1,5.0206864E-1,7.8704536E-1,8.017349E-1,-1.4684368E0,2.0035286E0,-5.003794E-2,1.3112657E-1,-5.9102225E-1,-1.349229E0,2.039241E-1,3.7998936E0,-9.5412455E-2,6.989467E-1,-2.5497487E-1,-2.4854292E-1,-1.4495624E0,2.6387957E-1,-1.0124179E0,7.036191E-1,2.9930294E-1,3.052526E-1,-3.6272883E-1,-6.5008414E-1,-2.9063413E-1,-1.252992E0,-1.397955E0,-2.9125355E-2,1.3740265E0,4.890303E0,-9.989026E-1,4.8503023E-1,4.7407243E-2,-1.5421143E0,-2.3161997E-1,-4.6657375E-1,3.6881113E-1,2.4455423E0,6.5936506E-1,-1.7354208E-1,1.262009E0,2.0467877E-1,-3.7952375E-1,-1.3845219E-1,-2.722978E0,-8.265318E-1,6.817525E-3,-3.4636346E-1,-1.9241086E0,-1.0000191E0,-9.3243676E-1,1.9364514E0,-1.837611E0,-4.5042004E-2,-5.9974217E-3,-3.822672E-2,6.5315E-2,3.6991946E-2,-3.6482986E-2,1.070082E-1,4.814537E-3,1.19963326E-1,-1.7119912E-2,1.0617494E-1,2.809096E-2,4.0692594E-2,-3.5183474E-2,1.4305668E-1,2.1292588E-2,9.909291E-2,8.061255E-3,9.918471E-2,4.7095697E-3,1.1255312E-1,5.830496E-2,-1.403256E-2,7.525179E-2,5.611627E-2,1.509177E-1,7.605067E-2,-1.058526E-2,9.362637E-2,1.5984956E-3,1.1392236E-1,5.186508E-2,-4.758117E-2,1.5291141E-2,-2.1059658E-2,9.413225E-2,1.2505293E-2,1.3795315E-1,4.2778417E-2,-4.4787455E-2,-2.1846713E-3,5.7701815E-2,1.0625511E-1,6.186064E-2,3.241172E-2,1.3278933E-1,5.7124246E-2,1.6293431E-3,-2.1501936E-2,-5.2086573E-2,-4.5677464E-2,-2.8526438E-2,6.0895156E-2,3.644292E-3,5.994881E-2,-3.480423E-2,6.046906E-2,5.380151E-3,9.5588E-2,4.6981197E-2,-3.694063E-2,3.0326925E-3,9.185389E-2,-7.931051E-3],"split_indices":[5,55,54,16,28,57,55,28,28,16,2,49,57,16,13,2,12,22,22,7,13,52,16,11,1,11,3,16,13,16,16,9,10,26,7,22,6,43,7,33,22,26,28,27,23,3,18,58,22,46,49,22,7,12,7,26,57,5,3,18,6,33,6,0,0,0,0,0,0,0,0,0,0,0,0,0,0,0,0,0,0,0,0,0,0,0,0,0,0,0,0,0,0,0,0,0,0,0,0,0,0,0,0,0,0,0,0,0,0,0,0,0,0,0,0,0,0,0,0,0,0,0,0,0,0,0,0],"split_type":[0,0,0,0,0,0,0,0,0,0,0,0,0,0,0,0,0,0,0,0,0,0,0,0,0,0,0,0,0,0,0,0,0,0,0,0,0,0,0,0,0,0,0,0,0,0,0,0,0,0,0,0,0,0,0,0,0,0,0,0,0,0,0,0,0,0,0,0,0,0,0,0,0,0,0,0,0,0,0,0,0,0,0,0,0,0,0,0,0,0,0,0,0,0,0,0,0,0,0,0,0,0,0,0,0,0,0,0,0,0,0,0,0,0,0,0,0,0,0,0,0,0,0,0,0,0,0],"sum_hessian":[8.871799E3,6.77726E2,8.194072E3,2.7931653E2,3.9840945E2,2.846358E2,7.909437E3,1.8831917E2,9.0997375E1,2.9494208E2,1.0346736E2,4.3564217E1,2.410716E2,5.2580146E3,2.6514224E3,1.4380602E2,4.4513145E1,7.46069E1,1.6390478E1,1.8132068E2,1.1362141E2,4.7127018E1,5.634034E1,3.6912086E1,6.652129E0,1.5549686E2,8.5574745E1,4.876279E3,3.817359E2,1.9065851E2,2.4607637E3,1.3832751E2,5.478505E0,2.7667358E1,1.6845787E1,3.9215843E1,3.5391056E1,2.358884E0,1.4031593E1,2.6389322E1,1.5493137E2,9.098037E1,2.264104E1,4.4265484E1,2.8615363E0,1.35731325E1,4.276721E1,3.1168192E1,5.7438955E0,2.9630277E0,3.6891017E0,4.2579166E1,1.1291769E2,8.149994E0,7.742475E1,4.1827314E3,6.9354724E2,9.7854996E1,2.8388092E2,1.2148946E2,6.9169044E1,1.9192815E3,5.414823E2,1.2368016E2,1.4647357E1,1.9851155E0,3.4933896E0,4.306506E0,2.3360851E1,7.420564E0,9.425222E0,1.804306E0,3.7411537E1,1.1449755E1,2.3941301E1,1.0034546E0,1.3554296E0,1.2542395E1,1.4891982E0,2.1709492E1,4.6798296E0,1.0002816E1,1.4492854E2,6.2766476E1,2.8213892E1,1.1172823E1,1.1468217E1,2.2935743E0,4.197191E1,1.8553872E0,1.0061492E0,5.0514455E0,8.5216875E0,3.6140713E1,6.626493E0,2.9330812E1,1.8373786E0,4.425673E0,1.3182225E0,1.169235E0,1.7937926E0,1.0483835E0,2.6407182E0,1.8885345E1,2.369382E1,8.396395E1,2.8953737E1,2.25691E0,5.8930836E0,1.4812603E1,6.261215E1,4.7682148E1,4.1350493E3,4.6867114E2,2.2487611E2,2.0620815E1,7.7234184E1,7.8320985E0,2.7604883E2,2.8064491E1,9.342497E1,3.886933E1,3.0299713E1,1.7767798E3,1.4250163E2,1.8242529E1,5.232398E2],"tree_param":{"num_deleted":"0","num_feature":"66","num_nodes":"127","size_leaf_vector":"1"}},{"base_weights":[-5.961612E-1,6.82932E-1,-7.297455E-1,1.5907909E0,1.9069216E-1,-9.338474E-1,-3.4589335E-1,2.0476985E0,1.0913894E0,1.4931808E0,-5.1269054E-2,-3.709149E-1,-9.686641E-1,8.9154214E-1,-4.4908893E-1,1.6094013E0,2.353034E0,8.1846434E-1,1.9263991E0,-2.454397E-2,1.7027739E0,2.039162E-1,-8.883244E-1,1.7505966E-1,-6.572236E-1,-1.0118989E0,-7.560951E-1,1.1965308E0,2.6273125E-1,-5.1778245E-1,8.4509367E-1,1.911005E0,4.9587736E-1,1.230348E0,2.4441426E0,3.4450522E-1,1.4042166E0,1.2603196E0,2.4199138E0,-5.386971E-1,8.57949E-2,4.7609535E-1,1.8422973E0,-1.3876612E-1,8.109327E-1,1.3057729E0,-9.487191E-1,-1.3438912E-1,1.3558172E0,-9.123819E-1,-3.1909892E-1,-1.0555748E0,-8.856672E-1,-8.2861704E-1,-1.684443E-2,5.477823E-2,1.3686329E0,2.4052403E0,3.0153558E-2,-7.9131174E-1,-2.9647478E-1,2.5409715E0,5.492567E-1,-1.8510014E-2,9.918645E-2,7.460061E-2,-1.1866885E-2,-3.6150556E-2,8.042504E-2,1.2506537E-1,6.1358046E-2,3.4279343E-2,-3.4164232E-3,8.824848E-2,1.5700998E-2,7.453746E-2,-1.2913919E-2,1.2640384E-1,1.54027445E-2,2.5454108E-2,-4.4448365E-2,-1.6709318E-2,5.662323E-2,9.8364495E-2,1.7224066E-2,8.062758E-2,-1.2562575E-2,6.473558E-2,7.921487E-3,-6.355303E-3,1.04311995E-1,4.7107443E-2,-4.9707703E-2,-2.124817E-2,2.2331214E-2,1.1241551E-1,-3.976646E-3,-4.5942687E-3,-5.0273117E-2,-2.049832E-2,6.476649E-2,4.931009E-3,-5.2858394E-2,1.8730465E-3,-4.5216996E-2,-4.4194486E-2,-2.4058407E-2,-2.6813257E-2,3.6794268E-2,-1.782549E-2,8.060883E-2,3.9284296E-2,8.186064E-2,1.5279362E-1,4.2484786E-2,-2.594376E-2,1.6862286E-2,-4.6299607E-2,-2.2379927E-2,5.749315E-2,-1.761196E-2,1.4322825E-1,4.532709E-2,9.0123855E-2,1.7036522E-2],"categories":[],"categories_nodes":[],"categories_segments":[],"categories_sizes":[],"default_left":[0,0,0,0,0,0,0,0,0,0,0,0,0,0,0,0,0,0,0,0,0,0,0,0,0,0,0,0,0,0,0,0,0,0,0,0,0,0,0,0,0,0,0,0,0,0,0,0,0,0,0,0,0,0,0,0,0,0,0,0,0,0,0,0,0,0,0,0,0,0,0,0,0,0,0,0,0,0,0,0,0,0,0,0,0,0,0,0,0,0,0,0,0,0,0,0,0,0,0,0,0,0,0,0,0,0,0,0,0,0,0,0,0,0,0,0,0,0,0,0,0,0,0,0,0],"id":7,"left_children":[1,3,5,7,9,11,13,15,17,19,21,23,25,27,29,31,33,35,37,39,41,43,45,47,49,51,53,55,57,59,61,63,65,67,69,71,73,75,77,79,-1,81,83,85,87,89,91,93,95,97,99,101,103,105,107,109,111,113,115,117,119,121,123,-1,-1,-1,-1,-1,-1,-1,-1,-1,-1,-1,-1,-1,-1,-1,-1,-1,-1,-1,-1,-1,-1,-1,-1,-1,-1,-1,-1,-1,-1,-1,-1,-1,-1,-1,-1,-1,-1,-1,-1,-1,-1,-1,-1,-1,-1,-1,-1,-1,-1,-1,-1,-1,-1,-1,-1,-1,-1,-1,-1,-1,-1],"loss_changes":[1.4800315E3,3.658377E2,6.139531E2,6.3461914E1,1.6786438E2,9.9956055E1,3.481715E2,1.6181946E1,3.0260818E1,2.658516E1,9.629473E1,4.6969788E1,4.3527832E1,3.995349E1,2.2397437E2,2.0691177E1,5.767212E0,2.9229454E1,8.019821E0,1.0866788E1,1.1673584E1,7.201208E1,1.5194061E1,3.8146263E1,1.6691238E1,2.1129395E1,4.3868988E1,2.7652786E1,3.4738396E1,1.4433948E2,6.2378433E1,9.087173E0,1.1370123E1,7.4065866E0,2.3797607E0,8.563618E0,1.8144104E1,6.130438E0,3.3914185E0,3.879656E0,0E0,5.0786037E0,1.1583832E1,4.4095444E1,3.9211327E1,3.890757E0,9.791634E0,1.4242311E1,2.7933716E1,8.434189E0,1.3175659E1,5.5620117E0,1.7873718E1,1.3889343E1,2.9384647E1,1.3081712E1,1.7906387E1,4.3141785E0,1.09708E1,4.900299E1,1.07011635E2,7.2432175E0,2.800401E1,0E0,0E0,0E0,0E0,0E0,0E0,0E0,0E0,0E0,0E0,0E0,0E0,0E0,0E0,0E0,0E0,0E0,0E0,0E0,0E0,0E0,0E0,0E0,0E0,0E0,0E0,0E0,0E0,0E0,0E0,0E0,0E0,0E0,0E0,0E0,0E0,0E0,0E0,0E0,0E0,0E0,0E0,0E0,0E0,0E0,0E0,0E0,0E0,0E0,0E0,0E0,0E0,0E0,0E0,0E0,0E0,0E0,0E0,0E0,0E0,0E0,0E0],"parents":[2147483647,0,0,1,1,2,2,3,3,4,4,5,5,6,6,7,7,8,8,9,9,10,10,11,11,12,12,13,13,14,14,15,15,16,16,17,17,18,18,19,19,20,20,21,21,22,22,23,23,24,24,25,25,26,26,27,27,28,28,29,29,30,30,31,31,32,32,33,33,34,34,35,35,36,36,37,37,38,38,39,39,41,41,42,42,43,43,44,44,45,45,46,46,47,47,48,48,49,49,50,50,51,51,52,52,53,53,54,54,55,55,56,56,57,57,58,58,59,59,60,60,61,61,62,62],"right_children":[2,4,6,8,10,12,14,16,18,20,22,24,26,28,30,32,34,36,38,40,42,44,46,48,50,52,54,56,58,60,62,64,66,68,70,72,74,76,78,80,-1,82,84,86,88,90,92,94,96,98,100,102,104,106,108,110,112,114,116,118,120,122,124,-1,-1,-1,-1,-1,-1,-1,-1,-1,-1,-1,-1,-1,-1,-1,-1,-1,-1,-1,-1,-1,-1,-1,-1,-1,-1,-1,-1,-1,-1,-1,-1,-1,-1,-1,-1,-1,-1,-1,-1,-1,-1,-1,-1,-1,-1,-1,-1,-1,-1,-1,-1,-1,-1,-1,-1,-1,-1,-1,-1,-1,-1],"split_conditions":[-1.4596789E0,-6.3311225E-1,1.4079688E0,-2.65121E0,-1.7532729E0,-9.1986114E-1,-1.158415E0,8.5222226E-1,2.225142E0,1.4079688E0,1.1338276E0,-1.6307807E-1,1.06765695E-1,7.8704536E-1,2.0831158E0,-2.1270931E-1,-2.7899793E-1,4.0934163E-1,8.697301E-1,1.135029E0,-3.5005966E-1,4.2837846E-1,-1.8322945E0,1.1693902E0,-1.2095685E-1,2.719801E-1,8.5506594E-1,6.817525E-3,-1.4495624E0,5.5027705E-1,-2.5447712E0,-2.823851E0,4.7353485E-1,-1.4065197E0,2.2385015E0,7.606625E-2,1.4323595E-2,2.3826456E0,-8.242782E-1,-6.721662E-1,8.57949E-2,7.904986E-1,2.2893758E0,-3.8427415E0,-2.6319677E-1,9.022634E-2,-1.1375332E0,4.4539505E-1,2.86882E-1,-1.216458E0,3.124641E0,-1.1677064E0,-1.8014282E0,1.0342648E0,6.817525E-3,9.4614995E-1,-2.4854292E-1,9.9617124E-1,-3.1100628E-1,-5.5661097E-2,-2.2580223E0,4.61757E-1,-1.0628703E0,-1.8510014E-2,9.918645E-2,7.460061E-2,-1.1866885E-2,-3.6150556E-2,8.042504E-2,1.2506537E-1,6.1358046E-2,3.4279343E-2,-3.4164232E-3,8.824848E-2,1.5700998E-2,7.453746E-2,-1.2913919E-2,1.2640384E-1,1.54027445E-2,2.5454108E-2,-4.4448365E-2,-1.6709318E-2,5.662323E-2,9.8364495E-2,1.7224066E-2,8.062758E-2,-1.2562575E-2,6.473558E-2,7.921487E-3,-6.355303E-3,1.04311995E-1,4.7107443E-2,-4.9707703E-2,-2.124817E-2,2.2331214E-2,1.1241551E-1,-3.976646E-3,-4.5942687E-3,-5.0273117E-2,-2.049832E-2,6.476649E-2,4.931009E-3,-5.2858394E-2,1.8730465E-3,-4.5216996E-2,-4.4194486E-2,-2.4058407E-2,-2.6813257E-2,3.6794268E-2,-1.782549E-2,8.060883E-2,3.9284296E-2,8.186064E-2,1.5279362E-1,4.2484786E-2,-2.594376E-2,1.6862286E-2,-4.6299607E-2,-2.2379927E-2,5.749315E-2,-1.761196E-2,1.4322825E-1,4.532709E-2,9.0123855E-2,1.7036522E-2],"split_indices":[24,5,55,24,7,5,54,28,28,55,53,24,11,57,28,8,11,0,30,32,11,4,1,21,22,4,9,57,3,64,5,20,19,0,2,7,1,41,5,29,0,25,11,24,3,43,12,22,8,18,28,54,18,2,57,2,11,39,9,11,5,37,1,0,0,0,0,0,0,0,0,0,0,0,0,0,0,0,0,0,0,0,0,0,0,0,0,0,0,0,0,0,0,0,0,0,0,0,0,0,0,0,0,0,0,0,0,0,0,0,0,0,0,0,0,0,0,0,0,0,0,0,0,0,0],"split_type":[0,0,0,0,0,0,0,0,0,0,0,0,0,0,0,0,0,0,0,0,0,0,0,0,0,0,0,0,0,0,0,0,0,0,0,0,0,0,0,0,0,0,0,0,0,0,0,0,0,0,0,0,0,0,0,0,0,0,0,0,0,0,0,0,0,0,0,0,0,0,0,0,0,0,0,0,0,0,0,0,0,0,0,0,0,0,0,0,0,0,0,0,0,0,0,0,0,0,0,0,0,0,0,0,0,0,0,0,0,0,0,0,0,0,0,0,0,0,0,0,0,0,0,0,0],"sum_hessian":[8.657983E3,8.1831946E2,7.8396636E3,2.869161E2,5.314033E2,5.117274E3,2.72239E3,1.4821362E2,1.3870248E2,8.244216E1,4.4896118E2,2.987412E2,4.8185327E3,2.0896895E2,2.513421E3,6.343136E1,8.4782265E1,1.0602735E2,3.2675133E1,1.0110685E1,7.2331474E1,3.4464795E2,1.04313225E2,1.0290182E2,1.9583939E2,4.0010024E3,8.1753033E2,1.4010956E2,6.88594E1,2.387306E3,1.2611508E2,4.9348804E1,1.4082554E1,7.4525433E0,7.732973E1,5.948414E1,4.654321E1,1.5418753E1,1.725638E1,8.3379965E0,1.772689E0,7.8374586E0,6.449402E1,2.2078078E2,1.2386718E2,2.2420063E0,1.0207121E2,8.22359E1,2.0665913E1,1.1064514E2,8.519425E1,2.9670469E3,1.0339556E3,7.443839E2,7.3146416E1,1.8525665E1,1.21583885E2,5.828208E0,6.303119E1,1.0665311E3,1.3207747E3,1.7605116E1,1.08509964E2,1.3982431E0,4.7950558E1,5.531988E0,8.550566E0,1.0608313E0,6.391712E0,7.285234E1,4.4773836E0,3.2210915E1,2.7273224E1,3.4506012E1,1.2037198E1,1.3403297E1,2.0154557E0,1.622814E1,1.0282394E0,1.9754232E0,6.3625736E0,3.7271652E0,4.1102934E0,5.9237244E1,5.2567725E0,1.2519854E1,2.0826093E2,7.0564804E1,5.3302383E1,1.0857646E0,1.1562417E0,1.9319736E0,1.00139244E2,5.4998726E1,2.7237177E1,1.2393387E1,8.272526E0,1.14756155E1,9.9169525E1,8.136094E1,3.833308E0,4.0058584E0,2.963041E3,2.0479876E1,1.01347565E3,6.4088684E2,1.0349711E2,4.3450794E1,2.969562E1,1.5265372E1,3.2602937E0,3.958683E1,8.1997055E1,3.4293306E0,2.3988771E0,2.236203E1,4.066916E1,7.650573E2,3.0147382E2,4.8304375E1,1.2724703E3,1.4067346E1,3.5377703E0,1.4389107E1,9.412086E1],"tree_param":{"num_deleted":"0","num_feature":"66","num_nodes":"125","size_leaf_vector":"1"}},{"base_weights":[-5.88789E-1,-8.0278903E-1,7.869148E-1,-9.571629E-1,-4.990184E-1,3.5305533E-1,1.4493095E0,-1.0158215E0,-7.536285E-1,-3.4163114E-1,-9.611111E-1,1.0851684E0,1.1990473E-1,1.1773998E0,1.9855769E0,-8.228112E-1,-1.0408905E0,-4.0751186E-1,-8.596638E-1,-5.2112186E-1,4.4214614E-2,-9.7915995E-1,7.7861495E-2,1.7070212E0,7.104015E-1,-4.5150098E-1,4.4765303E-1,9.341586E-1,1.8310852E0,2.018769E0,4.9929592E-1,1.451042E0,-8.41547E-1,-1.0690341E0,-9.626172E-1,-6.5128946E-1,-8.4472895E-2,-8.949069E-1,-3.89914E-1,-6.811485E-1,-2.3460454E-1,7.9074526E-1,-6.5922655E-2,-1.0572597E0,-8.0380726E-1,-6.2344813E-1,1.2948006E0,2.8745365E0,1.4250555E0,1.1979907E0,2.5632632E-1,-7.680638E-1,-1.7893036E-1,1.063373E0,1.43412E-1,1.6920849E0,7.198197E-1,6.5861464E-1,1.9892E0,2.2745762E0,1.7522E0,7.065379E-2,-2.4834396E-2,-1.1009393E-2,1.2064234E-1,-4.4189855E-2,-8.529411E-3,-5.3490024E-2,-1.7129006E-2,-8.565853E-3,-4.874963E-2,-3.581151E-2,6.8003885E-3,-8.388826E-3,1.20590664E-1,-2.2960014E-3,-4.5313913E-2,7.204289E-2,-2.4162991E-2,-4.171939E-2,-2.2249436E-2,6.8129185E-3,-2.0185892E-2,1.0494643E-1,3.081744E-2,-8.933112E-3,2.5643243E-2,3.376734E-3,-5.3086486E-2,-4.2916894E-2,1.4338145E-2,1.5060984E-2,-4.761455E-2,-1.5436433E-2,1.12353265E-1,1.657648E-1,4.343603E-2,9.596841E-3,8.483835E-2,3.4259997E-2,9.726233E-2,4.073907E-3,7.45575E-2,-4.3295786E-2,1.0322315E-2,7.667901E-2,-1.4345451E-2,6.6965155E-2,1.4787915E-2,5.249549E-2,-2.08897E-3,9.3423456E-2,2.220975E-2,-6.525487E-4,4.9098283E-2,6.36569E-2,-2.3757683E-2,1.1849978E-1,7.664438E-2,1.2190707E-1,8.2471E-2,-5.2233236E-3,9.1667525E-2],"categories":[],"categories_nodes":[],"categories_segments":[],"categories_sizes":[],"default_left":[0,0,0,0,0,0,0,0,0,0,0,0,0,0,0,0,0,0,0,0,0,0,0,0,0,0,0,0,0,0,0,0,0,0,0,0,0,0,0,0,0,0,0,0,0,0,0,0,0,0,0,0,0,0,0,0,0,0,0,0,0,0,0,0,0,0,0,0,0,0,0,0,0,0,0,0,0,0,0,0,0,0,0,0,0,0,0,0,0,0,0,0,0,0,0,0,0,0,0,0,0,0,0,0,0,0,0,0,0,0,0,0,0,0,0,0,0,0,0,0,0,0,0],"id":8,"left_children":[1,3,5,7,9,11,13,15,17,19,21,23,25,27,29,31,33,35,37,39,41,43,45,47,49,51,53,55,57,59,61,63,65,67,69,71,73,75,77,79,81,83,85,87,89,91,93,95,97,99,101,103,105,107,109,111,113,115,117,119,121,-1,-1,-1,-1,-1,-1,-1,-1,-1,-1,-1,-1,-1,-1,-1,-1,-1,-1,-1,-1,-1,-1,-1,-1,-1,-1,-1,-1,-1,-1,-1,-1,-1,-1,-1,-1,-1,-1,-1,-1,-1,-1,-1,-1,-1,-1,-1,-1,-1,-1,-1,-1,-1,-1,-1,-1,-1,-1,-1,-1,-1,-1],"loss_changes":[2.482596E3,3.416709E2,3.2578564E2,5.6979004E1,1.7862262E2,1.1719851E2,6.313794E1,1.7296387E1,3.950403E1,1.27244354E2,1.1788574E1,3.745108E1,9.804788E1,4.6055725E1,6.373169E0,1.9797607E1,6.2766113E0,2.0149467E1,1.3398071E1,5.7328766E1,4.8081505E1,7.55896E0,1.0699853E1,1.620636E1,2.2991104E1,1.6337986E1,6.2138435E1,3.468132E1,1.3600006E1,5.9716797E0,4.8855796E0,6.849244E0,1.2127075E1,9.868164E-1,8.520935E0,7.5657578E0,2.358967E1,7.40802E0,1.0902619E1,2.8723572E1,2.8331724E1,1.5857658E1,3.3368504E1,2.1915588E0,1.1745789E1,2.7280853E0,7.6610217E0,6.857239E0,1.6982819E1,1.8006615E1,1.1917431E1,8.573803E0,1.9653143E1,2.2863289E1,3.7599487E1,9.729919E0,3.3442825E1,8.3053875E0,8.595673E0,3.2549133E0,1.1621384E1,0E0,0E0,0E0,0E0,0E0,0E0,0E0,0E0,0E0,0E0,0E0,0E0,0E0,0E0,0E0,0E0,0E0,0E0,0E0,0E0,0E0,0E0,0E0,0E0,0E0,0E0,0E0,0E0,0E0,0E0,0E0,0E0,0E0,0E0,0E0,0E0,0E0,0E0,0E0,0E0,0E0,0E0,0E0,0E0,0E0,0E0,0E0,0E0,0E0,0E0,0E0,0E0,0E0,0E0,0E0,0E0,0E0,0E0,0E0,0E0,0E0,0E0],"parents":[2147483647,0,0,1,1,2,2,3,3,4,4,5,5,6,6,7,7,8,8,9,9,10,10,11,11,12,12,13,13,14,14,15,15,16,16,17,17,18,18,19,19,20,20,21,21,22,22,23,23,24,24,25,25,26,26,27,27,28,28,29,29,30,30,31,31,32,32,33,33,34,34,35,35,36,36,37,37,38,38,39,39,40,40,41,41,42,42,43,43,44,44,45,45,46,46,47,47,48,48,49,49,50,50,51,51,52,52,53,53,54,54,55,55,56,56,57,57,58,58,59,59,60,60],"right_children":[2,4,6,8,10,12,14,16,18,20,22,24,26,28,30,32,34,36,38,40,42,44,46,48,50,52,54,56,58,60,62,64,66,68,70,72,74,76,78,80,82,84,86,88,90,92,94,96,98,100,102,104,106,108,110,112,114,116,118,120,122,-1,-1,-1,-1,-1,-1,-1,-1,-1,-1,-1,-1,-1,-1,-1,-1,-1,-1,-1,-1,-1,-1,-1,-1,-1,-1,-1,-1,-1,-1,-1,-1,-1,-1,-1,-1,-1,-1,-1,-1,-1,-1,-1,-1,-1,-1,-1,-1,-1,-1,-1,-1,-1,-1,-1,-1,-1,-1,-1,-1,-1,-1],"split_conditions":[6.766188E-1,1.4079688E0,2.1694882E0,2.2231376E-1,2.0730298E0,-8.242782E-1,5.2910976E0,-3.4636346E-1,-9.065746E-1,1.4560698E-2,1.7973983E0,-6.3485277E-1,6.817525E-3,1.7517214E0,2.7451992E-1,-1.9710695E0,1.9378094E-1,-7.368539E-2,1.6626208E-1,7.0947506E-2,-1.4151689E0,-8.4294516E-1,5.1401776E-1,-4.835289E-1,-3.3191732E-1,-1.0075768E-2,7.8704536E-1,-1.4755412E0,-1.7616684E0,9.342086E-2,6.6127175E-1,8.193743E-1,3.9587787E-1,5.0096745E0,-1.8014282E0,2.1789434E0,9.9379474E-1,-1.8340816E0,-1.8672523E0,-1.0075768E-2,-5.9614606E-2,-3.2967046E-1,8.9601684E-1,-2.2630703E0,2.0458534E0,-4.064016E-1,-3.001059E-1,3.8492614E-1,-4.733554E-1,1.1362746E0,3.4560354E0,1.8878422E0,-1.9684962E0,1.1787639E0,-1.3203685E0,2.7127097E0,1.4079688E0,1.1515238E0,1.6243508E0,1.7994819E0,-4.3222076E-1,7.065379E-2,-2.4834396E-2,-1.1009393E-2,1.2064234E-1,-4.4189855E-2,-8.529411E-3,-5.3490024E-2,-1.7129006E-2,-8.565853E-3,-4.874963E-2,-3.581151E-2,6.8003885E-3,-8.388826E-3,1.20590664E-1,-2.2960014E-3,-4.5313913E-2,7.204289E-2,-2.4162991E-2,-4.171939E-2,-2.2249436E-2,6.8129185E-3,-2.0185892E-2,1.0494643E-1,3.081744E-2,-8.933112E-3,2.5643243E-2,3.376734E-3,-5.3086486E-2,-4.2916894E-2,1.4338145E-2,1.5060984E-2,-4.761455E-2,-1.5436433E-2,1.12353265E-1,1.657648E-1,4.343603E-2,9.596841E-3,8.483835E-2,3.4259997E-2,9.726233E-2,4.073907E-3,7.45575E-2,-4.3295786E-2,1.0322315E-2,7.667901E-2,-1.4345451E-2,6.6965155E-2,1.4787915E-2,5.249549E-2,-2.08897E-3,9.3423456E-2,2.220975E-2,-6.525487E-4,4.9098283E-2,6.36569E-2,-2.3757683E-2,1.1849978E-1,7.664438E-2,1.2190707E-1,8.2471E-2,-5.2233236E-3,9.1667525E-2],"split_indices":[17,55,17,10,65,5,17,5,6,17,10,26,57,28,24,18,4,17,52,22,53,53,33,47,1,10,57,6,23,53,10,4,17,40,18,19,49,7,20,10,5,34,31,3,33,19,17,29,28,28,28,49,21,41,6,45,55,45,43,35,9,0,0,0,0,0,0,0,0,0,0,0,0,0,0,0,0,0,0,0,0,0,0,0,0,0,0,0,0,0,0,0,0,0,0,0,0,0,0,0,0,0,0,0,0,0,0,0,0,0,0,0,0,0,0,0,0,0,0,0,0,0,0],"split_type":[0,0,0,0,0,0,0,0,0,0,0,0,0,0,0,0,0,0,0,0,0,0,0,0,0,0,0,0,0,0,0,0,0,0,0,0,0,0,0,0,0,0,0,0,0,0,0,0,0,0,0,0,0,0,0,0,0,0,0,0,0,0,0,0,0,0,0,0,0,0,0,0,0,0,0,0,0,0,0,0,0,0,0,0,0,0,0,0,0,0,0,0,0,0,0,0,0,0,0,0,0,0,0,0,0,0,0,0,0,0,0,0,0,0,0,0,0,0,0,0,0,0,0],"sum_hessian":[8.429568E3,7.295172E3,1.1343967E3,4.835604E3,2.4595679E3,6.8636804E2,4.4802875E2,3.7506716E3,1.0849321E3,1.8359789E3,6.23589E2,1.6490324E2,5.214648E2,2.9941068E2,1.4861806E2,4.3504147E2,3.3156301E3,2.5556601E2,8.2936615E2,1.252828E3,5.831509E2,6.1299774E2,1.0591305E1,6.06731E1,1.0423014E2,1.8994016E2,3.3152463E2,2.1998264E2,7.942805E1,1.4502112E2,3.5969422E0,2.930557E0,4.321109E2,2.4294485E3,8.8618176E2,1.4507257E2,1.1049345E2,7.7064343E2,5.872274E1,8.02972E2,4.4985596E2,7.417815E1,5.0897272E2,4.206269E2,1.9237082E2,7.0285273E0,3.562777E0,1.0014045E1,5.0659058E1,4.947028E1,5.475986E1,8.7037346E1,1.029028E2,1.088136E2,2.2271104E2,4.6975964E1,1.7300667E2,1.0052322E1,6.9375725E1,7.0160446E1,7.486067E1,1.657485E0,1.9394572E0,1.3521435E0,1.5784136E0,4.062145E2,2.5896412E1,2.4264158E3,3.0325584E0,1.3874393E1,8.723074E2,1.341014E2,1.0971177E1,1.078279E2,2.665537E0,1.0252229E1,7.603912E2,2.1485224E0,5.6574215E1,4.8544418E2,3.1752783E2,1.4094968E2,3.0890628E2,7.4275084E0,6.675064E1,4.2657355E2,8.239916E1,1.6091298E0,4.1901776E2,1.8341278E2,8.958045E0,1.8658825E0,5.162645E0,1.5792519E0,1.9835252E0,7.6747503E0,2.339295E0,9.455085E0,4.120397E1,3.04746E1,1.8995682E1,4.8901505E1,5.8583574E0,7.919654E1,7.840805E0,5.3203845E0,9.758241E1,7.949369E1,2.9319908E1,3.6988045E1,1.8572299E2,4.0722675E1,6.25329E0,4.5830482E1,1.27176186E2,6.43922E0,3.6131022E0,3.5531033E1,3.3844692E1,5.331193E1,1.6848515E1,3.122926E0,7.173775E1],"tree_param":{"num_deleted":"0","num_feature":"66","num_nodes":"123","size_leaf_vector":"1"}},{"base_weights":[-5.7940215E-1,-7.878715E-1,7.6801246E-1,-9.485973E-1,-4.8045388E-1,3.3717525E-1,1.3669157E0,-1.0029991E0,-6.7112154E-1,-3.2059857E-1,-9.6297324E-1,1.1843046E0,1.3787428E-1,1.1401418E0,1.8495741E0,-1.0171119E0,-7.021092E-1,-3.1743884E-1,-8.094253E-1,-4.8094591E-1,1.10827945E-1,2.7553183E-1,-9.718023E-1,1.7682439E0,6.868902E-1,-2.9043853E-1,3.8734007E-1,1.4680882E0,7.962248E-1,1.0677195E-1,1.8805344E0,-8.69009E-1,-1.0376717E0,5.502424E-1,-7.508786E-1,2.533039E-1,-5.136197E-1,-2.5189766E-1,-8.4991986E-1,-6.517987E-1,-2.1081276E-1,1.2959428E0,3.266768E-2,8.828791E-2,-5.8765614E-1,-9.793374E-1,3.7579104E-1,5.2836406E-1,2.0071442E0,3.475108E-1,1.2840289E0,5.346191E-1,-4.8453787E-1,9.9872446E-1,2.1589565E-1,1.9233994E0,1.2131196E0,1.7417959E0,5.777911E-1,-3.7981734E-2,4.8515704E-2,1.9057072E0,4.7844324E-1,3.3583246E-2,-4.45015E-2,-1.2465023E-2,-5.1995337E-2,-2.1109855E-2,7.764319E-2,6.7388296E-2,-3.885038E-2,7.4330546E-2,1.3517668E-3,-3.7988704E-2,-1.0795031E-2,-2.5781292E-2,3.6348518E-2,-4.301715E-2,4.8047557E-2,1.0804509E-1,-3.3180583E-2,-1.6536234E-2,9.572087E-3,1.6528249E-2,8.4965475E-2,5.0122E-2,-2.3516254E-3,-3.70416E-2,-3.3858176E-3,3.153719E-2,-4.919941E-2,-3.7746023E-2,9.602379E-2,8.436917E-2,-1.3253798E-2,1.1596232E-1,5.1122498E-2,3.0807713E-2,-2.5517663E-2,1.731405E-2,8.323723E-2,4.163005E-3,9.102058E-2,3.4520056E-2,-2.7273739E-2,6.868201E-2,1.9131932E-2,4.283088E-2,-1.06417065E-4,6.1217155E-2,1.1413937E-1,2.8315533E-2,6.897566E-2,4.950181E-2,1.1572122E-1,4.660221E-2,3.5128698E-3,9.784382E-2,6.029558E-2,-3.5855036E-2,6.1703134E-2],"categories":[],"categories_nodes":[],"categories_segments":[],"categories_sizes":[],"default_left":[0,0,0,0,0,0,0,0,0,0,0,0,0,0,0,0,0,0,0,0,0,0,0,0,0,0,0,0,0,0,0,0,0,0,0,0,0,0,0,0,0,0,0,0,0,0,0,0,0,0,0,0,0,0,0,0,0,0,0,0,0,0,0,0,0,0,0,0,0,0,0,0,0,0,0,0,0,0,0,0,0,0,0,0,0,0,0,0,0,0,0,0,0,0,0,0,0,0,0,0,0,0,0,0,0,0,0,0,0,0,0,0,0,0,0,0,0,0,0,0,0],"id":9,"left_children":[1,3,5,7,9,11,13,15,17,19,21,23,25,27,29,31,33,35,37,39,41,43,45,47,49,51,53,55,57,59,61,63,65,67,69,71,73,75,77,79,81,83,85,-1,87,89,91,93,95,97,99,101,103,105,107,109,111,113,115,-1,-1,117,119,-1,-1,-1,-1,-1,-1,-1,-1,-1,-1,-1,-1,-1,-1,-1,-1,-1,-1,-1,-1,-1,-1,-1,-1,-1,-1,-1,-1,-1,-1,-1,-1,-1,-1,-1,-1,-1,-1,-1,-1,-1,-1,-1,-1,-1,-1,-1,-1,-1,-1,-1,-1,-1,-1,-1,-1,-1,-1],"loss_changes":[2.3111797E3,3.515464E2,2.8405786E2,6.992969E1,1.8850732E2,1.0833602E2,4.8351685E1,1.58828125E1,3.7394073E1,1.27358444E2,6.923401E0,3.4298233E1,5.58212E1,3.45007E1,7.664032E0,1.0459717E1,1.13053665E1,2.4541695E1,1.22638855E1,6.1790863E1,4.6221016E1,7.5818887E0,6.507141E0,1.5410233E1,1.32652855E1,3.1081974E1,3.4364483E1,1.6322693E1,3.1329277E1,3.4338005E0,4.140869E0,1.5527161E1,5.5041504E0,7.7356358E0,1.0483101E1,1.5709906E1,1.1750717E1,1.0403199E1,1.0544464E1,2.8728241E1,2.52101E1,1.1461254E1,3.634091E1,0E0,2.6615417E-1,5.124634E0,8.583611E0,9.956507E0,1.1847046E1,1.0572531E1,8.044525E0,2.1397976E1,1.1570053E1,1.6099297E1,3.6172394E1,1.1268936E1,1.0597244E1,1.0141884E1,2.306934E1,0E0,0E0,2.6638794E0,4.372041E0,0E0,0E0,0E0,0E0,0E0,0E0,0E0,0E0,0E0,0E0,0E0,0E0,0E0,0E0,0E0,0E0,0E0,0E0,0E0,0E0,0E0,0E0,0E0,0E0,0E0,0E0,0E0,0E0,0E0,0E0,0E0,0E0,0E0,0E0,0E0,0E0,0E0,0E0,0E0,0E0,0E0,0E0,0E0,0E0,0E0,0E0,0E0,0E0,0E0,0E0,0E0,0E0,0E0,0E0,0E0,0E0,0E0,0E0],"parents":[2147483647,0,0,1,1,2,2,3,3,4,4,5,5,6,6,7,7,8,8,9,9,10,10,11,11,12,12,13,13,14,14,15,15,16,16,17,17,18,18,19,19,20,20,21,21,22,22,23,23,24,24,25,25,26,26,27,27,28,28,29,29,30,30,31,31,32,32,33,33,34,34,35,35,36,36,37,37,38,38,39,39,40,40,41,41,42,42,44,44,45,45,46,46,47,47,48,48,49,49,50,50,51,51,52,52,53,53,54,54,55,55,56,56,57,57,58,58,61,61,62,62],"right_children":[2,4,6,8,10,12,14,16,18,20,22,24,26,28,30,32,34,36,38,40,42,44,46,48,50,52,54,56,58,60,62,64,66,68,70,72,74,76,78,80,82,84,86,-1,88,90,92,94,96,98,100,102,104,106,108,110,112,114,116,-1,-1,118,120,-1,-1,-1,-1,-1,-1,-1,-1,-1,-1,-1,-1,-1,-1,-1,-1,-1,-1,-1,-1,-1,-1,-1,-1,-1,-1,-1,-1,-1,-1,-1,-1,-1,-1,-1,-1,-1,-1,-1,-1,-1,-1,-1,-1,-1,-1,-1,-1,-1,-1,-1,-1,-1,-1,-1,-1,-1,-1],"split_conditions":[7.0332515E-1,1.4079688E0,2.1694882E0,3.5229805E-1,2.0730298E0,-1.3021929E0,5.2910976E0,1.81411E-1,-2.507805E-1,9.276114E-2,-2.8247087E0,-5.469775E-1,1.4079688E0,-4.419464E-1,-4.6115354E-1,-7.6259726E-1,-1.6546749E0,-3.9524418E-1,-1.2213726E0,3.751469E-2,-2.722978E0,-5.7240677E-1,4.1816826E0,-9.4910187E-1,7.8966516E-1,-1.2945064E0,-1.0428085E0,-1.3462306E0,-2.722978E0,1.1965288E0,7.0599155E0,-1.7370814E0,-2.0939133E0,-1.5386012E-1,-2.6479137E0,-1.4496791E0,2.719801E-1,-2.6903903E-1,2.1982052E0,-1.4803351E0,6.063742E-1,-1.3633595E-1,-2.0157268E0,8.828791E-2,1.0144146E-1,-1.8774743E0,-8.317751E-2,-4.6033254E-1,-5.3124674E-2,4.61757E-1,-1.940757E-1,1.3711183E0,-8.618351E-1,3.6014274E-1,-1.158415E0,-1.22232335E-2,1.6053078E-1,-6.032039E-1,-1.0387855E0,-3.7981734E-2,4.8515704E-2,4.638753E0,3.893406E-1,3.3583246E-2,-4.45015E-2,-1.2465023E-2,-5.1995337E-2,-2.1109855E-2,7.764319E-2,6.7388296E-2,-3.885038E-2,7.4330546E-2,1.3517668E-3,-3.7988704E-2,-1.0795031E-2,-2.5781292E-2,3.6348518E-2,-4.301715E-2,4.8047557E-2,1.0804509E-1,-3.3180583E-2,-1.6536234E-2,9.572087E-3,1.6528249E-2,8.4965475E-2,5.0122E-2,-2.3516254E-3,-3.70416E-2,-3.3858176E-3,3.153719E-2,-4.919941E-2,-3.7746023E-2,9.602379E-2,8.436917E-2,-1.3253798E-2,1.1596232E-1,5.1122498E-2,3.0807713E-2,-2.5517663E-2,1.731405E-2,8.323723E-2,4.163005E-3,9.102058E-2,3.4520056E-2,-2.7273739E-2,6.868201E-2,1.9131932E-2,4.283088E-2,-1.06417065E-4,6.1217155E-2,1.1413937E-1,2.8315533E-2,6.897566E-2,4.950181E-2,1.1572122E-1,4.660221E-2,3.5128698E-3,9.784382E-2,6.029558E-2,-3.5855036E-2,6.1703134E-2],"split_indices":[17,55,17,16,65,5,17,52,5,17,8,26,55,5,16,50,20,24,24,22,7,26,46,23,30,6,3,6,7,48,37,18,18,16,8,6,4,23,21,22,49,22,24,0,17,18,15,7,6,37,9,19,26,38,54,41,32,23,24,0,0,51,30,0,0,0,0,0,0,0,0,0,0,0,0,0,0,0,0,0,0,0,0,0,0,0,0,0,0,0,0,0,0,0,0,0,0,0,0,0,0,0,0,0,0,0,0,0,0,0,0,0,0,0,0,0,0,0,0,0,0],"split_type":[0,0,0,0,0,0,0,0,0,0,0,0,0,0,0,0,0,0,0,0,0,0,0,0,0,0,0,0,0,0,0,0,0,0,0,0,0,0,0,0,0,0,0,0,0,0,0,0,0,0,0,0,0,0,0,0,0,0,0,0,0,0,0,0,0,0,0,0,0,0,0,0,0,0,0,0,0,0,0,0,0,0,0,0,0,0,0,0,0,0,0,0,0,0,0,0,0,0,0,0,0,0,0,0,0,0,0,0,0,0,0,0,0,0,0,0,0,0,0,0,0],"sum_hessian":[8.22477E3,7.123111E3,1.1016583E3,4.676192E3,2.446919E3,6.4164014E2,4.6001822E2,3.9074792E3,7.6871277E2,1.8392521E3,6.07667E2,1.2126416E2,5.20376E2,3.1525836E2,1.4475986E2,3.7301418E3,1.7733746E2,2.1702142E2,5.5169135E2,1.3408037E3,4.9844836E2,4.087459E0,6.035795E2,5.4605354E1,6.6658806E1,1.9147112E2,3.2890485E2,1.5970294E2,1.5555542E2,2.604375E0,1.4215549E2,4.599757E2,3.270166E3,6.261645E0,1.7107582E2,5.544011E1,1.6158131E2,3.784624E1,5.138451E2,8.2046576E2,5.203379E2,2.9875574E1,4.6857278E2,1.1156876E0,2.9717712E0,6.004951E2,3.084412E0,9.340468E0,4.5264885E1,4.351139E1,2.3147417E1,3.6131725E1,1.553394E2,7.097543E1,2.579294E2,5.497945E1,1.04723495E2,2.788234E1,1.2767307E2,1.360095E0,1.2442799E0,1.3929541E2,2.8600686E0,5.774805E0,4.542009E2,9.562592E0,3.2606035E3,3.4725428E0,2.789102E0,1.4817617E0,1.6959406E2,7.7310214E0,4.7709087E1,8.760086E1,7.3980446E1,3.018657E1,7.6596713E0,5.1142627E2,2.4188042E0,2.6705546E0,8.177952E2,4.0098288E2,1.1935501E2,9.340488E0,2.0535086E1,3.4705627E1,4.3386716E2,1.967344E0,1.0044272E0,1.3418143E0,5.991533E2,2.0760322E0,1.0083799E0,3.3379226E0,6.0025463E0,3.3341797E1,1.1923088E1,3.3349598E1,1.0161796E1,7.2353773E0,1.5912041E1,2.7531826E1,8.599899E0,7.1499405E0,1.4818945E2,4.3359573E1,2.7615858E1,6.474116E1,1.9318826E2,2.01642E1,3.481525E1,2.2329023E1,8.239447E1,1.323546E1,1.4646879E1,7.469815E1,5.2974922E1,1.2813016E2,1.1165258E1,1.1273489E0,1.7327195E0],"tree_param":{"num_deleted":"0","num_feature":"66","num_nodes":"121","size_leaf_vector":"1"}},{"base_weights":[-5.6559795E-1,7.8423566E-1,-6.768055E-1,2.6070997E-1,1.4465145E0,-8.984187E-1,-2.9977015E-1,-6.209291E-1,6.2949085E-1,1.822289E0,1.0609677E0,-9.710539E-1,-4.8398066E-1,9.1044784E-1,-3.854331E-1,-1.01997614E-1,-9.392814E-1,1.449089E0,3.51757E-1,1.184994E0,1.9182167E0,7.9672533E-1,1.844471E0,-6.393182E-1,-9.9327993E-1,1.3235791E-1,-6.341024E-1,4.4301325E-1,1.2758329E0,4.2080972E-1,-4.9371433E-1,-6.418435E-1,3.2601207E-1,4.6148747E-1,-1.0260112E0,2.3149476E0,1.1070879E0,5.7394367E-2,1.2654482E0,1.6122407E0,1.8235242E-1,-4.5734853E-3,1.945577E0,4.9587852E-1,1.4957703E0,2.2132971E0,1.0244697E0,6.47492E-1,-7.024815E-1,-1.0324837E0,-8.608875E-1,-3.598564E-1,5.8423215E-1,-5.5196077E-2,-7.460822E-1,7.6538675E-2,9.173001E-1,1.3519155E0,-4.8679065E-2,1.9913873E-1,1.5052445E0,-6.895888E-1,-2.3612949E-1,6.38766E-2,-4.2084467E-2,-2.4153711E-3,8.43726E-2,-2.1294465E-2,7.149967E-2,6.06097E-3,-5.3695887E-2,1.2532972E-1,1.6824003E-2,-9.032531E-3,6.495578E-2,2.03033E-2,-2.3271155E-2,1.1950271E-2,8.844516E-2,9.318491E-2,7.1463673E-3,5.6916595E-2,-2.3923036E-2,9.830903E-2,2.510172E-3,9.753187E-3,5.818975E-2,1.0252712E-1,2.8075477E-2,1.0513343E-2,1.1781062E-1,6.840585E-2,-1.9823803E-2,-2.2991061E-2,7.465398E-2,-3.722324E-2,2.7196676E-2,-2.6889173E-2,-5.183729E-2,-4.648961E-2,-3.2009356E-2,6.693757E-2,-2.297483E-2,1.4513577E-2,1.0248994E-1,4.2297494E-2,-1.7360952E-2,-2.5641084E-2,-4.4488363E-2,8.864879E-2,-3.1297E-3,1.11545175E-2,6.883969E-2,7.7074796E-2,2.7920851E-2,-4.717841E-3,4.959125E-2,9.444416E-2,4.59486E-2,-3.648814E-2,2.4510063E-2,3.4058835E-2,-1.5125272E-2],"categories":[],"categories_nodes":[],"categories_segments":[],"categories_sizes":[],"default_left":[0,0,0,0,0,0,0,0,0,0,0,0,0,0,0,0,0,0,0,0,0,0,0,0,0,0,0,0,0,0,0,0,0,0,0,0,0,0,0,0,0,0,0,0,0,0,0,0,0,0,0,0,0,0,0,0,0,0,0,0,0,0,0,0,0,0,0,0,0,0,0,0,0,0,0,0,0,0,0,0,0,0,0,0,0,0,0,0,0,0,0,0,0,0,0,0,0,0,0,0,0,0,0,0,0,0,0,0,0,0,0,0,0,0,0,0,0,0,0,0,0,0,0],"id":10,"left_children":[1,3,5,7,9,11,13,15,17,19,21,23,25,27,29,31,33,35,37,39,41,43,45,47,49,51,53,55,57,59,61,63,65,67,69,71,73,75,77,79,81,-1,83,85,87,89,91,93,95,97,99,101,103,105,107,109,111,113,-1,115,117,119,121,-1,-1,-1,-1,-1,-1,-1,-1,-1,-1,-1,-1,-1,-1,-1,-1,-1,-1,-1,-1,-1,-1,-1,-1,-1,-1,-1,-1,-1,-1,-1,-1,-1,-1,-1,-1,-1,-1,-1,-1,-1,-1,-1,-1,-1,-1,-1,-1,-1,-1,-1,-1,-1,-1,-1,-1,-1,-1,-1,-1],"loss_changes":[1.201688E3,2.1095544E2,6.174807E2,1.1146884E2,3.7021484E1,1.396836E2,2.8424298E2,1.6632957E1,5.443524E1,5.966095E0,2.650241E1,2.856665E1,6.450964E1,3.0402481E1,2.235307E2,9.364652E0,8.083298E0,1.5433266E1,4.877152E1,8.379898E0,6.530121E0,2.0876366E1,7.8079147E0,2.0896355E1,1.8367432E1,3.072771E1,3.6267273E1,1.40228815E1,1.8641739E1,7.263895E1,1.1364496E2,7.925773E0,1.1682479E1,4.3405976E0,3.3890953E0,5.3335037E0,1.1481361E1,2.5418556E1,2.2420341E1,4.9323196E0,5.078961E0,0E0,4.353821E0,1.4512648E1,1.4621864E1,5.835762E0,6.4983444E0,1.2191774E1,1.2974785E1,5.467285E0,1.238623E1,1.1834885E1,3.0387817E1,2.4467281E1,1.5270508E1,1.1164337E1,1.0937416E1,1.3932953E1,0E0,5.8971973E1,9.812279E0,6.1063293E1,5.9623726E1,0E0,0E0,0E0,0E0,0E0,0E0,0E0,0E0,0E0,0E0,0E0,0E0,0E0,0E0,0E0,0E0,0E0,0E0,0E0,0E0,0E0,0E0,0E0,0E0,0E0,0E0,0E0,0E0,0E0,0E0,0E0,0E0,0E0,0E0,0E0,0E0,0E0,0E0,0E0,0E0,0E0,0E0,0E0,0E0,0E0,0E0,0E0,0E0,0E0,0E0,0E0,0E0,0E0,0E0,0E0,0E0,0E0,0E0,0E0,0E0],"parents":[2147483647,0,0,1,1,2,2,3,3,4,4,5,5,6,6,7,7,8,8,9,9,10,10,11,11,12,12,13,13,14,14,15,15,16,16,17,17,18,18,19,19,20,20,21,21,22,22,23,23,24,24,25,25,26,26,27,27,28,28,29,29,30,30,31,31,32,32,33,33,34,34,35,35,36,36,37,37,38,38,39,39,40,40,42,42,43,43,44,44,45,45,46,46,47,47,48,48,49,49,50,50,51,51,52,52,53,53,54,54,55,55,56,56,57,57,59,59,60,60,61,61,62,62],"right_children":[2,4,6,8,10,12,14,16,18,20,22,24,26,28,30,32,34,36,38,40,42,44,46,48,50,52,54,56,58,60,62,64,66,68,70,72,74,76,78,80,82,-1,84,86,88,90,92,94,96,98,100,102,104,106,108,110,112,114,-1,116,118,120,122,-1,-1,-1,-1,-1,-1,-1,-1,-1,-1,-1,-1,-1,-1,-1,-1,-1,-1,-1,-1,-1,-1,-1,-1,-1,-1,-1,-1,-1,-1,-1,-1,-1,-1,-1,-1,-1,-1,-1,-1,-1,-1,-1,-1,-1,-1,-1,-1,-1,-1,-1,-1,-1,-1,-1,-1,-1,-1,-1,-1],"split_conditions":[-1.856856E0,6.091036E-1,1.4079688E0,1.4079688E0,-3.0483873E0,4.7468224E-1,-1.7532729E0,1.0037768E0,-1.1491234E0,-1.9164597E0,1.7043793E0,-7.286952E-1,-6.3311225E-1,1.5331483E-1,-8.242782E-1,1.3171224E-2,-1.17551E0,-1.9538844E-1,1.2309587E0,-4.419464E-1,-2.823851E0,6.054228E-1,7.0073634E-1,-7.688291E-1,1.574529E-2,1.0768437E-2,-1.0540515E0,2.8124824E-1,3.7785053E0,2.0831158E0,-1.5723859E-1,-7.7497846E-1,5.047196E-1,2.0056206E-1,-1.585147E0,5.1388305E-1,-2.3262015E-1,-3.228318E-1,-3.965141E-1,2.3098347E0,-4.7165313E0,-4.5734853E-3,9.897169E-1,7.411751E-1,3.596834E-2,-7.9162276E-1,8.4315515E-1,1.0315607E0,9.338556E-1,-8.365888E-1,4.2837846E-1,-1.252992E0,2.3198261E0,-5.4114133E-1,-7.385677E-1,-2.294324E0,-6.607363E-1,1.1803031E0,-4.8679065E-2,6.545612E-1,-1.8756906E0,2.993068E0,-1.1491234E0,6.38766E-2,-4.2084467E-2,-2.4153711E-3,8.43726E-2,-2.1294465E-2,7.149967E-2,6.06097E-3,-5.3695887E-2,1.2532972E-1,1.6824003E-2,-9.032531E-3,6.495578E-2,2.03033E-2,-2.3271155E-2,1.1950271E-2,8.844516E-2,9.318491E-2,7.1463673E-3,5.6916595E-2,-2.3923036E-2,9.830903E-2,2.510172E-3,9.753187E-3,5.818975E-2,1.0252712E-1,2.8075477E-2,1.0513343E-2,1.1781062E-1,6.840585E-2,-1.9823803E-2,-2.2991061E-2,7.465398E-2,-3.722324E-2,2.7196676E-2,-2.6889173E-2,-5.183729E-2,-4.648961E-2,-3.2009356E-2,6.693757E-2,-2.297483E-2,1.4513577E-2,1.0248994E-1,4.2297494E-2,-1.7360952E-2,-2.5641084E-2,-4.4488363E-2,8.864879E-2,-3.1297E-3,1.11545175E-2,6.883969E-2,7.7074796E-2,2.7920851E-2,-4.717841E-3,4.959125E-2,9.444416E-2,4.59486E-2,-3.648814E-2,2.4510063E-2,3.4058835E-2,-1.5125272E-2],"split_indices":[24,16,55,55,24,16,7,53,54,23,28,5,5,12,5,27,18,47,28,5,20,9,25,26,10,22,23,0,36,28,10,26,25,30,3,5,52,8,54,47,24,0,8,4,5,34,0,64,9,26,4,22,28,7,3,8,18,14,0,16,5,46,54,0,0,0,0,0,0,0,0,0,0,0,0,0,0,0,0,0,0,0,0,0,0,0,0,0,0,0,0,0,0,0,0,0,0,0,0,0,0,0,0,0,0,0,0,0,0,0,0,0,0,0,0,0,0,0,0,0,0,0,0],"split_type":[0,0,0,0,0,0,0,0,0,0,0,0,0,0,0,0,0,0,0,0,0,0,0,0,0,0,0,0,0,0,0,0,0,0,0,0,0,0,0,0,0,0,0,0,0,0,0,0,0,0,0,0,0,0,0,0,0,0,0,0,0,0,0,0,0,0,0,0,0,0,0,0,0,0,0,0,0,0,0,0,0,0,0,0,0,0,0,0,0,0,0,0,0,0,0,0,0,0,0,0,0,0,0,0,0,0,0,0,0,0,0,0,0,0,0,0,0,0,0,0,0,0,0],"sum_hessian":[8.000759E3,6.085193E2,7.3922397E3,3.4063998E2,2.678793E2,4.6548413E3,2.7373982E3,1.0026181E2,2.4037817E2,1.3377174E2,1.3410757E2,3.959542E3,6.9529956E2,1.8031657E2,2.5570815E3,3.862362E1,6.163819E1,5.977207E1,1.806061E2,1.9248362E1,1.14523384E2,1.0179375E2,3.2313828E1,2.504975E2,3.7090444E3,1.3620715E2,5.590924E2,8.008141E1,1.0023517E2,3.024211E2,2.2546604E3,1.6859385E1,2.1764233E1,3.3419256E0,5.829627E1,1.5290826E1,4.4481247E1,1.3740224E2,4.3203865E1,1.3070678E1,6.177684E0,1.5067393E0,1.1301664E2,7.236116E1,2.9432587E1,2.1116676E1,1.1197148E1,1.1287568E1,2.3920993E2,2.8564111E3,8.526333E2,6.529104E1,7.0916115E1,9.086041E1,4.68232E2,4.5830345E1,3.425107E1,9.734174E1,2.893428E0,2.5207724E2,5.0343872E1,1.2797936E3,9.7486676E2,1.0813367E0,1.5778048E1,1.7827257E1,3.9369762E0,2.0363848E0,1.3055407E0,2.2754405E0,5.602083E1,1.3697103E1,1.5937227E0,5.779975E0,3.870127E1,8.2563324E1,5.483891E1,1.4702719E1,2.8501146E1,1.0931458E1,2.1392193E0,2.2295845E0,3.9480991E0,1.1176435E2,1.2522908E0,5.078208E1,2.1579079E1,1.7717157E1,1.1715429E1,1.5709057E0,1.954577E1,9.046488E0,2.1506608E0,5.084945E0,6.2026224E0,2.3180472E2,7.405212E0,2.548547E1,2.8309255E3,6.4732086E2,2.0531242E2,2.9286847E0,6.2362354E1,6.0066204E1,1.0849907E1,2.1773449E1,6.908697E1,1.8022351E2,2.8800848E2,2.583751E0,4.3246593E1,1.4233064E1,2.0018003E1,7.7809135E1,1.9532602E1,1.8460675E2,6.747049E1,2.908783E1,2.125604E1,1.2380183E3,4.177526E1,6.515612E1,9.0971063E2],"tree_param":{"num_deleted":"0","num_feature":"66","num_nodes":"123","size_leaf_vector":"1"}},{"base_weights":[-5.4613185E-1,4.4504195E-1,-6.9217736E-1,1.1940126E0,1.1329455E-1,-8.98893E-1,-3.2702225E-1,1.5702769E0,8.168539E-1,1.0546896E0,-1.0368978E-1,-1.0033268E0,-6.939614E-1,-1.55812E-1,-8.5408497E-1,1.5943832E0,-1.9638171E-2,5.718248E-1,1.5245532E0,1.1781429E0,-1.515406E-1,9.0674825E-2,-8.2952636E-1,-7.4218076E-1,-1.022384E0,-4.029672E-2,-7.632075E-1,-2.901164E-1,5.0729847E-1,-9.0143967E-1,-2.0169777E-1,1.321042E0,1.8099252E0,1.4561502E0,3.1837884E-1,1.8473898E0,5.4668075E-1,4.945602E-1,1.2943808E0,-4.919054E-2,4.8745555E-1,7.644722E-1,-1.3856511E-1,1.5626326E0,-8.940869E-1,-7.8805023E-1,5.138264E-1,2.0160536E-1,-1.0254273E0,1.124828E0,-2.0548993E-1,-3.4201037E-2,-8.079544E-1,4.5249337E-1,-3.9032164E-1,-3.199144E-4,8.246815E-1,-9.122213E-1,1.2003806E0,1.4368882E0,-4.0921938E-1,7.460068E-2,2.2359312E-2,6.764846E-2,9.781924E-2,9.1019996E-2,3.4493674E-3,7.113117E-2,9.289562E-3,6.93219E-3,9.6955106E-2,-3.0333048E-2,5.1911373E-2,-5.4783025E-3,5.9911143E-2,7.630983E-2,4.176988E-2,6.51563E-2,-4.3831762E-2,2.6501728E-2,9.126206E-2,-1.1085684E-2,4.8859235E-2,1.01429835E-1,1.4797689E-2,1.1811313E-2,-4.7628418E-2,1.357269E-4,-4.1654658E-2,5.556993E-2,-3.824949E-2,6.4591855E-2,-3.367557E-2,-5.254961E-2,-4.741878E-2,8.793962E-2,9.489386E-3,-1.8797914E-2,3.2575447E-2,-9.544975E-3,8.097944E-2,-1.6945707E-2,-4.2191133E-2,4.7847196E-2,-2.4506557E-3,5.9347477E-2,-2.121606E-2,2.8144673E-2,-1.2104414E-2,-7.403278E-3,4.9526047E-2,-4.600674E-2,5.736458E-2,9.2595644E-2,-6.6843624E-3,1.06022835E-1,-2.9034376E-2,8.3366565E-2,-2.7527397E-2],"categories":[],"categories_nodes":[],"categories_segments":[],"categories_sizes":[],"default_left":[0,0,0,0,0,0,0,0,0,0,0,0,0,0,0,0,0,0,0,0,0,0,0,0,0,0,0,0,0,0,0,0,0,0,0,0,0,0,0,0,0,0,0,0,0,0,0,0,0,0,0,0,0,0,0,0,0,0,0,0,0,0,0,0,0,0,0,0,0,0,0,0,0,0,0,0,0,0,0,0,0,0,0,0,0,0,0,0,0,0,0,0,0,0,0,0,0,0,0,0,0,0,0,0,0,0,0,0,0,0,0,0,0,0,0,0,0,0,0],"id":11,"left_children":[1,3,5,7,9,11,13,15,17,19,21,23,25,27,29,31,-1,33,35,37,39,41,43,45,47,49,51,53,55,57,59,61,63,65,67,69,71,73,75,-1,77,79,81,83,85,87,89,91,93,95,97,99,101,103,105,107,109,111,113,115,117,-1,-1,-1,-1,-1,-1,-1,-1,-1,-1,-1,-1,-1,-1,-1,-1,-1,-1,-1,-1,-1,-1,-1,-1,-1,-1,-1,-1,-1,-1,-1,-1,-1,-1,-1,-1,-1,-1,-1,-1,-1,-1,-1,-1,-1,-1,-1,-1,-1,-1,-1,-1,-1,-1,-1,-1,-1,-1],"loss_changes":[1.1339373E3,2.4990627E2,5.1495166E2,4.254059E1,1.427949E2,9.257251E1,2.2266315E2,7.8902283E0,2.6232506E1,1.9676407E1,8.0289696E1,1.3597168E1,6.6705505E1,1.6622583E2,1.8513275E1,6.554779E0,0E0,2.5917511E1,1.149128E1,8.806793E0,7.415807E0,6.951951E1,1.9959969E1,1.1917961E1,1.0211426E1,2.76167E1,4.345923E1,1.1561987E2,5.0660538E1,1.3873779E1,1.4951776E1,9.88755E0,2.8538818E0,1.2981113E1,1.3317402E1,4.3307343E0,7.007063E0,8.164383E0,9.470825E0,0E0,1.0095421E1,2.7440598E1,3.1403044E1,1.4787397E0,8.003464E0,6.883362E0,6.693333E0,8.022948E0,4.281006E0,1.0231199E1,1.8573767E1,2.0558578E1,2.0843872E1,4.682687E1,7.383597E1,1.6744442E1,3.1358368E1,1.0208374E1,3.1243253E0,8.085722E0,1.214961E1,0E0,0E0,0E0,0E0,0E0,0E0,0E0,0E0,0E0,0E0,0E0,0E0,0E0,0E0,0E0,0E0,0E0,0E0,0E0,0E0,0E0,0E0,0E0,0E0,0E0,0E0,0E0,0E0,0E0,0E0,0E0,0E0,0E0,0E0,0E0,0E0,0E0,0E0,0E0,0E0,0E0,0E0,0E0,0E0,0E0,0E0,0E0,0E0,0E0,0E0,0E0,0E0,0E0,0E0,0E0,0E0,0E0,0E0],"parents":[2147483647,0,0,1,1,2,2,3,3,4,4,5,5,6,6,7,7,8,8,9,9,10,10,11,11,12,12,13,13,14,14,15,15,17,17,18,18,19,19,20,20,21,21,22,22,23,23,24,24,25,25,26,26,27,27,28,28,29,29,30,30,31,31,32,32,33,33,34,34,35,35,36,36,37,37,38,38,40,40,41,41,42,42,43,43,44,44,45,45,46,46,47,47,48,48,49,49,50,50,51,51,52,52,53,53,54,54,55,55,56,56,57,57,58,58,59,59,60,60],"right_children":[2,4,6,8,10,12,14,16,18,20,22,24,26,28,30,32,-1,34,36,38,40,42,44,46,48,50,52,54,56,58,60,62,64,66,68,70,72,74,76,-1,78,80,82,84,86,88,90,92,94,96,98,100,102,104,106,108,110,112,114,116,118,-1,-1,-1,-1,-1,-1,-1,-1,-1,-1,-1,-1,-1,-1,-1,-1,-1,-1,-1,-1,-1,-1,-1,-1,-1,-1,-1,-1,-1,-1,-1,-1,-1,-1,-1,-1,-1,-1,-1,-1,-1,-1,-1,-1,-1,-1,-1,-1,-1,-1,-1,-1,-1,-1,-1,-1,-1,-1],"split_conditions":[-1.2774873E0,-8.242782E-1,1.4079688E0,-2.65121E0,-1.2684202E0,-6.1717886E-2,2.0730298E0,2.2937195E0,2.225142E0,1.1598377E0,1.0557971E0,-6.3311225E-1,-9.1986114E-1,1.3019203E0,7.129139E-1,1.0889325E0,-1.9638171E-2,-1.2800816E0,6.230799E-1,6.817525E-3,4.1184413E-1,-2.4685087E0,-1.9241086E0,3.124641E0,-2.226042E0,-4.5100272E-1,-1.3556805E0,-9.1986114E-1,-2.0918359E-1,2.809452E0,-1.5066575E0,-6.309997E-2,-3.3942E-1,3.6620542E-1,-9.989026E-1,-7.315682E-1,-3.7083328E-1,2.5388908E-1,7.8704536E-1,-4.919054E-2,1.2471372E0,1.2783008E0,1.9364514E0,-1.335498E0,-4.4225478E-1,-5.7216775E-1,2.2528058E-1,-3.9548406E-1,6.817525E-3,-1.6307807E-1,2.8547743E-1,1.8132178E-1,-1.3817701E0,-2.9709294E-1,-1.7532729E0,-1.5519755E-1,6.817525E-3,4.781613E0,3.3205748E-1,1.2679055E-1,-1.8756906E0,7.460068E-2,2.2359312E-2,6.764846E-2,9.781924E-2,9.1019996E-2,3.4493674E-3,7.113117E-2,9.289562E-3,6.93219E-3,9.6955106E-2,-3.0333048E-2,5.1911373E-2,-5.4783025E-3,5.9911143E-2,7.630983E-2,4.176988E-2,6.51563E-2,-4.3831762E-2,2.6501728E-2,9.126206E-2,-1.1085684E-2,4.8859235E-2,1.01429835E-1,1.4797689E-2,1.1811313E-2,-4.7628418E-2,1.357269E-4,-4.1654658E-2,5.556993E-2,-3.824949E-2,6.4591855E-2,-3.367557E-2,-5.254961E-2,-4.741878E-2,8.793962E-2,9.489386E-3,-1.8797914E-2,3.2575447E-2,-9.544975E-3,8.097944E-2,-1.6945707E-2,-4.2191133E-2,4.7847196E-2,-2.4506557E-3,5.9347477E-2,-2.121606E-2,2.8144673E-2,-1.2104414E-2,-7.403278E-3,4.9526047E-2,-4.600674E-2,5.736458E-2,9.2595644E-2,-6.6843624E-3,1.06022835E-1,-2.9034376E-2,8.3366565E-2,-2.7527397E-2],"split_indices":[24,5,55,24,7,10,65,13,28,53,53,5,5,33,10,28,0,3,36,57,54,24,3,28,23,47,23,5,12,20,13,8,0,25,22,30,20,54,57,0,11,28,33,8,42,47,14,14,57,24,50,51,3,3,7,5,57,28,34,12,5,0,0,0,0,0,0,0,0,0,0,0,0,0,0,0,0,0,0,0,0,0,0,0,0,0,0,0,0,0,0,0,0,0,0,0,0,0,0,0,0,0,0,0,0,0,0,0,0,0,0,0,0,0,0,0,0,0,0],"split_type":[0,0,0,0,0,0,0,0,0,0,0,0,0,0,0,0,0,0,0,0,0,0,0,0,0,0,0,0,0,0,0,0,0,0,0,0,0,0,0,0,0,0,0,0,0,0,0,0,0,0,0,0,0,0,0,0,0,0,0,0,0,0,0,0,0,0,0,0,0,0,0,0,0,0,0,0,0,0,0,0,0,0,0,0,0,0,0,0,0,0,0,0,0,0,0,0,0,0,0,0,0,0,0,0,0,0,0,0,0,0,0,0,0,0,0,0,0,0,0],"sum_hessian":[7.830286E3,1.00532855E3,6.824958E3,3.0780725E2,6.975213E2,4.356989E3,2.4679692E3,1.5250276E2,1.5530449E2,1.2993452E2,5.6758673E2,2.8836003E3,1.4733883E3,1.8638234E3,6.041459E2,1.5083824E2,1.6645117E0,1.1670524E2,3.8599243E1,1.17892E2,1.2042526E1,4.483915E2,1.1919525E2,1.9883598E2,2.6847642E3,1.4128429E2,1.332104E3,1.5503771E3,3.1344623E2,5.629047E2,4.1241173E1,6.964556E1,8.119269E1,2.4939781E1,9.1765465E1,2.8350395E1,1.0248847E1,1.7896912E1,9.999509E1,4.995909E0,7.0466166E0,1.1323343E2,3.3515808E2,2.5225646E0,1.1667268E2,1.9218977E2,6.646217E0,6.49715E0,2.678267E3,1.6822723E1,1.2446156E2,7.713887E1,1.2549652E3,1.8391185E2,1.3664652E3,1.2096899E2,1.9247723E2,5.6059503E2,2.3096952E0,3.970011E0,3.727116E1,5.7657387E1,1.1988176E1,2.2191793E1,5.9000893E1,1.950557E1,5.434211E0,8.794182E0,8.297128E1,1.5720627E0,2.6778334E1,2.992709E0,7.2561383E0,1.0083803E1,7.813109E0,6.48942E1,3.510089E1,4.437729E0,2.6088877E0,9.396594E1,1.9267487E1,3.126592E2,2.2498884E1,1.4044219E0,1.1181426E0,5.5900683E0,1.1108262E2,1.0408026E1,1.8178174E2,4.6188235E0,2.0273933E0,2.6809719E0,3.8161778E0,2.0015402E3,6.767269E2,9.500401E0,7.322324E0,1.04280174E2,2.0181389E1,7.1270485E1,5.86839E0,8.989391E1,1.1650713E3,9.123406E1,9.267778E1,2.8118309E1,1.3383469E3,3.5932926E1,8.5036064E1,2.8050646E1,1.6442659E2,5.5900037E2,1.5946637E0,1.2910177E0,1.0186775E0,2.927247E0,1.042764E0,1.6869614E0,3.55842E1],"tree_param":{"num_deleted":"0","num_feature":"66","num_nodes":"119","size_leaf_vector":"1"}},{"base_weights":[-5.411802E-1,-7.8180796E-1,4.9837214E-1,-9.3469244E-1,-4.941799E-1,1.7727554E-1,1.148012E0,-9.8274565E-1,-6.7200065E-1,-3.5256213E-1,-9.377965E-1,-2.705726E-1,4.353009E-1,1.597624E0,9.9386513E-1,-1.011009E0,-8.385049E-1,-7.919808E-1,-3.6380196E-1,2.856731E-1,-4.2031196E-1,-1.0438362E0,-7.699682E-1,-4.574459E-1,4.4230103E-1,1.0470873E0,1.442845E-1,1.6466991E0,2.4776496E-1,8.169824E-1,1.3813323E0,-4.4928E-1,-1.0152541E0,-9.0430313E-1,-5.747996E-1,5.196962E-1,-8.1198686E-1,-6.3244E-1,8.784886E-2,6.656374E-1,-1.5405768E-1,-6.03901E-1,-2.2135408E-1,-1.0607159E0,-7.111704E-1,-8.5883564E-1,-2.4811517E-1,-7.780599E-1,-1.3111404E-1,1.9510714E0,2.6522034E-1,1.202399E0,-2.686811E-1,1.1220936E0,1.423019E-2,1.6808492E0,5.4321015E-1,5.502162E-2,-3.41546E-2,5.6073827E-1,1.1144216E0,1.781514E0,1.1110038E0,4.478119E-2,-4.1313063E-2,-5.144446E-2,-4.3873273E-2,3.0012054E-2,-4.5615457E-2,-4.178799E-2,-1.1890386E-2,1.0628065E-1,-1.2399018E-2,-4.2289224E-2,-1.3171283E-2,-3.3913188E-2,7.243147E-2,3.7369933E-2,-1.3972563E-2,-1.1626772E-2,5.383098E-2,-1.2596371E-2,6.264783E-2,-3.5714053E-2,-8.866272E-3,-1.994471E-2,3.4913102E-3,-5.3510673E-2,-2.4326913E-2,3.2574948E-2,-4.2857174E-2,1.1344211E-2,-4.413406E-2,-2.782975E-2,3.0775065E-2,-4.3429803E-2,1.7778082E-3,-1.0775362E-2,5.917074E-2,1.17688715E-1,2.4682516E-3,-4.289937E-3,4.367969E-2,9.021989E-2,4.685308E-2,-2.4489336E-2,7.033299E-2,7.767409E-2,2.1730972E-2,-1.0687451E-2,2.0658595E-2,8.6032346E-2,3.4391236E-2,6.2351193E-2,-2.7183695E-2,6.9871373E-3,4.318683E-2,6.9650084E-2,3.3179563E-2,3.530762E-2,9.359037E-2,6.330763E-2,1.3038791E-2],"categories":[],"categories_nodes":[],"categories_segments":[],"categories_sizes":[],"default_left":[0,0,0,0,0,0,0,0,0,0,0,0,0,0,0,0,0,0,0,0,0,0,0,0,0,0,0,0,0,0,0,0,0,0,0,0,0,0,0,0,0,0,0,0,0,0,0,0,0,0,0,0,0,0,0,0,0,0,0,0,0,0,0,0,0,0,0,0,0,0,0,0,0,0,0,0,0,0,0,0,0,0,0,0,0,0,0,0,0,0,0,0,0,0,0,0,0,0,0,0,0,0,0,0,0,0,0,0,0,0,0,0,0,0,0,0,0,0,0,0,0,0,0],"id":12,"left_children":[1,3,5,7,9,11,13,15,17,19,21,23,25,27,29,31,33,35,37,39,41,43,45,47,49,51,53,55,57,59,61,63,65,67,69,71,73,75,77,79,81,83,85,87,89,91,93,95,97,99,101,103,105,107,109,111,113,-1,-1,115,117,119,121,-1,-1,-1,-1,-1,-1,-1,-1,-1,-1,-1,-1,-1,-1,-1,-1,-1,-1,-1,-1,-1,-1,-1,-1,-1,-1,-1,-1,-1,-1,-1,-1,-1,-1,-1,-1,-1,-1,-1,-1,-1,-1,-1,-1,-1,-1,-1,-1,-1,-1,-1,-1,-1,-1,-1,-1,-1,-1,-1,-1],"loss_changes":[1.9102886E3,2.7219434E2,2.9928918E2,5.043042E1,1.3499481E2,1.11284935E2,3.1313843E1,1.3092041E1,2.2972473E1,7.079201E1,8.461914E0,4.713113E1,1.0858587E2,7.512024E0,2.3282043E1,6.3500977E0,9.302612E0,1.22812805E1,2.1666275E1,2.6407988E1,5.385092E1,1.0214539E0,9.312508E0,2.9151512E1,1.916631E1,4.0522064E1,5.2763016E1,3.4277039E0,5.0149035E0,1.8199524E1,9.94072E0,1.2503685E1,4.4174805E0,5.9836426E0,9.983646E0,9.648963E0,8.0373535E0,1.1644726E1,1.6514248E1,3.1496677E1,1.04771805E1,3.6039124E1,3.6777065E1,1.1094666E0,4.1997347E0,4.7337036E0,8.679725E0,1.0404846E1,1.5760382E1,5.6897736E0,1.4402627E1,2.6442398E1,8.6848545E0,1.3770264E1,3.349658E1,3.2131042E0,4.4532356E0,0E0,0E0,1.7060871E1,1.3304138E1,2.83078E0,8.695145E0,0E0,0E0,0E0,0E0,0E0,0E0,0E0,0E0,0E0,0E0,0E0,0E0,0E0,0E0,0E0,0E0,0E0,0E0,0E0,0E0,0E0,0E0,0E0,0E0,0E0,0E0,0E0,0E0,0E0,0E0,0E0,0E0,0E0,0E0,0E0,0E0,0E0,0E0,0E0,0E0,0E0,0E0,0E0,0E0,0E0,0E0,0E0,0E0,0E0,0E0,0E0,0E0,0E0,0E0,0E0,0E0,0E0,0E0,0E0,0E0],"parents":[2147483647,0,0,1,1,2,2,3,3,4,4,5,5,6,6,7,7,8,8,9,9,10,10,11,11,12,12,13,13,14,14,15,15,16,16,17,17,18,18,19,19,20,20,21,21,22,22,23,23,24,24,25,25,26,26,27,27,28,28,29,29,30,30,31,31,32,32,33,33,34,34,35,35,36,36,37,37,38,38,39,39,40,40,41,41,42,42,43,43,44,44,45,45,46,46,47,47,48,48,49,49,50,50,51,51,52,52,53,53,54,54,55,55,56,56,59,59,60,60,61,61,62,62],"right_children":[2,4,6,8,10,12,14,16,18,20,22,24,26,28,30,32,34,36,38,40,42,44,46,48,50,52,54,56,58,60,62,64,66,68,70,72,74,76,78,80,82,84,86,88,90,92,94,96,98,100,102,104,106,108,110,112,114,-1,-1,116,118,120,122,-1,-1,-1,-1,-1,-1,-1,-1,-1,-1,-1,-1,-1,-1,-1,-1,-1,-1,-1,-1,-1,-1,-1,-1,-1,-1,-1,-1,-1,-1,-1,-1,-1,-1,-1,-1,-1,-1,-1,-1,-1,-1,-1,-1,-1,-1,-1,-1,-1,-1,-1,-1,-1,-1,-1,-1,-1,-1,-1,-1],"split_conditions":[4.5688698E-1,1.4079688E0,2.1694882E0,3.6529598E-1,2.0730298E0,6.817525E-3,-4.9305993E-1,2.2231376E-1,3.0413556E-1,-1.025994E0,-9.4698584E-1,8.9601684E-1,7.8704536E-1,3.3789887E0,5.2910976E0,-8.4848696E-1,7.903453E-3,-1.8340816E0,9.7693756E-2,7.8704536E-1,-1.1336E-1,1.4276985E0,3.8259476E-2,2.1383034E-1,-8.76662E-1,2.0730298E0,-1.4495624E0,1.160442E0,-8.218648E-1,5.315997E-1,6.0994506E-1,-7.727638E-1,6.912822E-2,-2.0596933E0,-9.045194E-2,-5.3254443E-1,1.6804407E0,1.4740542E0,-2.3112655E-1,6.817525E-3,2.5373065E0,8.205518E-1,4.468322E-1,3.607105E0,-6.704037E-1,-9.654698E-1,2.4034084E-1,1.7388343E0,2.14876E0,7.50543E-1,7.8966516E-1,-5.495898E-1,1.8528534E0,4.4539505E-1,3.0413556E-1,2.0730298E0,-6.122618E-2,5.502162E-2,-3.41546E-2,8.984624E-2,1.2973723E-1,-1.4420974E0,1.5672733E0,4.478119E-2,-4.1313063E-2,-5.144446E-2,-4.3873273E-2,3.0012054E-2,-4.5615457E-2,-4.178799E-2,-1.1890386E-2,1.0628065E-1,-1.2399018E-2,-4.2289224E-2,-1.3171283E-2,-3.3913188E-2,7.243147E-2,3.7369933E-2,-1.3972563E-2,-1.1626772E-2,5.383098E-2,-1.2596371E-2,6.264783E-2,-3.5714053E-2,-8.866272E-3,-1.994471E-2,3.4913102E-3,-5.3510673E-2,-2.4326913E-2,3.2574948E-2,-4.2857174E-2,1.1344211E-2,-4.413406E-2,-2.782975E-2,3.0775065E-2,-4.3429803E-2,1.7778082E-3,-1.0775362E-2,5.917074E-2,1.17688715E-1,2.4682516E-3,-4.289937E-3,4.367969E-2,9.021989E-2,4.685308E-2,-2.4489336E-2,7.033299E-2,7.767409E-2,2.1730972E-2,-1.0687451E-2,2.0658595E-2,8.6032346E-2,3.4391236E-2,6.2351193E-2,-2.7183695E-2,6.9871373E-3,