{"learner":{"attributes":{"best_iteration":"179","best_score":"0.541862400542804","scikit_learn":"{\"_estimator_type\": \"classifier\"}"},"feature_names":[],"feature_types":[],"gradient_booster":{"model":{"gbtree_model_param":{"num_parallel_tree":"1","num_trees":"190"},"iteration_indptr":[0,1,2,3,4,5,6,7,8,9,10,11,12,13,14,15,16,17,18,19,20,21,22,23,24,25,26,27,28,29,30,31,32,33,34,35,36,37,38,39,40,41,42,43,44,45,46,47,48,49,50,51,52,53,54,55,56,57,58,59,60,61,62,63,64,65,66,67,68,69,70,71,72,73,74,75,76,77,78,79,80,81,82,83,84,85,86,87,88,89,90,91,92,93,94,95,96,97,98,99,100,101,102,103,104,105,106,107,108,109,110,111,112,113,114,115,116,117,118,119,120,121,122,123,124,125,126,127,128,129,130,131,132,133,134,135,136,137,138,139,140,141,142,143,144,145,146,147,148,149,150,151,152,153,154,155,156,157,158,159,160,161,162,163,164,165,166,167,168,169,170,171,172,173,174,175,176,177,178,179,180,181,182,183,184,185,186,187,188,189,190],"tree_info":[0,0,0,0,0,0,0,0,0,0,0,0,0,0,0,0,0,0,0,0,0,0,0,0,0,0,0,0,0,0,0,0,0,0,0,0,0,0,0,0,0,0,0,0,0,0,0,0,0,0,0,0,0,0,0,0,0,0,0,0,0,0,0,0,0,0,0,0,0,0,0,0,0,0,0,0,0,0,0,0,0,0,0,0,0,0,0,0,0,0,0,0,0,0,0,0,0,0,0,0,0,0,0,0,0,0,0,0,0,0,0,0,0,0,0,0,0,0,0,0,0,0,0,0,0,0,0,0,0,0,0,0,0,0,0,0,0,0,0,0,0,0,0,0,0,0,0,0,0,0,0,0,0,0,0,0,0,0,0,0,0,0,0,0,0,0,0,0,0,0,0,0,0,0,0,0,0,0,0,0,0,0,0,0,0,0,0,0,0,0],"trees":[{"base_weights":[-7.1843195E-1,-8.6548686E-1,2.5489235E0,-9.511519E-1,-3.4643147E-2,4.231416E0,1.6760612E0,1.8553972E-1,-9.6950513E-1,1.8816203E0,-2.1251537E-1,3.4477282E0,2.7361223E-1,9.903697E-1,3.2548187E0,1.6585956E0,-4.4562668E-1,-1.0636652E0,-8.085515E-1,2.7247174E0,1.1161752E0,6.863161E-1,-4.361428E-1,2.7823052E0,4.795083E0,2.6258209E0,6.1612964E-1,4.6399508E0,2.5252848E0,6.6024524E-1,2.7775295E0,8.809265E-1,-6.384278E-1,-8.04927E-1,-1.0943328E0,-5.659662E-1,-9.4940096E-1,3.2641187E0,1.3417934E0,2.0170555E0,6.3527095E-1,2.7751696E0,4.1067633E-1,-8.0772036E-1,-1.1317239E-1,3.7138834E0,2.119664E0,5.216297E0,2.6767492E0,2.832477E0,-2.5725687E-1,2.4135058E0,3.2135302E-1,2.5422504E-2,4.841073E0,5.9786284E-1,2.8635387E0,1.687718E-1,1.8309085E-2,1.1488647E-2,1.521937E-1,-3.6034744E-2,8.0503665E-2,-3.537749E-2,8.4536366E-2,-1.4491158E-2,-4.5749992E-2,-5.652163E-2,-5.0332334E-2,-4.0727377E-2,-1.48353325E-2,-5.137487E-2,-3.127412E-2,8.087155E-2,1.9367756E-1,3.271213E-2,1.383883E-1,-2.0489201E-2,1.20305E-1,1.459037E-1,1.937129E-2,1.5076146E-1,-1.2529025E-2,-1.2847403E-2,4.52155E-2,-4.848805E-2,-2.2511806E-2,4.317857E-2,-1.7287126E-2,2.0043683E-1,4.772922E-2,1.9688921E-2,1.2442841E-1,2.685017E-1,8.5780844E-2,4.4686757E-2,1.7218561E-1,1.7299409E-1,8.3599724E-2,-3.370295E-2,1.6502542E-2,8.3197474E-2,1.9753718E-1,4.503716E-2,-2.8007613E-3,2.522218E-1,1.2356421E-2,9.537534E-2,2.7860415E-3,1.9169948E-1,1.1145341E-1],"categories":[],"categories_nodes":[],"categories_segments":[],"categories_sizes":[],"default_left":[0,0,0,0,0,0,0,0,0,0,0,0,0,0,0,0,0,0,0,0,0,0,0,0,0,0,0,0,0,0,0,0,0,0,0,0,0,0,0,0,0,0,0,0,0,0,0,0,0,0,0,0,0,0,0,0,0,0,0,0,0,0,0,0,0,0,0,0,0,0,0,0,0,0,0,0,0,0,0,0,0,0,0,0,0,0,0,0,0,0,0,0,0,0,0,0,0,0,0,0,0,0,0,0,0,0,0,0,0,0,0],"id":0,"left_children":[1,3,5,7,9,11,13,15,17,19,21,23,-1,25,27,29,31,33,35,37,39,41,43,45,47,49,51,53,55,57,59,61,63,65,67,69,71,73,75,77,79,81,83,85,87,89,91,93,95,97,99,101,103,-1,105,107,109,-1,-1,-1,-1,-1,-1,-1,-1,-1,-1,-1,-1,-1,-1,-1,-1,-1,-1,-1,-1,-1,-1,-1,-1,-1,-1,-1,-1,-1,-1,-1,-1,-1,-1,-1,-1,-1,-1,-1,-1,-1,-1,-1,-1,-1,-1,-1,-1,-1,-1,-1,-1,-1,-1],"loss_changes":[4.9686753E3,7.040249E2,6.4706445E2,1.8725684E2,3.1590244E2,1.2845166E2,3.1605835E2,1.3399702E2,1.328877E2,4.776239E1,1.7073236E2,7.232959E1,0E0,1.2511696E2,7.808789E1,4.642797E1,2.6426075E1,4.3273438E1,1.1089868E2,2.3046997E1,1.7328636E1,9.634865E1,8.146561E1,3.3083923E1,1.2991089E1,2.3519897E1,8.9195465E1,2.2022583E1,3.767035E1,1.8041246E1,1.2912598E1,1.6636927E1,1.550428E1,3.3383057E1,1.46015625E1,8.011209E1,5.151709E1,1.9578766E1,9.968979E0,1.46668625E1,1.5540521E1,1.49664E1,4.9914948E1,1.7859818E1,8.315341E1,1.7528137E1,2.5187393E1,3.7808228E0,6.582836E0,2.0264343E1,1.0731875E0,2.0817825E1,3.2199905E1,0E0,2.4893738E1,7.194233E0,2.2932068E1,0E0,0E0,0E0,0E0,0E0,0E0,0E0,0E0,0E0,0E0,0E0,0E0,0E0,0E0,0E0,0E0,0E0,0E0,0E0,0E0,0E0,0E0,0E0,0E0,0E0,0E0,0E0,0E0,0E0,0E0,0E0,0E0,0E0,0E0,0E0,0E0,0E0,0E0,0E0,0E0,0E0,0E0,0E0,0E0,0E0,0E0,0E0,0E0,0E0,0E0,0E0,0E0,0E0,0E0],"parents":[2147483647,0,0,1,1,2,2,3,3,4,4,5,5,6,6,7,7,8,8,9,9,10,10,11,11,13,13,14,14,15,15,16,16,17,17,18,18,19,19,20,20,21,21,22,22,23,23,24,24,25,25,26,26,27,27,28,28,29,29,30,30,31,31,32,32,33,33,34,34,35,35,36,36,37,37,38,38,39,39,40,40,41,41,42,42,43,43,44,44,45,45,46,46,47,47,48,48,49,49,50,50,51,51,52,52,54,54,55,55,56,56],"right_children":[2,4,6,8,10,12,14,16,18,20,22,24,-1,26,28,30,32,34,36,38,40,42,44,46,48,50,52,54,56,58,60,62,64,66,68,70,72,74,76,78,80,82,84,86,88,90,92,94,96,98,100,102,104,-1,106,108,110,-1,-1,-1,-1,-1,-1,-1,-1,-1,-1,-1,-1,-1,-1,-1,-1,-1,-1,-1,-1,-1,-1,-1,-1,-1,-1,-1,-1,-1,-1,-1,-1,-1,-1,-1,-1,-1,-1,-1,-1,-1,-1,-1,-1,-1,-1,-1,-1,-1,-1,-1,-1,-1,-1],"split_conditions":[1.4495817E0,3.97029E-1,-9.1986114E-1,-1.1491234E0,-1.1491234E0,4.168723E0,3.4297042E0,-9.451852E-1,6.817525E-3,-1.025994E0,-6.3311225E-1,2.0831158E0,2.7361223E-1,-1.1491234E0,-3.0483873E0,-1.5379395E-1,-1.0089123E0,-4.419464E-1,1.5672733E0,7.452766E-1,-2.5840387E-1,-1.5531276E0,6.817525E-3,-4.987203E-1,2.0969822E0,1.0345935E0,-1.5531276E0,-1.6479504E0,-2.2823957E-1,-1.5889417E0,-5.7067376E-1,-2.0913744E-1,2.1255481E0,-1.0135143E0,-8.753894E-2,-2.977005E-1,3.017422E-1,1.091077E-1,1.0072223E0,-4.732617E-1,-2.6857695E-1,-2.1650366E-1,3.0963522E-1,4.4402516E-1,7.8704536E-1,1.4190588E0,-6.933236E-1,1.5153526E0,2.6534623E-1,-1.1068027E0,-1.3956125E-1,1.2813599E0,-1.1419371E0,2.5422504E-2,4.297896E0,-1.349229E0,-1.0358852E0,1.687718E-1,1.8309085E-2,1.1488647E-2,1.521937E-1,-3.6034744E-2,8.0503665E-2,-3.537749E-2,8.4536366E-2,-1.4491158E-2,-4.5749992E-2,-5.652163E-2,-5.0332334E-2,-4.0727377E-2,-1.48353325E-2,-5.137487E-2,-3.127412E-2,8.087155E-2,1.9367756E-1,3.271213E-2,1.383883E-1,-2.0489201E-2,1.20305E-1,1.459037E-1,1.937129E-2,1.5076146E-1,-1.2529025E-2,-1.2847403E-2,4.52155E-2,-4.848805E-2,-2.2511806E-2,4.317857E-2,-1.7287126E-2,2.0043683E-1,4.772922E-2,1.9688921E-2,1.2442841E-1,2.685017E-1,8.5780844E-2,4.4686757E-2,1.7218561E-1,1.7299409E-1,8.3599724E-2,-3.370295E-2,1.6502542E-2,8.3197474E-2,1.9753718E-1,4.503716E-2,-2.8007613E-3,2.522218E-1,1.2356421E-2,9.537534E-2,2.7860415E-3,1.9169948E-1,1.1145341E-1],"split_indices":[17,17,5,54,54,17,17,7,57,7,5,28,0,54,24,11,3,5,57,1,52,6,57,54,39,24,6,0,11,5,17,10,7,8,10,10,16,12,6,22,37,1,64,16,57,14,19,18,44,7,1,19,24,0,37,7,6,0,0,0,0,0,0,0,0,0,0,0,0,0,0,0,0,0,0,0,0,0,0,0,0,0,0,0,0,0,0,0,0,0,0,0,0,0,0,0,0,0,0,0,0,0,0,0,0,0,0,0,0,0,0],"split_type":[0,0,0,0,0,0,0,0,0,0,0,0,0,0,0,0,0,0,0,0,0,0,0,0,0,0,0,0,0,0,0,0,0,0,0,0,0,0,0,0,0,0,0,0,0,0,0,0,0,0,0,0,0,0,0,0,0,0,0,0,0,0,0,0,0,0,0,0,0,0,0,0,0,0,0,0,0,0,0,0,0,0,0,0,0,0,0,0,0,0,0,0,0,0,0,0,0,0,0,0,0,0,0,0,0,0,0,0,0,0,0],"sum_hessian":[1.0335461E4,9.891028E3,4.444335E2,8.966394E3,9.246346E2,1.50496E2,2.939375E2,1.4232764E2,8.824065E3,7.772327E1,8.469113E2,9.455505E1,5.594095E1,2.0606566E2,8.787184E1,4.2203236E1,1.001244E2,5.563649E3,3.2604167E3,3.576755E1,4.195571E1,1.683179E2,6.785934E2,6.534695E1,2.9208105E1,3.7252712E1,1.6881294E2,2.8465527E1,5.9406315E1,2.3143711E1,1.9059526E1,1.2252553E1,8.787184E1,5.924542E2,4.971195E3,1.1995126E3,2.060904E3,2.4752632E1,1.1014921E1,1.3490185E1,2.8465527E1,1.8564474E1,1.4975342E2,3.148535E2,3.6373993E2,2.5247684E1,4.0099262E1,2.3143711E1,6.064395E0,3.4777447E1,2.475263E0,2.277242E1,1.4604053E2,1.485158E0,2.698037E1,9.282237E0,5.012408E1,1.2376316E0,2.1906078E1,1.9802105E0,1.7079315E1,3.836658E0,8.4158945E0,8.6015396E1,1.8564473E0,1.0495116E2,4.8750308E2,3.5130173E3,1.4581775E3,6.2265247E2,5.768601E2,1.6587976E3,4.021065E2,7.673316E0,1.7079315E1,8.4158945E0,2.5990264E0,1.8564473E0,1.1633737E1,1.7326843E0,2.6732841E1,1.720308E1,1.3613948E0,6.386179E1,8.589163E1,2.1547166E2,9.938181E1,6.943113E1,2.9430878E2,2.2401133E1,2.8465526E0,7.4257894E0,3.2673473E1,2.1658552E1,1.485158E0,2.475263E0,3.5891316E0,2.1287264E1,1.3490185E1,1.3613948E0,1.1138685E0,1.6708027E1,6.064395E0,5.7054817E1,8.898571E1,2.5742737E1,1.2376316E0,1.9802105E0,7.3020263E0,1.7821896E1,3.2302185E1],"tree_param":{"num_deleted":"0","num_feature":"66","num_nodes":"111","size_leaf_vector":"1"}},{"base_weights":[-6.996623E-1,-8.75939E-1,1.7046968E0,-1.0351036E0,-5.293338E-1,8.612761E-1,3.0025518E0,-1.0767449E0,-7.5755566E-1,1.0857123E0,-6.114853E-1,2.2142534E0,4.2348653E-1,3.7394118E0,2.1089916E0,-1.095169E0,-8.0585617E-1,-1.8060517E-1,-8.50881E-1,1.838479E0,4.3495503E-1,-4.4276494E-1,-1.0248275E0,1.1313028E0,2.725405E0,2.0049953E0,1.4953424E-1,3.0840044E0,4.206215E0,2.713608E0,8.5747087E-1,-1.1147211E0,-9.80826E-1,-2.2523724E-2,-8.73689E-1,4.5194808E-1,-4.616936E-1,-4.2303056E-1,-9.32743E-1,2.4549863E0,1.1958209E0,9.927678E-2,1.442075E0,-6.187341E-1,3.0909121E-2,-1.0386165E0,-2.0358522E-1,1.5017899E0,-4.883693E-2,3.3634155E0,1.8509419E0,-4.2663347E-2,2.1727917E0,1.581451E0,-2.3187516E-2,2.3616536E0,4.1266875E0,1.4805439E0,4.256476E0,9.285264E-1,3.1377752E0,2.9501667E0,3.7491903E-1,-3.4750625E-2,-5.5877026E-2,2.8953025E-2,-4.9393244E-2,1.0743152E-1,-1.4391335E-2,2.2007963E-2,-4.5070596E-2,-4.4647283E-3,5.6149166E-2,1.8743722E-2,-2.9606104E-2,-2.558654E-2,9.0086155E-2,-2.9314658E-2,-4.935444E-2,7.288524E-2,1.5831496E-1,7.632936E-3,9.2351176E-2,3.32893E-2,-1.985888E-2,-3.5131242E-2,8.293816E-2,1.8019272E-2,-3.304606E-2,-9.576958E-3,2.8916871E-2,-5.2158117E-2,9.702416E-3,-3.4360226E-2,4.554191E-2,4.3180313E-2,1.2813671E-1,1.7756669E-1,3.5167065E-2,1.0567085E-1,-2.0591171E-2,4.1385528E-2,-3.9228804E-2,1.7048476E-2,1.2013888E-1,7.138241E-3,1.10333756E-1,-2.7379489E-2,1.8471321E-2,5.1281024E-2,1.4182742E-1,4.2324033E-2,2.1515337E-1,1.157318E-1,-5.4066125E-3,2.1508865E-1,7.0072524E-2,-2.2086157E-2,8.355167E-2,1.6901621E-1,6.854829E-2,1.7418125E-1,3.5102304E-2,1.9724814E-3,8.955283E-2],"categories":[],"categories_nodes":[],"categories_segments":[],"categories_sizes":[],"default_left":[0,0,0,0,0,0,0,0,0,0,0,0,0,0,0,0,0,0,0,0,0,0,0,0,0,0,0,0,0,0,0,0,0,0,0,0,0,0,0,0,0,0,0,0,0,0,0,0,0,0,0,0,0,0,0,0,0,0,0,0,0,0,0,0,0,0,0,0,0,0,0,0,0,0,0,0,0,0,0,0,0,0,0,0,0,0,0,0,0,0,0,0,0,0,0,0,0,0,0,0,0,0,0,0,0,0,0,0,0,0,0,0,0,0,0,0,0,0,0,0,0,0,0,0,0],"id":1,"left_children":[1,3,5,7,9,11,13,15,17,19,21,23,25,27,29,31,33,35,37,39,41,43,45,47,49,51,53,55,57,59,61,63,65,67,69,71,73,75,77,79,81,83,85,87,89,91,93,95,-1,97,99,101,103,105,107,109,111,113,115,117,119,121,123,-1,-1,-1,-1,-1,-1,-1,-1,-1,-1,-1,-1,-1,-1,-1,-1,-1,-1,-1,-1,-1,-1,-1,-1,-1,-1,-1,-1,-1,-1,-1,-1,-1,-1,-1,-1,-1,-1,-1,-1,-1,-1,-1,-1,-1,-1,-1,-1,-1,-1,-1,-1,-1,-1,-1,-1,-1,-1,-1,-1,-1,-1],"loss_changes":[4.289532E3,5.1950635E2,7.5427515E2,7.3836426E1,3.9454163E2,2.4812354E2,1.7116797E2,2.7137695E1,4.5400665E1,6.9768845E1,1.966018E2,5.368878E1,1.3787701E2,3.2230225E1,9.2407776E1,1.0651855E1,1.9178665E1,2.1379213E1,2.5102478E1,2.3405106E1,2.6419868E1,1.674165E2,9.055054E0,2.8486088E1,3.2250732E1,1.6244034E1,6.753551E1,3.9365845E1,5.142578E0,6.065338E1,4.1552597E1,4.523926E0,9.087097E0,1.7795471E1,1.2507156E1,1.3588248E1,9.270655E0,2.4354816E1,1.0910645E1,1.8781357E1,2.3154816E1,1.7140577E1,1.0259384E1,6.072577E1,6.647136E1,4.7105103E0,8.57897E0,1.7976143E1,0E0,1.682193E1,1.9468979E1,3.5817466E0,1.749289E1,2.612223E1,5.0547283E1,2.3014023E1,1.1022797E1,4.2864485E0,4.510498E0,1.8582584E1,2.4255127E1,6.872719E0,1.6781652E1,0E0,0E0,0E0,0E0,0E0,0E0,0E0,0E0,0E0,0E0,0E0,0E0,0E0,0E0,0E0,0E0,0E0,0E0,0E0,0E0,0E0,0E0,0E0,0E0,0E0,0E0,0E0,0E0,0E0,0E0,0E0,0E0,0E0,0E0,0E0,0E0,0E0,0E0,0E0,0E0,0E0,0E0,0E0,0E0,0E0,0E0,0E0,0E0,0E0,0E0,0E0,0E0,0E0,0E0,0E0,0E0,0E0,0E0,0E0,0E0,0E0,0E0],"parents":[2147483647,0,0,1,1,2,2,3,3,4,4,5,5,6,6,7,7,8,8,9,9,10,10,11,11,12,12,13,13,14,14,15,15,16,16,17,17,18,18,19,19,20,20,21,21,22,22,23,23,24,24,25,25,26,26,27,27,28,28,29,29,30,30,31,31,32,32,33,33,34,34,35,35,36,36,37,37,38,38,39,39,40,40,41,41,42,42,43,43,44,44,45,45,46,46,47,47,49,49,50,50,51,51,52,52,53,53,54,54,55,55,56,56,57,57,58,58,59,59,60,60,61,61,62,62],"right_children":[2,4,6,8,10,12,14,16,18,20,22,24,26,28,30,32,34,36,38,40,42,44,46,48,50,52,54,56,58,60,62,64,66,68,70,72,74,76,78,80,82,84,86,88,90,92,94,96,-1,98,100,102,104,106,108,110,112,114,116,118,120,122,124,-1,-1,-1,-1,-1,-1,-1,-1,-1,-1,-1,-1,-1,-1,-1,-1,-1,-1,-1,-1,-1,-1,-1,-1,-1,-1,-1,-1,-1,-1,-1,-1,-1,-1,-1,-1,-1,-1,-1,-1,-1,-1,-1,-1,-1,-1,-1,-1,-1,-1,-1,-1,-1,-1,-1,-1,-1,-1,-1,-1,-1,-1],"split_conditions":[1.0062119E0,1.4079688E0,2.4926205E0,4.4402516E-1,-1.1491234E0,-8.242782E-1,-3.4636346E-1,2.5509724E-1,-1.3462306E0,-9.451852E-1,2.0730298E0,1.4079688E0,-1.1491234E0,4.168723E0,-1.0625017E0,2.9977694E-1,-1.3021929E0,-2.507805E-1,-6.3311225E-1,2.2646573E0,7.129139E-1,8.266086E-2,1.6682931E0,3.639169E-1,1.2700545E0,6.817525E-3,-1.5531276E0,1.5150111E0,-2.0100965E0,1.4079688E0,-1.1491234E0,-8.478984E-1,-9.743102E-1,-1.0953813E0,-1.1491234E0,6.4260945E-2,-9.451852E-1,6.3617575E-1,-6.653246E-1,2.0636337E-1,-3.300013E-2,7.8704536E-1,-1.7563912E0,-1.4933589E0,6.876703E-1,3.4560354E0,1.3375469E-1,1.2309587E0,-4.883693E-2,2.0976055E0,2.5836782E0,3.8377652E-1,-1.4103494E0,9.342086E-2,1.4079688E0,-3.2206184E-1,-1.6546749E0,-3.8427415E0,6.9722323E0,-2.523153E-1,5.977259E0,1.4321116E0,5.3038716E0,-3.4750625E-2,-5.5877026E-2,2.8953025E-2,-4.9393244E-2,1.0743152E-1,-1.4391335E-2,2.2007963E-2,-4.5070596E-2,-4.4647283E-3,5.6149166E-2,1.8743722E-2,-2.9606104E-2,-2.558654E-2,9.0086155E-2,-2.9314658E-2,-4.935444E-2,7.288524E-2,1.5831496E-1,7.632936E-3,9.2351176E-2,3.32893E-2,-1.985888E-2,-3.5131242E-2,8.293816E-2,1.8019272E-2,-3.304606E-2,-9.576958E-3,2.8916871E-2,-5.2158117E-2,9.702416E-3,-3.4360226E-2,4.554191E-2,4.3180313E-2,1.2813671E-1,1.7756669E-1,3.5167065E-2,1.0567085E-1,-2.0591171E-2,4.1385528E-2,-3.9228804E-2,1.7048476E-2,1.2013888E-1,7.138241E-3,1.10333756E-1,-2.7379489E-2,1.8471321E-2,5.1281024E-2,1.4182742E-1,4.2324033E-2,2.1515337E-1,1.157318E-1,-5.4066125E-3,2.1508865E-1,7.0072524E-2,-2.2086157E-2,8.355167E-2,1.6901621E-1,6.854829E-2,1.7418125E-1,3.5102304E-2,1.9724814E-3,8.955283E-2],"split_indices":[17,55,17,16,54,5,5,17,6,7,65,55,54,17,24,10,5,5,5,33,10,17,10,8,43,57,6,28,0,55,54,26,26,33,54,22,7,49,24,12,22,57,14,5,0,28,17,28,0,44,29,19,8,53,55,19,20,24,37,0,50,42,17,0,0,0,0,0,0,0,0,0,0,0,0,0,0,0,0,0,0,0,0,0,0,0,0,0,0,0,0,0,0,0,0,0,0,0,0,0,0,0,0,0,0,0,0,0,0,0,0,0,0,0,0,0,0,0,0,0,0,0,0,0,0],"split_type":[0,0,0,0,0,0,0,0,0,0,0,0,0,0,0,0,0,0,0,0,0,0,0,0,0,0,0,0,0,0,0,0,0,0,0,0,0,0,0,0,0,0,0,0,0,0,0,0,0,0,0,0,0,0,0,0,0,0,0,0,0,0,0,0,0,0,0,0,0,0,0,0,0,0,0,0,0,0,0,0,0,0,0,0,0,0,0,0,0,0,0,0,0,0,0,0,0,0,0,0,0,0,0,0,0,0,0,0,0,0,0,0,0,0,0,0,0,0,0,0,0,0,0,0,0],"sum_hessian":[1.0116299E4,9.425873E3,6.9042633E2,6.4582114E3,2.9676616E3,4.194847E2,2.7094162E2,5.6131704E3,8.450408E2,1.4305608E2,2.8246055E3,1.01559586E2,3.179251E2,1.4674548E2,1.2419614E2,5.252863E3,3.6030746E2,1.180672E2,7.269736E2,6.548308E1,7.7573E1,2.0073181E3,8.172873E2,3.3595585E1,6.7964005E1,4.600758E1,2.7191754E2,6.420547E1,8.254001E1,8.2952896E1,4.124324E1,4.47834E3,7.745234E2,2.882054E1,3.314869E2,3.6137215E1,8.1929985E1,1.1774573E2,6.0922784E2,3.198222E1,3.350086E1,5.900493E1,1.8568071E1,1.4633716E3,5.4394653E2,8.0353094E2,1.3756358E1,2.8818361E1,4.777221E0,3.764896E1,3.0315044E1,3.5410514E0,4.2466526E1,2.8391033E1,2.435265E2,3.9857765E1,2.4347706E1,2.045924E0,8.049409E1,1.653892E1,6.641398E1,6.7699847E0,3.4473255E1,3.1533646E1,4.446806E3,3.114217E0,7.714092E2,2.365257E0,2.6455282E1,6.542573E0,3.2494434E2,2.0482998E1,1.5654217E1,1.0797927E1,7.113206E1,1.13971695E2,3.7740316E0,8.420647E1,5.250214E2,1.4584143E1,1.7398077E1,1.3349963E1,2.0150894E1,2.7398796E1,3.1606133E1,1.4980788E0,1.7069992E1,6.0135826E1,1.4032358E3,3.872408E2,1.5670573E2,8.0073175E2,2.7991924E0,9.8605795E0,3.8957794E0,1.9127003E1,9.6913595E0,3.4851833E1,2.797126E0,2.722322E1,3.091823E0,1.5762417E0,1.9648098E0,5.0138817E0,3.7452644E1,8.972649E0,1.9418385E1,1.0409514E2,1.3943137E2,1.1280824E1,2.857694E1,1.5383089E0,2.2809397E1,1.0419282E0,1.0039959E0,7.873811E1,1.7559735E0,5.954803E0,1.0584117E1,5.759417E1,8.819807E0,5.027446E0,1.7425388E0,2.8701904E1,5.7713494E0],"tree_param":{"num_deleted":"0","num_feature":"66","num_nodes":"125","size_leaf_vector":"1"}},{"base_weights":[-6.819783E-1,-8.595515E-1,1.5187225E0,-1.021946E0,-5.135033E-1,9.6214086E-1,2.890218E0,-1.0684657E0,-7.1425545E-1,8.8481796E-1,-5.9579384E-1,2.1596792E0,5.2476907E-1,3.3260007E0,2.178002E0,-1.0845671E0,-8.340109E-1,-1.8532364E-1,-8.2051635E-1,1.6527088E0,2.454423E-1,-4.2695215E-1,-1.0184795E0,1.0476134E0,2.6141944E0,1.9376526E0,2.2685912E-1,2.7720268E0,3.7194812E0,3.1616223E0,1.515477E0,-1.1000254E0,-9.545791E-1,-9.9475E-1,-5.198167E-1,-2.9007792E-1,2.101173E0,-9.314242E-1,-5.9663683E-1,7.927439E-1,2.325153E0,-1.4410095E-1,1.1085724E0,-5.858956E-1,-8.360816E-3,-1.0340669E0,-1.4703533E-1,1.6902891E0,-1.5704143E-1,3.617254E0,2.1473727E0,-3.0622578E-1,2.1175969E0,1.0901982E0,-5.1314153E-2,1.7859985E0,3.2819548E0,2.0928054E0,3.8092086E0,3.4402814E0,-4.22881E-2,3.809686E-1,1.9658849E0,-5.041758E-2,-5.556307E-2,-4.877002E-2,-1.0421439E-2,2.1331413E-2,-5.0335415E-2,2.96383E-2,-3.4174416E-2,1.0235107E-1,-1.7495543E-2,2.9137824E-2,2.0475109E-1,-2.8305522E-3,-4.7647636E-2,7.323367E-2,-3.129369E-2,-6.225698E-4,7.288914E-2,1.3876148E-1,6.399662E-2,-2.8145626E-2,2.912579E-2,8.28692E-2,2.1659966E-4,-3.6548503E-2,-1.5900848E-2,3.5655882E-2,-8.639522E-3,-5.118307E-3,-5.2049857E-2,8.915711E-2,-2.1381618E-2,1.2342479E-1,3.1996228E-2,1.8519407E-2,-4.3797385E-2,1.0801565E-2,1.922286E-1,1.3452367E-1,7.340426E-2,3.079257E-2,-4.473668E-2,1.3957705E-1,8.655547E-2,1.2170504E-2,8.513142E-2,-8.623475E-3,6.361609E-2,6.2384424E-3,1.01301946E-1,1.689121E-1,3.7103478E-2,1.3450499E-1,1.6579257E-2,5.364237E-2,1.9224678E-1,1.1982109E-2,1.7826425E-1,-3.735621E-2,4.4593878E-2,9.006097E-2,-1.8829102E-2,4.844644E-2,1.385225E-1],"categories":[],"categories_nodes":[],"categories_segments":[],"categories_sizes":[],"default_left":[0,0,0,0,0,0,0,0,0,0,0,0,0,0,0,0,0,0,0,0,0,0,0,0,0,0,0,0,0,0,0,0,0,0,0,0,0,0,0,0,0,0,0,0,0,0,0,0,0,0,0,0,0,0,0,0,0,0,0,0,0,0,0,0,0,0,0,0,0,0,0,0,0,0,0,0,0,0,0,0,0,0,0,0,0,0,0,0,0,0,0,0,0,0,0,0,0,0,0,0,0,0,0,0,0,0,0,0,0,0,0,0,0,0,0,0,0,0,0,0,0,0,0,0,0,0,0],"id":2,"left_children":[1,3,5,7,9,11,13,15,17,19,21,23,25,27,29,31,33,35,37,39,41,43,45,47,49,51,53,55,57,59,61,63,65,67,69,71,73,75,77,79,81,83,85,87,89,91,93,95,97,99,101,103,105,107,109,111,113,115,117,119,121,123,125,-1,-1,-1,-1,-1,-1,-1,-1,-1,-1,-1,-1,-1,-1,-1,-1,-1,-1,-1,-1,-1,-1,-1,-1,-1,-1,-1,-1,-1,-1,-1,-1,-1,-1,-1,-1,-1,-1,-1,-1,-1,-1,-1,-1,-1,-1,-1,-1,-1,-1,-1,-1,-1,-1,-1,-1,-1,-1,-1,-1,-1,-1,-1,-1],"loss_changes":[3.849311E3,5.1155176E2,5.58719E2,8.799414E1,3.3565674E2,2.737059E2,5.8505127E1,1.9422363E1,4.578946E1,7.926501E1,1.9590723E2,6.8052734E1,1.6189671E2,1.7923706E1,4.9501038E1,9.066406E0,1.7176636E1,3.3671276E1,1.6337677E1,4.069026E1,3.0325922E1,1.3090479E2,1.0504944E1,3.301686E1,3.8473206E1,2.7712357E1,7.682239E1,2.315979E1,2.6550293E0,2.9259735E1,2.5670425E1,3.5078125E0,8.227997E0,4.3503876E0,2.2378609E1,1.9295532E1,1.6287706E1,8.481171E0,1.4667786E1,1.8113846E1,1.5622086E1,1.94099E1,1.697057E1,5.518869E1,6.4483765E1,4.8691406E0,8.860757E0,2.1038895E1,6.251704E0,2.2288483E1,2.1819519E1,3.7254035E0,1.1363068E1,4.000508E1,3.9141754E1,8.467613E0,6.5052185E0,5.4466248E0,2.501648E0,1.1153473E1,3.0348399E0,1.7821135E1,2.6808548E1,0E0,0E0,0E0,0E0,0E0,0E0,0E0,0E0,0E0,0E0,0E0,0E0,0E0,0E0,0E0,0E0,0E0,0E0,0E0,0E0,0E0,0E0,0E0,0E0,0E0,0E0,0E0,0E0,0E0,0E0,0E0,0E0,0E0,0E0,0E0,0E0,0E0,0E0,0E0,0E0,0E0,0E0,0E0,0E0,0E0,0E0,0E0,0E0,0E0,0E0,0E0,0E0,0E0,0E0,0E0,0E0,0E0,0E0,0E0,0E0,0E0,0E0,0E0,0E0],"parents":[2147483647,0,0,1,1,2,2,3,3,4,4,5,5,6,6,7,7,8,8,9,9,10,10,11,11,12,12,13,13,14,14,15,15,16,16,17,17,18,18,19,19,20,20,21,21,22,22,23,23,24,24,25,25,26,26,27,27,28,28,29,29,30,30,31,31,32,32,33,33,34,34,35,35,36,36,37,37,38,38,39,39,40,40,41,41,42,42,43,43,44,44,45,45,46,46,47,47,48,48,49,49,50,50,51,51,52,52,53,53,54,54,55,55,56,56,57,57,58,58,59,59,60,60,61,61,62,62],"right_children":[2,4,6,8,10,12,14,16,18,20,22,24,26,28,30,32,34,36,38,40,42,44,46,48,50,52,54,56,58,60,62,64,66,68,70,72,74,76,78,80,82,84,86,88,90,92,94,96,98,100,102,104,106,108,110,112,114,116,118,120,122,124,126,-1,-1,-1,-1,-1,-1,-1,-1,-1,-1,-1,-1,-1,-1,-1,-1,-1,-1,-1,-1,-1,-1,-1,-1,-1,-1,-1,-1,-1,-1,-1,-1,-1,-1,-1,-1,-1,-1,-1,-1,-1,-1,-1,-1,-1,-1,-1,-1,-1,-1,-1,-1,-1,-1,-1,-1,-1,-1,-1,-1,-1,-1,-1,-1],"split_conditions":[1.0062119E0,1.4079688E0,3.4297042E0,4.4402516E-1,-1.4151689E0,-9.1986114E-1,-2.507805E-1,2.5509724E-1,-6.3311225E-1,-9.451852E-1,2.0730298E0,1.4079688E0,-1.441179E0,5.3038716E0,-1.1876115E0,5.579875E-1,6.817525E-3,2.8405888E0,6.817525E-3,-2.2147179E-1,4.0306118E-1,8.266086E-2,1.6682931E0,-2.9709294E-1,-4.0494505E-1,-1.4671892E0,-1.0767046E0,2.8411755E-1,-2.3162346E-1,1.0818073E0,1.4079688E0,-7.6323736E-1,6.1097413E-1,-2.0596933E0,-8.242782E-1,-1.9241086E0,2.2234693E-1,-2.0384605E0,-2.076364E0,9.1007195E-2,1.1260508E0,2.4004316E-1,2.7798092E-2,7.0947506E-2,-6.3311225E-1,-1.129057E0,-1.5569701E0,-3.4378904E-1,-1.6096422E-1,-3.786713E-1,7.8704536E-1,-1.8206275E-1,7.5925685E-2,1.4079688E0,2.7022648E0,-1.49376E0,5.4447846E0,5.006938E-1,-4.619129E-1,-1.2082646E0,-7.5861245E-2,-1.1444969E0,1.4485058E-1,-5.041758E-2,-5.556307E-2,-4.877002E-2,-1.0421439E-2,2.1331413E-2,-5.0335415E-2,2.96383E-2,-3.4174416E-2,1.0235107E-1,-1.7495543E-2,2.9137824E-2,2.0475109E-1,-2.8305522E-3,-4.7647636E-2,7.323367E-2,-3.129369E-2,-6.225698E-4,7.288914E-2,1.3876148E-1,6.399662E-2,-2.8145626E-2,2.912579E-2,8.28692E-2,2.1659966E-4,-3.6548503E-2,-1.5900848E-2,3.5655882E-2,-8.639522E-3,-5.118307E-3,-5.2049857E-2,8.915711E-2,-2.1381618E-2,1.2342479E-1,3.1996228E-2,1.8519407E-2,-4.3797385E-2,1.0801565E-2,1.922286E-1,1.3452367E-1,7.340426E-2,3.079257E-2,-4.473668E-2,1.3957705E-1,8.655547E-2,1.2170504E-2,8.513142E-2,-8.623475E-3,6.361609E-2,6.2384424E-3,1.01301946E-1,1.689121E-1,3.7103478E-2,1.3450499E-1,1.6579257E-2,5.364237E-2,1.9224678E-1,1.1982109E-2,1.7826425E-1,-3.735621E-2,4.4593878E-2,9.006097E-2,-1.8829102E-2,4.844644E-2,1.385225E-1],"split_indices":[17,55,17,16,53,5,5,17,5,7,65,55,53,17,7,10,57,28,57,11,10,17,10,3,2,53,3,28,11,53,55,50,25,3,5,3,50,13,18,22,10,17,13,22,5,53,21,47,44,28,57,47,50,55,33,14,45,48,16,12,8,3,10,0,0,0,0,0,0,0,0,0,0,0,0,0,0,0,0,0,0,0,0,0,0,0,0,0,0,0,0,0,0,0,0,0,0,0,0,0,0,0,0,0,0,0,0,0,0,0,0,0,0,0,0,0,0,0,0,0,0,0,0,0,0,0,0],"split_type":[0,0,0,0,0,0,0,0,0,0,0,0,0,0,0,0,0,0,0,0,0,0,0,0,0,0,0,0,0,0,0,0,0,0,0,0,0,0,0,0,0,0,0,0,0,0,0,0,0,0,0,0,0,0,0,0,0,0,0,0,0,0,0,0,0,0,0,0,0,0,0,0,0,0,0,0,0,0,0,0,0,0,0,0,0,0,0,0,0,0,0,0,0,0,0,0,0,0,0,0,0,0,0,0,0,0,0,0,0,0,0,0,0,0,0,0,0,0,0,0,0,0,0,0,0,0,0],"sum_hessian":[9.845849E3,9.111275E3,7.345737E2,6.199842E3,2.911433E3,5.237333E2,2.1084045E2,5.3834463E3,8.1639557E2,1.6127173E2,2.7501614E3,1.3905588E2,3.8467743E2,1.2852817E2,8.231229E1,5.0340986E3,3.493477E2,1.3703325E2,6.793623E2,7.2551926E1,8.871981E1,1.9666095E3,7.835518E2,4.1303417E1,9.775246E1,6.602754E1,3.1864987E2,5.671917E1,7.1809E1,3.1610125E1,5.0702164E1,4.4923965E3,5.417025E2,2.2967949E2,1.1966818E2,1.3186508E2,5.168175E0,4.5219077E2,2.2717152E2,3.2793015E1,3.9758907E1,6.1704647E1,2.7015162E1,1.4250889E3,5.415207E2,7.695995E2,1.3952354E1,2.6671309E1,1.4632107E1,2.890202E1,6.885044E1,4.849779E0,6.1177765E1,7.69399E1,2.4170996E2,2.0868666E1,3.5850506E1,5.0254955E0,6.678351E1,2.9012955E1,2.5971684E0,1.4933304E1,3.576886E1,5.003978E2,3.9919985E3,5.266978E2,1.5004693E1,1.6269006E0,2.280526E2,1.5010479E1,1.046577E2,2.4626002E0,1.2940248E2,3.667481E0,1.5006945E0,1.0947972E1,4.412428E2,2.4904325E0,2.2468109E2,1.52773075E1,1.7515709E1,2.6634724E1,1.3124185E1,3.9286034E1,2.2418615E1,1.7711535E1,9.303627E0,9.233198E2,5.01769E2,9.989E1,4.4163068E2,5.798684E0,7.638008E2,1.0912212E0,1.2861134E1,1.4544945E1,1.2126364E1,8.719665E0,5.912442E0,1.9328156E0,2.6969204E1,3.661525E1,3.2235188E1,1.8713208E0,2.9784584E0,2.0029007E1,4.1148758E1,3.2877987E1,4.406192E1,2.2223775E2,1.9472216E1,2.8266015E0,1.8042063E1,3.4223034E1,1.6274732E0,3.3589468E0,1.6665488E0,1.2606139E0,6.552289E1,1.2001774E0,2.7812778E1,1.5944016E0,1.0027668E0,4.715336E0,1.0217968E1,1.6958931E1,1.880993E1],"tree_param":{"num_deleted":"0","num_feature":"66","num_nodes":"127","size_leaf_vector":"1"}},{"base_weights":[-6.6631407E-1,-8.280198E-1,1.6278542E0,-9.2141724E-1,-2.2471292E-1,2.4247746E0,9.627697E-1,-1.0330769E0,-7.35714E-1,1.2515205E0,-3.5373062E-1,3.1565442E0,1.9943907E0,3.9512813E-1,1.7481701E0,-7.1545714E-1,-1.057752E0,6.385918E-1,-7.7448463E-1,-1.22945294E-1,1.4541836E0,5.8451664E-1,-4.8192084E-1,2.4150155E0,3.3952396E0,1.6432552E0,2.939199E0,-4.2666146E-1,8.001126E-1,2.1773317E0,8.621655E-1,1.4899209E-1,-7.980564E-1,-4.9726903E-1,-1.0660759E0,1.3581425E0,-1.497526E-2,-9.360218E-1,-5.8419657E-1,-8.265496E-1,4.199611E-1,1.9450918E0,5.024311E-1,2.672017E0,3.9994797E-1,-7.849264E-1,-1.9700788E-1,2.7240703E0,1.3092748E0,3.4416406E0,3.71452E-2,8.173784E-1,1.9556503E0,3.4886339E0,2.0039163E0,4.9964488E-1,-7.189638E-1,1.461252E0,4.6280172E-1,1.5733885E0,2.7479718E0,2.059903E0,5.5005E-1,5.3163785E-2,-1.3113533E-2,-4.442246E-2,-1.1288393E-2,-3.6453288E-2,-8.911549E-4,-5.5021536E-2,-4.8913684E-2,2.5252735E-2,1.0195563E-1,-1.28544485E-2,5.4045737E-2,-4.7557395E-2,7.0807844E-4,-1.3504195E-2,-3.8102433E-2,-4.976993E-3,-4.7578905E-2,-1.0582725E-2,8.486852E-2,4.703101E-2,1.20513394E-1,-2.2561025E-2,5.541562E-2,1.7030917E-1,2.215266E-2,-8.393735E-3,4.1439064E-2,-4.7351327E-2,-2.0146303E-2,3.068677E-2,-1.902553E-2,8.9124784E-2,1.6535233E-1,9.4237134E-2,-2.2521352E-2,1.7337412E-1,4.0672503E-2,9.881177E-2,1.5702864E-2,7.534012E-2,1.2561011E-1,1.7938401E-1,3.2744136E-2,1.2768021E-1,9.126737E-3,1.16364494E-1,-1.3262357E-3,-4.1220363E-2,1.5842022E-2,2.6268065E-2,9.226052E-2,-6.819655E-3,5.0329845E-2,1.2592983E-1,5.2810382E-2,1.4117436E-1,-9.306957E-3,1.5661591E-1,4.977974E-2,4.546069E-2,-4.1257817E-2],"categories":[],"categories_nodes":[],"categories_segments":[],"categories_sizes":[],"default_left":[0,0,0,0,0,0,0,0,0,0,0,0,0,0,0,0,0,0,0,0,0,0,0,0,0,0,0,0,0,0,0,0,0,0,0,0,0,0,0,0,0,0,0,0,0,0,0,0,0,0,0,0,0,0,0,0,0,0,0,0,0,0,0,0,0,0,0,0,0,0,0,0,0,0,0,0,0,0,0,0,0,0,0,0,0,0,0,0,0,0,0,0,0,0,0,0,0,0,0,0,0,0,0,0,0,0,0,0,0,0,0,0,0,0,0,0,0,0,0,0,0,0,0,0,0],"id":3,"left_children":[1,3,5,7,9,11,13,15,17,19,21,23,25,27,29,31,33,35,37,39,41,43,45,47,49,51,53,55,57,59,61,63,65,67,69,71,73,75,77,79,81,83,85,87,89,91,93,95,97,99,-1,101,103,105,107,109,111,113,115,117,119,121,123,-1,-1,-1,-1,-1,-1,-1,-1,-1,-1,-1,-1,-1,-1,-1,-1,-1,-1,-1,-1,-1,-1,-1,-1,-1,-1,-1,-1,-1,-1,-1,-1,-1,-1,-1,-1,-1,-1,-1,-1,-1,-1,-1,-1,-1,-1,-1,-1,-1,-1,-1,-1,-1,-1,-1,-1,-1,-1,-1,-1,-1,-1],"loss_changes":[3.556585E3,5.04271E2,3.3229248E2,1.5999268E2,2.2928622E2,8.395117E1,1.5347528E2,3.716748E1,1.5578845E2,2.7139969E1,1.3327345E2,1.0279785E1,5.5930298E1,6.7575325E1,5.3174072E1,2.5246887E1,2.0408691E1,3.788406E1,8.6597534E1,5.4504023E0,3.847052E1,5.031566E1,8.38768E1,6.3051147E0,6.8600464E0,3.343564E1,1.7857971E1,1.8593021E1,2.958059E1,2.906485E1,1.7147366E1,1.21367855E1,1.6424728E1,7.4942474E0,1.2259766E1,2.1239067E1,1.1735005E1,2.202771E1,7.266135E1,4.6480513E-1,6.978573E0,2.3596466E1,1.787926E1,1.5931648E1,3.0262302E1,2.8806976E1,7.5066444E1,5.98999E0,9.188763E0,2.2680664E0,0E0,2.2118778E1,2.0647217E1,5.8212585E0,1.9802185E1,1.6162823E1,5.896837E0,1.5334778E1,2.9887383E1,2.1491882E1,1.1266022E1,8.003399E0,2.0584156E1,0E0,0E0,0E0,0E0,0E0,0E0,0E0,0E0,0E0,0E0,0E0,0E0,0E0,0E0,0E0,0E0,0E0,0E0,0E0,0E0,0E0,0E0,0E0,0E0,0E0,0E0,0E0,0E0,0E0,0E0,0E0,0E0,0E0,0E0,0E0,0E0,0E0,0E0,0E0,0E0,0E0,0E0,0E0,0E0,0E0,0E0,0E0,0E0,0E0,0E0,0E0,0E0,0E0,0E0,0E0,0E0,0E0,0E0,0E0,0E0,0E0,0E0],"parents":[2147483647,0,0,1,1,2,2,3,3,4,4,5,5,6,6,7,7,8,8,9,9,10,10,11,11,12,12,13,13,14,14,15,15,16,16,17,17,18,18,19,19,20,20,21,21,22,22,23,23,24,24,25,25,26,26,27,27,28,28,29,29,30,30,31,31,32,32,33,33,34,34,35,35,36,36,37,37,38,38,39,39,40,40,41,41,42,42,43,43,44,44,45,45,46,46,47,47,48,48,49,49,51,51,52,52,53,53,54,54,55,55,56,56,57,57,58,58,59,59,60,60,61,61,62,62],"right_children":[2,4,6,8,10,12,14,16,18,20,22,24,26,28,30,32,34,36,38,40,42,44,46,48,50,52,54,56,58,60,62,64,66,68,70,72,74,76,78,80,82,84,86,88,90,92,94,96,98,100,-1,102,104,106,108,110,112,114,116,118,120,122,124,-1,-1,-1,-1,-1,-1,-1,-1,-1,-1,-1,-1,-1,-1,-1,-1,-1,-1,-1,-1,-1,-1,-1,-1,-1,-1,-1,-1,-1,-1,-1,-1,-1,-1,-1,-1,-1,-1,-1,-1,-1,-1,-1,-1,-1,-1,-1,-1,-1,-1,-1,-1,-1,-1,-1,-1,-1,-1,-1,-1,-1,-1],"split_conditions":[1.2324045E0,2.5509724E-1,-4.419464E-1,6.817525E-3,-1.1491234E0,-2.65121E0,2.4926205E0,-6.3311225E-1,-1.1491234E0,6.817525E-3,-1.20661E0,-3.2541275E-1,2.3198261E0,6.817525E-3,-1.1737113E0,-7.7563953E-1,-8.7748855E-1,7.8704536E-1,-2.4735245E-1,-1.5075319E-1,7.8704536E-1,-2.3334684E0,6.817525E-3,-8.7465584E-2,5.813858E0,1.7494162E0,-8.185712E-2,-1.0767046E0,7.8704536E-1,3.4294444E-1,-1.1491234E0,-4.618465E-1,6.573404E-1,2.4813482E-1,-6.1717886E-2,1.4966442E-1,3.7953302E-1,3.184211E0,1.5672733E0,-9.711277E-1,4.4016066E-1,-2.6806203E-1,6.490058E-2,2.4254909E-1,3.0963522E-1,4.597183E-1,7.8704536E-1,-1.1127519E-1,-7.5020707E-1,2.3468077E0,3.71452E-2,-1.1106008E0,5.255078E-1,3.4585826E0,6.683342E-1,-6.5150326E-1,6.549502E0,1.0768437E-2,1.8650586E-3,-1.2122893E0,6.9722323E0,1.574529E-2,3.2209328E-1,5.3163785E-2,-1.3113533E-2,-4.442246E-2,-1.1288393E-2,-3.6453288E-2,-8.911549E-4,-5.5021536E-2,-4.8913684E-2,2.5252735E-2,1.0195563E-1,-1.28544485E-2,5.4045737E-2,-4.7557395E-2,7.0807844E-4,-1.3504195E-2,-3.8102433E-2,-4.976993E-3,-4.7578905E-2,-1.0582725E-2,8.486852E-2,4.703101E-2,1.20513394E-1,-2.2561025E-2,5.541562E-2,1.7030917E-1,2.215266E-2,-8.393735E-3,4.1439064E-2,-4.7351327E-2,-2.0146303E-2,3.068677E-2,-1.902553E-2,8.9124784E-2,1.6535233E-1,9.4237134E-2,-2.2521352E-2,1.7337412E-1,4.0672503E-2,9.881177E-2,1.5702864E-2,7.534012E-2,1.2561011E-1,1.7938401E-1,3.2744136E-2,1.2768021E-1,9.126737E-3,1.16364494E-1,-1.3262357E-3,-4.1220363E-2,1.5842022E-2,2.6268065E-2,9.226052E-2,-6.819655E-3,5.0329845E-2,1.2592983E-1,5.2810382E-2,1.4117436E-1,-9.306957E-3,1.5661591E-1,4.977974E-2,4.546069E-2,-4.1257817E-2],"split_indices":[17,17,5,57,54,24,17,5,54,57,5,0,28,57,24,26,26,57,10,10,57,24,57,18,51,17,2,3,57,25,54,18,16,10,10,38,16,49,57,23,14,11,12,37,64,16,57,23,13,3,0,3,0,34,1,30,60,22,11,3,37,10,1,0,0,0,0,0,0,0,0,0,0,0,0,0,0,0,0,0,0,0,0,0,0,0,0,0,0,0,0,0,0,0,0,0,0,0,0,0,0,0,0,0,0,0,0,0,0,0,0,0,0,0,0,0,0,0,0,0,0,0,0,0,0],"split_type":[0,0,0,0,0,0,0,0,0,0,0,0,0,0,0,0,0,0,0,0,0,0,0,0,0,0,0,0,0,0,0,0,0,0,0,0,0,0,0,0,0,0,0,0,0,0,0,0,0,0,0,0,0,0,0,0,0,0,0,0,0,0,0,0,0,0,0,0,0,0,0,0,0,0,0,0,0,0,0,0,0,0,0,0,0,0,0,0,0,0,0,0,0,0,0,0,0,0,0,0,0,0,0,0,0,0,0,0,0,0,0,0,0,0,0,0,0,0,0,0,0,0,0,0,0],"sum_hessian":[9.582362E3,8.952014E3,6.303486E2,7.7514854E3,1.2005289E3,2.8554996E2,3.4479865E2,4.837956E3,2.9135293E3,9.5789986E1,1.1047389E3,1.0340282E2,1.8214714E2,2.010178E2,1.4378082E2,3.5091815E2,4.4870376E3,7.951405E1,2.8340151E3,1.2359686E1,8.3430305E1,1.323663E2,9.723726E2,2.7886976E1,7.551584E1,1.3479147E2,4.7355656E1,6.634263E1,1.3467519E2,9.588078E1,4.7900047E1,3.0536118E1,3.2038202E2,6.655124E1,4.4204863E3,3.7333424E1,4.2180626E1,1.5306846E3,1.3033306E3,5.155599E0,7.204087E0,5.4352116E1,2.9078188E1,9.657816E0,1.2270848E2,4.7037393E2,5.019987E2,2.0651346E1,7.2356296E0,7.392497E1,1.5908649E0,3.798563E1,9.680585E1,2.8111456E1,1.9244198E1,1.574317E1,5.0599457E1,4.4372227E1,9.0302956E1,4.8406487E1,4.7474293E1,8.744268E0,3.915578E1,8.982224E0,2.1553894E1,2.7620337E2,4.417867E1,4.4510967E1,2.2040272E1,3.1690005E3,1.2514861E3,1.734548E1,1.9987946E1,3.5174885E1,7.00574E0,1.5066982E3,2.398633E1,4.7208264E2,8.31248E2,1.0201008E0,4.135498E0,5.378831E0,1.8252558E0,1.8160196E1,3.6191917E1,1.1396099E1,1.7682089E1,6.867638E0,2.7901783E0,5.3059875E1,6.9648605E1,3.292002E2,1.4117372E2,9.221852E1,4.0978018E2,9.4485E0,1.1202847E1,5.3989697E0,1.8366597E0,7.2888954E1,1.0360218E0,1.0616225E1,2.7369406E1,5.564038E1,4.116547E1,2.6905008E1,1.206448E0,1.4473978E1,4.77022E0,2.754022E0,1.2989148E1,4.6109646E1,4.4898095E0,1.3597319E1,3.077491E1,4.3319466E1,4.698349E1,1.5750591E1,3.2655895E1,4.631986E1,1.1544342E0,3.3877034E0,5.356565E0,3.1315847E1,7.8399324E0],"tree_param":{"num_deleted":"0","num_feature":"66","num_nodes":"125","size_leaf_vector":"1"}},{"base_weights":[-6.4837545E-1,8.907659E-1,-7.643346E-1,3.0483022E-1,2.2546723E0,-9.7579354E-1,-3.4268355E-1,2.1948678E0,1.3759596E-2,1.7268467E0,2.8419132E0,-1.0398003E0,-5.713271E-1,1.1504221E0,-4.6038896E-1,2.1972977E-1,2.325992E0,1.3329546E0,-3.0789784E-1,2.3558617E0,1.1636873E0,3.057033E0,2.2118158E0,-1.0682241E0,-8.897694E-1,1.0057291E-1,-7.2498435E-1,3.7485301E-1,1.4776165E0,5.88352E-1,-5.732576E-1,-4.069629E-2,1.1224297E0,2.4197626E0,2.2926031E-1,1.0417526E0,3.154527E0,6.9622874E-1,-5.5113435E-1,2.5426831E0,4.9035057E-1,2.0668604E0,5.1014143E-1,3.1313274E0,1.2875742E0,2.330457E0,4.9206614E-1,-9.089046E-1,-1.0840312E0,-9.0948176E-1,1.143075E-2,-8.273701E-2,1.6850144E0,-1.04347184E-1,-8.265111E-1,9.078894E-1,-1.555041E-1,1.7997907E0,7.8377414E-1,3.214478E-1,2.3924425E0,-4.121787E-1,-9.4942063E-1,-7.1836896E-3,9.28095E-2,3.5789456E-2,1.2730046E-1,-3.658713E-2,6.248617E-2,1.8825273E-3,6.744782E-2,3.701554E-2,1.6788037E-1,-1.6023343E-2,5.770467E-2,8.299501E-2,-3.162412E-2,-3.2376198E-3,1.3278334E-1,5.3111758E-2,-3.693675E-2,1.1400632E-1,-3.6761347E-2,-1.3144406E-3,5.997163E-2,7.186269E-2,1.6087167E-1,-4.2136153E-3,1.1052412E-1,1.3828198E-2,1.2074174E-1,-5.543412E-3,4.2398162E-2,2.583926E-2,-4.6579305E-2,-2.0064829E-2,-5.4273713E-2,-1.987685E-2,-4.6916876E-2,-2.599199E-2,8.330368E-2,4.3010924E-2,-1.6840307E-2,1.3845357E-1,8.243272E-3,-3.174773E-2,1.9521406E-2,-4.2694494E-2,1.5032423E-2,9.48263E-2,1.7087316E-2,-2.9700994E-2,4.465102E-2,5.797273E-2,1.0812461E-1,5.3922694E-2,-7.8122527E-3,-1.5832967E-3,6.94934E-2,1.6662991E-1,6.865012E-2,-2.997221E-2,-6.5968544E-3,-4.8362654E-2,1.7053826E-2],"categories":[],"categories_nodes":[],"categories_segments":[],"categories_sizes":[],"default_left":[0,0,0,0,0,0,0,0,0,0,0,0,0,0,0,0,0,0,0,0,0,0,0,0,0,0,0,0,0,0,0,0,0,0,0,0,0,0,0,0,0,0,0,0,0,0,0,0,0,0,0,0,0,0,0,0,0,0,0,0,0,0,0,0,0,0,0,0,0,0,0,0,0,0,0,0,0,0,0,0,0,0,0,0,0,0,0,0,0,0,0,0,0,0,0,0,0,0,0,0,0,0,0,0,0,0,0,0,0,0,0,0,0,0,0,0,0,0,0,0,0,0,0,0,0],"id":4,"left_children":[1,3,5,7,9,11,13,15,17,19,21,23,25,27,29,31,33,35,37,39,41,43,45,47,49,51,53,55,57,59,61,-1,63,65,67,69,71,73,75,77,79,81,83,85,87,89,91,93,95,97,99,101,103,105,107,109,111,113,115,117,119,121,123,-1,-1,-1,-1,-1,-1,-1,-1,-1,-1,-1,-1,-1,-1,-1,-1,-1,-1,-1,-1,-1,-1,-1,-1,-1,-1,-1,-1,-1,-1,-1,-1,-1,-1,-1,-1,-1,-1,-1,-1,-1,-1,-1,-1,-1,-1,-1,-1,-1,-1,-1,-1,-1,-1,-1,-1,-1,-1,-1,-1,-1,-1],"loss_changes":[1.6718511E3,5.239485E2,7.7608594E2,2.5323152E2,5.619171E1,1.495332E2,5.119545E2,1.53984375E1,1.7011388E2,3.493506E1,5.6760254E0,2.039502E1,8.210144E1,5.347876E1,3.197096E2,5.5123463E0,1.0750641E1,3.8399857E1,7.9113785E1,1.5923309E1,3.3236343E1,4.6168213E0,4.356247E0,9.599609E0,1.4279785E1,4.3345676E1,4.0667236E1,1.8379871E1,3.1988312E1,1.25704384E2,1.4723657E2,0E0,3.101388E0,9.995178E0,4.411684E0,2.1309845E1,2.5830917E0,2.9836412E1,4.7822838E1,1.3294159E1,4.8077784E0,1.6055252E1,1.2984999E1,4.4837646E0,5.6928864E0,3.6582336E0,7.395284E-1,1.29496765E1,3.3266602E0,1.1239075E1,1.6848482E1,3.24616E1,2.5041313E1,2.4419464E1,1.740561E1,1.7443384E1,1.5792482E1,2.1010803E1,1.3782955E1,8.680184E1,2.771875E1,8.954001E1,1.7123108E1,0E0,0E0,0E0,0E0,0E0,0E0,0E0,0E0,0E0,0E0,0E0,0E0,0E0,0E0,0E0,0E0,0E0,0E0,0E0,0E0,0E0,0E0,0E0,0E0,0E0,0E0,0E0,0E0,0E0,0E0,0E0,0E0,0E0,0E0,0E0,0E0,0E0,0E0,0E0,0E0,0E0,0E0,0E0,0E0,0E0,0E0,0E0,0E0,0E0,0E0,0E0,0E0,0E0,0E0,0E0,0E0,0E0,0E0,0E0,0E0,0E0,0E0],"parents":[2147483647,0,0,1,1,2,2,3,3,4,4,5,5,6,6,7,7,8,8,9,9,10,10,11,11,12,12,13,13,14,14,15,15,16,16,17,17,18,18,19,19,20,20,21,21,22,22,23,23,24,24,25,25,26,26,27,27,28,28,29,29,30,30,32,32,33,33,34,34,35,35,36,36,37,37,38,38,39,39,40,40,41,41,42,42,43,43,44,44,45,45,46,46,47,47,48,48,49,49,50,50,51,51,52,52,53,53,54,54,55,55,56,56,57,57,58,58,59,59,60,60,61,61,62,62],"right_children":[2,4,6,8,10,12,14,16,18,20,22,24,26,28,30,32,34,36,38,40,42,44,46,48,50,52,54,56,58,60,62,-1,64,66,68,70,72,74,76,78,80,82,84,86,88,90,92,94,96,98,100,102,104,106,108,110,112,114,116,118,120,122,124,-1,-1,-1,-1,-1,-1,-1,-1,-1,-1,-1,-1,-1,-1,-1,-1,-1,-1,-1,-1,-1,-1,-1,-1,-1,-1,-1,-1,-1,-1,-1,-1,-1,-1,-1,-1,-1,-1,-1,-1,-1,-1,-1,-1,-1,-1,-1,-1,-1,-1,-1,-1,-1,-1,-1,-1,-1,-1,-1,-1,-1,-1],"split_conditions":[-1.697985E0,8.678093E-1,1.4079688E0,-1.1491234E0,8.048802E-1,4.7468224E-1,-1.1491234E0,-7.354127E-1,-9.1986114E-1,-1.1393337E0,-2.460565E0,2.9977694E-1,-6.3311225E-1,-3.4416404E-1,-9.1986114E-1,1.4652248E-1,3.2456977E0,3.4560354E0,-1.2759746E0,4.7877336E0,-3.0483873E0,1.9527439E0,1.3124138E0,-4.419464E-1,2.5900142E0,2.3198261E0,-1.0816928E0,-1.1068027E0,7.8704536E-1,2.225142E0,2.0730298E0,-4.069629E-2,-2.7262554E-2,-1.2396976E0,3.4264246E-1,1.4079688E0,-2.511787E-1,1.4079688E0,-1.7083004E0,-3.3994183E-1,1.1815782E0,3.0473676E0,6.80912E-1,-2.2149856E0,-1.6093005E-1,-1.3261024E0,-5.004204E-1,-8.948912E-1,-2.2149856E0,-1.111027E0,1.3012751E0,-1.3462306E0,-1.1122876E-1,8.295624E-1,2.2385015E0,3.6620906E-1,2.0549653E-1,-2.6283577E-1,6.09466E-1,6.809235E-1,-4.0494505E-1,1.574529E-2,8.295624E-1,-7.1836896E-3,9.28095E-2,3.5789456E-2,1.2730046E-1,-3.658713E-2,6.248617E-2,1.8825273E-3,6.744782E-2,3.701554E-2,1.6788037E-1,-1.6023343E-2,5.770467E-2,8.299501E-2,-3.162412E-2,-3.2376198E-3,1.3278334E-1,5.3111758E-2,-3.693675E-2,1.1400632E-1,-3.6761347E-2,-1.3144406E-3,5.997163E-2,7.186269E-2,1.6087167E-1,-4.2136153E-3,1.1052412E-1,1.3828198E-2,1.2074174E-1,-5.543412E-3,4.2398162E-2,2.583926E-2,-4.6579305E-2,-2.0064829E-2,-5.4273713E-2,-1.987685E-2,-4.6916876E-2,-2.599199E-2,8.330368E-2,4.3010924E-2,-1.6840307E-2,1.3845357E-1,8.243272E-3,-3.174773E-2,1.9521406E-2,-4.2694494E-2,1.5032423E-2,9.48263E-2,1.7087316E-2,-2.9700994E-2,4.465102E-2,5.797273E-2,1.0812461E-1,5.3922694E-2,-7.8122527E-3,-1.5832967E-3,6.94934E-2,1.6662991E-1,6.865012E-2,-2.997221E-2,-6.5968544E-3,-4.8362654E-2,1.7053826E-2],"split_indices":[24,16,55,54,28,16,54,16,5,6,24,10,5,10,5,18,37,28,8,50,24,15,15,5,44,28,23,7,57,28,65,0,6,27,29,55,30,55,6,52,33,11,29,23,23,27,40,26,23,5,22,6,2,16,2,15,6,9,5,16,2,10,16,0,0,0,0,0,0,0,0,0,0,0,0,0,0,0,0,0,0,0,0,0,0,0,0,0,0,0,0,0,0,0,0,0,0,0,0,0,0,0,0,0,0,0,0,0,0,0,0,0,0,0,0,0,0,0,0,0,0,0,0,0,0],"split_type":[0,0,0,0,0,0,0,0,0,0,0,0,0,0,0,0,0,0,0,0,0,0,0,0,0,0,0,0,0,0,0,0,0,0,0,0,0,0,0,0,0,0,0,0,0,0,0,0,0,0,0,0,0,0,0,0,0,0,0,0,0,0,0,0,0,0,0,0,0,0,0,0,0,0,0,0,0,0,0,0,0,0,0,0,0,0,0,0,0,0,0,0,0,0,0,0,0,0,0,0,0,0,0,0,0,0,0,0,0,0,0,0,0,0,0,0,0,0,0,0,0,0,0,0,0],"sum_hessian":[9.362472E3,6.554828E2,8.706989E3,4.593633E2,1.9611948E2,5.797977E3,2.9090122E3,6.0429546E1,3.9893378E2,1.05360054E2,9.075943E1,5.0044526E3,7.9352435E2,2.1192665E2,2.6970854E3,3.9285884E0,5.6500957E1,7.758693E1,3.2134683E2,4.8266254E1,5.70938E1,6.47885E1,2.5970932E1,4.202212E3,8.022408E2,1.4775945E2,6.4576495E2,6.3516132E1,1.4841052E2,2.616549E2,2.4354304E3,1.8772951E0,2.0512934E0,5.3934807E1,2.566149E0,6.824843E1,9.338506E0,6.229966E1,2.5904718E2,4.3542686E1,4.723569E0,2.306139E1,3.403241E1,6.143919E1,3.3493047E0,2.396269E1,2.008241E0,3.8457632E2,3.8176357E3,7.8505963E2,1.7181166E1,1.3328677E2,1.4472662E1,9.1071106E1,5.5469385E2,3.1323023E1,3.219311E1,1.002617E2,4.814882E1,2.2895987E2,3.2695045E1,1.7066935E3,7.2873706E2,1.0476933E0,1.0036E0,4.1804338E0,4.975437E1,1.4672878E0,1.0988612E0,1.6251759E1,5.1996666E1,1.0850357E0,8.253469E0,1.9437803E1,4.2861855E1,8.504008E0,2.5054318E2,1.8261313E0,4.1716553E1,3.31628E0,1.4072891E0,2.1603436E1,1.4579543E0,1.967922E1,1.4353188E1,3.827494E0,5.7611694E1,1.7124867E0,1.6368179E0,1.1143851E0,2.2848307E1,1.0009642E0,1.0072768E0,5.681309E0,3.7889502E2,8.640983E0,3.8089946E3,4.267726E1,7.423824E2,1.352455E1,3.6566153E0,2.778381E1,1.0550297E2,7.968524E0,6.5041375E0,4.38076E1,4.7263504E1,5.417765E2,1.2917374E1,1.0550002E1,2.077302E1,2.3005274E1,9.187837E0,3.777247E1,6.248924E1,3.6545246E1,1.1603573E1,1.728148E2,5.614507E1,1.582851E1,1.6866537E1,1.0223744E3,6.8431903E2,7.190515E2,9.685562E0],"tree_param":{"num_deleted":"0","num_feature":"66","num_nodes":"125","size_leaf_vector":"1"}},{"base_weights":[-6.328069E-1,8.096753E-1,-7.4988E-1,2.3214033E-2,1.6010022E0,-9.628945E-1,-3.359823E-1,1.7086788E0,-3.048653E-1,2.3161886E0,1.0970782E0,-1.0308219E0,-5.433574E-1,1.116619E0,-4.5570105E-1,2.016651E0,8.188299E-1,2.8023192E-1,-6.935144E-1,2.4662955E0,1.2316915E0,7.412979E-1,1.9672464E0,-1.0598541E0,-8.7831223E-1,2.642671E-1,-6.650348E-1,5.1553833E-1,1.4516047E0,-5.424721E-1,6.9525594E-1,6.6088486E-1,2.202584E0,-4.2165443E-1,1.2982249E0,3.169326E-2,1.5134679E0,-8.665392E-1,1.4697543E-1,2.9518425E0,2.169785E0,-1.9915523E-1,1.893052E0,1.7155274E0,3.9721453E-1,2.1329021E0,5.324758E-1,-1.074038E0,-8.8071924E-1,-9.04365E-1,-1.876013E-2,2.142173E0,7.617241E-2,1.1004803E-1,-7.474317E-1,1.8318684E0,3.2573047E-1,1.766841E0,7.660468E-1,-8.2344776E-1,-3.005875E-1,3.0738895E0,5.714931E-1,9.836628E-2,-1.5798107E-2,1.1690839E-1,2.013957E-2,4.1503605E-2,-4.6624556E-2,5.6699407E-3,9.801866E-2,-2.8796216E-2,2.296306E-2,1.079795E-1,2.9956141E-2,-4.654135E-2,2.0896615E-2,6.674452E-2,-9.170345E-3,1.5062808E-1,4.8456337E-2,1.3413223E-2,1.1122866E-1,5.765413E-2,-4.039116E-2,-9.0650975E-4,1.1582116E-1,9.752966E-2,-8.081866E-3,-1.6062336E-2,3.9484397E-2,1.14248134E-1,2.0889664E-2,-3.2780956E-2,7.215854E-2,-4.8249822E-2,-5.4413117E-2,3.477895E-2,-4.491546E-2,-3.2058984E-2,-4.8524223E-2,8.697772E-2,-1.3762568E-2,-3.98144E-3,1.3535514E-1,-4.3491665E-3,6.2260162E-2,-1.280458E-2,3.679401E-2,-3.9236788E-2,1.5119234E-2,1.1230475E-1,-3.3115074E-2,-1.8451666E-2,3.1223124E-2,2.8760457E-2,9.781226E-2,1.3488975E-1,2.3453813E-2,-4.7059044E-2,-1.7422331E-2,-1.7228842E-2,8.9841075E-2,1.6226104E-1,4.33576E-2,-8.038166E-3,4.8197128E-2],"categories":[],"categories_nodes":[],"categories_segments":[],"categories_sizes":[],"default_left":[0,0,0,0,0,0,0,0,0,0,0,0,0,0,0,0,0,0,0,0,0,0,0,0,0,0,0,0,0,0,0,0,0,0,0,0,0,0,0,0,0,0,0,0,0,0,0,0,0,0,0,0,0,0,0,0,0,0,0,0,0,0,0,0,0,0,0,0,0,0,0,0,0,0,0,0,0,0,0,0,0,0,0,0,0,0,0,0,0,0,0,0,0,0,0,0,0,0,0,0,0,0,0,0,0,0,0,0,0,0,0,0,0,0,0,0,0,0,0,0,0,0,0,0,0,0,0],"id":5,"left_children":[1,3,5,7,9,11,13,15,17,19,21,23,25,27,29,31,33,35,37,39,41,43,45,47,49,51,53,55,57,59,61,63,65,67,69,71,73,75,77,79,81,83,85,87,89,91,93,95,97,99,101,103,105,107,109,111,113,115,117,119,121,123,125,-1,-1,-1,-1,-1,-1,-1,-1,-1,-1,-1,-1,-1,-1,-1,-1,-1,-1,-1,-1,-1,-1,-1,-1,-1,-1,-1,-1,-1,-1,-1,-1,-1,-1,-1,-1,-1,-1,-1,-1,-1,-1,-1,-1,-1,-1,-1,-1,-1,-1,-1,-1,-1,-1,-1,-1,-1,-1,-1,-1,-1,-1,-1,-1],"loss_changes":[1.5382959E3,4.2565546E2,7.42251E2,1.9078256E2,1.2033209E2,1.578916E2,4.9845404E2,1.3753983E1,6.588063E1,1.9757385E1,6.105031E1,2.0251953E1,7.652194E1,4.3208862E1,2.6463568E2,8.899094E0,1.0143609E1,3.5508244E1,2.5410522E1,1.1160156E1,1.8378204E1,4.789734E1,1.2647415E1,9.253906E0,1.7246948E1,3.6020794E1,4.322046E1,1.9310316E1,2.8822937E1,1.6701733E2,5.298107E1,8.767108E0,7.768402E0,4.132783E0,9.10103E0,2.5612587E1,1.0188583E1,1.23064575E1,1.222891E1,2.3152466E0,7.6878967E0,6.6254272E0,1.0645462E1,1.6872406E1,3.0818596E1,1.2517181E1,8.882775E0,4.7124023E0,8.945297E0,1.2398132E1,1.116747E1,1.1875366E1,1.8065859E1,1.526107E1,2.415335E1,1.1638012E1,1.4935481E1,2.0290283E1,2.4978807E1,6.331122E1,1.2278736E2,5.7644653E-1,5.12991E1,0E0,0E0,0E0,0E0,0E0,0E0,0E0,0E0,0E0,0E0,0E0,0E0,0E0,0E0,0E0,0E0,0E0,0E0,0E0,0E0,0E0,0E0,0E0,0E0,0E0,0E0,0E0,0E0,0E0,0E0,0E0,0E0,0E0,0E0,0E0,0E0,0E0,0E0,0E0,0E0,0E0,0E0,0E0,0E0,0E0,0E0,0E0,0E0,0E0,0E0,0E0,0E0,0E0,0E0,0E0,0E0,0E0,0E0,0E0,0E0,0E0,0E0,0E0,0E0],"parents":[2147483647,0,0,1,1,2,2,3,3,4,4,5,5,6,6,7,7,8,8,9,9,10,10,11,11,12,12,13,13,14,14,15,15,16,16,17,17,18,18,19,19,20,20,21,21,22,22,23,23,24,24,25,25,26,26,27,27,28,28,29,29,30,30,31,31,32,32,33,33,34,34,35,35,36,36,37,37,38,38,39,39,40,40,41,41,42,42,43,43,44,44,45,45,46,46,47,47,48,48,49,49,50,50,51,51,52,52,53,53,54,54,55,55,56,56,57,57,58,58,59,59,60,60,61,61,62,62],"right_children":[2,4,6,8,10,12,14,16,18,20,22,24,26,28,30,32,34,36,38,40,42,44,46,48,50,52,54,56,58,60,62,64,66,68,70,72,74,76,78,80,82,84,86,88,90,92,94,96,98,100,102,104,106,108,110,112,114,116,118,120,122,124,126,-1,-1,-1,-1,-1,-1,-1,-1,-1,-1,-1,-1,-1,-1,-1,-1,-1,-1,-1,-1,-1,-1,-1,-1,-1,-1,-1,-1,-1,-1,-1,-1,-1,-1,-1,-1,-1,-1,-1,-1,-1,-1,-1,-1,-1,-1,-1,-1,-1,-1,-1,-1,-1,-1,-1,-1,-1,-1,-1,-1,-1,-1,-1,-1],"split_conditions":[-1.697985E0,3.111559E-1,1.4079688E0,-1.3631486E0,-3.0483873E0,4.7468224E-1,-1.1491234E0,7.8704536E-1,-5.59571E-1,1.0037768E0,1.4878981E0,2.9977694E-1,-1.4496791E0,-2.3162346E-1,1.4878981E0,-3.2975632E-1,2.6880834E-1,1.586545E0,6.29913E-1,-4.637096E0,-1.9109313E0,-1.2686443E0,1.0037768E0,7.649188E-2,2.0797794E0,-3.147281E-1,-1.2751819E0,-9.750162E-1,7.8704536E-1,5.5027705E-1,-1.5798103E0,2.4858978E-2,5.054488E0,-8.861524E-1,9.320847E-2,-2.523153E-1,-2.65121E0,3.4271445E0,-9.5829886E-1,1.591532E0,-2.823851E0,-1.6847645E0,-7.442074E-1,2.5740427E-1,1.4079688E0,2.149658E0,1.4079688E0,-7.6323736E-1,-2.093364E0,-7.514019E-1,-2.242105E0,-3.9624432E-1,4.3746743E-1,2.2921076E-1,2.5730138E0,2.1768265E0,-1.8023068E-1,6.817525E-3,-1.4834585E0,2.1559727E-1,3.7854779E0,2.986147E-1,-2.4735245E-1,9.836628E-2,-1.5798107E-2,1.1690839E-1,2.013957E-2,4.1503605E-2,-4.6624556E-2,5.6699407E-3,9.801866E-2,-2.8796216E-2,2.296306E-2,1.079795E-1,2.9956141E-2,-4.654135E-2,2.0896615E-2,6.674452E-2,-9.170345E-3,1.5062808E-1,4.8456337E-2,1.3413223E-2,1.1122866E-1,5.765413E-2,-4.039116E-2,-9.0650975E-4,1.1582116E-1,9.752966E-2,-8.081866E-3,-1.6062336E-2,3.9484397E-2,1.14248134E-1,2.0889664E-2,-3.2780956E-2,7.215854E-2,-4.8249822E-2,-5.4413117E-2,3.477895E-2,-4.491546E-2,-3.2058984E-2,-4.8524223E-2,8.697772E-2,-1.3762568E-2,-3.98144E-3,1.3535514E-1,-4.3491665E-3,6.2260162E-2,-1.280458E-2,3.679401E-2,-3.9236788E-2,1.5119234E-2,1.1230475E-1,-3.3115074E-2,-1.8451666E-2,3.1223124E-2,2.8760457E-2,9.781226E-2,1.3488975E-1,2.3453813E-2,-4.7059044E-2,-1.7422331E-2,-1.7228842E-2,8.9841075E-2,1.6226104E-1,4.33576E-2,-8.038166E-3,4.8197128E-2],"split_indices":[24,16,55,53,24,16,54,57,8,53,31,10,6,11,31,11,32,31,0,24,23,6,53,52,31,37,23,3,57,64,2,48,45,32,10,0,24,44,6,15,20,14,35,13,55,37,55,50,23,6,8,50,50,30,31,25,39,57,3,16,46,18,10,0,0,0,0,0,0,0,0,0,0,0,0,0,0,0,0,0,0,0,0,0,0,0,0,0,0,0,0,0,0,0,0,0,0,0,0,0,0,0,0,0,0,0,0,0,0,0,0,0,0,0,0,0,0,0,0,0,0,0,0,0,0,0,0],"split_type":[0,0,0,0,0,0,0,0,0,0,0,0,0,0,0,0,0,0,0,0,0,0,0,0,0,0,0,0,0,0,0,0,0,0,0,0,0,0,0,0,0,0,0,0,0,0,0,0,0,0,0,0,0,0,0,0,0,0,0,0,0,0,0,0,0,0,0,0,0,0,0,0,0,0,0,0,0,0,0,0,0,0,0,0,0,0,0,0,0,0,0,0,0,0,0,0,0,0,0,0,0,0,0,0,0,0,0,0,0,0,0,0,0,0,0,0,0,0,0,0,0,0,0,0,0,0,0],"sum_hessian":[9.104441E3,6.8301056E2,8.421432E3,3.4307468E2,3.3993585E2,5.5590913E3,2.8623398E3,5.5213646E1,2.8786105E2,1.3902727E2,2.0090858E2,4.783186E3,7.759053E2,2.1730875E2,2.645031E3,4.0076942E1,1.5136705E1,1.15004654E2,1.7285638E2,1.2100467E2,1.8022602E1,1.4391772E2,5.6990856E1,4.0132617E3,7.699246E2,1.0143912E2,6.744662E2,7.86759E1,1.3863284E2,2.4600923E3,1.8493858E2,5.3826632E0,3.469428E1,4.252741E0,1.0883965E1,9.6568535E1,1.843612E1,1.4332106E2,2.953533E1,4.2482597E1,7.852207E1,5.917981E0,1.2104621E1,3.652263E1,1.07395096E2,5.0655678E1,6.3351793E0,3.7141777E3,2.9908392E2,7.472243E2,2.2700308E1,8.289484E0,9.3149635E1,6.477851E1,6.096877E2,8.824719E0,6.985118E1,9.388499E1,4.4747856E1,1.136971E3,1.3231215E3,7.967719E0,1.7697086E2,1.8690416E0,3.5136216E0,3.198558E1,2.7086983E0,1.051435E0,3.2013059E0,4.32185E0,6.5621147E0,3.9742878E1,5.6825657E1,1.0004523E1,8.431596E0,1.3675194E2,6.569114E0,5.765302E0,2.3770027E1,4.0716286E1,1.766311E0,2.364217E0,7.615785E1,1.5593154E0,4.3586655E0,2.3687565E0,9.735865E0,3.242334E1,4.099291E0,3.8004887E1,6.939021E1,4.622513E1,4.430549E0,2.870459E0,3.46472E0,4.36543E2,3.2776348E3,2.8752868E0,2.9620865E2,1.5217929E2,5.95045E2,2.1537395E0,2.0546568E1,1.8546016E0,6.4348826E0,8.2553635E1,1.0596001E1,4.124131E1,2.35372E1,5.890103E2,2.0677345E1,7.653161E0,1.1715587E0,2.0932632E1,4.891855E1,1.3429638E1,8.045535E1,4.885306E0,3.9862553E1,9.103512E2,2.2661974E2,1.29676E3,2.636146E1,6.956982E0,1.010737E0,6.1957355E1,1.15013504E2],"tree_param":{"num_deleted":"0","num_feature":"66","num_nodes":"127","size_leaf_vector":"1"}},{"base_weights":[-6.196657E-1,-8.039423E-1,1.1853986E0,-9.769805E-1,-4.6059954E-1,6.7646086E-1,1.8198507E0,-1.0263629E0,-6.6824865E-1,-2.8295967E-1,-9.759856E-1,1.5973306E0,4.1785076E-1,1.5317792E0,2.266378E0,-1.0481726E0,-7.566727E-1,-1.2640102E-1,-7.8831154E-1,-5.146902E-1,1.4793915E-1,-9.8647726E-1,4.9550787E-1,2.0149095E0,9.529558E-1,-1.8547317E-1,7.31694E-1,2.0745642E0,1.1877651E0,2.370952E0,1.5386438E0,-1.0680271E0,-9.0725905E-1,-9.44164E-2,-8.6313564E-1,6.325126E-1,-4.893388E-1,-3.5379967E-1,-8.598445E-1,-6.758913E-1,-2.2164047E-1,-1.0736792E-1,5.006405E-1,-1.0317497E0,-7.084524E-1,-4.0091386E-1,9.596286E-2,2.9763207E0,1.7286679E0,-5.8801334E-2,1.3029099E0,-7.343198E-1,3.2851905E-1,1.620515E0,5.168358E-1,2.2655632E0,7.659559E-1,9.7897035E-1,2.270966E0,9.4764644E-1,2.4253852E0,5.386969E-1,2.1249447E0,-5.3427335E-2,1.868116E-2,-4.6387188E-2,-8.7374095E-3,-2.0646295E-2,5.4312237E-2,2.7392471E-2,-4.4306766E-2,-1.8379543E-2,5.9172112E-2,-2.7610539E-2,8.1839524E-2,-2.5628103E-2,2.1476548E-2,-2.0912131E-2,-4.5599002E-2,-1.3461687E-2,-3.7684105E-2,3.8641464E-2,-1.4610628E-2,-1.4500633E-2,2.4219539E-2,8.813944E-2,1.9788884E-2,2.1990992E-2,-5.182931E-2,-4.07239E-2,2.4903668E-2,-3.9385434E-2,2.128297E-2,3.251758E-2,1.57892E-1,5.5343628E-2,1.1155429E-1,-3.7875127E-2,4.649509E-2,7.773112E-2,1.0492939E-2,6.197868E-2,-4.265475E-2,5.7979673E-3,8.976114E-2,9.6303836E-2,1.1111877E-2,5.6765407E-2,1.3860918E-2,-3.355705E-2,1.1594891E-1,1.00324504E-1,-1.0325574E-2,9.000897E-2,3.5427388E-2,1.1989502E-1,-8.213037E-3,-2.3101358E-2,7.651323E-2,3.4985673E-2,1.2295083E-1,-4.1944634E-2,5.243479E-2,1.2189957E-1,1.897805E-2],"categories":[],"categories_nodes":[],"categories_segments":[],"categories_sizes":[],"default_left":[0,0,0,0,0,0,0,0,0,0,0,0,0,0,0,0,0,0,0,0,0,0,0,0,0,0,0,0,0,0,0,0,0,0,0,0,0,0,0,0,0,0,0,0,0,0,0,0,0,0,0,0,0,0,0,0,0,0,0,0,0,0,0,0,0,0,0,0,0,0,0,0,0,0,0,0,0,0,0,0,0,0,0,0,0,0,0,0,0,0,0,0,0,0,0,0,0,0,0,0,0,0,0,0,0,0,0,0,0,0,0,0,0,0,0,0,0,0,0,0,0,0,0,0,0],"id":6,"left_children":[1,3,5,7,9,11,13,15,17,19,21,23,25,27,29,31,33,35,37,39,41,43,45,47,49,51,53,55,57,59,61,63,65,67,69,71,73,75,77,79,81,83,85,87,89,91,-1,93,95,97,99,101,103,105,107,109,111,113,115,117,119,121,123,-1,-1,-1,-1,-1,-1,-1,-1,-1,-1,-1,-1,-1,-1,-1,-1,-1,-1,-1,-1,-1,-1,-1,-1,-1,-1,-1,-1,-1,-1,-1,-1,-1,-1,-1,-1,-1,-1,-1,-1,-1,-1,-1,-1,-1,-1,-1,-1,-1,-1,-1,-1,-1,-1,-1,-1,-1,-1,-1,-1,-1,-1],"loss_changes":[2.952429E3,4.7791748E2,2.6429932E2,8.0921875E1,2.4691974E2,1.0837892E2,4.3535767E1,2.6338379E1,4.8105774E1,2.0071466E2,1.1167175E1,2.4999222E1,6.8084305E1,3.959027E1,7.099243E0,1.0963867E1,2.4505127E1,3.76582E1,1.854358E1,6.1586975E1,6.3399593E1,7.9176025E0,7.8685613E0,1.1313568E1,1.4677013E1,3.5107185E1,4.428125E1,1.9767212E1,2.9483154E1,7.124878E0,1.0927937E1,3.1938477E0,7.8411865E0,1.9032333E1,1.0230881E1,2.4846022E1,1.3241026E1,1.1091575E1,1.1589966E1,2.6452515E1,3.287876E1,4.4335453E1,3.84218E1,4.645874E0,1.3122494E1,1.6910373E0,0E0,3.1545105E0,1.2672989E1,8.686219E0,8.115364E0,1.5142986E1,1.9904829E1,1.902324E1,2.8099773E1,1.325235E1,1.545552E1,2.521614E1,7.162819E0,5.7346964E0,5.0411987E0,7.1683135E0,5.981762E0,0E0,0E0,0E0,0E0,0E0,0E0,0E0,0E0,0E0,0E0,0E0,0E0,0E0,0E0,0E0,0E0,0E0,0E0,0E0,0E0,0E0,0E0,0E0,0E0,0E0,0E0,0E0,0E0,0E0,0E0,0E0,0E0,0E0,0E0,0E0,0E0,0E0,0E0,0E0,0E0,0E0,0E0,0E0,0E0,0E0,0E0,0E0,0E0,0E0,0E0,0E0,0E0,0E0,0E0,0E0,0E0,0E0,0E0,0E0,0E0,0E0,0E0],"parents":[2147483647,0,0,1,1,2,2,3,3,4,4,5,5,6,6,7,7,8,8,9,9,10,10,11,11,12,12,13,13,14,14,15,15,16,16,17,17,18,18,19,19,20,20,21,21,22,22,23,23,24,24,25,25,26,26,27,27,28,28,29,29,30,30,31,31,32,32,33,33,34,34,35,35,36,36,37,37,38,38,39,39,40,40,41,41,42,42,43,43,44,44,45,45,47,47,48,48,49,49,50,50,51,51,52,52,53,53,54,54,55,55,56,56,57,57,58,58,59,59,60,60,61,61,62,62],"right_children":[2,4,6,8,10,12,14,16,18,20,22,24,26,28,30,32,34,36,38,40,42,44,46,48,50,52,54,56,58,60,62,64,66,68,70,72,74,76,78,80,82,84,86,88,90,92,-1,94,96,98,100,102,104,106,108,110,112,114,116,118,120,122,124,-1,-1,-1,-1,-1,-1,-1,-1,-1,-1,-1,-1,-1,-1,-1,-1,-1,-1,-1,-1,-1,-1,-1,-1,-1,-1,-1,-1,-1,-1,-1,-1,-1,-1,-1,-1,-1,-1,-1,-1,-1,-1,-1,-1,-1,-1,-1,-1,-1,-1,-1,-1,-1,-1,-1,-1,-1,-1,-1,-1,-1,-1],"split_conditions":[1.0062119E0,1.4079688E0,2.4926205E0,4.4402516E-1,2.0730298E0,-1.3021929E0,1.1362746E0,2.2609651E-1,-6.3311225E-1,3.6814995E-2,3.124641E0,-4.6657375E-1,1.4079688E0,-1.1393337E0,-7.467062E-1,4.547033E-1,-7.286952E-1,-1.0617473E0,-1.3462306E0,7.0947506E-2,3.5607094E-1,-5.568333E-1,-1.16705075E-2,-8.262703E-1,1.4079688E0,3.9291906E-1,-1.2122893E0,-4.4814232E-1,2.1817122E0,-1.1532929E0,2.0831158E0,1.9927834E0,6.1097413E-1,9.5053834E-1,-8.948912E-1,-2.3128514E-1,8.1966007E-1,-2.2953373E-1,-9.58227E-1,-8.799646E-1,-1.441179E0,1.2800399E0,-1.4755412E0,-7.244123E-1,1.8489299E0,2.291831E-1,9.596286E-2,-8.728403E-1,8.5222226E-1,6.781174E-2,1.3657614E0,-8.262703E-1,1.4265939E0,2.0730298E0,-1.1491234E0,-4.617281E-1,-1.5531276E0,-1.1491234E0,1.2638785E0,1.0943554E-1,-6.268053E-1,8.7463595E-2,8.343366E-1,-5.3427335E-2,1.868116E-2,-4.6387188E-2,-8.7374095E-3,-2.0646295E-2,5.4312237E-2,2.7392471E-2,-4.4306766E-2,-1.8379543E-2,5.9172112E-2,-2.7610539E-2,8.1839524E-2,-2.5628103E-2,2.1476548E-2,-2.0912131E-2,-4.5599002E-2,-1.3461687E-2,-3.7684105E-2,3.8641464E-2,-1.4610628E-2,-1.4500633E-2,2.4219539E-2,8.813944E-2,1.9788884E-2,2.1990992E-2,-5.182931E-2,-4.07239E-2,2.4903668E-2,-3.9385434E-2,2.128297E-2,3.251758E-2,1.57892E-1,5.5343628E-2,1.1155429E-1,-3.7875127E-2,4.649509E-2,7.773112E-2,1.0492939E-2,6.197868E-2,-4.265475E-2,5.7979673E-3,8.976114E-2,9.6303836E-2,1.1111877E-2,5.6765407E-2,1.3860918E-2,-3.355705E-2,1.1594891E-1,1.00324504E-1,-1.0325574E-2,9.000897E-2,3.5427388E-2,1.1989502E-1,-8.213037E-3,-2.3101358E-2,7.651323E-2,3.4985673E-2,1.2295083E-1,-4.1944634E-2,5.243479E-2,1.2189957E-1,1.897805E-2],"split_indices":[17,55,17,16,65,5,28,17,5,17,28,3,55,6,24,10,5,6,6,22,0,53,11,26,55,16,3,24,32,27,28,43,25,0,26,22,51,26,24,8,53,33,6,42,33,27,0,19,28,38,38,26,21,65,54,11,6,54,53,51,16,33,42,0,0,0,0,0,0,0,0,0,0,0,0,0,0,0,0,0,0,0,0,0,0,0,0,0,0,0,0,0,0,0,0,0,0,0,0,0,0,0,0,0,0,0,0,0,0,0,0,0,0,0,0,0,0,0,0,0,0,0,0,0,0],"split_type":[0,0,0,0,0,0,0,0,0,0,0,0,0,0,0,0,0,0,0,0,0,0,0,0,0,0,0,0,0,0,0,0,0,0,0,0,0,0,0,0,0,0,0,0,0,0,0,0,0,0,0,0,0,0,0,0,0,0,0,0,0,0,0,0,0,0,0,0,0,0,0,0,0,0,0,0,0,0,0,0,0,0,0,0,0,0,0,0,0,0,0,0,0,0,0,0,0,0,0,0,0,0,0,0,0,0,0,0,0,0,0,0,0,0,0,0,0,0,0,0,0,0,0,0,0],"sum_hessian":[8.872117E3,8.0507783E3,8.213388E2,5.351752E3,2.6990264E3,4.568967E2,3.6444214E2,4.6117656E3,7.399862E2,2.0083503E3,6.9067596E2,9.9043144E1,3.5785355E2,2.242199E2,1.4022224E2,4.2640474E3,3.4771826E2,1.3459721E2,6.05389E2,1.3058762E3,7.024741E2,6.8611365E2,4.5623417E0,5.880706E1,4.0236084E1,1.22593E2,2.3526054E2,8.502968E1,1.3919022E2,1.2062996E2,1.9592287E1,3.7316772E3,5.3237E2,4.8418186E1,2.9930008E2,4.3304165E1,9.129305E1,8.64165E1,5.189725E2,8.416141E2,4.6426215E2,4.0790375E2,2.9457037E2,5.8770337E2,9.841029E1,3.2404792E0,1.3218623E0,1.1335638E1,4.7471424E1,1.0554318E1,2.9681765E1,5.9079063E1,6.351394E1,4.452561E1,1.9073494E2,7.356165E1,1.146802E1,1.182923E2,2.0897915E1,5.1215906E0,1.1550837E2,7.950821E0,1.1641466E1,3.730592E3,1.0853316E0,5.17628E2,1.4742029E1,3.8643505E1,9.774682E0,4.434466E0,2.948656E2,1.5499918E1,2.7804247E1,8.938997E1,1.9030846E0,7.214092E1,1.4275573E1,5.575286E1,4.6321964E2,1.3585936E2,7.057547E2,3.0103687E1,4.3415845E2,3.120884E2,9.581534E1,2.1383556E1,2.731868E2,1.6305794E0,5.8607275E2,9.0759575E1,7.650719E0,2.2395167E0,1.0009625E0,1.152351E0,1.0183287E1,2.2646755E1,2.4824669E1,6.321121E0,4.2331967E0,2.3782703E1,5.8990607E0,2.8176112E0,5.626145E1,5.6416874E1,7.0970654E0,3.6230743E1,8.2948675E0,5.2217995E1,1.3851694E2,1.1075039E0,7.2454155E1,4.5721855E0,6.895835E0,2.7902412E1,9.0389885E1,1.9877161E1,1.0207548E0,1.5582672E0,3.5633233E0,2.6249292E0,1.1288344E2,1.973956E0,5.9768653E0,9.5345545E0,2.1069121E0],"tree_param":{"num_deleted":"0","num_feature":"66","num_nodes":"125","size_leaf_vector":"1"}},{"base_weights":[-6.0596216E-1,-8.1742305E-1,8.488573E-1,-9.7757506E-1,-4.9452272E-1,3.8816515E-1,1.5855937E0,-1.0284485E0,-7.115322E-1,-7.0832676E-1,-1.5467396E-1,-1.7349444E-1,7.106239E-1,1.3212469E0,2.1065423E0,-1.0447825E0,-7.343081E-1,-4.32194E-1,-8.456554E-1,2.573665E-1,-7.5074047E-1,9.266243E-1,-2.418004E-1,7.866808E-1,-3.6326677E-1,5.0625634E-1,1.7359234E0,1.0447563E0,1.9459265E0,3.806931E-4,2.1295116E0,-1.0625393E0,-8.92586E-1,-9.201592E-1,-3.8119853E-1,-5.2037424E-1,6.7855734E-1,-1.2971424E-1,-8.839468E-1,1.2017258E0,3.017989E-2,-1.000539E0,-5.247004E-1,3.9150688E-1,1.5802982E0,-3.4839624E-1,4.0323168E-1,6.599149E-2,1.7527796E0,-5.479839E-1,6.278979E-1,1.1903481E0,2.3784092E-1,2.1535068E0,8.772033E-1,2.1039982E0,8.292361E-1,2.5867984E0,1.6963651E0,2.1504936E0,1.1461593E-2,-3.382105E-2,-5.3247064E-2,-4.5667637E-2,-2.4814333E-3,3.100248E-2,-4.7236174E-2,7.8271836E-2,-2.4525672E-2,-2.8450971E-2,5.2384455E-2,8.007816E-3,1.2584035E-1,-2.3393437E-2,3.5029966E-2,-1.758287E-2,-4.605463E-2,1.0028007E-1,-7.218186E-3,-6.914408E-3,4.3131407E-2,-5.187541E-2,-3.326519E-2,-3.3113703E-2,-2.9678198E-3,6.972975E-2,7.213682E-3,1.0145352E-1,2.1795552E-2,-3.0018985E-2,-8.7989895E-3,9.701751E-3,8.400404E-2,-2.0015066E-2,5.6011636E-2,4.0002108E-2,1.3983838E-1,7.1348944E-3,-3.5555564E-2,6.662661E-2,-3.2598474E-3,9.7072944E-2,4.2941164E-2,3.7269335E-2,-4.338746E-3,4.3486863E-2,1.2435104E-1,1.5655933E-2,9.0378225E-2,1.2525761E-1,6.332181E-2,6.494896E-2,1.9696632E-2,3.9338693E-2,1.3598871E-1,9.0377636E-2,9.020888E-3,8.833358E-2,1.1652271E-1],"categories":[],"categories_nodes":[],"categories_segments":[],"categories_sizes":[],"default_left":[0,0,0,0,0,0,0,0,0,0,0,0,0,0,0,0,0,0,0,0,0,0,0,0,0,0,0,0,0,0,0,0,0,0,0,0,0,0,0,0,0,0,0,0,0,0,0,0,0,0,0,0,0,0,0,0,0,0,0,0,0,0,0,0,0,0,0,0,0,0,0,0,0,0,0,0,0,0,0,0,0,0,0,0,0,0,0,0,0,0,0,0,0,0,0,0,0,0,0,0,0,0,0,0,0,0,0,0,0,0,0,0,0,0,0,0,0,0,0],"id":7,"left_children":[1,3,5,7,9,11,13,15,17,19,21,23,25,27,29,31,33,35,37,39,41,43,45,47,49,51,53,55,57,-1,59,61,63,65,67,69,71,73,75,77,79,81,83,85,87,89,91,93,95,97,99,101,103,105,107,109,111,113,115,117,-1,-1,-1,-1,-1,-1,-1,-1,-1,-1,-1,-1,-1,-1,-1,-1,-1,-1,-1,-1,-1,-1,-1,-1,-1,-1,-1,-1,-1,-1,-1,-1,-1,-1,-1,-1,-1,-1,-1,-1,-1,-1,-1,-1,-1,-1,-1,-1,-1,-1,-1,-1,-1,-1,-1,-1,-1,-1,-1],"loss_changes":[2.663102E3,3.902915E2,3.7232056E2,6.762109E1,1.8207697E2,1.2280254E2,5.538806E1,1.959082E1,3.0129425E1,6.3220642E1,9.156427E1,4.5448654E1,8.932968E1,4.682956E1,6.7579956E0,9.894043E0,1.4499588E1,2.6414745E1,1.4932037E1,1.4013563E1,8.272174E1,2.474236E1,6.1887585E1,2.8583143E1,3.8359245E1,6.588888E1,2.3620209E1,4.3516754E1,9.308716E0,0E0,5.048645E0,2.6071777E0,7.4020386E0,6.1681824E0,1.7735989E1,1.9442894E1,1.8659756E1,8.480603E0,9.973999E0,1.4003258E1,7.6660776E0,7.975891E0,4.9643936E1,1.0015333E1,1.5707359E1,3.340065E1,3.3817215E1,1.25644865E1,1.5240192E1,1.9880917E1,1.6244034E1,2.3558289E1,4.2913147E1,1.8035477E1,1.2534367E1,7.8712463E0,3.3512886E1,3.1492767E0,1.0552765E1,5.369934E0,0E0,0E0,0E0,0E0,0E0,0E0,0E0,0E0,0E0,0E0,0E0,0E0,0E0,0E0,0E0,0E0,0E0,0E0,0E0,0E0,0E0,0E0,0E0,0E0,0E0,0E0,0E0,0E0,0E0,0E0,0E0,0E0,0E0,0E0,0E0,0E0,0E0,0E0,0E0,0E0,0E0,0E0,0E0,0E0,0E0,0E0,0E0,0E0,0E0,0E0,0E0,0E0,0E0,0E0,0E0,0E0,0E0,0E0,0E0],"parents":[2147483647,0,0,1,1,2,2,3,3,4,4,5,5,6,6,7,7,8,8,9,9,10,10,11,11,12,12,13,13,14,14,15,15,16,16,17,17,18,18,19,19,20,20,21,21,22,22,23,23,24,24,25,25,26,26,27,27,28,28,30,30,31,31,32,32,33,33,34,34,35,35,36,36,37,37,38,38,39,39,40,40,41,41,42,42,43,43,44,44,45,45,46,46,47,47,48,48,49,49,50,50,51,51,52,52,53,53,54,54,55,55,56,56,57,57,58,58,59,59],"right_children":[2,4,6,8,10,12,14,16,18,20,22,24,26,28,30,32,34,36,38,40,42,44,46,48,50,52,54,56,58,-1,60,62,64,66,68,70,72,74,76,78,80,82,84,86,88,90,92,94,96,98,100,102,104,106,108,110,112,114,116,118,-1,-1,-1,-1,-1,-1,-1,-1,-1,-1,-1,-1,-1,-1,-1,-1,-1,-1,-1,-1,-1,-1,-1,-1,-1,-1,-1,-1,-1,-1,-1,-1,-1,-1,-1,-1,-1,-1,-1,-1,-1,-1,-1,-1,-1,-1,-1,-1,-1,-1,-1,-1,-1,-1,-1,-1,-1,-1,-1],"split_conditions":[6.7126197E-1,1.4079688E0,2.1946297E0,3.5311E-1,-3.5896827E-2,1.4079688E0,5.3038716E0,2.5509724E-1,-9.065746E-1,-1.1491234E0,-1.1491234E0,-1.4755412E0,1.8937476E0,1.467669E0,-5.618219E-1,5.579875E-1,6.817525E-3,1.8824856E0,-8.262703E-1,-4.2583447E0,5.5027705E-1,3.4782615E-1,8.9601684E-1,5.8980083E-1,1.2103702E0,-5.3834647E-1,7.466433E-1,-2.722978E0,-1.4834585E0,3.806931E-4,2.1192935E0,-8.478984E-1,1.1283442E0,-9.156804E-1,-1.5272655E0,5.710798E-1,1.8937476E0,1.5672733E0,-1.1419371E0,2.3740592E0,-2.0913744E-1,1.6573714E-1,8.096116E-1,-9.911217E-1,7.8704536E-1,5.5027705E-1,1.7043793E0,8.193743E-1,1.4209136E-1,-7.0275885E-1,-1.2761213E-1,-1.1393337E0,-4.1992816E-1,-8.882402E-1,-1.1333534E-1,2.0969822E0,-8.2898825E-1,-1.2831701E0,2.1914003E0,5.014293E-1,1.1461593E-2,-3.382105E-2,-5.3247064E-2,-4.5667637E-2,-2.4814333E-3,3.100248E-2,-4.7236174E-2,7.8271836E-2,-2.4525672E-2,-2.8450971E-2,5.2384455E-2,8.007816E-3,1.2584035E-1,-2.3393437E-2,3.5029966E-2,-1.758287E-2,-4.605463E-2,1.0028007E-1,-7.218186E-3,-6.914408E-3,4.3131407E-2,-5.187541E-2,-3.326519E-2,-3.3113703E-2,-2.9678198E-3,6.972975E-2,7.213682E-3,1.0145352E-1,2.1795552E-2,-3.0018985E-2,-8.7989895E-3,9.701751E-3,8.400404E-2,-2.0015066E-2,5.6011636E-2,4.0002108E-2,1.3983838E-1,7.1348944E-3,-3.5555564E-2,6.662661E-2,-3.2598474E-3,9.7072944E-2,4.2941164E-2,3.7269335E-2,-4.338746E-3,4.3486863E-2,1.2435104E-1,1.5655933E-2,9.0378225E-2,1.2525761E-1,6.332181E-2,6.494896E-2,1.9696632E-2,3.9338693E-2,1.3598871E-1,9.0377636E-2,9.020888E-3,8.833358E-2,1.1652271E-1],"split_indices":[17,55,17,16,10,55,17,17,6,54,54,6,28,28,16,10,57,31,26,7,64,12,31,0,4,26,40,7,3,0,6,26,9,26,6,25,28,57,24,33,10,16,33,21,57,64,28,4,28,7,3,6,7,21,8,39,6,32,26,31,0,0,0,0,0,0,0,0,0,0,0,0,0,0,0,0,0,0,0,0,0,0,0,0,0,0,0,0,0,0,0,0,0,0,0,0,0,0,0,0,0,0,0,0,0,0,0,0,0,0,0,0,0,0,0,0,0,0,0],"split_type":[0,0,0,0,0,0,0,0,0,0,0,0,0,0,0,0,0,0,0,0,0,0,0,0,0,0,0,0,0,0,0,0,0,0,0,0,0,0,0,0,0,0,0,0,0,0,0,0,0,0,0,0,0,0,0,0,0,0,0,0,0,0,0,0,0,0,0,0,0,0,0,0,0,0,0,0,0,0,0,0,0,0,0,0,0,0,0,0,0,0,0,0,0,0,0,0,0,0,0,0,0,0,0,0,0,0,0,0,0,0,0,0,0,0,0,0,0,0,0],"sum_hessian":[8.653371E3,7.55559E3,1.0977817E3,5.049241E3,2.5063486E3,6.7636664E2,4.214151E2,4.236299E3,8.129421E2,1.5378068E3,9.685419E2,2.4685533E2,4.2951135E2,2.819038E2,1.3951128E2,4.0110107E3,2.2528825E2,2.6508093E2,5.4786115E2,6.44864E1,1.4733204E3,7.15032E1,8.970387E2,4.0218704E1,2.0663663E2,3.5937314E2,7.013821E1,1.9726465E2,8.463917E1,1.5246105E0,1.3798666E2,3.5865798E3,4.244309E2,1.4654945E2,7.873881E1,2.4607692E2,1.900402E1,2.8036901E1,5.198242E2,1.1673385E1,5.281301E1,6.982515E2,7.750689E2,4.0196255E1,3.1306944E1,7.7021533E2,1.26823326E2,2.3646914E1,1.657179E1,1.7455334E2,3.208328E1,1.00303024E2,2.590701E2,4.6175774E1,2.3962435E1,3.1869518E1,1.6539513E2,2.1096962E1,6.3542206E1,1.3634949E2,1.637174E0,2.3919998E1,3.5626597E3,4.141447E2,1.02861805E1,1.9200219E0,1.4462943E2,3.4782963E0,7.526051E1,2.3929065E2,6.7862744E0,1.5671623E1,3.3323982E0,2.0233215E1,7.8036876E0,3.45924E1,4.8523184E2,7.0019317E0,4.6714525E0,4.4617374E1,8.195635E0,6.2701086E2,7.124064E1,5.9788715E2,1.7718172E2,7.0305834E0,3.316567E1,2.1932886E1,9.374059E0,3.118988E2,4.5831653E2,1.09959694E2,1.6863634E1,1.6825333E1,6.8215814E0,9.588089E0,6.983701E0,3.3373802E1,1.4117953E2,1.5451718E1,1.663156E1,2.9227758E1,7.1075264E1,1.0055438E2,1.5851573E2,1.0266298E1,3.5909473E1,1.5749784E1,8.212651E0,2.0202456E1,1.1667063E1,7.85964E1,8.679873E1,1.927126E0,1.9169836E1,5.902094E1,4.5212674E0,4.697582E1,8.937367E1],"tree_param":{"num_deleted":"0","num_feature":"66","num_nodes":"119","size_leaf_vector":"1"}},{"base_weights":[-5.957217E-1,-8.076003E-1,7.9615265E-1,-9.6412706E-1,-5.7307637E-1,3.809298E-1,1.4497789E0,-1.0156031E0,-7.010529E-1,2.359833E-1,-6.756823E-1,-2.2090536E-1,6.9090044E-1,1.1734347E0,1.8444285E0,-1.9128472E-1,-1.0213317E0,4.2205733E-1,-7.295614E-1,5.1999134E-1,-8.0081004E-1,-8.501748E-1,-4.1141012E-1,1.6831825E0,-2.8908452E-1,2.3208182E0,5.760098E-1,2.21974E0,9.79871E-1,1.408186E0,2.026492E0,1.07857205E-1,-4.1464686E-1,-8.628228E-1,-1.0392282E0,-5.7254568E-2,2.297523E0,-7.802501E-1,-1.340792E-1,1.3395435E0,1.8131717E-1,-9.5795137E-1,1.4007147E-1,-8.953203E-1,-3.451691E-1,-7.4353844E-1,-2.5703317E-1,2.2488556E0,-1.7398182E-2,-3.5359433E-1,1.4318004E0,-3.517893E-2,2.50733E0,4.2811805E-1,1.6556091E0,2.602466E-2,2.2863188E0,1.4318982E0,5.9304E-1,1.6616079E0,4.2923415E-1,-1.2788539E-2,2.0497537E0,-3.3017557E-2,3.9215952E-2,-4.6314597E-2,-1.2236093E-2,-5.2058943E-2,-1.3279798E-3,-2.5430819E-2,7.089718E-2,1.525279E-1,1.5438083E-2,-1.9366568E-2,-4.2114E-2,-2.553313E-2,2.6140207E-2,8.416683E-2,2.0500032E-2,-8.011149E-3,4.0573962E-2,-5.1538676E-2,-7.511498E-3,6.457938E-2,-1.9794835E-2,-3.495865E-2,-4.968511E-2,-2.395917E-2,1.3004201E-2,6.557478E-2,-3.7975963E-2,1.7865721E-2,-1.810969E-2,1.3846837E-1,5.738575E-3,1.3613618E-2,-2.7882934E-2,1.01563595E-1,-2.1219132E-2,5.1917102E-2,1.402224E-1,4.973526E-2,8.310459E-3,1.03175834E-1,4.365666E-2,1.16941586E-1,2.311992E-2,-1.2663609E-2,7.7719994E-2,3.6486618E-3,4.588559E-2,8.788728E-2,-3.4080879E-3,3.8999464E-2,-4.6904217E-2,7.329424E-2,1.0833173E-1],"categories":[],"categories_nodes":[],"categories_segments":[],"categories_sizes":[],"default_left":[0,0,0,0,0,0,0,0,0,0,0,0,0,0,0,0,0,0,0,0,0,0,0,0,0,0,0,0,0,0,0,0,0,0,0,0,0,0,0,0,0,0,0,0,0,0,0,0,0,0,0,0,0,0,0,0,0,0,0,0,0,0,0,0,0,0,0,0,0,0,0,0,0,0,0,0,0,0,0,0,0,0,0,0,0,0,0,0,0,0,0,0,0,0,0,0,0,0,0,0,0,0,0,0,0,0,0,0,0,0,0,0,0,0,0,0,0],"id":8,"left_children":[1,3,5,7,9,11,13,15,17,19,21,23,25,27,29,31,33,35,37,39,41,43,45,47,49,51,53,55,57,59,61,-1,63,65,67,69,71,73,75,77,79,81,83,85,87,89,91,93,-1,95,97,-1,99,101,103,-1,105,107,109,111,113,-1,115,-1,-1,-1,-1,-1,-1,-1,-1,-1,-1,-1,-1,-1,-1,-1,-1,-1,-1,-1,-1,-1,-1,-1,-1,-1,-1,-1,-1,-1,-1,-1,-1,-1,-1,-1,-1,-1,-1,-1,-1,-1,-1,-1,-1,-1,-1,-1,-1,-1,-1,-1,-1,-1,-1],"loss_changes":[2.4912668E3,2.6853174E2,3.0240222E2,5.880078E1,2.4393292E2,1.2774948E2,4.5089355E1,1.715039E1,2.343808E1,9.795261E1,1.1983496E2,3.0770473E1,8.324954E1,4.999356E1,1.1180359E1,1.4837781E1,9.450928E0,1.6776915E1,2.1171936E1,7.209534E1,1.072319E1,3.545874E1,5.3052322E1,1.0216358E1,2.5602858E1,1.835556E1,6.687482E1,3.2701263E0,3.747368E1,1.3007736E1,7.0218506E0,0E0,7.915594E0,1.4521912E1,6.4365234E0,1.1190602E1,4.739107E0,1.5501129E1,1.4244061E1,2.361348E1,4.0069412E1,3.4624138E0,7.3756175E0,2.7083496E1,1.0699083E1,1.1800339E1,4.6027924E1,6.96484E0,0E0,2.8083633E1,1.017145E1,0E0,9.275635E0,5.5280212E1,1.436467E1,0E0,2.5238953E0,2.1111404E1,2.0162472E1,7.367882E0,6.8328233E0,0E0,5.099518E0,0E0,0E0,0E0,0E0,0E0,0E0,0E0,0E0,0E0,0E0,0E0,0E0,0E0,0E0,0E0,0E0,0E0,0E0,0E0,0E0,0E0,0E0,0E0,0E0,0E0,0E0,0E0,0E0,0E0,0E0,0E0,0E0,0E0,0E0,0E0,0E0,0E0,0E0,0E0,0E0,0E0,0E0,0E0,0E0,0E0,0E0,0E0,0E0,0E0,0E0,0E0,0E0,0E0,0E0],"parents":[2147483647,0,0,1,1,2,2,3,3,4,4,5,5,6,6,7,7,8,8,9,9,10,10,11,11,12,12,13,13,14,14,15,15,16,16,17,17,18,18,19,19,20,20,21,21,22,22,23,23,24,24,25,25,26,26,27,27,28,28,29,29,30,30,32,32,33,33,34,34,35,35,36,36,37,37,38,38,39,39,40,40,41,41,42,42,43,43,44,44,45,45,46,46,47,47,49,49,50,50,52,52,53,53,54,54,56,56,57,57,58,58,59,59,60,60,62,62],"right_children":[2,4,6,8,10,12,14,16,18,20,22,24,26,28,30,32,34,36,38,40,42,44,46,48,50,52,54,56,58,60,62,-1,64,66,68,70,72,74,76,78,80,82,84,86,88,90,92,94,-1,96,98,-1,100,102,104,-1,106,108,110,112,114,-1,116,-1,-1,-1,-1,-1,-1,-1,-1,-1,-1,-1,-1,-1,-1,-1,-1,-1,-1,-1,-1,-1,-1,-1,-1,-1,-1,-1,-1,-1,-1,-1,-1,-1,-1,-1,-1,-1,-1,-1,-1,-1,-1,-1,-1,-1,-1,-1,-1,-1,-1,-1,-1,-1,-1],"split_conditions":[6.7126197E-1,6.817525E-3,2.1946297E0,3.4178355E-1,7.8704536E-1,6.817525E-3,1.0889325E0,-9.408988E-1,-9.743102E-1,2.0730298E0,-3.5896827E-2,-9.743102E-1,-2.6162913E-1,-3.3694482E0,-2.0245505E-2,-9.989026E-1,-1.0135143E0,1.3158935E-1,3.3602867E-1,-8.6437637E-1,-5.828435E-1,3.4178355E-1,-2.8374407E-1,-1.7902228E-1,2.9035625E0,-5.73731E-1,2.225142E0,-2.2149856E0,-9.84161E-1,1.0672454E0,-2.823851E0,1.07857205E-1,8.325682E-1,1.2433065E0,4.1080046E0,1.873227E0,-3.1458706E-1,-1.3203685E0,1.6688628E-2,1.500552E0,3.129983E-1,4.1791543E-1,-4.0077233E-1,1.5672733E0,1.20096706E-1,-2.0962322E0,-7.1541643E-1,2.8826082E-1,-1.7398182E-2,-1.1910579E0,1.0371307E0,-3.517893E-2,-3.0181004E-2,7.8704536E-1,3.2083154E-1,2.602466E-2,2.4455423E0,-1.2254467E0,1.9662331E-1,1.7070569E0,1.2722024E0,-1.2788539E-2,-5.615121E-1,-3.3017557E-2,3.9215952E-2,-4.6314597E-2,-1.2236093E-2,-5.2058943E-2,-1.3279798E-3,-2.5430819E-2,7.089718E-2,1.525279E-1,1.5438083E-2,-1.9366568E-2,-4.2114E-2,-2.553313E-2,2.6140207E-2,8.416683E-2,2.0500032E-2,-8.011149E-3,4.0573962E-2,-5.1538676E-2,-7.511498E-3,6.457938E-2,-1.9794835E-2,-3.495865E-2,-4.968511E-2,-2.395917E-2,1.3004201E-2,6.557478E-2,-3.7975963E-2,1.7865721E-2,-1.810969E-2,1.3846837E-1,5.738575E-3,1.3613618E-2,-2.7882934E-2,1.01563595E-1,-2.1219132E-2,5.1917102E-2,1.402224E-1,4.973526E-2,8.310459E-3,1.03175834E-1,4.365666E-2,1.16941586E-1,2.311992E-2,-1.2663609E-2,7.7719994E-2,3.6486618E-3,4.588559E-2,8.788728E-2,-3.4080879E-3,3.8999464E-2,-4.6904217E-2,7.329424E-2,1.0833173E-1],"split_indices":[17,57,17,16,57,57,28,26,26,65,10,26,37,7,19,22,8,50,52,7,53,16,52,8,32,46,28,23,6,22,20,0,19,32,50,61,34,6,35,26,0,37,53,57,51,6,26,22,0,6,41,0,48,57,44,0,58,0,32,1,64,0,0,0,0,0,0,0,0,0,0,0,0,0,0,0,0,0,0,0,0,0,0,0,0,0,0,0,0,0,0,0,0,0,0,0,0,0,0,0,0,0,0,0,0,0,0,0,0,0,0,0,0,0,0,0,0],"split_type":[0,0,0,0,0,0,0,0,0,0,0,0,0,0,0,0,0,0,0,0,0,0,0,0,0,0,0,0,0,0,0,0,0,0,0,0,0,0,0,0,0,0,0,0,0,0,0,0,0,0,0,0,0,0,0,0,0,0,0,0,0,0,0,0,0,0,0,0,0,0,0,0,0,0,0,0,0,0,0,0,0,0,0,0,0,0,0,0,0,0,0,0,0,0,0,0,0,0,0,0,0,0,0,0,0,0,0,0,0,0,0,0,0,0,0,0,0],"sum_hessian":[8.444415E3,7.3291523E3,1.1152633E3,4.39363E3,2.9355225E3,6.8297754E2,4.3228577E2,3.6722222E3,7.214077E2,3.3024014E2,2.6052822E3,2.322776E2,4.5069998E2,2.5658887E2,1.7569691E2,2.5581503E1,3.6466406E3,1.7516811E1,7.0389087E2,2.5962085E2,7.061928E1,1.5678512E3,1.037431E3,7.2107306E0,2.2506686E2,2.841302E1,4.2228696E2,3.8423527E1,2.1816534E2,5.4306835E1,1.21390076E2,1.4698541E0,2.4111649E1,3.7494806E2,3.2716924E3,1.4723425E1,2.7933872E0,6.483884E2,5.5502438E1,7.5050964E1,1.8456989E2,6.04972E1,1.0122083E1,1.4384835E3,1.2936766E2,3.279847E2,7.0944635E2,5.556158E0,1.6545728E0,2.1770058E2,7.366289E0,1.4893906E0,2.6923628E1,3.7263684E2,4.9650097E1,1.7811891E0,3.6642338E1,9.9358925E1,1.1880642E2,4.2585392E1,1.1721444E1,1.1239171E0,1.2026616E2,2.0383656E1,3.7279935E0,3.3957996E2,3.536811E1,3.2653748E3,6.3177733E0,1.1775679E1,2.9477468E0,1.6389196E0,1.1544675E0,8.939223E1,5.589962E2,3.541947E1,2.0082964E1,5.4195667E1,2.0855295E1,1.201797E2,6.439019E1,5.524069E1,5.256512E0,2.7671335E0,7.354949E0,4.8320596E2,9.552775E2,1.0608644E2,2.3281218E1,1.9053249E0,3.260794E2,1.03339584E2,6.061068E2,4.227395E0,1.3287628E0,5.3446266E1,1.6425432E2,5.496739E0,1.8695505E0,5.285613E0,2.1638016E1,1.1691559E2,2.5572127E2,3.1560385E1,1.808971E1,3.5342476E1,1.299862E0,6.660979E0,9.2697945E1,4.6133495E1,7.267292E1,4.0327866E1,2.2575269E0,9.670294E0,2.0511506E0,2.2318342E1,9.794782E1],"tree_param":{"num_deleted":"0","num_feature":"66","num_nodes":"117","size_leaf_vector":"1"}},{"base_weights":[-5.7857823E-1,-7.90855E-1,7.420624E-1,-9.5569867E-1,-4.6907702E-1,2.8510112E-1,1.3197312E0,-1.010823E0,-6.733934E-1,6.5340096E-1,-5.3817075E-1,1.3725747E-1,1.1394156E0,1.6448492E0,8.969513E-1,-1.0380856E0,-8.707256E-1,-3.5798168E-1,-8.0163693E-1,1.0977238E0,2.1792541E-1,-8.215517E-1,-3.1970486E-1,1.2252378E0,2.1594217E-2,3.2916802E-1,1.4746215E0,1.4138827E0,1.8749294E0,1.5410861E0,5.490377E-1,-1.0397838E0,-1.040888E-1,-8.9209056E-1,7.7238604E-2,-4.2497846E-1,1.2978925E0,1.06707E0,-8.192007E-1,1.4338801E0,4.3593895E-1,5.1843014E-2,1.5152303E0,-9.543982E-1,-4.57731E-1,1.0040442E0,-3.6514777E-1,1.9462026E0,6.0080814E-1,8.3807266E-1,-1.4982052E-1,-5.447494E-1,1.0166283E0,1.0674049E0,2.1724067E0,1.6304326E0,7.367302E-1,6.6755675E-3,1.8891305E0,1.7966383E0,1.0236899E0,9.548211E-1,5.2172463E-2,-4.252385E-2,-5.2475262E-2,-3.5557542E-2,5.463611E-2,-1.3693963E-2,-4.5916796E-2,-1.8762007E-2,7.4943036E-2,1.3687426E-2,-2.6889628E-2,6.2134014E-3,1.2547396E-1,-1.1964706E-2,1.1210749E-1,-4.244744E-2,3.2502753E-3,9.251885E-2,4.004405E-2,-3.5727434E-2,4.6096176E-2,2.5624653E-2,-1.7091677E-2,1.2295311E-1,-2.7618334E-2,-4.921694E-2,-2.299447E-2,-3.305797E-2,-3.4786847E-3,1.06987946E-1,2.12861E-2,-2.6606599E-2,-4.9957815E-3,1.1603657E-1,-4.2261984E-3,-1.5844385E-3,5.6459833E-2,2.162782E-2,8.245417E-2,-1.2550773E-2,2.940403E-2,4.7142707E-2,-4.0068444E-2,1.0282781E-1,1.6602091E-2,6.966911E-2,-1.5958246E-2,1.2390863E-1,2.2444593E-2,1.07834004E-1,6.679103E-2,6.1002012E-2,8.354138E-3,9.823372E-2,6.68863E-2,1.07128516E-1,6.2703975E-2,6.355997E-2,-4.797512E-2,3.194344E-2,8.900233E-2,-3.661717E-2,2.1521179E-2],"categories":[],"categories_nodes":[],"categories_segments":[],"categories_sizes":[],"default_left":[0,0,0,0,0,0,0,0,0,0,0,0,0,0,0,0,0,0,0,0,0,0,0,0,0,0,0,0,0,0,0,0,0,0,0,0,0,0,0,0,0,0,0,0,0,0,0,0,0,0,0,0,0,0,0,0,0,0,0,0,0,0,0,0,0,0,0,0,0,0,0,0,0,0,0,0,0,0,0,0,0,0,0,0,0,0,0,0,0,0,0,0,0,0,0,0,0,0,0,0,0,0,0,0,0,0,0,0,0,0,0,0,0,0,0,0,0,0,0,0,0,0,0,0,0],"id":9,"left_children":[1,3,5,7,9,11,13,15,17,19,21,23,25,27,29,31,33,35,37,39,41,43,45,47,49,51,53,55,57,59,61,63,65,67,69,71,73,75,77,79,81,83,85,87,89,91,93,95,97,99,101,103,105,107,109,111,113,-1,115,117,119,121,123,-1,-1,-1,-1,-1,-1,-1,-1,-1,-1,-1,-1,-1,-1,-1,-1,-1,-1,-1,-1,-1,-1,-1,-1,-1,-1,-1,-1,-1,-1,-1,-1,-1,-1,-1,-1,-1,-1,-1,-1,-1,-1,-1,-1,-1,-1,-1,-1,-1,-1,-1,-1,-1,-1,-1,-1,-1,-1,-1,-1,-1,-1],"loss_changes":[2.306795E3,3.7550586E2,3.004737E2,7.223926E1,1.8671442E2,8.037692E1,6.767639E1,1.4061523E1,3.0798096E1,2.6808395E1,1.39909E2,6.851616E1,2.5025063E1,1.2398254E1,4.8657913E1,5.0859375E0,1.3121826E1,2.5395931E1,1.8779694E1,1.4712181E1,1.5400929E1,4.7170593E1,7.7374084E1,2.2386093E1,6.917453E1,1.7840807E1,1.6478394E1,2.0118652E1,3.180359E0,8.33078E0,2.9181442E1,5.123047E0,5.902651E0,9.976227E0,1.0291926E1,1.71731E1,1.2422059E1,9.001055E0,1.4286102E1,1.045649E1,1.4446783E1,1.1913019E1,1.7200832E1,1.0216736E1,2.0909466E1,2.7170502E1,5.479486E1,1.832637E1,9.889868E0,2.7490368E1,3.0658772E1,5.8404865E0,1.1031088E1,2.0214725E1,1.1225838E1,1.407074E1,9.997646E0,0E0,3.1037292E0,6.7278137E0,1.4843206E1,1.965564E1,1.9969812E1,0E0,0E0,0E0,0E0,0E0,0E0,0E0,0E0,0E0,0E0,0E0,0E0,0E0,0E0,0E0,0E0,0E0,0E0,0E0,0E0,0E0,0E0,0E0,0E0,0E0,0E0,0E0,0E0,0E0,0E0,0E0,0E0,0E0,0E0,0E0,0E0,0E0,0E0,0E0,0E0,0E0,0E0,0E0,0E0,0E0,0E0,0E0,0E0,0E0,0E0,0E0,0E0,0E0,0E0,0E0,0E0,0E0,0E0,0E0,0E0,0E0,0E0],"parents":[2147483647,0,0,1,1,2,2,3,3,4,4,5,5,6,6,7,7,8,8,9,9,10,10,11,11,12,12,13,13,14,14,15,15,16,16,17,17,18,18,19,19,20,20,21,21,22,22,23,23,24,24,25,25,26,26,27,27,28,28,29,29,30,30,31,31,32,32,33,33,34,34,35,35,36,36,37,37,38,38,39,39,40,40,41,41,42,42,43,43,44,44,45,45,46,46,47,47,48,48,49,49,50,50,51,51,52,52,53,53,54,54,55,55,56,56,58,58,59,59,60,60,61,61,62,62],"right_children":[2,4,6,8,10,12,14,16,18,20,22,24,26,28,30,32,34,36,38,40,42,44,46,48,50,52,54,56,58,60,62,64,66,68,70,72,74,76,78,80,82,84,86,88,90,92,94,96,98,100,102,104,106,108,110,112,114,-1,116,118,120,122,124,-1,-1,-1,-1,-1,-1,-1,-1,-1,-1,-1,-1,-1,-1,-1,-1,-1,-1,-1,-1,-1,-1,-1,-1,-1,-1,-1,-1,-1,-1,-1,-1,-1,-1,-1,-1,-1,-1,-1,-1,-1,-1,-1,-1,-1,-1,-1,-1,-1,-1,-1,-1,-1,-1,-1,-1,-1,-1,-1,-1,-1,-1],"split_conditions":[6.7126197E-1,1.4079688E0,1.9486794E0,3.5311E-1,-1.1491234E0,1.8464055E0,-3.4636346E-1,2.2231376E-1,-2.507805E-1,-9.451852E-1,5.5027705E-1,-8.365888E-1,1.4079688E0,4.168723E0,-1.1876115E0,2.60308E0,2.5900142E0,6.3617575E-1,-2.4093628E0,1.218513E0,1.7176476E0,1.7067164E-1,-2.2580223E0,1.444997E-1,-1.1876115E0,3.5311E-1,1.6223672E-1,2.0969822E0,-5.327837E-1,2.592863E0,-4.4733092E-1,-7.286952E-1,2.899833E-1,-1.3021929E0,1.0338126E0,-1.3720928E0,5.2082783E-1,4.620743E-1,3.6806968E-1,2.4834611E0,-1.1775664E-1,-1.1601495E-1,-8.540515E-2,5.226737E-1,3.8808897E-1,-1.6011408E-1,1.574529E-2,2.6920238E-1,-3.1879336E-1,4.0278244E-1,1.2885693E0,-1.025994E0,-7.9016733E-1,1.3835585E0,1.0539718E0,-4.0494505E-1,-1.6845247E0,6.6755675E-3,1.500552E0,3.5141906E-1,1.2885693E0,1.1776929E0,1.4079688E0,-4.252385E-2,-5.2475262E-2,-3.5557542E-2,5.463611E-2,-1.3693963E-2,-4.5916796E-2,-1.8762007E-2,7.4943036E-2,1.3687426E-2,-2.6889628E-2,6.2134014E-3,1.2547396E-1,-1.1964706E-2,1.1210749E-1,-4.244744E-2,3.2502753E-3,9.251885E-2,4.004405E-2,-3.5727434E-2,4.6096176E-2,2.5624653E-2,-1.7091677E-2,1.2295311E-1,-2.7618334E-2,-4.921694E-2,-2.299447E-2,-3.305797E-2,-3.4786847E-3,1.06987946E-1,2.12861E-2,-2.6606599E-2,-4.9957815E-3,1.1603657E-1,-4.2261984E-3,-1.5844385E-3,5.6459833E-2,2.162782E-2,8.245417E-2,-1.2550773E-2,2.940403E-2,4.7142707E-2,-4.0068444E-2,1.0282781E-1,1.6602091E-2,6.966911E-2,-1.5958246E-2,1.2390863E-1,2.2444593E-2,1.07834004E-1,6.679103E-2,6.1002012E-2,8.354138E-3,9.823372E-2,6.68863E-2,1.07128516E-1,6.2703975E-2,6.355997E-2,-4.797512E-2,3.194344E-2,8.900233E-2,-3.661717E-2,2.1521179E-2],"split_indices":[17,55,17,16,54,28,5,10,5,7,64,26,55,17,7,49,44,49,1,26,33,10,5,22,7,16,23,39,16,33,1,5,38,5,22,6,28,11,25,33,36,15,21,16,2,7,10,8,23,31,4,7,33,58,4,2,5,0,26,10,4,10,55,0,0,0,0,0,0,0,0,0,0,0,0,0,0,0,0,0,0,0,0,0,0,0,0,0,0,0,0,0,0,0,0,0,0,0,0,0,0,0,0,0,0,0,0,0,0,0,0,0,0,0,0,0,0,0,0,0,0,0,0,0,0],"split_type":[0,0,0,0,0,0,0,0,0,0,0,0,0,0,0,0,0,0,0,0,0,0,0,0,0,0,0,0,0,0,0,0,0,0,0,0,0,0,0,0,0,0,0,0,0,0,0,0,0,0,0,0,0,0,0,0,0,0,0,0,0,0,0,0,0,0,0,0,0,0,0,0,0,0,0,0,0,0,0,0,0,0,0,0,0,0,0,0,0,0,0,0,0,0,0,0,0,0,0,0,0,0,0,0,0,0,0,0,0,0,0,0,0,0,0,0,0,0,0,0,0,0,0,0,0],"sum_hessian":[8.225429E3,7.0867256E3,1.1387029E3,4.6847856E3,2.40194E3,6.366101E2,5.0209283E2,3.917295E3,7.674904E2,1.3878699E2,2.263153E3,5.436835E2,9.2926636E1,2.8219458E2,2.1989827E2,3.2738088E3,6.434862E2,2.2294768E2,5.445427E2,6.794295E1,7.084405E1,9.8400275E2,1.2791503E3,5.1323017E1,4.9236044E2,2.777409E1,6.515254E1,1.4439175E2,1.3780281E2,7.591608E1,1.439822E2,3.2677542E3,6.054768E0,6.293608E2,1.4125436E1,2.1499242E2,7.9552555E0,4.5140514E0,5.400287E2,4.4282684E1,2.366026E1,6.3725765E1,7.118281E0,7.1961664E2,2.643861E2,4.1754345E1,1.2373959E3,2.2837795E1,2.8485222E1,8.475732E1,4.0760312E2,1.2320078E1,1.5454012E1,4.2739906E1,2.2412638E1,1.0833803E2,3.605373E1,1.1988105E0,1.36604E2,4.9161694E1,2.6754383E1,7.874802E1,6.523418E1,1.6393277E2,3.1038213E3,4.2863736E0,1.7683948E0,2.609632E1,6.0326447E2,1.127336E1,2.852076E0,2.9688261E1,1.8530415E2,4.6009917E0,3.3542638E0,2.5147278E0,1.9993234E0,5.2249E2,1.7538681E1,2.5548954E1,1.8733732E1,6.8867383E0,1.677352E1,2.9225967E1,3.4499798E1,4.7573004E0,2.3609807E0,6.7760004E2,4.201662E1,1.7301028E2,9.1375824E1,1.3177094E1,2.8577251E1,7.5871783E2,4.78678E2,1.9161089E1,3.6767063E0,1.3393194E1,1.5092028E1,5.75266E1,2.723072E1,3.5902646E2,4.8576668E1,1.4191629E0,1.0900914E1,5.339264E0,1.0114748E1,3.460054E1,8.139367E0,1.8663685E1,3.7489514E0,3.661482E1,7.1723206E1,1.88873E1,1.716643E1,1.1788974E2,1.8714264E1,2.821988E1,2.0941816E1,2.4105005E1,2.6493783E0,5.8228405E1,2.051961E1,2.091632E1,4.4317856E1],"tree_param":{"num_deleted":"0","num_feature":"66","num_nodes":"125","size_leaf_vector":"1"}},{"base_weights":[-5.659172E-1,-7.7981764E-1,7.091396E-1,-9.496945E-1,-4.519616E-1,2.999677E-1,1.2143126E0,-9.970133E-1,-6.3634026E-1,-6.4508706E-1,-1.2509765E-1,-2.0516077E-1,5.8196586E-1,1.4952267E0,8.1400174E-1,-1.7083468E-1,-1.0017147E0,-1.5464048E-1,-7.4517083E-1,3.275622E-1,-6.9503886E-1,4.8171026E-1,-2.679551E-1,8.058678E-1,-4.043569E-1,1.1733578E0,3.117032E-1,1.2857523E0,1.883437E0,8.980405E-3,1.0701311E0,-4.9682248E-1,7.6647884E-1,-1.0281633E0,-8.6664057E-1,-2.495018E-1,1.6722323E0,-3.6683005E-1,-8.301957E-1,-4.318482E-2,8.9057994E-1,-9.5301825E-1,-4.837949E-1,1.6824278E0,3.0702245E-1,4.6369326E-1,-3.2797584E-1,9.539013E-2,1.6548643E0,-5.3392994E-1,3.7407404E-1,2.382087E0,9.8248136E-1,2.1835957E-1,1.8380529E0,1.7169666E0,1.0621762E0,1.9405341E0,5.6882906E-1,-6.78924E-1,4.4717866E-1,1.3368915E0,5.3532946E-1,-3.381744E-2,3.7399467E-2,-1.8132994E-2,9.7177714E-2,-4.4655077E-2,-5.206835E-2,-1.2661732E-2,-4.4529345E-2,1.0401633E-2,-2.6403684E-2,4.3726373E-3,1.1153276E-1,-2.8271629E-2,1.0606237E-2,-3.922558E-4,-4.2860135E-2,-1.4527614E-2,7.5142525E-2,1.3895404E-3,6.812632E-2,-3.0973092E-2,-5.06271E-2,-3.0565375E-2,2.4264636E-4,-1.8303586E-2,1.0187969E-1,6.048211E-3,6.782359E-2,1.3800042E-2,8.177225E-2,-3.0703187E-2,-8.537645E-3,-2.736598E-2,3.6608282E-2,1.0009553E-1,1.6045945E-2,1.8253436E-2,-3.212839E-2,-8.3983755E-3,7.939757E-2,1.3479935E-1,2.2300003E-2,8.625873E-2,3.381185E-2,3.899611E-2,-4.4936742E-4,1.4632635E-2,1.0376412E-1,9.202719E-2,2.9148776E-2,7.017798E-2,3.679173E-2,5.1340062E-2,1.00332454E-1,6.69894E-2,-3.3856574E-2,-3.978051E-2,3.2768123E-2,-2.2080883E-3,5.6744028E-2,2.826035E-2,7.441554E-2,6.792175E-2,1.4629646E-2],"categories":[],"categories_nodes":[],"categories_segments":[],"categories_sizes":[],"default_left":[0,0,0,0,0,0,0,0,0,0,0,0,0,0,0,0,0,0,0,0,0,0,0,0,0,0,0,0,0,0,0,0,0,0,0,0,0,0,0,0,0,0,0,0,0,0,0,0,0,0,0,0,0,0,0,0,0,0,0,0,0,0,0,0,0,0,0,0,0,0,0,0,0,0,0,0,0,0,0,0,0,0,0,0,0,0,0,0,0,0,0,0,0,0,0,0,0,0,0,0,0,0,0,0,0,0,0,0,0,0,0,0,0,0,0,0,0,0,0,0,0,0,0,0,0,0,0],"id":10,"left_children":[1,3,5,7,9,11,13,15,17,19,21,23,25,27,29,31,33,35,37,39,41,43,45,47,49,51,53,55,57,59,61,63,65,67,69,71,73,75,77,79,81,83,85,87,89,91,93,95,97,99,101,103,105,107,109,111,113,115,117,119,121,123,125,-1,-1,-1,-1,-1,-1,-1,-1,-1,-1,-1,-1,-1,-1,-1,-1,-1,-1,-1,-1,-1,-1,-1,-1,-1,-1,-1,-1,-1,-1,-1,-1,-1,-1,-1,-1,-1,-1,-1,-1,-1,-1,-1,-1,-1,-1,-1,-1,-1,-1,-1,-1,-1,-1,-1,-1,-1,-1,-1,-1,-1,-1,-1,-1],"loss_changes":[2.1817356E3,3.8102783E2,2.3722357E2,6.624609E1,1.476012E2,9.076856E1,5.6588257E1,1.5042969E1,3.1052063E1,7.166571E1,7.555826E1,4.6390503E1,6.494902E1,2.2045288E1,4.4149536E1,7.5213594E0,1.3023193E1,1.9623844E1,1.5287415E1,1.5172575E1,7.5771545E1,3.4337986E1,3.1109795E1,2.2752506E1,1.9540176E1,2.7148407E1,3.9753155E1,1.732074E1,6.649719E0,1.6190006E1,2.2462296E1,4.516348E0,9.242325E0,4.86792E0,9.235504E0,1.3649326E1,4.761338E0,1.0552351E1,8.765137E0,1.752016E1,1.170278E1,1.1855896E1,4.8050568E1,1.5938679E1,2.8400185E1,1.1394257E1,2.9226318E1,9.297637E0,7.339981E0,1.632959E1,1.8657505E1,8.964455E0,2.4326408E1,3.4060043E1,5.2978935E0,8.201233E0,1.3828339E1,3.8950806E0,6.396412E0,3.7761564E0,1.1132102E1,1.1746704E1,1.07385645E1,0E0,0E0,0E0,0E0,0E0,0E0,0E0,0E0,0E0,0E0,0E0,0E0,0E0,0E0,0E0,0E0,0E0,0E0,0E0,0E0,0E0,0E0,0E0,0E0,0E0,0E0,0E0,0E0,0E0,0E0,0E0,0E0,0E0,0E0,0E0,0E0,0E0,0E0,0E0,0E0,0E0,0E0,0E0,0E0,0E0,0E0,0E0,0E0,0E0,0E0,0E0,0E0,0E0,0E0,0E0,0E0,0E0,0E0,0E0,0E0,0E0,0E0,0E0,0E0],"parents":[2147483647,0,0,1,1,2,2,3,3,4,4,5,5,6,6,7,7,8,8,9,9,10,10,11,11,12,12,13,13,14,14,15,15,16,16,17,17,18,18,19,19,20,20,21,21,22,22,23,23,24,24,25,25,26,26,27,27,28,28,29,29,30,30,31,31,32,32,33,33,34,34,35,35,36,36,37,37,38,38,39,39,40,40,41,41,42,42,43,43,44,44,45,45,46,46,47,47,48,48,49,49,50,50,51,51,52,52,53,53,54,54,55,55,56,56,57,57,58,58,59,59,60,60,61,61,62,62],"right_children":[2,4,6,8,10,12,14,16,18,20,22,24,26,28,30,32,34,36,38,40,42,44,46,48,50,52,54,56,58,60,62,64,66,68,70,72,74,76,78,80,82,84,86,88,90,92,94,96,98,100,102,104,106,108,110,112,114,116,118,120,122,124,126,-1,-1,-1,-1,-1,-1,-1,-1,-1,-1,-1,-1,-1,-1,-1,-1,-1,-1,-1,-1,-1,-1,-1,-1,-1,-1,-1,-1,-1,-1,-1,-1,-1,-1,-1,-1,-1,-1,-1,-1,-1,-1,-1,-1,-1,-1,-1,-1,-1,-1,-1,-1,-1,-1,-1,-1,-1,-1,-1,-1,-1,-1,-1,-1],"split_conditions":[6.7126197E-1,1.4079688E0,1.9486794E0,4.7468224E-1,1.574529E-2,1.4079688E0,-2.507805E-1,-8.948912E-1,-6.3311225E-1,-1.1491234E0,-5.3752935E-1,-1.4755412E0,-4.5892757E-1,5.3038716E0,1.4079688E0,4.7353485E-1,2.9977694E-1,2.8405888E0,-1.2427822E0,-3.4416404E-1,3.0963522E-1,-8.7748855E-1,-1.1491234E0,5.8980083E-1,1.3667685E0,-2.927103E0,3.124641E0,-2.5348368E-1,5.12838E0,-1.935295E-1,-1.1238626E0,1.2660401E0,5.255078E-1,-4.419464E-1,-1.5272655E0,-9.3243676E-1,-2.1686742E-1,9.2232656E-1,-8.618691E-1,8.975735E-1,-2.6970857E-1,-1.129057E0,8.752528E-1,-6.2939817E-1,1.6570373E0,1.8929719E0,9.342086E-2,7.863691E-1,-1.9939148E-1,-1.7639391E0,9.446882E-1,2.4955487E-1,-1.1651958E0,-1.1119576E0,-6.625973E-1,1.335456E0,-1.8756906E0,-8.41301E-1,5.0958353E-1,1.6764168E0,5.065776E-1,-9.8401594E-1,-1.397955E0,-3.381744E-2,3.7399467E-2,-1.8132994E-2,9.7177714E-2,-4.4655077E-2,-5.206835E-2,-1.2661732E-2,-4.4529345E-2,1.0401633E-2,-2.6403684E-2,4.3726373E-3,1.1153276E-1,-2.8271629E-2,1.0606237E-2,-3.922558E-4,-4.2860135E-2,-1.4527614E-2,7.5142525E-2,1.3895404E-3,6.812632E-2,-3.0973092E-2,-5.06271E-2,-3.0565375E-2,2.4264636E-4,-1.8303586E-2,1.0187969E-1,6.048211E-3,6.782359E-2,1.3800042E-2,8.177225E-2,-3.0703187E-2,-8.537645E-3,-2.736598E-2,3.6608282E-2,1.0009553E-1,1.6045945E-2,1.8253436E-2,-3.212839E-2,-8.3983755E-3,7.939757E-2,1.3479935E-1,2.2300003E-2,8.625873E-2,3.381185E-2,3.899611E-2,-4.4936742E-4,1.4632635E-2,1.0376412E-1,9.202719E-2,2.9148776E-2,7.017798E-2,3.679173E-2,5.1340062E-2,1.00332454E-1,6.69894E-2,-3.3856574E-2,-3.978051E-2,3.2768123E-2,-2.2080883E-3,5.6744028E-2,2.826035E-2,7.441554E-2,6.792175E-2,1.4629646E-2],"split_indices":[17,55,17,16,10,55,5,26,5,54,5,6,26,17,55,19,10,28,6,10,64,26,54,0,4,5,28,37,51,0,24,27,0,5,6,6,23,19,26,4,36,53,33,34,28,32,53,16,24,8,0,36,6,54,35,26,5,29,53,32,4,0,6,0,0,0,0,0,0,0,0,0,0,0,0,0,0,0,0,0,0,0,0,0,0,0,0,0,0,0,0,0,0,0,0,0,0,0,0,0,0,0,0,0,0,0,0,0,0,0,0,0,0,0,0,0,0,0,0,0,0,0,0,0,0,0,0],"split_type":[0,0,0,0,0,0,0,0,0,0,0,0,0,0,0,0,0,0,0,0,0,0,0,0,0,0,0,0,0,0,0,0,0,0,0,0,0,0,0,0,0,0,0,0,0,0,0,0,0,0,0,0,0,0,0,0,0,0,0,0,0,0,0,0,0,0,0,0,0,0,0,0,0,0,0,0,0,0,0,0,0,0,0,0,0,0,0,0,0,0,0,0,0,0,0,0,0,0,0,0,0,0,0,0,0,0,0,0,0,0,0,0,0,0,0,0,0,0,0,0,0,0,0,0,0,0,0],"sum_hessian":[7.9964375E3,6.848019E3,1.1484186E3,4.509532E3,2.338487E3,6.3537866E2,5.130399E2,3.916005E3,5.9352704E2,1.4693547E3,8.6913226E2,2.2773015E2,4.0764853E2,2.998723E2,2.1316759E2,2.2369305E1,3.8936357E3,1.0982902E2,4.8369803E2,7.150322E1,1.3978514E3,1.6517125E2,7.0396106E2,3.6981804E1,1.9074835E2,1.268131E2,2.8083545E2,1.9757484E2,1.0229748E2,5.1701973E1,1.614656E2,1.6945715E1,5.4235907E0,3.2505413E3,6.4309436E2,1.0522841E2,4.600612E0,8.973093E1,3.939671E2,4.36699E1,2.7833319E1,6.2773065E2,7.7012085E2,1.9881893E1,1.4528935E2,5.2861217E1,6.5109985E2,2.0738918E1,1.6242884E1,1.6379764E2,2.6950706E1,1.5729019E1,1.1108408E2,2.6572797E2,1.5107483E1,6.518057E1,1.3239426E2,9.758304E1,4.7144384E0,1.9904924E1,3.1797049E1,1.0672908E2,5.473653E1,1.520895E1,1.7367641E0,3.1213021E0,2.3022888E0,2.955866E2,2.9549548E3,2.4596968E1,6.184974E2,3.9918438E1,6.5309975E1,1.5000744E0,3.100538E0,6.6829384E1,2.2901546E1,1.2567978E1,3.8139914E2,3.834648E1,5.3234167E0,1.0215935E1,1.7617384E1,9.678401E1,5.3094666E2,6.105475E2,1.595733E2,2.9332151E0,1.6948679E1,1.2435717E2,2.0932182E1,4.6627865E1,6.233355E0,2.2988608E2,4.2121375E2,1.0391281E1,1.0347637E1,1.2492124E1,3.7507603E0,1.7405273E1,1.4639236E2,1.9226833E1,7.723872E0,1.3196898E1,2.5321205E0,3.107902E1,8.0005066E1,7.587671E1,1.8985124E2,2.3077257E0,1.2799757E1,5.8213654E1,6.96692E0,6.3092655E1,6.9301605E1,7.699765E0,8.988328E1,2.8658442E0,1.8485942E0,1.8675438E1,1.2294867E0,1.909213E1,1.2704918E1,1.8283392E1,8.844569E1,1.1419006E1,4.3317524E1],"tree_param":{"num_deleted":"0","num_feature":"66","num_nodes":"127","size_leaf_vector":"1"}},{"base_weights":[-5.4989314E-1,-7.7183414E-1,5.934458E-1,-9.3410856E-1,-5.351336E-1,1.952289E-1,1.1764342E0,-5.255757E-1,-9.7332126E-1,-2.0310445E-1,-7.762655E-1,-3.2389683E-1,4.7981238E-1,1.4012247E0,7.6804996E-1,2.7875364E-1,-6.3240606E-1,-2.000014E-1,-9.8311645E-1,1.4456284E-1,-4.731211E-1,-8.8833183E-1,-4.2072144E-1,2.8855354E-1,-5.40561E-1,1.0183864E0,2.2595088E-1,1.2603501E0,1.8514374E0,2.728692E-2,9.752275E-1,1.2132946E0,-1.4147487E-1,-1.6299371E-1,-7.4561685E-1,-4.4577366E-1,7.685157E-1,-1.0105991E0,-7.9759884E-1,3.0763507E-1,-7.7062607E-1,-7.13954E-1,-1.574774E-1,-5.000282E-1,-9.3634254E-1,1.6437966E0,-4.5832184E-1,1.317483E0,3.9736655E-2,-8.2344496E-1,-2.0595105E-1,1.1735333E0,-2.9674143E-1,1.3340257E0,3.478315E-2,1.6832603E0,1.1094681E0,1.9862801E0,1.2299212E0,1.4653311E0,-2.1979477E-1,1.9006844E0,8.004233E-1,9.795794E-2,-9.199065E-3,-3.0953592E-2,3.649878E-2,-1.9919546E-2,2.766872E-2,-3.9260346E-2,2.7548073E-2,1.2802914E-3,-4.130455E-2,7.3215887E-3,1.1869818E-1,-4.227641E-2,-5.1404476E-2,-4.630627E-2,-3.024898E-2,4.449522E-2,1.7476578E-3,4.018257E-2,-4.0886503E-2,-4.5960255E-2,-2.5104854E-2,-1.13004455E-2,5.4704484E-2,-3.128936E-2,2.8251365E-2,4.0945474E-2,-4.7124814E-2,2.9975165E-2,1.5473418E-1,-2.6793627E-2,1.5554301E-2,6.7376993E-3,1.0504986E-1,5.272187E-2,-1.0582011E-2,-8.416335E-3,-4.7435176E-2,3.99024E-2,-1.640491E-2,9.533467E-2,4.3685358E-2,-3.154249E-2,6.8331294E-2,7.5407974E-2,-5.5745738E-3,7.095613E-2,-2.647184E-3,8.767038E-2,-1.0048914E-3,4.1937277E-2,7.211861E-2,1.00852214E-1,1.7532622E-2,-2.4061507E-2,7.141703E-2,7.778252E-3,8.7070994E-2,-2.1816846E-2,6.2930144E-2,4.963059E-2,1.1701838E-1,8.711005E-3,5.031475E-2],"categories":[],"categories_nodes":[],"categories_segments":[],"categories_sizes":[],"default_left":[0,0,0,0,0,0,0,0,0,0,0,0,0,0,0,0,0,0,0,0,0,0,0,0,0,0,0,0,0,0,0,0,0,0,0,0,0,0,0,0,0,0,0,0,0,0,0,0,0,0,0,0,0,0,0,0,0,0,0,0,0,0,0,0,0,0,0,0,0,0,0,0,0,0,0,0,0,0,0,0,0,0,0,0,0,0,0,0,0,0,0,0,0,0,0,0,0,0,0,0,0,0,0,0,0,0,0,0,0,0,0,0,0,0,0,0,0,0,0,0,0,0,0,0,0,0,0],"id":11,"left_children":[1,3,5,7,9,11,13,15,17,19,21,23,25,27,29,31,33,35,37,39,41,43,45,47,49,51,53,55,57,59,61,63,65,67,69,71,73,75,77,79,81,83,85,87,89,91,93,95,97,99,101,103,105,107,109,111,113,115,117,119,121,123,125,-1,-1,-1,-1,-1,-1,-1,-1,-1,-1,-1,-1,-1,-1,-1,-1,-1,-1,-1,-1,-1,-1,-1,-1,-1,-1,-1,-1,-1,-1,-1,-1,-1,-1,-1,-1,-1,-1,-1,-1,-1,-1,-1,-1,-1,-1,-1,-1,-1,-1,-1,-1,-1,-1,-1,-1,-1,-1,-1,-1,-1,-1,-1,-1],"loss_changes":[1.9752568E3,2.4984644E2,2.936027E2,6.141089E1,2.1226996E2,1.1142954E2,4.6060486E1,2.9451447E1,2.651001E1,1.04983795E2,6.0854004E1,3.5625214E1,6.634125E1,1.8593811E1,2.8289185E1,1.6131763E1,1.5877518E1,1.1138606E1,1.6944092E1,7.326353E1,4.7723785E1,2.1297058E1,2.9488747E1,1.7997208E1,1.8552834E1,3.2116608E1,7.03246E1,1.4369019E1,3.968933E0,1.501547E1,2.1798523E1,1.3606821E1,1.2492455E1,1.0301088E1,1.2869217E1,6.619844E0,9.187117E0,7.8740234E0,1.0677582E1,6.602352E1,6.165951E0,1.5047256E1,2.3716476E1,1.7848007E1,1.1982361E1,8.50729E0,2.1905823E1,1.2410448E1,1.4967396E1,8.608185E0,1.1537761E1,2.8992554E1,1.0436409E1,1.2465233E1,3.460818E1,7.7990265E0,1.5956909E1,2.3743286E0,6.2100296E0,1.9688663E0,1.2125072E1,6.5304413E0,1.567852E1,0E0,0E0,0E0,0E0,0E0,0E0,0E0,0E0,0E0,0E0,0E0,0E0,0E0,0E0,0E0,0E0,0E0,0E0,0E0,0E0,0E0,0E0,0E0,0E0,0E0,0E0,0E0,0E0,0E0,0E0,0E0,0E0,0E0,0E0,0E0,0E0,0E0,0E0,0E0,0E0,0E0,0E0,0E0,0E0,0E0,0E0,0E0,0E0,0E0,0E0,0E0,0E0,0E0,0E0,0E0,0E0,0E0,0E0,0E0,0E0,0E0,0E0,0E0,0E0],"parents":[2147483647,0,0,1,1,2,2,3,3,4,4,5,5,6,6,7,7,8,8,9,9,10,10,11,11,12,12,13,13,14,14,15,15,16,16,17,17,18,18,19,19,20,20,21,21,22,22,23,23,24,24,25,25,26,26,27,27,28,28,29,29,30,30,31,31,32,32,33,33,34,34,35,35,36,36,37,37,38,38,39,39,40,40,41,41,42,42,43,43,44,44,45,45,46,46,47,47,48,48,49,49,50,50,51,51,52,52,53,53,54,54,55,55,56,56,57,57,58,58,59,59,60,60,61,61,62,62],"right_children":[2,4,6,8,10,12,14,16,18,20,22,24,26,28,30,32,34,36,38,40,42,44,46,48,50,52,54,56,58,60,62,64,66,68,70,72,74,76,78,80,82,84,86,88,90,92,94,96,98,100,102,104,106,108,110,112,114,116,118,120,122,124,126,-1,-1,-1,-1,-1,-1,-1,-1,-1,-1,-1,-1,-1,-1,-1,-1,-1,-1,-1,-1,-1,-1,-1,-1,-1,-1,-1,-1,-1,-1,-1,-1,-1,-1,-1,-1,-1,-1,-1,-1,-1,-1,-1,-1,-1,-1,-1,-1,-1,-1,-1,-1,-1,-1,-1,-1,-1,-1,-1,-1,-1,-1,-1,-1],"split_conditions":[5.708064E-1,6.817525E-3,1.9486794E0,-6.3311225E-1,1.5672733E0,6.817525E-3,-1.4544761E-1,-7.7563953E-1,-9.156804E-1,-3.5934818E-1,2.6653814E-1,-6.3311225E-1,7.8704536E-1,1.9994267E0,-6.475936E-1,-4.7722682E-1,-1.0135143E0,1.8118005E-1,3.9291906E-1,2.0730298E0,1.0315607E0,-1.0567595E0,-1.0231364E0,-8.365888E-1,2.1559727E-1,2.0730298E0,-1.4755412E0,-4.9305993E-1,3.298154E0,-3.3694482E0,-1.6565762E0,-5.5624235E-1,2.2072652E-1,6.3820857E-1,2.2069373E0,2.3648395E-1,-1.2524761E-2,-1.0547017E0,2.1185918E-1,7.8704536E-1,-5.313056E-1,-3.6832923E-1,1.4265939E0,1.7391839E0,-1.0231364E0,1.5320346E-1,1.5923258E0,-2.0704558E-1,-1.025994E0,-1.1910579E0,-1.0020405E0,-5.579892E-1,2.993068E0,8.367873E-1,-1.0020405E0,1.7866793E0,1.161493E0,2.428887E0,1.3797118E-1,-1.4963121E0,1.3174604E0,-9.386059E-2,6.817525E-3,9.795794E-2,-9.199065E-3,-3.0953592E-2,3.649878E-2,-1.9919546E-2,2.766872E-2,-3.9260346E-2,2.7548073E-2,1.2802914E-3,-4.130455E-2,7.3215887E-3,1.1869818E-1,-4.227641E-2,-5.1404476E-2,-4.630627E-2,-3.024898E-2,4.449522E-2,1.7476578E-3,4.018257E-2,-4.0886503E-2,-4.5960255E-2,-2.5104854E-2,-1.13004455E-2,5.4704484E-2,-3.128936E-2,2.8251365E-2,4.0945474E-2,-4.7124814E-2,2.9975165E-2,1.5473418E-1,-2.6793627E-2,1.5554301E-2,6.7376993E-3,1.0504986E-1,5.272187E-2,-1.0582011E-2,-8.416335E-3,-4.7435176E-2,3.99024E-2,-1.640491E-2,9.533467E-2,4.3685358E-2,-3.154249E-2,6.8331294E-2,7.5407974E-2,-5.5745738E-3,7.095613E-2,-2.647184E-3,8.767038E-2,-1.0048914E-3,4.1937277E-2,7.211861E-2,1.00852214E-1,1.7532622E-2,-2.4061507E-2,7.141703E-2,7.778252E-3,8.7070994E-2,-2.1816846E-2,6.2930144E-2,4.963059E-2,1.1701838E-1,8.711005E-3,5.031475E-2],"split_indices":[17,57,17,5,57,57,5,26,26,54,16,5,57,19,0,15,8,9,16,65,64,8,26,26,16,65,6,2,45,7,6,41,22,16,51,13,49,8,2,57,9,12,21,2,26,42,2,29,7,6,33,26,46,18,33,21,16,15,38,23,7,51,57,0,0,0,0,0,0,0,0,0,0,0,0,0,0,0,0,0,0,0,0,0,0,0,0,0,0,0,0,0,0,0,0,0,0,0,0,0,0,0,0,0,0,0,0,0,0,0,0,0,0,0,0,0,0,0,0,0,0,0,0,0,0,0,0],"split_type":[0,0,0,0,0,0,0,0,0,0,0,0,0,0,0,0,0,0,0,0,0,0,0,0,0,0,0,0,0,0,0,0,0,0,0,0,0,0,0,0,0,0,0,0,0,0,0,0,0,0,0,0,0,0,0,0,0,0,0,0,0,0,0,0,0,0,0,0,0,0,0,0,0,0,0,0,0,0,0,0,0,0,0,0,0,0,0,0,0,0,0,0,0,0,0,0,0,0,0,0,0,0,0,0,0,0,0,0,0,0,0,0,0,0,0,0,0,0,0,0,0,0,0,0,0,0,0],"sum_hessian":[7.7813403E3,6.5166714E3,1.2646688E3,3.8644087E3,2.652263E3,7.522029E2,5.1246594E2,3.3969885E2,3.52471E3,1.1165961E3,1.5356669E3,2.662968E2,4.859061E2,3.289615E2,1.8350443E2,3.9639847E1,3.0005902E2,4.435483E1,3.480355E3,4.8831604E2,6.2827997E2,1.1664934E3,3.691735E2,6.950197E1,1.9679483E2,1.5469817E2,3.3120792E2,2.5345357E2,7.550793E1,4.035323E1,1.431512E2,1.17102785E1,2.792957E1,5.87792E1,2.412798E2,3.5807903E1,8.546928E0,3.027423E3,4.5293182E2,4.1502838E2,7.328767E1,3.5565613E2,2.7262384E2,1.2961354E2,1.0368799E3,5.83929E0,3.633342E2,1.2697824E1,5.6804142E1,1.058483E2,9.094653E1,1.3847034E2,1.6227818E1,4.785358E1,2.8335434E2,6.397647E1,1.894771E2,6.0242085E1,1.526584E1,5.1938524E0,3.5159378E1,2.1174562E1,1.2197663E2,7.3726435E0,4.3376346E0,1.8228874E1,9.700695E0,4.4575615E1,1.4203588E1,2.3451352E2,6.7662926E0,1.6406164E1,1.9401741E1,6.94649E0,1.6004384E0,2.947718E2,2.7326514E3,2.6937885E2,1.8355296E2,1.3164905E2,2.8337933E2,1.6625282E0,7.162514E1,1.7894852E2,1.7670761E2,2.5924774E2,1.3376098E1,1.1629426E2,1.331929E1,3.1610272E0,1.0337188E3,4.217146E0,1.6221439E0,3.303417E2,3.29925E1,5.526882E0,7.170942E0,1.0644046E1,4.6160095E1,1.7365948E1,8.848235E1,9.264303E0,8.1682236E1,3.8635723E1,9.983462E1,1.4030378E1,2.1974397E0,4.2670017E1,5.1835656E0,1.5981877E1,2.6737247E2,6.1417793E1,2.5586762E0,1.0643887E2,8.303822E1,5.8901035E1,1.3410516E0,1.438139E0,1.3827701E1,1.1764121E0,4.0174403E0,3.1282291E1,3.877085E0,7.970579E0,1.3203983E1,3.0636213E1,9.134042E1],"tree_param":{"num_deleted":"0","num_feature":"66","num_nodes":"127","size_leaf_vector":"1"}},{"base_weights":[-5.304359E-1,-7.471996E-1,6.4654875E-1,-9.274303E-1,-4.1611487E-1,3.5789868E-1,1.1752975E0,-4.577309E-1,-9.5269114E-1,-2.577748E-1,-9.2100304E-1,8.55753E-1,7.7747785E-2,9.124534E-1,1.4019576E0,-8.9362526E-1,-9.362647E-2,-5.1833504E-1,-9.7082895E-1,5.537235E-1,-3.334713E-1,-1.0430802E0,-7.653448E-1,7.168351E-1,1.636E0,-3.9530724E-1,3.3862346E-1,1.5276518E0,7.0817024E-1,1.4979311E0,8.151129E-1,3.395864E-2,-9.31328E-1,2.849283E-1,-4.8209023E-1,-6.010849E-1,1.2754513E0,-3.6726663E-1,-9.817013E-1,3.827029E-1,1.2200075E0,-6.2574625E-1,-1.3768502E-1,-2.2996163E-1,-1.0493115E0,-8.3414596E-1,3.0499948E-2,1.4904034E0,5.335624E-1,-3.748658E-2,1.7434729E0,-5.6408995E-1,5.1962394E-1,5.1384586E-1,-4.643353E-1,1.7599965E0,6.0517454E-1,9.904825E-1,8.308934E-2,1.5405471E0,6.852136E-1,1.5534393E0,3.274829E-1,2.1532558E-2,-4.7992595E-2,4.9882423E-2,-3.9841286E-3,6.052742E-2,-2.758008E-2,-3.4660216E-2,9.514176E-3,2.2234656E-3,1.1213012E-1,8.724232E-3,-3.0278254E-2,-5.0455242E-2,-4.0912706E-2,1.0055154E-2,6.0089827E-2,9.3067296E-2,3.6264803E-2,-3.5991117E-2,-1.2755207E-2,-1.7666101E-2,9.385275E-3,-3.3426058E-2,2.2424446E-2,-2.3811543E-3,-5.262636E-2,2.3993315E-2,-4.3046903E-2,-2.1575414E-2,7.970579E-2,8.328311E-2,5.8514355E-3,5.2048605E-2,1.5497046E-2,1.0019859E-1,2.9852709E-2,3.4942042E-2,-3.234306E-2,8.644985E-2,3.4326445E-3,5.9715655E-2,1.4108158E-2,-2.783225E-2,5.200549E-2,4.1525822E-2,9.6127324E-2,-1.0598575E-2,7.566574E-2,5.9765186E-2,1.289695E-2,-1.6998889E-2,5.9646048E-2,-1.25494795E-2,7.761318E-2,-1.2096596E-2,8.115784E-2,8.937345E-2,-1.8289931E-2,4.4499602E-2,-1.3224117E-2],"categories":[],"categories_nodes":[],"categories_segments":[],"categories_sizes":[],"default_left":[0,0,0,0,0,0,0,0,0,0,0,0,0,0,0,0,0,0,0,0,0,0,0,0,0,0,0,0,0,0,0,0,0,0,0,0,0,0,0,0,0,0,0,0,0,0,0,0,0,0,0,0,0,0,0,0,0,0,0,0,0,0,0,0,0,0,0,0,0,0,0,0,0,0,0,0,0,0,0,0,0,0,0,0,0,0,0,0,0,0,0,0,0,0,0,0,0,0,0,0,0,0,0,0,0,0,0,0,0,0,0,0,0,0,0,0,0,0,0,0,0,0,0],"id":12,"left_children":[1,3,5,7,9,11,13,15,17,19,21,23,25,27,29,31,33,35,37,39,41,43,45,47,49,51,53,55,57,59,61,-1,63,65,67,69,71,73,75,77,79,81,83,85,87,89,91,93,95,-1,97,99,101,103,105,107,109,111,113,115,117,119,121,-1,-1,-1,-1,-1,-1,-1,-1,-1,-1,-1,-1,-1,-1,-1,-1,-1,-1,-1,-1,-1,-1,-1,-1,-1,-1,-1,-1,-1,-1,-1,-1,-1,-1,-1,-1,-1,-1,-1,-1,-1,-1,-1,-1,-1,-1,-1,-1,-1,-1,-1,-1,-1,-1,-1,-1,-1,-1,-1,-1],"loss_changes":[1.9473826E3,3.841809E2,1.8079913E2,4.9067383E1,1.8151343E2,1.0725981E2,2.3674805E1,3.401692E1,3.0681885E1,1.0658283E2,9.50827E0,2.8850357E1,6.103791E1,2.3652557E1,1.1341339E1,6.4243927E0,1.7517374E1,2.463718E1,2.4566406E1,1.6415676E1,9.060907E1,1.2849121E0,1.3284821E1,3.2792084E1,1.1840904E1,2.745354E1,4.5069263E1,9.265312E0,2.6319939E1,5.54245E0,1.1568144E1,0E0,4.135376E0,1.5797617E1,7.574444E0,1.138789E1,8.724303E0,8.989327E0,1.58845215E1,1.7512062E1,8.106373E0,2.1975891E1,6.6753494E1,1.3625063E0,9.1189575E-1,8.261215E0,1.5304687E1,1.0592926E1,2.158662E1,0E0,1.0633545E1,1.6024372E1,1.5104904E1,4.0972946E1,8.578508E0,4.141083E0,8.647884E0,1.5142006E1,2.2774324E1,4.1722717E0,1.0212931E1,6.5266914E0,7.3842187E0,0E0,0E0,0E0,0E0,0E0,0E0,0E0,0E0,0E0,0E0,0E0,0E0,0E0,0E0,0E0,0E0,0E0,0E0,0E0,0E0,0E0,0E0,0E0,0E0,0E0,0E0,0E0,0E0,0E0,0E0,0E0,0E0,0E0,0E0,0E0,0E0,0E0,0E0,0E0,0E0,0E0,0E0,0E0,0E0,0E0,0E0,0E0,0E0,0E0,0E0,0E0,0E0,0E0,0E0,0E0,0E0,0E0,0E0,0E0,0E0],"parents":[2147483647,0,0,1,1,2,2,3,3,4,4,5,5,6,6,7,7,8,8,9,9,10,10,11,11,12,12,13,13,14,14,15,15,16,16,17,17,18,18,19,19,20,20,21,21,22,22,23,23,24,24,25,25,26,26,27,27,28,28,29,29,30,30,32,32,33,33,34,34,35,35,36,36,37,37,38,38,39,39,40,40,41,41,42,42,43,43,44,44,45,45,46,46,47,47,48,48,50,50,51,51,52,52,53,53,54,54,55,55,56,56,57,57,58,58,59,59,60,60,61,61,62,62],"right_children":[2,4,6,8,10,12,14,16,18,20,22,24,26,28,30,32,34,36,38,40,42,44,46,48,50,52,54,56,58,60,62,-1,64,66,68,70,72,74,76,78,80,82,84,86,88,90,92,94,96,-1,98,100,102,104,106,108,110,112,114,116,118,120,122,-1,-1,-1,-1,-1,-1,-1,-1,-1,-1,-1,-1,-1,-1,-1,-1,-1,-1,-1,-1,-1,-1,-1,-1,-1,-1,-1,-1,-1,-1,-1,-1,-1,-1,-1,-1,-1,-1,-1,-1,-1,-1,-1,-1,-1,-1,-1,-1,-1,-1,-1,-1,-1,-1,-1,-1,-1,-1,-1,-1],"split_conditions":[6.7126197E-1,1.4079688E0,2.4926205E0,-1.3720928E0,2.0730298E0,-3.4636346E-1,4.168723E0,-6.1717886E-2,-1.111027E0,-1.1491234E0,-9.990062E-1,1.4265939E0,1.4079688E0,-1.1491234E0,4.1830012E-1,-2.3289912E0,1.3155128E-1,3.124641E0,-8.262703E-1,8.599619E-1,-9.27134E-2,-7.149658E-1,1.7832887E0,-2.3334684E0,-1.2254467E0,1.2103702E0,2.0730298E0,5.124461E0,-1.0109004E-1,4.297896E0,-1.5871443E0,3.395864E-2,-2.2924073E0,-5.461715E-1,-1.3616226E0,1.504211E0,7.8966516E-1,-4.3899256E-1,6.0962963E-1,1.0025434E0,3.596834E-2,1.181123E0,7.0947506E-2,-3.3389667E-1,-1.7261933E0,-1.8892368E0,-3.5896827E-2,3.2822978E0,-2.2580223E0,-3.748658E-2,4.9147773E-1,-1.7938234E0,-1.21692E0,-8.705143E-1,2.2780085E0,-6.980763E-1,